ImageName,embed_0,embed_1,embed_2,embed_3,embed_4,embed_5,embed_6,embed_7,embed_8,embed_9,embed_10,embed_11,embed_12,embed_13,embed_14,embed_15,embed_16,embed_17,embed_18,embed_19,embed_20,embed_21,embed_22,embed_23,embed_24,embed_25,embed_26,embed_27,embed_28,embed_29,embed_30,embed_31,embed_32,embed_33,embed_34,embed_35,embed_36,embed_37,embed_38,embed_39,embed_40,embed_41,embed_42,embed_43,embed_44,embed_45,embed_46,embed_47,embed_48,embed_49,embed_50,embed_51,embed_52,embed_53,embed_54,embed_55,embed_56,embed_57,embed_58,embed_59,embed_60,embed_61,embed_62,embed_63,embed_64,embed_65,embed_66,embed_67,embed_68,embed_69,embed_70,embed_71,embed_72,embed_73,embed_74,embed_75,embed_76,embed_77,embed_78,embed_79,embed_80,embed_81,embed_82,embed_83,embed_84,embed_85,embed_86,embed_87,embed_88,embed_89,embed_90,embed_91,embed_92,embed_93,embed_94,embed_95,embed_96,embed_97,embed_98,embed_99,embed_100,embed_101,embed_102,embed_103,embed_104,embed_105,embed_106,embed_107,embed_108,embed_109,embed_110,embed_111,embed_112,embed_113,embed_114,embed_115,embed_116,embed_117,embed_118,embed_119,embed_120,embed_121,embed_122,embed_123,embed_124,embed_125,embed_126,embed_127,embed_128,embed_129,embed_130,embed_131,embed_132,embed_133,embed_134,embed_135,embed_136,embed_137,embed_138,embed_139,embed_140,embed_141,embed_142,embed_143,embed_144,embed_145,embed_146,embed_147,embed_148,embed_149,embed_150,embed_151,embed_152,embed_153,embed_154,embed_155,embed_156,embed_157,embed_158,embed_159,embed_160,embed_161,embed_162,embed_163,embed_164,embed_165,embed_166,embed_167,embed_168,embed_169,embed_170,embed_171,embed_172,embed_173,embed_174,embed_175,embed_176,embed_177,embed_178,embed_179,embed_180,embed_181,embed_182,embed_183,embed_184,embed_185,embed_186,embed_187,embed_188,embed_189,embed_190,embed_191,embed_192,embed_193,embed_194,embed_195,embed_196,embed_197,embed_198,embed_199,embed_200,embed_201,embed_202,embed_203,embed_204,embed_205,embed_206,embed_207,embed_208,embed_209,embed_210,embed_211,embed_212,embed_213,embed_214,embed_215,embed_216,embed_217,embed_218,embed_219,embed_220,embed_221,embed_222,embed_223,embed_224,embed_225,embed_226,embed_227,embed_228,embed_229,embed_230,embed_231,embed_232,embed_233,embed_234,embed_235,embed_236,embed_237,embed_238,embed_239,embed_240,embed_241,embed_242,embed_243,embed_244,embed_245,embed_246,embed_247,embed_248,embed_249,embed_250,embed_251,embed_252,embed_253,embed_254,embed_255
1_10004_u,0.22587982,-0.15825559,-0.16666916,0.061558586,0.061489742,-0.1272797,0.20224309,-0.42000666,0.017750094,0.094753124,0.1812593,0.03710325,-0.12522493,0.1437075,0.15929246,-0.12243401,-0.0029567517,-0.036317278,-0.0666092,0.011794691,0.18780485,-0.30558777,0.06447966,0.17960879,0.29425523,-0.0059087574,0.0841872,0.11968076,0.08252946,-0.1622705,-0.40007988,0.09221092,0.17964725,-0.21787058,0.4637867,-0.5088448,0.029279575,0.035497945,0.052597262,0.15712084,0.04245598,0.04642826,-0.271463,0.0060017155,-0.14885698,0.08145793,-0.204595,-0.2206044,-0.051262867,-0.018595451,-0.2184964,0.1883792,0.21000469,-0.06909551,0.36862615,0.035649132,0.025811566,-0.18240297,-0.012589345,0.13603796,-0.16563343,0.023544628,0.31789985,-0.18809779,-0.16544497,0.038701016,0.16748995,0.1282029,0.12359714,-0.35429522,0.22628899,0.02214586,0.07236248,0.085346736,-0.16629647,0.22913054,0.14917216,-0.10087855,0.57579154,0.22299449,-0.21698995,0.23087631,-0.005420597,0.46096155,0.014979032,-0.21713832,-0.049031626,-0.26051113,-0.24842541,0.12845726,0.35149696,-0.050527837,-0.19039015,0.26459023,0.028033942,-0.21014725,0.013891431,-0.06325956,0.2653768,0.36905903,-0.05553169,0.007704483,0.03434814,0.1638871,0.1792986,-0.06619379,0.24276622,-0.25694177,0.041888166,0.2307823,0.17868614,0.10321697,-0.10381112,0.09830875,0.14556946,0.021257784,0.31199056,-0.20752607,-0.045998767,-0.011109836,0.111475766,0.17788441,-0.12586364,0.29773542,-0.12341332,-0.13694537,0.42286006,-0.45649466,0.2549537,0.24549411,0.12030899,-0.17352486,0.26943788,0.18060675,0.08460978,-0.048551377,-0.18794955,-0.20291202,0.07466509,0.047961354,-0.067951985,-0.17068179,0.15411137,-0.10834016,-0.25718817,-0.07103195,-0.040947378,0.112793185,0.12232047,-0.3618618,0.2467827,0.061334837,0.20704027,0.14118484,-0.20626299,0.29935187,-0.12570092,0.058682363,0.15459046,0.28942016,-0.2142388,-0.050296318,0.16089205,0.08645777,0.14703704,0.080337495,-0.07259598,0.26676705,-0.026222829,0.10356052,0.086172536,0.118598536,0.15317528,0.02524351,0.015978258,-0.023007272,0.17163636,-0.026838332,0.07930302,0.021548105,-0.23983112,-0.21399443,0.01072221,-0.1164995,-0.1767668,-0.012556127,-0.14460711,-0.10838284,-0.17201126,-0.3159332,0.12534691,0.042383727,0.043533504,-0.14968114,-0.08972063,0.15923913,-0.060801435,0.062174596,0.027448183,-0.11938503,-0.055781163,0.19288221,-0.37038407,0.31845114,-0.031014163,-0.10006142,0.051860847,-0.05086575,-0.22845228,0.0041739373,-0.14995234,0.2250491,-0.26012245,0.024055606,0.017342797,0.23526819,0.047865342,0.12668309,-0.08083186,-0.11433357,-0.24573556,0.23045762,0.06916119,-0.0347503,0.03497691,0.14275305,-0.1870524,-0.05409596,0.12764435,-0.114946045,0.06017505,-0.013696908,0.04118789,0.14315581,0.07093897,-0.31856596,-0.21116237,0.08571578,-0.19801484,0.2506021,-0.08636194,-0.1721277,-0.0879824,0.036959883,0.018171957,0.10919485,0.04399649,0.23781274,0.04427272,-0.2513028,0.17645432,-0.06782486,-0.2557627,0.014547016,0.41155192,0.008522202
1_10009_u,0.083694555,-0.13432555,-0.24569665,0.06582239,-0.059155535,0.034588635,-0.0016292799,0.015762044,-0.117956124,-0.053731274,0.099268414,0.177617,-0.2045996,-0.056756657,0.3703973,-0.07854611,-0.041927196,0.18993938,-0.12285154,-0.05566559,0.27820373,-0.2843929,-0.0942462,0.14889896,0.18387978,-0.15378428,0.014460149,-0.0066312435,-0.07906326,-0.14920436,-0.047613364,0.1943378,-0.0012874734,-0.4012803,0.23384927,-0.49478933,-0.22279344,0.3066196,0.04495815,0.21212626,-0.23482227,0.25724715,-0.2714549,0.22786148,0.09642268,0.11805238,-0.22154336,-0.30283323,0.022224052,0.045425333,-0.17746344,-0.059338093,-0.094702475,-0.2371488,0.14985926,0.06319624,-0.09232881,-0.09194129,-0.18560067,-0.092038065,-0.06478988,0.17043063,0.12120588,-0.10043887,0.10575276,0.07862907,0.2817354,0.18674313,0.16429904,-0.2668998,-0.14131229,-0.14958711,-0.27408996,0.06457911,0.0728913,0.054534268,0.060072877,0.09589649,0.21031292,0.2608915,-0.11563096,0.15798824,-0.021681068,0.1781607,-0.006622303,-0.1341793,0.033159535,-0.0475259,-0.27163458,0.23721455,0.33381313,-0.31310236,-0.13632001,0.18215644,0.020305777,-0.29760727,-0.0047319937,-0.16090636,0.23130368,0.09669365,-0.11104844,0.0739355,0.029045193,0.0323577,-0.06234174,-0.0117077,0.16234529,-0.37417528,-0.21592383,0.076452725,-0.037164785,0.11566031,-0.17754012,0.09545785,0.3474997,0.04450495,0.15348588,-0.2579804,0.050649572,-0.08755424,0.11549442,0.26517555,-0.22688079,-0.0924811,0.06258366,-0.20516701,0.3420669,-0.18682528,0.026058337,0.24013884,0.11258023,-0.13145755,0.22721174,0.040125698,-0.013277695,-0.27233496,-0.2518905,0.011042378,0.22928968,0.29206315,-0.04490212,-0.13285016,0.16563232,0.20269111,-0.04261539,-0.032566812,-0.12923361,0.21326314,0.051283535,-0.19866885,0.070151694,-0.053109597,0.3789309,0.04419796,-0.008429334,0.047162633,0.07058954,0.054322492,0.10635348,0.55579805,-0.075118996,0.044573084,0.18150042,0.29278442,-0.056643248,0.084230684,0.29483184,0.08846818,0.022303095,0.1286593,0.18057238,0.15573995,0.04440697,0.008199644,0.06652757,0.13772142,0.30184552,0.09613901,0.22239868,-0.006547787,-0.045722384,-0.30043885,0.06495877,0.031169105,-0.057480752,0.044347,-0.21488297,-0.13038678,0.025380183,-0.15606064,0.07654952,0.006422692,0.15094869,0.15399009,-0.1011418,0.22462454,0.12425411,-0.05358715,0.27318344,0.018226055,-0.13520734,0.09884748,-0.15783134,0.18083979,-0.15085895,0.1634471,-0.042175096,0.036974724,-0.1220017,0.16502924,-0.18837883,0.30517015,-0.1334056,0.20455392,0.03329663,0.31597444,-0.08373933,0.07743396,-0.030927246,-0.05586589,-0.14992617,0.19582061,0.042354237,-0.19921009,0.0017586753,0.45208165,-0.12715338,0.23593466,0.13852149,-0.057430685,-0.17919518,-0.12266462,0.097743325,0.15852349,0.1485775,-0.26002488,-0.29046828,0.132411,-0.09234828,0.43426687,0.048847795,-0.28729573,-0.08366283,0.11036879,-0.23667045,-0.1868552,-0.15832229,-0.008103213,0.08997085,0.054675438,0.18598317,-0.14886558,-0.15537032,0.067999355,0.36767548,0.08256041
1_1001_u,0.10543096,-0.061187763,-0.17671461,0.12268201,0.072979696,-0.04233843,0.11987789,-0.11873124,-0.17545304,-0.062004544,0.009342047,0.07810243,-0.14550589,0.18516444,0.3013115,-0.047131896,-0.03671704,0.06509959,0.029550755,0.051265787,0.19139005,-0.22192688,-0.025962798,0.015871692,0.079381466,-0.05300671,0.041866172,-0.06774539,-0.011450886,-0.11085235,-0.24867888,0.098580144,0.030227238,-0.24314594,0.34286806,-0.47215086,-0.114286296,0.17700303,-0.02615778,0.10981979,-0.06850549,0.034026124,-0.17143294,0.09231933,-0.05157883,0.16971174,-0.19475308,-0.07027899,0.013736717,0.007674484,-0.23944871,-0.034262855,0.03312878,-0.088483505,0.18369998,0.0073833615,0.021667508,-0.07760221,0.07108849,0.031058967,0.070220515,0.0036188797,0.16144694,0.0012666908,0.036322042,0.16927251,0.19771586,0.08807505,0.07649657,-0.31690684,0.0003669534,0.050230958,-0.11886691,0.032048475,0.0058069564,0.20134453,-0.0033963367,0.018032482,0.41262332,0.19340342,-0.09480448,0.095958605,0.019334102,0.08625771,0.0089053735,-0.17043044,-0.04065745,-0.1877739,-0.124203205,0.067154646,0.30686602,-0.13874567,0.015392478,0.13862869,-0.010573839,-0.17483653,-0.031015068,-0.019492833,0.18374527,0.05311787,-0.02804525,0.1499372,0.049942594,0.0944367,0.030504763,0.12233088,0.18440774,-0.17934158,-0.08866188,0.14482121,0.06290015,0.12871079,-0.1451015,0.096681796,0.2510972,-0.027245542,0.2010213,-0.27085507,-0.044905223,0.10202526,0.17453,0.089268506,-0.09449744,-0.01655879,-0.051442243,-0.046097606,0.24622321,-0.2721179,0.12545437,0.21797815,0.07455928,-0.09840175,0.28316832,0.0939443,0.063837126,-0.16544478,-0.12297042,0.07749076,0.2069789,0.15231238,-0.08707061,-0.16515027,0.20324683,0.094782904,-0.11772058,0.05810218,-0.19646102,0.13319749,0.12721132,-0.3203291,0.060403496,-0.027119601,0.26844582,0.011105703,0.00572794,0.20309274,-0.031249646,0.0011096717,0.23115717,0.24907933,-0.12414284,0.06817001,0.07522601,0.14245927,0.056171905,0.07328773,0.11289489,-0.01007086,0.07373127,0.18693106,0.22240584,0.08193666,0.018260038,0.01576704,-0.060857464,-0.014393386,0.1392983,0.13291219,0.24299219,0.15775542,-0.15127574,-0.18143599,0.055991363,-0.13467643,-0.19664489,-0.011012151,-0.014207393,-0.06089074,0.023850208,-0.114410095,0.11541003,0.028644139,0.10745118,0.043518536,-0.02937826,0.17162284,-0.005853632,-0.011244226,0.1253573,-0.049311113,0.10164042,0.078863285,-0.2138493,0.17007047,-0.067621544,0.0912135,0.06685427,-0.043923475,-0.03639405,0.13056998,-0.19264705,0.17751954,-0.004515034,0.034467723,0.030495519,0.13422982,-0.06090049,0.14306115,0.06108401,-0.1326443,-0.12386898,0.30203277,0.028555697,-0.12223027,0.04008999,0.2706692,-0.108150065,0.03775182,0.10140341,-0.21405457,-0.091123804,-0.018093633,0.08490828,0.19088005,0.045834143,-0.19058147,-0.140363,-0.044443205,-0.10488436,0.31687045,-0.076021545,-0.098130785,0.028146282,0.026861185,-0.09099566,-0.042244684,0.12163494,0.16050497,0.091330715,-0.09365887,0.20937286,0.0148736155,-0.18125527,0.15204576,0.25370032,-0.038467675
1_1003_u,0.118451886,-0.07887667,-0.11362386,0.06287485,0.110319965,-0.15488566,0.22404492,-0.3343459,-0.051197857,0.006230856,0.14261727,-0.005625798,-0.09477755,0.1972708,0.11441381,-0.1009702,0.028504273,-0.040027022,-0.04376482,0.11221278,0.105422616,-0.19965227,0.09567063,0.08629444,0.15805475,-0.026765669,0.079342045,0.032201685,0.041201215,-0.100982964,-0.3218164,-0.002135525,0.09678836,-0.13651207,0.3809032,-0.41529346,0.03956565,0.046683416,-0.02774482,0.05594747,0.14988314,-0.027878938,-0.16684681,0.048651602,-0.12675042,0.1409494,-0.10850998,-0.11343672,-0.013404197,-0.07335684,-0.16978246,0.17996037,0.19844744,-0.07169942,0.3097045,-0.014578386,0.034423996,-0.12185927,0.10711739,0.06977772,-0.023761136,-0.03313607,0.17428555,-0.092878394,-0.13111769,0.113954306,0.18531807,0.044568278,0.097369574,-0.29387113,0.11809526,0.06902247,0.05366915,0.060479987,-0.112117484,0.23818858,0.049443696,-0.07789247,0.5270248,0.13641009,-0.119624496,0.15039855,0.019797353,0.2580088,0.026316276,-0.09135645,-0.056180246,-0.21346532,-0.14140235,0.03362369,0.29937047,0.03266541,-0.058318377,0.18782951,0.04293692,-0.15794955,0.00083669426,-0.05928042,0.20857084,0.16992067,0.011240583,0.053599637,0.020157063,0.13618438,0.1260138,0.054513045,0.14080203,-0.047993228,0.080955975,0.14981274,0.1421628,0.09740543,-0.051203985,0.0883981,0.13490626,-0.00587007,0.25176057,-0.2522946,-0.08160007,0.082884915,0.07721012,0.10739403,-0.042931497,0.25547597,-0.10890126,-0.15335584,0.327462,-0.31568536,0.16683099,0.14995995,0.040810548,-0.04506644,0.28611287,0.13130407,0.13234241,-0.073506825,-0.13679954,-0.06676973,0.035827894,-0.0147773875,-0.050051935,-0.21003214,0.18350892,-0.06480255,-0.28113338,-0.08107743,-0.111694336,0.10275257,0.13156293,-0.36018905,0.14600956,0.029519776,0.21906105,0.14064167,-0.10248426,0.25674745,-0.055247843,-0.06496121,0.1833744,0.104006864,-0.15768822,-0.027571542,0.13534603,0.03935289,0.16053502,0.038409073,-0.08177548,0.09168595,0.036110993,0.070667796,0.1436378,0.034349617,0.06676798,0.026727462,-0.09454028,-0.07729266,0.113586426,0.031013334,0.12957303,0.19011064,-0.23533002,-0.08054109,0.029030353,-0.16107062,-0.19125333,-0.035769984,0.02919585,-0.022047693,-0.1533896,-0.22325292,0.103220835,0.13296221,0.022057593,-0.10869675,-0.11414584,0.15070705,-0.09215861,0.07470861,0.020968173,-0.13224946,0.07463147,0.13762157,-0.21376978,0.23289087,0.06943003,-0.03570139,0.15463649,-0.09322397,-0.17598532,0.07506319,-0.12367833,0.08353698,-0.11351295,-0.044098306,0.038244803,0.08483823,-0.0021259317,0.092372835,-0.017570052,-0.058250856,-0.19307773,0.16747284,0.051468886,-0.06030431,0.034072958,0.11153028,-0.1401815,-0.06842085,0.04905514,-0.16431604,-0.018236944,0.003432385,-0.023073617,0.18767305,-0.03828842,-0.22170162,-0.1685691,-0.076721124,-0.1413927,0.2301253,-0.070436254,-0.0052727726,0.015918437,-0.010224267,0.03461219,0.051816296,0.18308969,0.20516415,0.064419925,-0.21485746,0.17403279,-0.06317552,-0.2135274,0.078609206,0.2553709,-0.06746676
1_10190_u,0.03314842,-0.21562241,-0.2851647,0.12829147,0.15115793,-0.038313925,0.05969837,-0.37499318,-0.019644713,0.11169763,0.19619644,0.092898875,-0.14802699,0.015623018,0.18735336,-0.047693957,0.0051820413,-0.014254375,-0.19863723,-0.16753037,0.1699722,-0.2990012,-0.08125552,0.34232673,0.36058053,-0.12869446,0.110803224,0.067608975,0.09629179,-0.02631617,-0.14807373,0.09585502,0.1508707,-0.3407142,0.20070513,-0.5971746,-0.1045538,0.22565964,0.11619854,0.20429908,-0.13689499,0.23547046,-0.31183434,0.1011731,-0.03682186,0.1281461,-0.18197009,-0.38166133,-0.0070158537,-0.005091005,-0.17737404,0.105033614,0.01909898,-0.1814041,0.44551244,0.16984509,0.070096575,-0.062658414,-0.19664867,0.16395073,-0.23615144,0.11943629,0.14974247,-0.259615,-0.037431147,0.0632165,0.20863242,0.0916371,0.13297033,-0.36425838,0.14752397,0.08281574,0.025433838,0.003564962,-0.05870391,0.221686,0.14642213,-0.004027665,0.3830006,0.4524518,-0.093939506,0.1633811,0.0346809,0.50416183,0.051644552,-0.24973126,-0.0035178543,-0.21319418,-0.105974235,0.2813631,0.3757046,-0.27500007,-0.33164743,0.25239643,0.050460007,-0.34721643,-0.0690532,-0.06044204,0.3269561,0.49310222,-0.098482765,0.20087354,-0.031528074,0.10478145,0.20583211,-0.047379714,0.19972825,-0.24808875,-0.013344831,0.08766785,0.05067277,0.14606118,-0.04624803,0.049785487,0.2526091,0.07851832,0.31747928,-0.36895192,0.14028715,-0.21568537,0.07172958,0.22447217,-0.12941064,0.2920784,0.0014525421,-0.25660452,0.4302292,-0.57613796,0.16848743,0.4532605,0.17207897,-0.20060316,0.25211927,0.25814798,0.060804408,-0.10840019,-0.30070183,-0.18801951,-0.09472753,0.13085695,0.0071539283,-0.1805442,0.13024667,0.12232854,-0.26720062,-0.14125979,-0.08061897,0.20625801,0.047081526,-0.2496423,0.14254454,-0.022365559,0.22957177,0.13502441,-0.18893014,0.27228174,-0.14116706,0.11755561,0.21827853,0.46291897,-0.2397946,-0.13493547,0.38291788,0.23238094,-0.07062499,0.10348097,0.13042659,0.3276101,0.10500349,0.13862573,0.04676181,0.18909334,0.03297923,-0.09054123,0.16310214,0.08697953,0.28134128,-0.18948865,0.12303164,0.018868862,-0.08501573,-0.25641355,-0.01764651,-0.097358935,-0.027465126,-0.0061076987,-0.32570174,-0.1380511,-0.20973454,-0.35907832,0.06559912,-0.001300401,0.05760413,0.06287883,-0.10637921,0.03996432,-0.08718386,0.079312526,0.1449975,-0.0145212775,-0.12088243,0.21942778,-0.35828683,0.29639864,-0.15901643,-0.028400559,0.013879475,0.08761736,-0.20519817,0.06442868,-0.09702399,0.28220367,-0.3306078,0.09955979,0.07443618,0.24922538,-0.098496184,0.00022498556,-0.1028708,0.004689405,-0.13780081,0.13528112,0.054266702,-0.22813018,-0.049366783,0.25970635,-0.16153549,0.03779268,0.08910681,0.007936465,-0.23780516,-0.08538645,0.20535417,0.16161042,0.10712472,-0.3399403,-0.30511206,0.2627077,-0.22181468,0.41038975,0.028480027,-0.23695569,0.0013712116,0.096024364,-0.06129821,0.014150492,-0.042739034,0.17686282,0.06567589,-0.1817881,0.14847027,-0.12025318,-0.38975862,-0.1414232,0.53921247,0.04875609
1_10462_u,0.15752208,-0.18209508,-0.087085806,-0.027125329,0.07875203,-0.18441421,0.24490575,-0.518831,0.072968304,0.03633334,0.21580057,-0.05723062,-0.084190905,0.15165202,0.088288926,-0.07261022,0.060158666,-0.061399747,-0.2330453,0.113702945,0.10652214,-0.28234375,0.13248296,0.22198842,0.30275154,-0.07453075,0.108899154,0.05728611,0.06478704,-0.1665759,-0.37286502,-0.016656801,0.1620259,-0.2282811,0.37447906,-0.42226025,0.052872915,0.020284234,0.022632016,0.07512098,0.1445901,0.014575635,-0.17138882,0.026820889,-0.08587319,0.118392326,-0.12965843,-0.2359269,-0.010352814,-0.12356509,-0.15268861,0.3004423,0.3007452,-0.031907864,0.33579323,0.0878971,-0.011475232,-0.17271255,0.068298176,0.05441081,-0.11100089,0.017056882,0.23326989,-0.20431529,-0.2153147,0.024906138,0.18329786,0.15312217,0.0778495,-0.33233586,0.25398874,0.023258386,0.13931656,0.12291988,-0.17191054,0.17986572,0.117908075,-0.07430093,0.54947263,0.17626472,-0.11814971,0.25957355,0.027780617,0.4768438,0.055452455,-0.19292319,-0.00016243868,-0.20331883,-0.26878032,0.06783616,0.3334547,-0.043389764,-0.2869222,0.26729512,0.06608516,-0.22068067,-0.0006926511,-0.13038981,0.20601133,0.2996889,0.026878446,0.042188328,-0.022480197,0.19682093,0.21613307,-0.037584644,0.20572269,-0.07844248,0.10050086,0.08788575,0.12875344,0.16205023,-0.021403784,0.03172536,0.15381138,0.06437587,0.341528,-0.27634,-0.034441672,0.0658726,0.05065378,0.15430441,-0.1425982,0.42357084,-0.041292015,-0.19563062,0.4877011,-0.4449446,0.1689883,0.25501612,0.051069785,-0.07319776,0.31345066,0.17563646,0.15493272,-0.12377602,-0.23945704,-0.21084261,0.0065111937,0.061999854,-0.049395394,-0.20847607,0.20695524,-0.05205215,-0.39798447,-0.15210657,-0.089909494,0.1429134,0.11007084,-0.3627314,0.21429014,0.055641532,0.21206243,0.13720387,-0.1947829,0.29116282,-0.13338165,-0.014607014,0.099440485,0.16202289,-0.18998705,-0.08774796,0.2012867,0.009030706,0.17716675,0.00979303,-0.13210766,0.2729436,0.044973917,0.05959783,0.06622855,0.041888237,0.16366987,-0.07356637,-0.016556906,-0.05979451,0.15278922,-0.044147104,0.07361158,0.11106385,-0.26567507,-0.13713011,0.007674458,-0.12401674,-0.14981876,-0.025586566,-0.1745429,-0.012338902,-0.26113662,-0.3526568,0.1035008,0.10488104,0.052970912,-0.2094138,-0.20638028,0.1359833,-0.044765566,0.17382751,0.035689972,-0.10738506,0.01387278,0.19531451,-0.34891063,0.27950594,0.061991658,-0.09412348,0.10597587,-0.043688245,-0.23388277,0.02706079,-0.05661526,0.19491774,-0.23512371,-0.020380577,0.06662404,0.22856937,-0.033435833,0.098337546,-0.11254777,-0.049903374,-0.18995467,0.11241435,0.05541646,-0.09412768,0.0793252,0.060311813,-0.11666111,-0.057843506,0.068103485,-0.08756911,0.06388592,0.02581118,-0.01705545,0.15652446,-0.010717743,-0.2640426,-0.2778959,0.022265691,-0.24178572,0.3021854,-0.039703693,-0.0882707,0.00533916,0.080019996,-0.0038808347,0.07272288,0.14184639,0.25869662,0.014851588,-0.19581497,0.16626106,-0.09010738,-0.23735753,-0.0055004032,0.36287403,-0.052453827
1_10495_u,0.053871583,-0.058197524,-0.21553694,0.10120852,0.011584106,0.04139984,0.035639923,-0.016518313,-0.14554521,-0.08852672,0.009647344,0.14486377,-0.21532229,0.07742712,0.32720038,-0.038215186,-0.02385883,0.14104867,0.00036004782,0.073025025,0.17675231,-0.2337394,-0.13572831,0.067032926,0.1028625,-0.11921362,0.0063426006,-0.08971642,-0.0398946,-0.10422412,-0.09159368,0.116532736,-0.0056659128,-0.32546625,0.293663,-0.513775,-0.19249584,0.3154359,-0.00060888677,0.111977294,-0.19131984,0.11813673,-0.22471347,0.16516107,0.0010036872,0.12549858,-0.17150821,-0.16165419,0.043012287,0.026900122,-0.19854283,-0.095147625,-0.014321411,-0.18032981,0.14137124,0.07780763,0.0019303873,-0.08217427,0.01018203,-0.0157974,0.07672275,0.109168254,0.08081374,0.005657537,0.086048745,0.15990694,0.25014612,0.13462804,0.115753256,-0.31527945,-0.11933122,-0.013285585,-0.23361857,0.053217392,0.08949661,0.16693826,0.0038940222,0.10344274,0.27703723,0.24150996,-0.05817888,0.06350127,0.0073291794,0.07792114,0.010090795,-0.2153904,0.006153823,-0.13602714,-0.14446905,0.16876213,0.37561223,-0.26892495,-0.02875617,0.14690088,-0.018966442,-0.26296303,-0.06622719,-0.057588827,0.21355708,-0.03741342,-0.04419885,0.15282932,0.044876948,0.09588194,-0.0272908,0.10232641,0.15224937,-0.24507308,-0.18206911,0.06708318,-0.037747696,0.15501817,-0.18270604,0.07013098,0.33050048,0.004237338,0.19840792,-0.347962,0.035937637,0.08064596,0.1339821,0.12194989,-0.14293341,-0.046419024,0.013322356,-0.09403024,0.3076977,-0.23155752,0.016481724,0.26780096,0.11475164,-0.086169824,0.2968632,0.096725345,0.056641396,-0.2545689,-0.20942068,0.08789851,0.2452374,0.25505826,-0.055911463,-0.17799847,0.28401533,0.23944376,-0.10039776,0.0005904153,-0.24152033,0.1851396,0.0732573,-0.24258052,-0.0061305403,-0.050971266,0.3060259,0.0041237823,0.061546274,0.111957334,0.005702406,-0.0273505,0.15467058,0.3628548,-0.10067157,0.088503405,0.15764722,0.24803458,-0.051581915,0.04457262,0.2809129,-0.034464,0.09154033,0.16906105,0.24128766,0.0884049,-0.022227904,-0.014000121,-0.02962392,0.04232101,0.2430315,0.12782177,0.2975675,0.13691975,-0.044452574,-0.24919052,0.045191336,-0.09429597,-0.1349858,0.036696743,-0.06966364,-0.049839873,0.050529327,-0.12090673,0.10295393,0.013350278,0.14421952,0.19861613,-0.05081583,0.16224429,0.074006,-0.021051444,0.21716438,-0.007189116,0.032447018,0.08099571,-0.15514125,0.17295375,-0.12526624,0.18352339,0.048171952,-0.061329246,-0.059529275,0.15993375,-0.1931146,0.2076861,-0.011555796,0.14014244,0.04782139,0.25211537,-0.06696023,0.086001106,0.038163614,-0.088946454,-0.053300846,0.23505531,0.03550178,-0.20232049,-0.035222035,0.36391222,-0.085520186,0.15677966,0.1016745,-0.18415974,-0.20211063,-0.0911568,0.10880035,0.20035915,0.04494841,-0.20040782,-0.19983402,0.020897282,-0.06982147,0.4303042,-0.04604233,-0.14396848,0.045095224,0.1605103,-0.14667642,-0.18665467,0.07622507,0.047513433,0.10271218,-0.006453848,0.22007573,-0.050753403,-0.16714123,0.10215081,0.26593366,-0.040904384
1_10496_u,0.013018739,-0.07586218,-0.29775694,0.20229064,0.0017703254,0.037314188,-0.024282841,-0.024642004,-0.14404051,-0.073924,0.018565854,0.22145735,-0.22586039,-0.016460216,0.36450788,-0.057187285,-0.027354492,0.15403853,-0.06573426,0.05081839,0.18743165,-0.24588215,-0.18217288,0.15675807,0.1304733,-0.19140372,0.0031115576,-0.0603549,-0.06307213,-0.08776589,-0.026178865,0.12105042,0.067004256,-0.3976414,0.27707815,-0.57619536,-0.21407174,0.431694,0.058368444,0.114387505,-0.29547298,0.24505101,-0.29236898,0.2625514,0.012834126,0.17223762,-0.20469382,-0.27455252,0.120176844,0.037391648,-0.19741972,-0.12428389,-0.05501895,-0.2560691,0.15567306,0.1067117,-0.028805707,-0.057739984,-0.032456603,-0.019030267,2.672933e-05,0.13206747,0.04828605,-0.076007925,0.1422309,0.1675669,0.24195002,0.09555148,0.15964353,-0.30335686,-0.09090434,0.037322197,-0.24456124,0.024625206,0.13986911,0.20454924,0.042582016,0.12733635,0.1944212,0.32083344,-0.0703722,0.10577078,0.025629943,0.15326348,-0.0043288423,-0.30607018,0.010705247,-0.12748821,-0.12244215,0.24576716,0.45167518,-0.35165676,-0.059647825,0.13541944,-0.05862539,-0.34448245,-0.0434951,-0.10463216,0.23477936,-0.031270385,-0.07657734,0.16078524,-0.045301165,0.11117386,-0.03232771,0.09732098,0.16119827,-0.29764518,-0.2190264,-0.0014265664,-0.060965385,0.18004899,-0.15440582,0.023157477,0.3463665,-0.012251075,0.17162536,-0.3580403,0.09951855,0.022611601,0.08797339,0.15906623,-0.14523952,0.016580861,0.013003054,-0.16694658,0.3414553,-0.32227454,-0.06466535,0.3586203,0.08805376,-0.16937831,0.27669686,0.10509231,0.068017736,-0.29446813,-0.26020283,-0.02954105,0.21035384,0.27947673,-0.035480004,-0.18529476,0.26887855,0.37710008,-0.14901441,-0.027284015,-0.26790348,0.21297243,0.09958424,-0.24132097,-0.036507662,-0.05388192,0.28685582,-0.038845282,0.05911416,0.10920848,0.023653397,-0.011872912,0.15020387,0.5924802,-0.08654069,0.07884675,0.20955525,0.3061183,-0.06458536,0.030916288,0.4206615,-0.0397336,0.15155312,0.21160018,0.25385043,0.09290402,-0.11196077,0.0014997907,-0.0048935423,0.08365858,0.319259,0.05307823,0.31966907,0.1065607,-0.0009080274,-0.31857535,-0.0044516157,-0.12684754,-0.10707291,0.06163721,-0.10277017,-0.050605047,0.032146275,-0.14737359,0.104925565,-0.039440915,0.15644571,0.258275,-0.023005461,0.1139247,0.16132069,-0.022512816,0.2828712,0.026548136,-0.0051806564,0.13717912,-0.17190413,0.19150417,-0.16596353,0.2318327,0.07156122,-0.04529759,-0.13970943,0.2373683,-0.16214323,0.29783243,-0.044904556,0.21409217,0.0013110236,0.28304324,-0.15370174,0.08101969,0.02588195,-0.052949186,-0.096580185,0.18898284,0.027381027,-0.32290068,-0.13593678,0.45381856,-0.0916991,0.19441202,0.15031207,-0.20079589,-0.31213042,-0.06488996,0.13250373,0.25574952,0.065070145,-0.21211973,-0.23153257,0.056296457,-0.12302525,0.49165916,0.020013873,-0.1442689,0.034190148,0.19061415,-0.13212991,-0.19444932,0.033127062,0.054178137,0.12842928,-0.079170965,0.23779836,-0.10025567,-0.15286937,0.07152546,0.32711306,-0.002910474
1_105_u,-0.018295908,-0.09177636,-0.36975795,0.29176047,0.08057341,0.009321658,-0.024649443,-0.10761799,-0.15282558,0.0066344477,0.01359953,0.2565747,-0.21436386,-0.029782552,0.33272275,-0.089084275,-0.023756599,0.09353655,-0.052782953,-0.036072697,0.20719104,-0.22950831,-0.18038566,0.22062457,0.17975119,-0.17740647,0.018366685,0.0065155956,0.003422472,-0.038829118,-0.040913027,0.12569138,0.09300641,-0.37515363,0.2495793,-0.6379666,-0.19442885,0.42970824,0.0652861,0.13152663,-0.28259456,0.26379886,-0.33819637,0.25214133,-0.07248976,0.18186173,-0.282075,-0.31739423,0.0899355,0.07245742,-0.22743087,-0.10388644,-0.09759901,-0.25794435,0.2414857,0.07238817,0.023956433,-0.0031287167,-0.07558816,0.07030755,-0.067425184,0.07972669,0.013567621,-0.1368976,0.14310591,0.21395274,0.26567844,-0.0039433464,0.17201976,-0.3441755,-0.008979169,0.116190605,-0.18029195,0.015086359,0.11003915,0.29426995,0.05292008,0.08240064,0.22559701,0.41236612,-0.102573074,0.09238867,0.060511854,0.2569459,-0.015600081,-0.30368835,-0.041035723,-0.1831905,-0.0928031,0.28234553,0.48092866,-0.2988335,-0.07239478,0.123861246,-0.06452978,-0.35358486,-0.04370224,-0.038460184,0.27871776,0.13431232,-0.119935445,0.21467014,-0.06538589,0.078206666,0.030086357,0.13571027,0.15232871,-0.3073275,-0.16443479,0.04169795,-0.054034777,0.13801953,-0.09899299,0.03309542,0.3241373,-0.008786086,0.17281927,-0.38762853,0.11064327,-0.0697819,0.08620032,0.19848442,-0.09732888,0.06400033,-0.009406947,-0.2141464,0.33532616,-0.4349618,-0.034501743,0.4421303,0.12549393,-0.21133266,0.25357473,0.14588998,0.057622593,-0.19977663,-0.26115137,-0.07491961,0.06240288,0.22026053,-0.0029349078,-0.18846886,0.21620393,0.3382758,-0.17464277,-0.0315309,-0.21701978,0.21980901,0.1154629,-0.28047577,0.014002326,-0.018956535,0.27605498,-0.003196445,-0.00994876,0.18987279,-0.01384678,0.018440163,0.22768573,0.63027996,-0.14088753,0.039207708,0.27648494,0.34084478,-0.087724015,0.06711583,0.4315501,0.0101806475,0.17784719,0.25435898,0.22238731,0.14924632,-0.18152659,0.012933704,0.044869225,0.09921698,0.30657956,-0.04137158,0.2917101,0.09762895,0.009935438,-0.3380455,-0.028236998,-0.16611539,-0.117493086,0.05768019,-0.08525915,-0.08757647,-0.004009131,-0.17827861,0.12255647,-0.06549349,0.12353325,0.2713157,0.009134966,0.06292307,0.09908581,-0.026268555,0.24250837,0.01115394,-0.029768039,0.19655822,-0.24860382,0.20157269,-0.22476628,0.22359519,0.08318658,-0.021067524,-0.15887064,0.2561296,-0.17832923,0.28105822,-0.114172935,0.20062251,-0.028754806,0.20280574,-0.16641061,0.068165295,0.024572263,-0.010183766,-0.1655411,0.18860386,0.028670598,-0.32868367,-0.165823,0.47145692,-0.13079984,0.10078702,0.20211072,-0.18515271,-0.37974533,-0.076004185,0.18004344,0.28003016,0.077324994,-0.26146898,-0.20089602,0.12006996,-0.15211068,0.45815784,0.043967023,-0.1335515,0.039518088,0.13074853,-0.088122085,-0.118851684,0.036606602,0.057663422,0.16958897,-0.18038443,0.2529258,-0.08273037,-0.24047498,0.0011581354,0.4004778,0.021298198
1_10748_u,0.033341136,-0.106470406,-0.09002979,0.015958428,0.010439683,-0.0042369277,0.06151421,-0.16652262,-0.09840342,-0.18238021,0.05851217,0.01764133,-0.14940822,0.0893994,0.21108082,0.030694712,0.050318476,0.15007888,-0.13313083,0.10276576,0.098543756,-0.17747328,-0.019233996,0.11620951,0.07452663,-0.16502306,0.01346418,-0.10063495,-0.024024183,-0.10644865,-0.08379195,0.021264687,0.041770544,-0.36052343,0.23482414,-0.4062047,-0.121736646,0.251388,-0.04315548,0.021912964,-0.018136645,0.15670748,-0.09335953,0.20037499,0.09739735,0.18852055,-0.045779146,-0.12930356,0.10515928,-0.07366229,-0.15040505,0.03558438,0.012730758,-0.16961132,0.11294331,0.15336603,-0.060842384,-0.10996606,0.115302995,-0.07202419,0.10982221,0.09799707,0.0027423275,0.003337627,0.034582723,0.13809459,0.26750493,0.12215572,0.076175965,-0.25965828,-0.0852865,-0.03276272,-0.15868358,0.060150284,0.09458123,0.0900234,-0.033106204,0.11314231,0.21649356,0.19834466,0.019621572,0.095384754,0.061264087,0.027104592,0.024767583,-0.22809826,0.054880064,-0.10015767,-0.11075794,0.121431865,0.36221814,-0.24393438,-0.086120404,0.119947724,0.029743254,-0.30766138,-0.073265865,-0.11105379,0.14615665,-0.09633088,-0.0022464194,0.19461286,-0.037920322,0.13850331,-0.016659845,0.08441796,0.13111588,-0.034270253,-0.084286876,-0.028108642,-0.041426692,0.2278213,-0.11474645,-0.002004317,0.28876624,-0.003081059,0.22719288,-0.3838894,0.04413504,0.16580443,0.04971587,0.0648011,-0.13689174,0.122002065,0.04454943,-0.13483123,0.33984867,-0.1911822,-0.05055781,0.1874118,0.040051915,-0.03831163,0.3474,0.050499935,0.12890656,-0.34380436,-0.2535382,0.072725035,0.15880434,0.26058182,-0.0065632625,-0.2673597,0.2933386,0.32625338,-0.2614494,-0.082978465,-0.30992562,0.15336323,0.07725879,-0.25719061,-0.07521267,-0.11196878,0.26591274,0.0024606243,0.08191188,0.12261584,-0.0029411968,-0.12777685,0.10363318,0.2865563,-0.08289483,0.04124295,0.1856385,0.14428341,0.010972861,-0.023109509,0.17502452,-0.03207062,0.1682216,0.13915497,0.2313882,-0.049574513,-0.03332627,-0.056520756,-0.079215504,-0.019862464,0.20086156,0.07866323,0.29745317,0.28822505,-0.11417454,-0.116982795,0.027093304,-0.15278606,-0.053728748,0.032450974,-0.114595555,0.043976355,-0.053572398,-0.18296033,0.04866656,0.06571226,0.11422578,0.10292822,-0.1584354,0.2073657,0.06849919,0.05840264,0.239851,0.025275856,0.12509452,0.051743448,-0.09709471,0.16520405,0.0057755965,0.17092179,0.13355008,-0.10933445,-0.10723144,0.10834211,-0.06968035,0.18552,-0.0040454427,0.06886812,0.07550793,0.18569997,-0.16429298,0.003012307,0.065218054,-0.06963193,-0.09628171,0.15616733,0.0476047,-0.2629047,-0.00514361,0.29811665,0.0011337452,0.12009996,-0.033186007,-0.19302116,-0.18382044,-0.013129264,0.08353241,0.2237734,-0.02722068,-0.09831237,-0.27666888,-0.12251212,-0.1731096,0.49081346,-0.0006731935,-0.04358673,0.15159437,0.16155191,-0.14573343,-0.14735796,0.19702742,0.064821154,0.07590788,-0.032608632,0.17113194,-0.085697934,-0.10454519,0.099967085,0.14131767,-0.0703943
1_10797_u,0.018578662,-0.0613697,-0.3155306,0.23222049,0.05363035,0.017173097,0.008634073,-0.06365099,-0.13313334,-0.0061783763,-0.017166285,0.22580941,-0.23084919,0.027270956,0.32624075,-0.087756716,-0.02251766,0.075228795,0.01648642,0.04617467,0.16652587,-0.2304757,-0.16571401,0.14489819,0.15928446,-0.12457247,0.026858974,-0.024243832,-0.0030699128,-0.058988273,-0.09140379,0.126824,0.048767697,-0.31811643,0.30568963,-0.61403036,-0.16391163,0.36008,0.03159182,0.11908797,-0.246904,0.15564261,-0.3234531,0.18497454,-0.09917292,0.13416627,-0.24017529,-0.20679317,0.064235695,0.058975,-0.2224897,-0.095549636,-0.021842418,-0.19520299,0.2140971,0.06970823,0.059591193,-0.020782953,-0.031366028,0.06867153,0.007420938,0.084557585,0.07593241,-0.087447576,0.10582488,0.19641605,0.24056287,0.04792253,0.13803974,-0.35836622,-0.034512546,0.103854895,-0.16717632,0.044649467,0.07431115,0.28421742,0.026185697,0.062395453,0.3277901,0.34353375,-0.08473226,0.06957203,0.021609321,0.21884139,-0.013285975,-0.2676488,-0.047057565,-0.2085609,-0.095665306,0.20533784,0.44852385,-0.24522784,-0.016930988,0.12604734,-0.058382105,-0.2814957,-0.05111127,-0.003808447,0.26851174,0.09886406,-0.0763475,0.1833115,-0.0032491137,0.09665787,0.032625057,0.1274871,0.16191965,-0.27893946,-0.1705282,0.088465236,-0.010930633,0.11526141,-0.14602545,0.064874016,0.32603174,-0.004418706,0.19870415,-0.33608523,0.06205981,-0.012242298,0.1418041,0.14209726,-0.09662657,0.01376073,-0.019181747,-0.14617942,0.32747778,-0.37085572,0.023515014,0.38641453,0.13623342,-0.17175415,0.28021237,0.1543273,0.054677404,-0.17131604,-0.21965905,-0.0013448853,0.14107876,0.20807576,-0.039661545,-0.17369555,0.26417813,0.23080377,-0.13108687,-0.0027945896,-0.21253829,0.18294524,0.10735481,-0.2767284,0.020996349,-0.023586137,0.29475877,0.0031811986,-0.006888593,0.18172364,-0.01604128,0.01781956,0.2216206,0.46325693,-0.12695114,0.070118405,0.22282092,0.29529157,-0.0827586,0.08462266,0.35969755,0.000500991,0.11120304,0.20792866,0.22563615,0.13740073,-0.11814809,0.0049079056,0.015593313,0.05611077,0.27726766,0.016436722,0.27464762,0.113432385,-0.0060421224,-0.3011725,0.004641631,-0.14476338,-0.1460764,0.057583984,-0.055248152,-0.0669385,0.011737689,-0.1470919,0.13408862,-0.01267616,0.122716464,0.2442547,0.004339305,0.08065529,0.04860458,-0.025864324,0.19560337,-0.030956298,0.022882083,0.13691017,-0.24236336,0.21174724,-0.19539888,0.19251992,0.07762602,-0.033632684,-0.106843494,0.20297794,-0.2179755,0.2189674,-0.06700701,0.15204346,-0.00033534618,0.23472376,-0.072988525,0.1129171,0.030626819,-0.059024345,-0.10474356,0.2195239,0.020649595,-0.23275395,-0.13799892,0.3963426,-0.12654325,0.109498136,0.17410007,-0.2067472,-0.30986315,-0.0866322,0.13518454,0.22663112,0.070576765,-0.25849056,-0.17319594,0.07430594,-0.100647405,0.41574797,-0.025658557,-0.13794261,0.03608941,0.13649005,-0.07751524,-0.12131294,0.07885836,0.08943021,0.14160298,-0.13432913,0.23245774,-0.036960382,-0.2367548,0.05080647,0.36516714,-0.038065154
1_10810_u,0.09736185,-0.09353892,-0.108631685,0.029411644,0.037756976,-0.028684033,0.09776277,-0.18929274,-0.073337555,-0.045563634,0.08376082,0.042668678,-0.14580274,0.08743425,0.22906032,-0.008979204,0.009597462,0.065774165,-0.08399671,0.059978962,0.11712241,-0.23854303,-0.0072968514,0.12410869,0.14092527,-0.09829395,0.04100228,-0.047573365,-0.014098543,-0.129944,-0.17426804,0.067086495,0.044237744,-0.29081628,0.28557566,-0.41493493,-0.09579788,0.16365407,0.0069594416,0.12336228,-0.05694711,0.07619723,-0.13421923,0.09501931,-0.00956402,0.12536906,-0.10469677,-0.14709689,0.025457451,-0.030583387,-0.15153767,0.052022435,0.085814886,-0.121594146,0.22078185,0.09579303,-0.011143996,-0.11514945,0.03514293,0.0047369734,0.004382977,0.07502832,0.13837169,-0.06498884,-0.020529252,0.054374803,0.18648791,0.15442404,0.07813739,-0.27647015,0.01621739,-0.0219126,-0.07184311,0.061340846,-0.011294234,0.12225769,0.01565834,0.05407877,0.34245217,0.19117005,-0.06357798,0.13773017,0.03314166,0.18206894,0.019693,-0.20125155,0.0062973583,-0.15278283,-0.16928475,0.11294279,0.31304386,-0.19822696,-0.126545,0.19752644,0.017396701,-0.22047071,-0.052145757,-0.07866795,0.18475214,0.08893355,-0.012442497,0.1012689,0.016450142,0.12641291,0.06374016,0.00479523,0.18539046,-0.13720064,-0.08063227,0.065162614,0.023526533,0.17525582,-0.13054506,0.041270535,0.25253502,0.018090634,0.22650829,-0.2752776,0.028795337,0.059568997,0.080899864,0.09995555,-0.15503518,0.12883978,-0.0029040412,-0.09962716,0.3415035,-0.26910725,0.08999918,0.19939375,0.0903142,-0.067172326,0.26003677,0.111075155,0.07925915,-0.19523728,-0.18418159,-0.008090752,0.17375036,0.18948296,-0.07451917,-0.1987394,0.23680165,0.10863954,-0.1876238,-0.08738202,-0.16730878,0.1407609,0.060129005,-0.25609526,0.07249016,-0.03490281,0.2687361,0.045473102,-0.006229286,0.16294335,-0.045411628,-0.0028856427,0.12043557,0.25450203,-0.12780862,-0.011093311,0.16937803,0.12600565,0.031897236,0.033137646,0.07989365,0.0680895,0.07064571,0.12416835,0.15766194,0.06145686,0.078282766,-0.032626744,-0.01949904,0.006097521,0.1890544,0.060354423,0.19384037,0.1283045,-0.13492064,-0.16765526,0.020357693,-0.07886585,-0.11686267,-0.0008975148,-0.1364827,-0.039817452,-0.07399049,-0.19878864,0.06668798,0.032189704,0.101333074,0.03176574,-0.10683705,0.15990429,0.012817973,0.04229377,0.14264838,-0.0438195,0.05141442,0.09230261,-0.19692753,0.19201459,-0.035682853,0.05990968,0.05171592,-0.027305303,-0.119587414,0.08422991,-0.121958375,0.2197974,-0.098678574,0.06270932,0.08488592,0.21871285,-0.08489034,0.0883569,-0.026165232,-0.08698253,-0.07736092,0.17491546,0.030610407,-0.14056113,0.022941468,0.21142773,-0.076363645,0.08162264,0.031007951,-0.12227392,-0.08344928,-0.048749253,0.03634383,0.1490682,0.020920152,-0.18401723,-0.24071288,0.009408486,-0.13994561,0.38639247,-0.06468051,-0.12222723,0.040873572,0.12331226,-0.10486233,-0.075053275,0.091859534,0.12854275,0.060632396,-0.048929185,0.1739194,-0.06138437,-0.18368553,0.0749198,0.27074352,-0.02362479
1_10829_u,0.050299395,-0.11963371,-0.1772689,0.07286813,0.11287292,-0.066174485,0.110279776,-0.31377158,-0.025555862,0.037014723,0.14610843,0.05275125,-0.1379574,0.05770139,0.15671466,-0.06001026,0.029136408,-0.0095243445,-0.11144873,0.038032826,0.09351819,-0.22453235,-0.008350322,0.22262216,0.25551692,-0.10864055,0.07640647,0.031030655,0.051728703,-0.080259465,-0.18065469,0.039935865,0.100255705,-0.24864216,0.25646833,-0.48504636,-0.036852077,0.18927108,0.05664168,0.11578181,-0.03527954,0.098831944,-0.21394058,0.0810798,-0.067922555,0.12407853,-0.120634556,-0.22701077,0.018567797,-0.0432098,-0.142839,0.12447935,0.123552315,-0.13114987,0.33732614,0.106769286,0.039225485,-0.07883525,-0.019165669,0.08949649,-0.09979874,0.07333121,0.122530125,-0.16276066,-0.063170075,0.07481168,0.18967605,0.07886752,0.11333342,-0.32802543,0.09735077,0.078206755,0.020772241,0.046758372,-0.060747474,0.21776567,0.068639435,-0.0007170729,0.40367776,0.27943993,-0.07694053,0.14910929,0.037955254,0.36052418,0.03331203,-0.19859272,-0.030805692,-0.20161696,-0.12212189,0.1556831,0.35949847,-0.15325843,-0.17673412,0.19427013,0.03725676,-0.25268692,-0.06321076,-0.07140233,0.25140116,0.25639772,-0.03693506,0.11641736,-0.014038314,0.13253954,0.14432865,0.0071542873,0.15405254,-0.113730095,-0.01145082,0.06736262,0.05735111,0.13545273,-0.05469309,0.043292847,0.21038687,0.04210346,0.2665997,-0.32488614,0.06130705,-0.037727103,0.051686138,0.14421539,-0.083056256,0.26765522,-0.015485862,-0.19289199,0.39220965,-0.42316914,0.11923756,0.30812111,0.107741475,-0.08778607,0.26267004,0.19588363,0.09054943,-0.12984884,-0.23167422,-0.10499678,-0.011134281,0.109960996,-0.019162571,-0.21625812,0.19822566,0.07009079,-0.2779704,-0.14360166,-0.118053555,0.15246633,0.074586555,-0.28515315,0.111284114,-0.0034911546,0.23103619,0.114151,-0.104396105,0.22764324,-0.08446752,0.024651,0.15034421,0.27183232,-0.19230843,-0.07416453,0.2798436,0.1360449,0.013169474,0.045631986,0.0704085,0.15721521,0.09950143,0.09758764,0.10480567,0.094189696,0.035794247,-0.041669887,0.02134679,0.0093235215,0.2266302,-0.07630351,0.13198999,0.12904093,-0.12154265,-0.16229968,-0.005546196,-0.1273968,-0.10032307,-0.007744923,-0.14181976,-0.046753366,-0.17618054,-0.27587023,0.07682337,0.06734991,0.060213264,0.030416269,-0.10625165,0.08449466,-0.063098155,0.08509796,0.101832226,-0.06340913,0.005209375,0.1544315,-0.2651172,0.2518231,-0.059407134,0.0006657295,0.082419366,-0.0001469709,-0.19458447,0.082941025,-0.10656979,0.17595159,-0.18450902,0.053443372,0.07890799,0.19471999,-0.06641422,0.05151812,-0.05636824,-0.037997942,-0.1258631,0.120684646,0.03946939,-0.15917003,-0.049667854,0.19008671,-0.12152832,0.019655026,0.05676319,-0.093320936,-0.15785956,-0.056259967,0.07961469,0.1755697,0.016828561,-0.24024427,-0.2359324,0.08812242,-0.17390573,0.35371932,-0.018809726,-0.103611745,0.046187747,0.111495994,-0.036581077,-0.019059038,0.08453919,0.16299495,0.062189758,-0.17535971,0.16449872,-0.10515942,-0.27813622,-0.020431532,0.37206435,-0.013033971
1_10849_u,0.23750901,-0.261739,-0.16250806,0.0550836,0.044282407,-0.21654396,0.27200648,-0.6061043,0.09570622,0.120739534,0.2838171,-0.024995064,-0.06335465,0.16883238,0.11273302,-0.14274317,0.03861167,-0.045495834,-0.2559314,-0.081281334,0.23414949,-0.37701517,0.09219613,0.23870969,0.35542265,-0.034349207,0.096619606,0.16749392,0.09305054,-0.17086433,-0.46388075,0.0523767,0.30944583,-0.27892146,0.5089342,-0.49148273,0.03615245,-0.03240096,0.0852418,0.15288143,0.10399926,0.15103342,-0.30560037,0.02839749,-0.11215919,0.08405466,-0.2159555,-0.34031767,-0.025366807,-0.06645381,-0.24157515,0.29405472,0.26698765,-0.07451892,0.41615072,0.07496389,-0.019069562,-0.24609032,-0.042431097,0.123916864,-0.24571757,-0.0122898165,0.36415344,-0.2647713,-0.27758792,0.0108074555,0.17591819,0.17757271,0.11420236,-0.3405087,0.35540795,0.018204091,0.12831937,0.0934605,-0.19796191,0.214774,0.23352769,-0.13987039,0.57218784,0.24704401,-0.24286662,0.31946334,-0.007503621,0.5786224,0.03859769,-0.26218802,0.019396625,-0.2603464,-0.31059328,0.16194494,0.34597358,-0.07242312,-0.3509698,0.33493385,0.06324929,-0.2844464,0.07583769,-0.1311202,0.2657356,0.46395406,-0.043204468,0.014766701,-0.049148127,0.20088048,0.23479919,-0.11628566,0.32472974,-0.3002923,0.12199646,0.19554287,0.2114146,0.17073475,-0.047050614,0.03515361,0.14266342,0.042283036,0.39416847,-0.2430921,-0.040009078,-0.0144746555,0.11148818,0.255552,-0.21139665,0.46220484,-0.14933097,-0.20704944,0.5049314,-0.5280871,0.22526474,0.28658935,0.077092804,-0.25392017,0.31488058,0.18937707,0.17486668,-0.054097902,-0.24003349,-0.35633925,0.017355079,0.014938888,-0.07553335,-0.14253883,0.12974478,-0.05732561,-0.35025603,-0.07562987,-0.04465267,0.15603557,0.11588933,-0.3801162,0.26307666,0.069039546,0.13273838,0.11306816,-0.2819546,0.37412995,-0.19097427,0.026319047,0.122208856,0.39688063,-0.15383457,-0.07467119,0.11798859,0.06260629,0.23707719,0.04408279,-0.13373785,0.40104428,-0.017070835,0.08916109,0.05417795,0.08105062,0.17010453,-0.02292881,0.031678017,-0.021543214,0.14641453,-0.07670622,0.06176584,-0.030403638,-0.3431637,-0.2291679,-0.017908772,-0.17252718,-0.14969878,-0.007528217,-0.28061807,-0.1353189,-0.2562112,-0.4463674,0.124007486,0.027247405,0.045165166,-0.30598676,-0.17400126,0.15543203,0.0307515,0.13351451,0.021183325,-0.10816131,-0.15185615,0.26318988,-0.43650314,0.35991707,0.029673666,-0.13935204,0.0752698,-0.08095417,-0.2786242,-0.024436103,-0.04501645,0.3407409,-0.39279112,0.029784335,0.013656433,0.27550048,0.047944292,0.08606199,-0.1092096,-0.061334122,-0.31534645,0.2145376,0.08915868,-0.10029347,0.10808215,0.10311768,-0.18900155,-0.105213754,0.13015962,-0.08385684,0.14340353,0.07011578,0.076663256,0.1458576,0.053680915,-0.37634403,-0.3075231,0.12571251,-0.31103215,0.2728423,-0.031584706,-0.1929343,-0.14166205,0.005357156,0.056603618,0.17602532,0.013588353,0.31030667,-0.0010437187,-0.2681538,0.16577731,-0.08405989,-0.23045616,-0.05896134,0.46613598,-0.0046101953
1_10853_u,0.06572212,-0.17101645,-0.27706686,0.1406292,0.095215045,-0.053138424,0.07335492,-0.30174288,-0.040657755,0.07914909,0.15218537,0.12651084,-0.16487637,0.01695819,0.22558966,-0.08841061,-0.0034619756,0.022888346,-0.14200923,-0.09608091,0.19811785,-0.28420797,-0.06319871,0.26459962,0.30103216,-0.11010591,0.07867975,0.06921559,0.060042895,-0.07280233,-0.16917856,0.11270063,0.13399462,-0.31967974,0.27735266,-0.57787293,-0.095826596,0.23106208,0.07967259,0.1824085,-0.13143241,0.2085588,-0.31081274,0.12479415,-0.06290797,0.1276973,-0.22398546,-0.3372089,0.00039784165,0.011596801,-0.19640626,0.07824632,0.03085593,-0.18900922,0.35927892,0.10570039,0.034678984,-0.08027192,-0.13489535,0.110787176,-0.17729858,0.08982095,0.15694247,-0.20999086,-0.011478718,0.09031152,0.21825866,0.08696258,0.14802948,-0.34970352,0.0997142,0.049156453,-0.030541295,0.037011575,-0.042314596,0.22241583,0.12678213,-0.0037102636,0.37831542,0.382224,-0.13554491,0.16956063,0.0239041,0.427286,0.010137639,-0.23428784,-0.023662014,-0.19988607,-0.15722923,0.24757996,0.39098617,-0.22914779,-0.23168492,0.22199439,0.023836587,-0.31145707,-0.03718741,-0.067509614,0.29267594,0.3631767,-0.103941195,0.14510345,-0.012603554,0.097745165,0.14401524,-0.010305983,0.18736215,-0.27775142,-0.050700884,0.11201499,0.05762067,0.12644742,-0.079420984,0.06679445,0.24255338,0.043771036,0.27888584,-0.32229137,0.07779648,-0.14131449,0.088393405,0.22244017,-0.12973331,0.21238771,-0.020050213,-0.22982863,0.40609127,-0.49166575,0.13908856,0.3928256,0.14404944,-0.1897342,0.2492402,0.19705187,0.06081729,-0.124352776,-0.25606272,-0.15339616,0.0032943368,0.15163319,-0.0126041295,-0.16751623,0.14521204,0.111475766,-0.22188309,-0.1023487,-0.09853289,0.18964897,0.085518874,-0.27955547,0.14772002,0.003662105,0.2567817,0.114417545,-0.14678979,0.2376082,-0.087297104,0.084604144,0.19772819,0.47567397,-0.20268802,-0.066166006,0.29402217,0.23828125,-0.025246942,0.09617986,0.16667394,0.23103653,0.08119404,0.14458214,0.09624103,0.16484253,0.024340274,-0.031715285,0.096783035,0.071448304,0.2718649,-0.10424309,0.14635806,0.031883728,-0.08869502,-0.26975212,-0.002734002,-0.098167464,-0.076052256,0.011380042,-0.21923673,-0.12303545,-0.13883643,-0.29550543,0.10088699,-0.00016409084,0.073619105,0.062216222,-0.080062404,0.094453394,-0.027772725,0.039500553,0.14961027,-0.02056265,-0.09639675,0.21041432,-0.3293943,0.27738264,-0.15022646,0.02240919,0.02348913,0.03753435,-0.19981563,0.101171665,-0.14279029,0.26452398,-0.25856754,0.11494938,0.03606702,0.24347745,-0.076241575,0.05170969,-0.070475094,-0.029086703,-0.18827277,0.16629067,0.0554882,-0.19934757,-0.05606373,0.2942898,-0.16258304,0.053519536,0.1346376,-0.06078961,-0.19412766,-0.0757017,0.15362611,0.18683837,0.1085284,-0.32994515,-0.2689906,0.18626983,-0.19561557,0.38000652,0.013556294,-0.20872135,-0.03221636,0.08590915,-0.06321751,-0.0094828205,-0.02594856,0.14837542,0.08794098,-0.18727343,0.17874543,-0.11629259,-0.31047264,-0.060126364,0.4801847,0.037430834
1_10857_u,0.05545945,-0.11114984,-0.18887082,0.06736905,0.07938505,-0.032970972,0.09107854,-0.23775649,-0.036567133,0.029233277,0.105918504,0.077463344,-0.14540274,0.041593324,0.17859434,-0.055195153,0.019847902,0.017073158,-0.0827268,-0.0062307464,0.119574785,-0.21887186,-0.032337334,0.1868052,0.2280582,-0.081458345,0.05934422,0.029652683,0.03087082,-0.09354033,-0.14904906,0.071644746,0.05681331,-0.255417,0.2520201,-0.46814975,-0.06967693,0.18012281,0.023745423,0.14802139,-0.07288812,0.10877236,-0.21306744,0.08139131,-0.072670884,0.092336036,-0.1399974,-0.20577188,0.00818252,-0.010127942,-0.14852722,0.084433645,0.07433779,-0.14512764,0.29531342,0.09482175,0.037877243,-0.07888269,-0.06320169,0.08712109,-0.07021939,0.07950702,0.13475971,-0.12517278,-0.02896589,0.0667,0.19141185,0.093793035,0.10520625,-0.3089965,0.055041958,0.04326099,-0.023237709,0.049127024,-0.04543673,0.18385632,0.0552724,0.014642241,0.3622161,0.27480483,-0.08595549,0.12279965,0.02223455,0.30812228,0.013532731,-0.17772041,-0.03565828,-0.17034157,-0.1440938,0.17126878,0.32388625,-0.16655557,-0.15651731,0.18799876,0.032391127,-0.23374484,-0.06313937,-0.038259152,0.23070537,0.24277978,-0.066509664,0.10455292,0.005516869,0.08919496,0.11765798,0.00036049038,0.15154545,-0.17413962,-0.0519421,0.08680236,0.049014997,0.12548974,-0.09574542,0.06457502,0.22785185,0.0477976,0.24020563,-0.2835903,0.04271043,-0.054957867,0.08792762,0.15139139,-0.113814466,0.16983195,-0.007810579,-0.16738124,0.37213022,-0.36445752,0.11539566,0.2962782,0.12779158,-0.103041194,0.24040464,0.1668695,0.057045627,-0.11588416,-0.19521594,-0.049600914,0.037003916,0.14322509,-0.03542159,-0.16664203,0.18212311,0.057710696,-0.18213435,-0.107950166,-0.10143226,0.1458595,0.06265031,-0.24902368,0.110771395,-0.010288646,0.25557113,0.10668057,-0.077961646,0.20209984,-0.062072366,0.036213852,0.1419655,0.28419018,-0.17336357,-0.051669568,0.24515262,0.17090432,-0.019822812,0.06995056,0.11062918,0.15206315,0.068036295,0.09992344,0.08927782,0.11707236,0.052740064,-0.037769053,0.0337655,0.045360874,0.21621752,-0.031514958,0.12969871,0.08109674,-0.0851767,-0.18633747,0.012641484,-0.07762685,-0.0879737,0.00075141015,-0.15152405,-0.077023104,-0.12210645,-0.23909803,0.08706491,0.049335588,0.070647016,0.06558453,-0.08354527,0.10148074,-0.049844783,0.03037256,0.110749915,-0.056242473,-0.022319116,0.14203513,-0.24856071,0.2257293,-0.0911906,0.02188453,0.04301175,0.020177891,-0.1467814,0.08613654,-0.14181814,0.18221897,-0.17917415,0.07491832,0.06622559,0.22351146,-0.035505485,0.06450377,-0.051084816,-0.050263025,-0.11642833,0.14678568,0.048875894,-0.13177967,-0.040238243,0.21344028,-0.111555755,0.05724615,0.063866146,-0.068293236,-0.14663295,-0.0811502,0.07808622,0.14987333,0.045596894,-0.26160863,-0.22933379,0.098015234,-0.14574967,0.32988277,-0.029718444,-0.14385478,0.014878692,0.100645,-0.059856582,-0.041999586,0.04765929,0.11379085,0.060284223,-0.11688113,0.16279681,-0.093638346,-0.25989386,-0.0066690715,0.36865267,-0.01614713
1_10859_u,0.34094483,-0.2805255,0.046524476,-0.1451122,-0.1594924,0.15334402,0.023776924,-0.00013091565,-0.21692906,-0.07113301,0.18037847,0.015654331,-0.13456503,0.17722653,0.38474426,-0.09078532,-0.048382055,0.26963085,-0.20960991,-0.09143495,0.39371192,-0.31057724,0.10405033,-0.011766403,0.12288462,-0.07559203,-0.050222773,-0.0425974,-0.19386092,-0.31058493,-0.2913205,0.16217864,0.042095244,-0.44339344,0.2988599,-0.28316537,-0.23780496,-0.014446619,-0.0012038079,0.33327907,-0.02145469,0.08152638,0.0037588861,0.21655019,0.2588742,0.114674784,-0.11140064,-0.018740514,-0.14252786,0.014207554,-0.24280007,0.04899147,-0.031952616,-0.14599064,0.109599076,-0.026038159,-0.16973393,-0.20321035,-0.11669548,-0.2120112,0.0073743905,0.16424714,0.2812951,-0.08488723,-0.116979145,-0.032387,0.3348727,0.32985872,0.15376091,-0.21300624,0.054968666,-0.4585092,-0.40287825,0.21576206,-0.053081084,-0.0814249,0.04139001,0.036029957,0.29506564,0.046532687,-0.21401663,0.2867726,-0.016917923,0.03545798,0.11090423,-0.050840866,0.05306014,-0.019810366,-0.5024845,0.060496893,0.16343543,-0.23019488,-0.07805317,0.24121061,0.02938745,-0.196853,0.083523355,-0.3178454,0.14075297,0.21825798,-0.029059714,0.023643106,0.06884394,0.06494589,-0.18082921,-0.20409031,0.2970494,-0.40353504,-0.12719432,0.16267689,0.0033364445,0.15313587,-0.3488432,0.02688818,0.44722438,0.20624928,0.182146,-0.21722177,-0.14238887,0.060549308,0.11069723,0.29154137,-0.33946952,-0.16549967,0.12520263,-0.06564843,0.30944076,0.0038759522,0.18623269,-0.034036394,0.07366867,0.017584523,0.19196267,-0.122399166,-0.06342335,-0.2787701,-0.22521324,0.10898264,0.4406573,0.2160037,-0.07764916,-0.18633056,0.18023637,-0.022959733,0.14744352,0.13090271,-0.035002284,0.14481653,0.013722149,-0.23307016,0.18731189,-0.03672206,0.45535165,-0.08501364,0.05986012,-0.027242957,0.020818321,-0.042569425,0.005526458,0.28342655,0.01042744,0.04354295,-0.08403265,0.08965912,0.103489354,-0.00026779305,-0.07104122,0.03876802,-0.056520402,0.058330428,0.25681767,0.14963499,0.22349027,0.08610328,0.06333414,0.11457091,0.1609147,0.37219515,0.12436276,-0.06453013,-0.47112495,-0.2374059,0.06287816,0.102283455,-0.18430547,0.031686235,-0.26694235,-0.25473577,-0.10061707,-0.11436155,-0.09753918,-0.05427369,0.24712472,-0.117987156,-0.23189688,0.5150258,0.16955069,-0.109893516,0.2630812,-0.03545239,-0.1224795,-0.03310907,-0.10543436,0.15401742,0.10401193,0.0016755961,-0.07251336,-0.083334915,-0.04423327,-0.009795074,-0.08774447,0.42746258,-0.124224305,0.18344195,0.16674632,0.30328128,0.050623752,0.20457612,-0.06509351,-0.25232464,-0.15236412,0.37999976,0.07823902,-0.021623228,0.28885564,0.3030831,-0.119351976,0.21948223,0.06125134,-0.015380785,0.25994015,-0.14198986,0.012306823,-0.00515617,0.074980155,-0.14364548,-0.22996815,0.025806908,-0.071942545,0.45888153,-0.08958741,-0.36369774,-0.2627051,0.04256384,-0.40797123,-0.026054407,-0.29926595,-0.0083111655,0.091131605,0.23809555,0.13856165,-0.086788714,0.002013046,0.22839189,0.14683047,0.1593266
1_10890_u,0.19127373,-0.1989361,-0.13112323,0.02502281,0.046368666,-0.18943052,0.2509751,-0.5154309,0.071137056,0.06532895,0.24110892,-0.03001807,-0.06254574,0.14614783,0.10638261,-0.10827329,0.043523464,-0.03128357,-0.23258105,-0.0039776326,0.17638917,-0.32152286,0.1128248,0.20679879,0.29709575,-0.04756991,0.08562305,0.11293697,0.061182257,-0.16683757,-0.38983688,0.026704876,0.21548043,-0.2420013,0.432506,-0.43997288,0.031328637,-0.004118021,0.032632068,0.12350644,0.12137499,0.09817918,-0.22693625,0.032439303,-0.09512677,0.09234797,-0.17197661,-0.2764359,-0.013770285,-0.082111925,-0.19002262,0.2913377,0.25506473,-0.07147993,0.35208824,0.06650016,-0.034683462,-0.20384088,-0.0017898753,0.0855663,-0.17137699,-0.0024424463,0.2933621,-0.21734853,-0.22322603,0.019352369,0.17976823,0.16660546,0.10261301,-0.31122193,0.2730442,0.00036416165,0.10326301,0.10607698,-0.16565247,0.18399538,0.1545641,-0.10068562,0.5205844,0.19514738,-0.19144666,0.28401327,0.005512999,0.47335353,0.03031466,-0.20020707,0.00862598,-0.2064166,-0.29639834,0.11367654,0.31666747,-0.055389978,-0.30365014,0.30169412,0.05931413,-0.23602219,0.04229736,-0.13267566,0.216247,0.34867188,-0.016749693,0.024528928,-0.034181837,0.1802682,0.2091726,-0.084498905,0.24922176,-0.1953689,0.09513576,0.14792494,0.15702514,0.17263655,-0.04586717,0.038471263,0.1485426,0.044467032,0.35510984,-0.23833242,-0.05450312,0.013677328,0.079794966,0.21455912,-0.18121414,0.41047168,-0.101241805,-0.20017087,0.48032627,-0.43445095,0.18394916,0.24150102,0.055301305,-0.17140512,0.286777,0.15958385,0.17064314,-0.07740709,-0.2120231,-0.258252,0.031233102,0.037431482,-0.065278046,-0.15814705,0.15724628,-0.05962586,-0.33320624,-0.11196711,-0.057799127,0.14690593,0.11786492,-0.35670137,0.23577593,0.046870288,0.18949227,0.123313345,-0.21140352,0.31079388,-0.13466269,-0.006946937,0.111642934,0.2892953,-0.1518109,-0.06755649,0.13326605,0.041882005,0.20746517,0.037521042,-0.11532749,0.3139715,-0.00525506,0.07873434,0.06514477,0.065369934,0.1658262,-0.027831221,-0.010267716,-0.027101392,0.14409958,-0.038999498,0.06840734,0.03000637,-0.29706034,-0.18189295,0.0077369087,-0.12340917,-0.1454242,-0.02207253,-0.20522563,-0.0809875,-0.23160525,-0.36654502,0.10590227,0.06159238,0.0464482,-0.24269442,-0.18244511,0.15489551,0.0042999,0.11960255,0.035606828,-0.112471,-0.077653676,0.21653624,-0.36354575,0.30104804,0.05952655,-0.09509673,0.0827654,-0.064922094,-0.2534666,0.019748373,-0.06278732,0.27297658,-0.303318,0.013097331,0.038129173,0.24244301,-0.0077975094,0.090888046,-0.108322024,-0.05243819,-0.25621548,0.16039014,0.0682061,-0.09625689,0.09557719,0.096759155,-0.14001372,-0.059657026,0.0856434,-0.06672329,0.105102174,0.039122563,0.014133299,0.15464179,0.028492395,-0.32109046,-0.2940465,0.070277534,-0.26513493,0.27844626,-0.028308515,-0.1500806,-0.083485715,0.031841774,0.020182526,0.09982343,0.055249948,0.25535753,0.019690363,-0.21501982,0.1663645,-0.103257395,-0.21222258,-0.010071251,0.39836738,-0.0209777
1_10977_u,-0.025499448,-0.1346884,-0.20663574,0.09394374,0.1316921,-0.044138007,0.07319489,-0.27950326,-0.040578056,0.031398416,0.14769088,0.06261529,-0.12871757,0.017559165,0.15698354,-0.024889393,0.03048931,0.00517837,-0.17598347,-0.05036465,0.09219506,-0.2197974,-0.048052732,0.2708699,0.25785586,-0.14214477,0.06440638,0.018829428,0.046236414,-0.04039409,-0.06391611,0.038013052,0.08847066,-0.3011473,0.16127315,-0.49242336,-0.09059141,0.23871748,0.053070676,0.117686205,-0.0886727,0.17205812,-0.20329967,0.11281029,-0.027950961,0.12741227,-0.102821745,-0.29081246,0.04352192,-0.029279485,-0.1318684,0.11636446,0.04737387,-0.18783057,0.36320752,0.15606101,0.04363626,-0.037178684,-0.08334861,0.096864715,-0.109788015,0.1022942,0.05480031,-0.17454857,-0.018982854,0.07976072,0.21738799,0.07777186,0.12099339,-0.31091115,0.060591977,0.08486577,0.002107424,0.01698184,-0.012112319,0.19993344,0.060554832,0.037485182,0.30389577,0.340665,-0.038745977,0.11630952,0.061306287,0.3434054,0.044325054,-0.19825318,-0.014543868,-0.16995989,-0.09144549,0.21815844,0.34615898,-0.22772074,-0.23102832,0.20332757,0.053258147,-0.30021372,-0.08039809,-0.07288996,0.2517077,0.2690544,-0.061709017,0.18386152,-0.04844466,0.10082103,0.1391666,0.009918317,0.14082475,-0.11049086,-0.03642286,0.00840145,-0.003511201,0.1736844,-0.036498103,0.017841991,0.24926224,0.064656794,0.25414532,-0.38442722,0.12453661,-0.10801847,0.030680973,0.17144942,-0.10828326,0.27659032,0.032303218,-0.25025722,0.40364528,-0.41840848,0.060454544,0.35046864,0.118996345,-0.105569415,0.25994724,0.19554184,0.09039649,-0.14964986,-0.2590035,-0.08791198,-0.07211608,0.14716451,0.0046694237,-0.20995525,0.20194547,0.1519814,-0.28726077,-0.17754148,-0.13187885,0.19110861,0.04019327,-0.24080038,0.076596245,-0.03340028,0.24014114,0.107980065,-0.07813916,0.21984382,-0.07577078,0.009372209,0.17066243,0.33446893,-0.17844336,-0.102940224,0.34930792,0.19623731,-0.04889048,0.051118255,0.15032801,0.16570984,0.14711776,0.11203132,0.097385064,0.11179777,-0.005981586,-0.08597471,0.05924326,0.053739954,0.24980295,-0.12339214,0.15902977,0.13548623,-0.059831984,-0.17514277,-0.008540744,-0.11223408,-0.029899389,-0.008460864,-0.20266879,-0.05572482,-0.18443625,-0.2791917,0.052798297,0.0502927,0.06919129,0.09837152,-0.110169075,0.054629784,-0.0507993,0.07669732,0.15471385,-0.04710245,-0.029712886,0.15956108,-0.24207297,0.2171965,-0.08612587,0.04951321,0.07889664,0.03937136,-0.1893138,0.104910485,-0.07625427,0.20530467,-0.22711127,0.08753553,0.08644954,0.19704555,-0.12878084,-2.7684495e-05,-0.061998513,0.01702506,-0.100738026,0.07335355,0.03293416,-0.23599747,-0.06363124,0.22104728,-0.08497917,0.047050122,0.036241416,-0.03922049,-0.25079098,-0.07740718,0.1316994,0.18703465,0.010253409,-0.2458235,-0.28758907,0.1492664,-0.19100825,0.41717526,0.020856684,-0.13324933,0.073058754,0.1202886,-0.052614804,-0.07008105,0.06583204,0.120840214,0.08401764,-0.13072263,0.1639456,-0.11843567,-0.31386325,-0.07067908,0.40119037,-0.006212836
1_11006_u,0.072480224,-0.19172893,-0.13392162,0.07062315,0.11025458,-0.22697349,0.22444718,-0.5459756,0.058348756,0.0642904,0.2529151,-0.041702565,-0.07392764,0.1403065,0.072416835,-0.11263849,0.09084963,-0.056882203,-0.29759797,0.026494622,0.106299244,-0.2783693,0.08393236,0.23537855,0.28957003,-0.11385596,0.10373186,0.0870065,0.08515849,-0.087164916,-0.32208204,-0.043867566,0.2195742,-0.22222947,0.35153082,-0.4363872,0.030928386,0.032012355,0.005328516,0.040371653,0.15263578,0.114250794,-0.21862054,0.058251776,-0.084699035,0.11725558,-0.12406912,-0.28597677,0.034710456,-0.15184204,-0.17423975,0.31636158,0.23773046,-0.0787127,0.34939614,0.08516035,0.007291497,-0.13141723,0.044775154,0.06729319,-0.13192078,-0.04070164,0.1672545,-0.22316046,-0.22424446,0.08554811,0.21318562,0.0891475,0.07025395,-0.3027412,0.25816855,0.10461511,0.12373554,0.07964938,-0.14251284,0.24598217,0.13818446,-0.09639734,0.4928529,0.23397818,-0.094300546,0.21953559,0.018542944,0.4993825,0.037177917,-0.17811678,0.014723699,-0.21713546,-0.19547956,0.077175416,0.3258881,-0.043466046,-0.28651968,0.25390753,0.068808906,-0.25259668,0.028760314,-0.12388339,0.22455254,0.32141024,0.0052783885,0.13095401,-0.09170481,0.19585018,0.23328109,0.02003364,0.21699773,-0.06249739,0.12161962,0.068619885,0.12043109,0.15974623,0.036798757,-0.026306579,0.16887818,0.036177542,0.37104392,-0.32355723,-0.028651912,0.0145815285,0.06825403,0.19655481,-0.13329363,0.42929584,-0.06051296,-0.24730046,0.45989543,-0.46003065,0.11276412,0.31996235,0.01985796,-0.13107316,0.29995605,0.1977999,0.21112755,-0.09731012,-0.24605417,-0.2304947,-0.09367176,-0.0031369885,-0.03965522,-0.17640738,0.17965393,0.030924905,-0.41126767,-0.14708519,-0.10798957,0.18383643,0.10484161,-0.37552086,0.15049088,0.023345564,0.16028845,0.12929748,-0.22588693,0.32055923,-0.14379339,-0.029175682,0.15582763,0.24107574,-0.12201593,-0.080717064,0.17392407,0.057608116,0.15953542,0.014593641,-0.06239866,0.27721205,0.07234105,0.06616038,0.0796749,0.041606713,0.04587179,-0.0936142,-0.018271727,-0.06534493,0.14337331,-0.10544129,0.090230264,0.12425508,-0.25430995,-0.14486139,-0.023692358,-0.17740415,-0.118939795,-0.012122157,-0.17231281,-0.043920707,-0.28291664,-0.39538607,0.086912625,0.10387709,0.031729937,-0.18038268,-0.23735733,0.0870117,-0.00659433,0.17685018,0.030626629,-0.1034645,-0.013981602,0.22194247,-0.33896157,0.2857566,0.05575179,-0.04707664,0.14831264,-0.059294622,-0.24489032,0.05926934,-0.011265007,0.2208139,-0.27128384,-0.037203133,0.055436075,0.17274432,-0.05160998,0.046650942,-0.06734834,0.034291025,-0.22487693,0.084640555,0.064519964,-0.18513064,0.072181754,0.09497211,-0.11175758,-0.08717311,0.07640451,-0.1061579,-0.024693431,0.06882046,0.052951474,0.20388594,-0.008557859,-0.29046246,-0.32276693,0.036807634,-0.28350312,0.3109597,0.02087372,-0.08094082,-0.0075087706,0.023683935,0.055783864,0.09353231,0.12658675,0.26742288,0.03559434,-0.23004447,0.17478946,-0.09273293,-0.24782896,-0.062020015,0.39955416,-0.082447834
1_11021_u,0.10117453,-0.06116543,-0.28597313,0.25748464,0.1427216,-0.10727989,0.16833794,-0.14727637,-0.24648812,-0.0035949636,0.009185752,0.18069099,-0.1575915,0.25640333,0.31949577,-0.12043028,-0.060424734,0.039725076,0.071874574,-0.009174121,0.26372242,-0.22723794,-0.014837476,0.034994453,0.06150365,-0.046544656,0.061410487,-0.02440517,0.006844552,-0.026557988,-0.27465293,0.10725146,0.09550672,-0.21897565,0.423467,-0.59926236,-0.09278988,0.1774132,-0.029506722,0.107413925,-0.0438388,0.06794851,-0.24589327,0.1474431,-0.12846553,0.23127346,-0.27796814,-0.11675184,1.1941046e-05,0.041936792,-0.30471283,-0.034142535,-0.017058073,-0.17206018,0.31601715,-0.07206656,0.10157555,-0.053462673,0.0754441,0.09087854,0.02655561,-0.054214794,0.15489209,-0.02935504,0.041965943,0.24925695,0.23169826,-0.012920222,0.11829316,-0.34787259,0.0051922672,0.11221891,-0.09007155,-0.018660763,-0.015428488,0.33661392,0.012077957,-0.075011484,0.50887346,0.26058558,-0.15325302,0.06955747,0.036198255,0.11722674,-0.018754778,-0.119582534,-0.08763287,-0.26506683,-0.07215307,0.09422431,0.37459442,-0.076967806,0.07681431,0.14331512,0.0030555334,-0.22308882,0.028198216,0.007912842,0.26386642,0.12496497,-0.0704998,0.16805921,0.036710788,0.07562041,0.029625788,0.21176624,0.1882032,-0.23810521,-0.048942287,0.21813078,0.09509086,0.09279879,-0.12279802,0.14615045,0.24505734,-0.08401312,0.18553516,-0.31374708,-0.069473535,0.03208487,0.18810363,0.11330395,-0.05079452,-0.0026427375,-0.160044,-0.12483706,0.21433552,-0.3646376,0.17039883,0.25192344,0.0868747,-0.1573084,0.3167433,0.10256525,0.06782033,-0.107150495,-0.1169613,0.032597225,0.16392148,0.042664,-0.09289765,-0.1965918,0.17384462,0.07404532,-0.12969162,0.055025257,-0.21353646,0.14877987,0.16068034,-0.41404015,0.08846519,0.014364538,0.2994516,0.054665554,-0.034811523,0.28138828,-0.0032424356,-0.033868946,0.3776969,0.3373751,-0.15313168,0.07449787,0.1088114,0.2065546,0.092094645,0.092401676,0.13956013,-0.0378859,0.106019296,0.23436104,0.27984214,0.1436436,-0.05912512,0.045500886,-0.090845905,-0.024153678,0.1334405,0.0975094,0.2764847,0.19268887,-0.18910812,-0.2015314,0.039809305,-0.19890828,-0.25046068,-0.028615503,0.10508143,-0.11035708,0.03665258,-0.14502136,0.15166733,0.032375496,0.061118543,0.07115688,0.022500055,0.1716847,-0.055397637,-0.04082904,0.11267328,-0.087257735,0.07967686,0.17195505,-0.22228038,0.20941651,-0.09037124,0.098256014,0.12829596,-0.07045509,-0.08076426,0.18296464,-0.22568575,0.16776316,-0.059221633,0.006249262,-0.044508457,0.022409305,-0.035469342,0.13034704,0.06377828,-0.08158434,-0.24980593,0.33895704,0.04934471,-0.16551207,-0.004879957,0.34939054,-0.1861337,-0.017771741,0.18067914,-0.28824243,-0.16891466,-0.023026494,0.117993556,0.27124435,0.03894943,-0.290541,-0.1473504,-0.06571343,-0.1083542,0.3121976,-0.07797118,-0.06142063,-0.019214196,-0.09864855,-0.008435463,0.010175431,0.15821524,0.19015606,0.13953987,-0.22439928,0.26735482,0.0049483506,-0.2587137,0.12793194,0.33362558,-0.05300367
1_11042_u,0.11267082,-0.05381145,-0.1647142,0.06875985,0.097497165,-0.05809736,0.19172172,-0.12149813,-0.21346977,-0.12359681,0.025788868,0.041392464,-0.13301657,0.33775017,0.26234403,-0.051362123,-0.038456265,0.105617754,0.054113355,0.072064675,0.21912196,-0.19377962,0.011827282,-0.06954261,0.018401293,-0.053152878,0.04203501,-0.11792809,-0.01834332,-0.08239003,-0.28503555,0.043898724,0.015503953,-0.20450445,0.37504122,-0.47860786,-0.11490504,0.13301773,-0.07099625,0.08023911,0.052022304,-0.017409379,-0.13721268,0.12906377,-0.016376814,0.23178874,-0.13288851,-0.016209885,-0.0069466145,-0.006842257,-0.24706101,-0.017955868,0.06551693,-0.1313307,0.19395898,-0.02899969,0.009620695,-0.11746196,0.16329144,-0.0015472643,0.15110786,0.001738713,0.12149787,0.1092055,0.009334917,0.23154221,0.22691129,0.06863593,0.08174323,-0.33543321,-0.07590339,0.0010256227,-0.13189869,0.017220145,0.0029161572,0.19887118,-0.013946992,-0.017930785,0.4712267,0.14360987,-0.07655973,0.0665982,0.016114933,-0.052184086,0.051133264,-0.07791907,-0.02921806,-0.18705766,-0.08037085,0.0349763,0.31883046,-0.06822613,0.08343688,0.12677172,0.05675886,-0.20565787,-0.027625173,-0.048351463,0.17672105,-0.050612416,0.02315994,0.15815829,0.09316408,0.09301133,-0.017217098,0.17859785,0.14239244,-0.13347967,-0.022447124,0.1673567,0.06412709,0.15371579,-0.1479592,0.16707473,0.2416408,-0.04870527,0.19330874,-0.3583716,-0.08367982,0.20259678,0.16404359,0.046612028,-0.049250156,-0.0069995136,-0.09619143,-0.067027815,0.20921217,-0.2201174,0.13879786,0.13509738,0.06647852,-0.021449529,0.3807883,0.046221226,0.09122676,-0.20276868,-0.121588014,0.14636575,0.22483328,0.099173896,-0.06709261,-0.22739296,0.23657785,0.12470155,-0.14230457,0.07691092,-0.28717545,0.14715385,0.14936107,-0.3630838,0.028965741,-0.03436869,0.2900583,0.052310646,0.05970614,0.20523174,-0.006610628,-0.13435222,0.26244435,0.12771451,-0.1260052,0.08855394,0.07782515,0.12207971,0.117575325,0.021104833,0.04185573,-0.083203666,0.12877424,0.15499535,0.2885775,0.03092002,0.021228064,0.02519132,-0.15920016,-0.05581821,0.080611505,0.20354822,0.29071262,0.289737,-0.22742486,-0.12408429,0.09522619,-0.198583,-0.19904242,-0.04557682,0.1012398,-0.024820551,0.032448072,-0.09743764,0.12072762,0.09424484,0.082334034,0.015561596,-0.057687867,0.25259215,-0.05426572,0.012936967,0.1376755,-0.04264378,0.14146562,0.0773088,-0.10854832,0.16612177,0.029793352,0.0689964,0.16225305,-0.13410212,-0.0021939792,0.092059225,-0.17694765,0.092490554,0.047042336,-0.019159393,0.041492697,0.051375695,-0.021707905,0.08826552,0.0978341,-0.14377213,-0.15566455,0.35859218,0.064587235,-0.11535646,0.088169366,0.26107007,-0.13874727,0.03029692,0.07194608,-0.28623933,-0.048554134,-0.019158116,0.08609366,0.24462806,-0.04780613,-0.18998896,-0.12919283,-0.1722577,-0.07189377,0.32880846,-0.098307535,-0.0050750636,0.062382437,-0.030093184,-0.09557877,-0.06632857,0.22343321,0.1552581,0.079044834,-0.10804085,0.20826319,0.0029667614,-0.16880436,0.17957686,0.14972015,-0.08783846
1_11046_u,-0.01543638,-0.1315523,-0.2642475,0.17247823,0.070144854,0.0027856089,-0.0009709783,-0.15424816,-0.14333658,-0.05812046,0.11271211,0.13671397,-0.18455102,-0.044589885,0.27903438,-0.01084837,-0.0012740865,0.1432549,-0.16523343,-0.07007573,0.18980186,-0.22888453,-0.13676916,0.2601121,0.15718538,-0.21380511,0.01020232,-0.013859353,-0.012983817,-0.030996833,0.03253723,0.08903676,0.11204659,-0.41320142,0.17205594,-0.52362204,-0.20002687,0.38877657,0.04445052,0.106807224,-0.21345146,0.33179864,-0.22131884,0.2360888,0.043832995,0.18609704,-0.15419646,-0.37327614,0.11901393,0.004989566,-0.1654291,-0.017153457,-0.10144644,-0.30928975,0.27394685,0.12876225,-0.018689794,-0.06280806,-0.08530273,0.008871435,-0.113574795,0.1192015,-0.020140093,-0.13186932,0.10530453,0.12919722,0.2772909,0.06144336,0.14765072,-0.25898072,-0.036722437,0.033136584,-0.15911338,-0.04411057,0.116633765,0.18668981,0.049460467,0.13452385,0.12009006,0.36111864,-0.043320816,0.093452,0.082270816,0.19660155,0.029768689,-0.26023775,0.030628337,-0.11366775,-0.093413286,0.2896099,0.39469597,-0.34802175,-0.17172818,0.17522453,-0.0045375368,-0.40857488,-0.06267824,-0.105815426,0.24003199,0.06956154,-0.11020758,0.18854931,-0.11739396,0.09770023,0.01605937,0.060329016,0.15707625,-0.22912693,-0.1312188,-0.028579524,-0.089922,0.20391564,-0.054505277,0.00553188,0.3084866,0.0010054469,0.16566806,-0.4099997,0.167433,-0.082439914,0.03020828,0.20508137,-0.15474595,0.15807371,0.02202322,-0.2713459,0.34303817,-0.34695083,-0.07004039,0.32621428,0.097441055,-0.16201131,0.24908295,0.11713815,0.07105323,-0.2660019,-0.31075242,-0.0889841,0.035965014,0.24441938,-0.0035913957,-0.2320642,0.21515937,0.37419677,-0.25209582,-0.15395407,-0.2255832,0.22575878,0.056665923,-0.2177013,-0.034454938,-0.07759451,0.23601031,0.039136708,0.03690986,0.13742112,0.0056273295,-0.03043289,0.17039412,0.6301611,-0.123939,-0.03776409,0.32391235,0.28591734,-0.05980121,0.013026935,0.34569404,0.026857385,0.19912516,0.20094152,0.19379416,0.092271425,-0.1146369,-0.04881269,0.017382279,0.114536665,0.29834628,-0.055601086,0.29432127,0.12570624,-0.01413395,-0.2546602,-0.043818142,-0.12169968,-0.014929465,0.02741061,-0.17689994,-0.05181647,-0.04977226,-0.24460454,0.03798108,-0.030430494,0.09172591,0.20520814,-0.06656257,0.08969095,0.1245862,-0.006584406,0.27766845,0.02773785,-0.07056877,0.18308264,-0.15124927,0.17866161,-0.13684212,0.20367709,0.08598724,-0.024362903,-0.23560376,0.21279429,-0.08139204,0.3176685,-0.17174663,0.18940258,0.023208946,0.17376225,-0.23160203,-0.055065222,0.007860311,0.02054389,-0.15920591,0.10621112,0.052309692,-0.37030262,-0.1174254,0.42598602,-0.07114863,0.10843303,0.07891672,-0.12910758,-0.35331532,-0.044243105,0.16118596,0.262448,0.03651216,-0.20222102,-0.3052178,0.094823435,-0.18387781,0.52409023,0.062147606,-0.13511299,0.06451759,0.14214872,-0.11268003,-0.14637057,0.012220611,0.026156802,0.11433641,-0.11140311,0.21202448,-0.14671998,-0.22222891,-0.02526142,0.34886733,0.05249949
1_11051_u,-0.009165655,-0.108341835,-0.33122092,0.27043423,0.10756838,-0.020227136,-0.007116269,-0.15587091,-0.14408489,0.016499097,0.07035648,0.2049425,-0.21144727,-0.026365673,0.29415438,-0.0896392,-0.005207909,0.09354096,-0.08643359,-0.0682609,0.19996819,-0.21639256,-0.14905426,0.23485875,0.18630989,-0.18190914,0.03468898,0.03374378,0.018702911,-0.0072714062,-0.044250544,0.10602645,0.11860784,-0.35395798,0.24144374,-0.5995459,-0.16681838,0.38011107,0.047755104,0.113288246,-0.22399163,0.2792358,-0.31765947,0.23256066,-0.0656806,0.16890143,-0.24727845,-0.3337989,0.08124575,0.036296666,-0.21565114,-0.053023156,-0.09370651,-0.27098975,0.2759647,0.058492374,0.042126156,-0.024322445,-0.08202311,0.07250424,-0.10127113,0.07063327,0.0016018503,-0.14463389,0.10227086,0.19222416,0.27054995,-0.018180398,0.15657431,-0.31453252,0.011493536,0.1184329,-0.14570901,-0.016461397,0.087417975,0.29434234,0.06841227,0.068469636,0.23436272,0.40121803,-0.0943869,0.0883305,0.05706798,0.27107885,-0.009689569,-0.26234072,-0.031343218,-0.18342952,-0.0753513,0.2688507,0.44499722,-0.2615397,-0.08780187,0.13756445,-0.044662107,-0.36475006,-0.04141504,-0.03264249,0.28305608,0.17067261,-0.12843983,0.2047822,-0.098198935,0.07946749,0.04174099,0.11486993,0.1515798,-0.26875186,-0.114321545,0.041885022,-0.026144618,0.12955718,-0.066806756,0.028220553,0.2961264,-0.017018756,0.18121658,-0.37671885,0.106721215,-0.096763216,0.082622096,0.21413231,-0.08124369,0.10202425,-0.024347464,-0.24340315,0.31912717,-0.4307413,-0.013890396,0.40652224,0.12459073,-0.20551649,0.23227718,0.1463478,0.058294445,-0.18104804,-0.26983804,-0.09366575,0.00874783,0.17880943,-0.0009463072,-0.20198475,0.1813015,0.29842043,-0.20274022,-0.07968271,-0.19191192,0.2135957,0.10481199,-0.27480575,0.010008493,-0.035270285,0.24116392,0.0413549,-0.028573358,0.19587763,-0.023244185,0.011646011,0.24426198,0.6211239,-0.1457743,-0.0016453154,0.2917768,0.31095877,-0.0690703,0.06770608,0.37223923,0.029813379,0.16649207,0.22953904,0.19053648,0.14587116,-0.17094965,-0.0017500177,0.040450353,0.08780282,0.29770333,-0.071949035,0.2688154,0.10891443,-0.014969356,-0.28929958,-0.05070269,-0.15998425,-0.089982405,0.038904097,-0.09146835,-0.0970463,-0.045939934,-0.21751551,0.090240784,-0.039112758,0.08366404,0.22525108,-0.019415187,0.058914363,0.07778265,-0.020907804,0.22592294,0.0013397832,-0.049571335,0.21195422,-0.23997048,0.21832295,-0.19805439,0.1909922,0.10031839,-0.025574937,-0.19732745,0.23982763,-0.1498775,0.26997516,-0.15709087,0.16401514,-0.013803491,0.15708232,-0.15850322,0.025663108,0.029091252,0.012288411,-0.20244963,0.15746878,0.045876842,-0.3236812,-0.15331343,0.43739685,-0.12571813,0.05914594,0.16168913,-0.17614286,-0.37330768,-0.049014032,0.17376803,0.27000505,0.068355024,-0.26443446,-0.22916663,0.09944268,-0.1630641,0.44605407,0.04643282,-0.12629238,0.030352188,0.08961436,-0.06891728,-0.07231387,0.02572522,0.057997763,0.14436166,-0.20388274,0.23392056,-0.10367636,-0.2596058,-0.015067497,0.40311456,0.0306695
1_11055_u,0.13254716,-0.12217014,-0.21567734,0.10990532,0.06351425,-0.054634165,0.11213112,-0.23913257,-0.07758287,0.0679152,0.15089603,0.091454946,-0.12960052,0.07891853,0.24249673,-0.08204814,-0.04329145,0.027484609,-0.06504356,-0.12564704,0.2144581,-0.27949408,-0.009630762,0.15542187,0.23093997,-0.029242618,0.059816122,0.06872153,0.029575502,-0.120448306,-0.2327965,0.14400686,0.091867134,-0.2673464,0.31611162,-0.4853942,-0.08754802,0.11697143,0.041881412,0.21519299,-0.07494054,0.14141004,-0.2461357,0.069612384,-0.07152525,0.12197603,-0.21371178,-0.24201493,-0.041795958,0.035721477,-0.20057993,0.06282001,0.0110186245,-0.14655231,0.32904777,0.036684442,0.012976167,-0.1075597,-0.12642431,0.107671656,-0.1536,0.045110364,0.21322988,-0.14839955,-0.02302641,0.05343858,0.1794087,0.09835855,0.14328527,-0.29194972,0.088666536,-0.007014314,-0.057815917,0.030577201,-0.06590887,0.16809204,0.1049734,-0.02260085,0.3864358,0.27117518,-0.18319057,0.18712047,0.00283123,0.3071679,-0.005383232,-0.15464333,-0.042528473,-0.16270725,-0.17335935,0.18230876,0.2802759,-0.16845967,-0.16491726,0.23392916,0.030862689,-0.21685289,-0.001700436,-0.05691728,0.24798922,0.32662305,-0.09022122,0.08527491,0.04249924,0.060488787,0.10724328,-0.043939605,0.2020628,-0.2780083,-0.039934494,0.1848178,0.10222609,0.11990495,-0.122441195,0.10014627,0.20299573,0.029344378,0.2327166,-0.20891885,0.0018836278,-0.119197845,0.11578919,0.2028493,-0.13593769,0.12573154,-0.0670858,-0.15656315,0.32039493,-0.3518351,0.20711318,0.24928842,0.11845415,-0.16793333,0.17987262,0.13343495,0.043910436,-0.07082603,-0.14349893,-0.100375295,0.09176337,0.09827219,-0.06427129,-0.12531619,0.08179112,-0.013109021,-0.13177805,-0.045901436,-0.045393776,0.14445877,0.08122479,-0.25277835,0.17548166,-0.005019584,0.2572257,0.11114218,-0.11384437,0.21431223,-0.06892103,0.097893,0.19067486,0.40164596,-0.17118607,-0.046890736,0.15414989,0.17416157,0.03401294,0.10903364,0.05442495,0.19673516,-0.004138741,0.14136945,0.09890903,0.16216163,0.09218997,0.04219516,0.07369494,0.05379287,0.19967467,0.006326008,0.11553153,-0.0073096887,-0.1510395,-0.2220511,0.03000088,-0.043961387,-0.120432094,-0.02449408,-0.1764556,-0.15326193,-0.0777309,-0.20902348,0.08219628,-0.013190487,0.06864466,-0.019568672,-0.052691367,0.15736651,-0.037738558,-0.01897162,0.09585499,-0.06224636,-0.09144547,0.16451223,-0.28285557,0.23424768,-0.09205717,-0.016133476,-0.0069709346,0.015798824,-0.15821531,0.07482271,-0.16772364,0.24631229,-0.22448722,0.0789704,0.033089727,0.19765677,-0.037775114,0.10002996,-0.053788483,-0.07475418,-0.18952368,0.21192849,0.043983575,-0.088016056,0.035330255,0.24254858,-0.16375795,0.040872026,0.0900678,-0.0372155,-0.0680577,-0.069762535,0.099041276,0.13560125,0.12732123,-0.2922841,-0.21210285,0.14679614,-0.14636998,0.28012407,-0.031099696,-0.21289504,-0.099502765,0.005793531,-0.07456137,0.029159123,-0.057730462,0.14134,0.09018832,-0.13697465,0.16149122,-0.089526646,-0.25727984,0.017267909,0.40095606,0.06426802
1_11098_u,0.18822432,-0.23673014,-0.038582843,-0.084628634,-0.06815265,-0.042977136,0.1461101,-0.27879128,-0.02272079,-0.028314454,0.21092038,-0.03071398,-0.027406022,0.054323412,0.14917928,-0.05304411,0.04124441,0.096935414,-0.25751004,-0.094113916,0.22549395,-0.27434054,0.10552632,0.11635826,0.17487441,-0.07032501,0.023218349,0.039040413,-0.06480246,-0.21109104,-0.24975038,0.06536627,0.09970217,-0.36062193,0.26285985,-0.2616511,-0.118777454,-0.017362474,-0.015849138,0.20198081,0.07966713,0.16751951,-0.0661475,0.12945744,0.07635236,0.070259236,-0.101377144,-0.18426463,-0.014978728,-0.052512985,-0.118649185,0.2068051,0.077757716,-0.11980065,0.21510296,0.08162692,-0.1059299,-0.19556275,-0.0907097,-0.051813032,-0.08457748,0.08277412,0.2177292,-0.12481661,-0.16918318,-0.06434609,0.22510849,0.23188327,0.10730695,-0.1714212,0.14555402,-0.22760737,-0.08557143,0.10764064,-0.09784971,-0.03546687,0.06626218,-0.00031932312,0.25601608,0.11263988,-0.13026784,0.24791351,0.008768116,0.22402807,0.05485187,-0.10515384,0.049886312,-0.034908872,-0.35441962,0.13230418,0.16498236,-0.14614521,-0.27236512,0.24941583,0.07317879,-0.24417041,0.040637247,-0.17335379,0.11392597,0.24175549,-0.039932586,0.0005185112,-0.025628764,0.078821145,0.045191426,-0.17263816,0.22977595,-0.27009207,-0.0129744755,0.08298852,0.058905847,0.19958027,-0.14907621,0.021901418,0.2567655,0.123561196,0.21613534,-0.17690685,-0.051625807,0.04247793,0.070094325,0.21976064,-0.32380733,0.17125402,0.007832239,-0.15575162,0.39429432,-0.17517711,0.083900504,0.081994966,0.0715827,-0.08521808,0.2065496,-0.011625528,0.07299984,-0.17519234,-0.20150594,-0.11456864,0.15330124,0.14518718,-0.07594371,-0.13201106,0.11019652,0.033142164,-0.10108314,-0.06384328,-0.04861758,0.10862853,0.03401748,-0.23555318,0.16680343,-0.03322599,0.28307968,0.042604316,-0.04186016,0.12746306,-0.03030028,-0.06303757,-0.0076912083,0.25554308,-0.057048943,-0.031040275,0.055614825,0.09027709,0.13356356,-0.0001521526,-0.07951769,0.2341355,0.0062945853,0.06045542,0.071626484,0.053780306,0.18238382,-0.010096875,0.031247709,0.09105368,0.08666217,0.109115,0.079652354,-0.046652164,-0.30893055,-0.15578368,0.03652386,0.016951254,-0.07062501,0.002029843,-0.2756069,-0.13438514,-0.17543785,-0.25390026,0.014734178,0.017873855,0.11131903,-0.17238812,-0.20885494,0.2831974,0.104429424,-0.015852466,0.1248762,-0.019166261,-0.13971291,0.08714034,-0.15495615,0.15715067,0.10348532,-0.04416105,-0.00880438,-0.05280704,-0.15917292,0.009140208,-0.02025326,0.35659286,-0.24450953,0.09703251,0.08986107,0.27093908,-0.023109525,0.06649806,-0.116222285,-0.066882454,-0.20241325,0.19706796,0.104335144,-0.08249937,0.16584113,0.17029713,-0.09817868,0.09993612,0.015589687,0.021397816,0.15208983,-0.03798985,-0.025388835,0.070034586,0.025229922,-0.22963674,-0.31280202,0.031377595,-0.21195893,0.33717152,-0.011062885,-0.22260551,-0.13437681,0.043850705,-0.16083889,0.011839512,-0.08178739,0.072330944,-0.0047294707,0.05903327,0.11404898,-0.13291344,-0.077269234,0.041345455,0.25042152,0.04330818
1_11120_u,0.22852395,-0.1681196,-0.08069577,-0.017491763,0.015726209,-0.10631766,0.21008913,-0.35604638,-0.020472428,0.028562903,0.17744146,-0.024296684,-0.055866014,0.17505085,0.18247998,-0.052965313,-0.003003517,0.015833838,-0.11568662,-0.0064298706,0.21185254,-0.29480624,0.11281194,0.10325034,0.20658007,0.010117474,0.06038025,0.043960404,0.003448677,-0.21628661,-0.38352808,0.09116628,0.11814006,-0.24966982,0.4002181,-0.37051758,-0.01994127,-0.0039597796,0.018343132,0.1858015,0.0722447,0.032479133,-0.14506887,0.024748756,-0.055748332,0.11049873,-0.15919346,-0.15383278,-0.046859335,-0.031656988,-0.18156168,0.1827496,0.17444627,-0.05297458,0.29305297,0.026355332,-0.053090632,-0.2039477,0.017156085,0.044734184,-0.09837924,0.013857109,0.30782458,-0.10841151,-0.15601034,0.0043163537,0.14579642,0.19033864,0.103069,-0.27111378,0.18675749,-0.073312774,0.0056741834,0.08734846,-0.13911377,0.09913871,0.10490151,-0.04332491,0.45579153,0.1233104,-0.19708847,0.25086477,0.02041038,0.2896797,0.03083756,-0.17053531,-0.02307654,-0.15669803,-0.30074137,0.09107538,0.24807186,-0.073614754,-0.19581202,0.25475904,0.04266819,-0.17802107,0.02578955,-0.11493969,0.15461843,0.24780841,-0.02357648,0.0054516396,0.04008941,0.11975838,0.12664089,-0.092531785,0.2389565,-0.22170638,0.03044567,0.17334448,0.14392082,0.16488467,-0.12618726,0.075042166,0.15275289,0.04612624,0.25761652,-0.17442016,-0.06941509,0.050269432,0.08638917,0.16428226,-0.18545857,0.22591591,-0.08683229,-0.093850926,0.369315,-0.30533487,0.21225066,0.13609128,0.064193025,-0.1089304,0.23066178,0.08801987,0.100792825,-0.0966969,-0.1354631,-0.1440838,0.16629373,0.084799685,-0.09534427,-0.15009122,0.12334873,-0.06939113,-0.18970338,-0.028879318,-0.04772619,0.10534211,0.11659334,-0.31524625,0.2262791,0.032282542,0.2231855,0.07378635,-0.10127937,0.23497005,-0.099611275,0.011803816,0.09347416,0.23475075,-0.15300481,-0.03880166,0.05940005,0.031041076,0.1859814,0.04587807,-0.1250962,0.20910516,-0.025556464,0.10969191,0.09088942,0.072255015,0.2040702,0.03767587,-0.010382641,-0.0064338967,0.104064725,0.09708046,0.08896642,0.0072627263,-0.29279658,-0.15328756,0.043784417,-0.059342403,-0.17391248,-0.036782805,-0.16502322,-0.10266192,-0.12991278,-0.23373802,0.084460646,0.019647313,0.08684816,-0.21225563,-0.11014058,0.22304718,0.0018563569,0.042513635,0.051705647,-0.09459574,-0.040181298,0.1327102,-0.29248703,0.21770576,0.047215026,-0.08862492,0.021611875,-0.04812249,-0.16248111,0.01658607,-0.11293427,0.26209292,-0.1892216,0.039338123,0.049165446,0.2345716,-0.020936687,0.13589941,-0.0829524,-0.13897663,-0.19379443,0.23790105,0.05864219,-0.01861884,0.13697591,0.10632868,-0.12929621,-0.0031290108,0.062263448,-0.055580746,0.16717158,0.00623868,-0.0064327614,0.10441782,0.043111943,-0.24001436,-0.21350323,0.03271733,-0.19821098,0.24628738,-0.068788685,-0.16216801,-0.088269524,0.03232791,-0.062238276,0.068298616,0.02770621,0.19611053,0.030290553,-0.10756767,0.15263702,-0.081135616,-0.15034354,0.08091419,0.30387762,0.028010739
1_11177_u,0.07102116,-0.080276035,-0.2627151,0.17532177,-0.04078899,0.012049827,0.010492164,0.036627702,-0.18254353,-0.12715732,0.029435907,0.17216416,-0.22869329,-0.0023114828,0.35294816,-0.06299317,-0.034224775,0.23503427,-0.04539865,0.027661655,0.27765247,-0.209214,-0.17230226,0.056901336,0.03692999,-0.13563119,-0.012312876,-0.041246288,-0.07529116,-0.09299,-0.04172538,0.1875285,0.03495302,-0.3517886,0.26370904,-0.4753395,-0.25474483,0.3465017,-0.03524977,0.062093712,-0.2302763,0.2614083,-0.23763132,0.26039195,0.058170326,0.1200719,-0.23776849,-0.28016937,0.10194707,0.0040033516,-0.20400439,-0.121065795,-0.13849798,-0.23058975,0.03469573,0.033780508,-0.053762734,-0.09383902,-0.027630383,-0.09737303,0.009519911,0.08477544,0.025687516,0.00839401,0.13684794,0.17692,0.3005789,0.103651956,0.12936786,-0.21860376,-0.13788438,-0.06941279,-0.33033517,0.004536157,0.12950407,0.094033055,0.037118334,0.14144495,0.11910077,0.19784808,-0.032780822,0.044089954,-0.024030635,0.019148346,-0.00019398145,-0.16737106,0.06578051,-0.04240167,-0.19167285,0.18176107,0.32304978,-0.270176,-0.014325528,0.09177294,-0.049478482,-0.33741546,0.0021578341,-0.07117348,0.17579491,-0.15551771,-0.087936245,0.09805905,-0.054612458,0.070558764,-0.12577327,0.1320805,0.16679607,-0.3551257,-0.20370264,0.043105196,-0.067379974,0.10160688,-0.13920157,0.051201325,0.32615146,-0.024383973,0.07913637,-0.25860754,0.016003162,0.079862736,0.16902548,0.20475276,-0.18088262,-0.15954928,0.01016995,-0.13491982,0.24532239,-0.12840055,-0.108461045,0.23880868,0.060837056,-0.13850693,0.2576702,-0.025610035,0.008931257,-0.33097085,-0.24544792,0.06517882,0.21208683,0.26251718,-0.047266405,-0.13660891,0.19497608,0.3423999,-0.08170946,0.052395105,-0.24536286,0.16724522,0.09488829,-0.2026311,-0.07160005,-0.062478937,0.2804881,-0.029253244,0.08396035,0.028779512,0.10699772,-0.017697776,0.13219689,0.59376156,-0.014740901,0.15036929,0.08265781,0.28928015,-0.020730574,0.03218181,0.39594588,-0.050596237,0.08838966,0.21146487,0.26047784,0.06500424,-0.121856265,0.004573585,-0.043580737,0.08238264,0.24294929,0.15784286,0.34558433,0.086789854,0.01582138,-0.30412897,0.039252803,-0.06358448,-0.0705884,0.05346483,-0.048845213,-0.06464905,0.13435718,-0.08975853,0.09043713,-0.0030475208,0.13849008,0.21407793,-0.055055764,0.18209499,0.22339974,-0.06945674,0.251842,0.036621876,-0.08599803,0.12432163,-0.09391832,0.09910384,-0.1534376,0.30132693,0.039284,-0.07811641,-0.09698706,0.24833472,-0.17699789,0.2794497,-0.014779431,0.19523542,-0.043662965,0.2052526,-0.12847245,0.03927615,0.0677961,-0.025842419,-0.17839763,0.21753097,0.09808495,-0.2752907,-0.018293463,0.48681232,-0.094722085,0.15709503,0.19159706,-0.23535304,-0.26085413,-0.0076061427,0.1029917,0.2577158,0.09663195,-0.16408603,-0.22510254,-0.05523595,-0.07833677,0.39603347,0.04342376,-0.14876641,-0.02768721,0.08911917,-0.17645068,-0.18734586,-0.010499687,-0.053941913,0.1135543,0.0020834655,0.2347678,-0.07866784,-0.0841647,0.095433615,0.23788615,0.035802152
1_11201_u,-0.015262656,-0.08857694,-0.07375709,-0.0010492534,0.063894786,-0.048804548,0.107126035,-0.22285376,-0.059063148,-0.13004725,0.1012826,-0.030198682,-0.11502039,0.10056465,0.12671731,0.023741733,0.061162453,0.08115494,-0.15974103,0.06395577,0.056785464,-0.17022924,0.010118663,0.1345674,0.10111203,-0.14701693,0.033487972,-0.06028354,-0.008194342,-0.08608588,-0.073458664,-0.022047466,0.023435524,-0.27847856,0.1847637,-0.3573154,-0.07914632,0.17490235,-0.05661006,0.026692057,0.044091083,0.11380229,-0.06050683,0.139769,0.032068785,0.160825,-0.019899383,-0.1485114,0.08080647,-0.08743663,-0.108237505,0.111566104,0.06594361,-0.1677417,0.1798252,0.12811278,-0.022882165,-0.091011725,0.08734754,-0.031050926,0.07023716,0.066639245,0.0019670308,-0.015405332,-0.0096443985,0.10858442,0.23557709,0.10520091,0.069002286,-0.22907539,-0.034075987,0.0029306866,-0.04987667,0.03505206,0.04047061,0.103751436,-0.025618155,0.06458969,0.24481001,0.18426943,0.01225247,0.09401386,0.07190954,0.0979355,0.037768725,-0.15726767,0.026953524,-0.10587493,-0.102621965,0.0981866,0.2945856,-0.17501925,-0.1348743,0.14779815,0.07214294,-0.26970193,-0.077159084,-0.10387498,0.13864425,-0.014966621,-0.004917142,0.17187555,-0.034167476,0.118731335,0.038059413,0.06755315,0.09849696,0.018200234,-0.021588642,-0.028843319,-0.019505395,0.2211223,-0.05053264,0.005550018,0.23397253,0.017162245,0.22613673,-0.35996172,0.036217388,0.10927882,0.022037517,0.06716887,-0.12588814,0.19395201,0.037412684,-0.16879217,0.3388987,-0.21497288,-0.011855483,0.18319611,0.045003604,-0.013863759,0.3088428,0.08159289,0.13412249,-0.2626939,-0.21809529,0.043286372,0.050597496,0.17824249,-0.012621629,-0.23590384,0.26130456,0.21767405,-0.287518,-0.14094849,-0.2441185,0.15666947,0.0556903,-0.24024768,-0.024112348,-0.07779484,0.24365734,0.067542,0.046689864,0.1452031,-0.012078116,-0.12626122,0.11038057,0.18440501,-0.09933172,-0.021207813,0.21493569,0.101074934,0.025476908,-0.020472784,0.09363577,0.014556015,0.16820207,0.093831435,0.16501239,-0.024814779,0.0093756495,-0.08259917,-0.075930215,-0.018527351,0.16602841,0.02111025,0.20815502,0.25652063,-0.11783798,-0.07347853,0.026836336,-0.12698984,-0.04093149,-0.005741863,-0.11148006,0.033126663,-0.11655221,-0.20486024,0.042481836,0.098848976,0.08012109,0.05178659,-0.16859347,0.15774289,0.00028268396,0.08265084,0.16761343,-0.020289598,0.09522879,0.07343522,-0.10487769,0.15783747,0.03800863,0.107568875,0.14268066,-0.06431683,-0.12387403,0.093663536,-0.055870052,0.1576234,-0.07499588,0.024797747,0.09300171,0.13979626,-0.14469717,-0.019025518,0.0073406943,-0.020597303,-0.09052451,0.09746584,0.044210263,-0.22246666,0.016302098,0.20608103,-0.004727248,0.07395061,-0.049947597,-0.1283992,-0.15369135,-0.02144179,0.050941348,0.19943897,-0.054859757,-0.13807593,-0.27722368,-0.08192722,-0.16118495,0.42313203,0.0019954478,-0.02253124,0.14297654,0.11384016,-0.09028926,-0.11149426,0.19508426,0.07262664,0.048720118,-0.044520427,0.14785086,-0.112329796,-0.16526616,0.042028233,0.17399867,-0.07793524
1_11224_u,0.043840498,-0.1622815,-0.24537003,0.104799986,0.0777831,-0.037033904,0.07542988,-0.27297392,-0.050200876,0.053661793,0.18526673,0.0824962,-0.12978846,-0.0048984187,0.1933081,-0.04314178,0.004773717,0.044487298,-0.16619106,-0.15654919,0.19183338,-0.26587585,-0.066288225,0.25099802,0.25687045,-0.099654354,0.063488215,0.07223783,0.03705398,-0.06243802,-0.09816311,0.10840185,0.11760827,-0.31623265,0.20590703,-0.4816123,-0.12026997,0.19481066,0.05234992,0.18263045,-0.11271846,0.2530205,-0.256706,0.11898655,-0.015345517,0.11228632,-0.16119595,-0.34155667,0.01769592,0.014276251,-0.15591314,0.08598628,-0.026341,-0.2179259,0.35320646,0.119999364,0.014419103,-0.09026994,-0.17581593,0.10064204,-0.19432901,0.087771654,0.13017431,-0.18211158,-0.014858092,0.048153456,0.21048644,0.0952807,0.14062214,-0.26673898,0.068694435,0.017888356,-0.036162466,-0.015445833,-0.023876661,0.16003811,0.117408335,0.031940017,0.26489636,0.3458954,-0.10507691,0.15158546,0.026958495,0.35092983,0.023711344,-0.19209781,-0.005305596,-0.12935364,-0.13853052,0.2650338,0.29354277,-0.24473949,-0.26131985,0.22332004,0.051668674,-0.31988475,-0.04049326,-0.06785092,0.25439772,0.31247965,-0.118791156,0.12282337,-0.03892456,0.063530535,0.12424021,-0.041881926,0.17751169,-0.26296648,-0.043768223,0.08227506,0.03080839,0.1478509,-0.05343296,0.049055263,0.22168076,0.04527067,0.2403454,-0.29188237,0.09463742,-0.16420439,0.07453208,0.23481134,-0.16641565,0.20067325,-0.014265239,-0.24575074,0.3660995,-0.3986527,0.104352616,0.32909843,0.1304882,-0.17937823,0.20517619,0.16283746,0.055414703,-0.11981086,-0.22959904,-0.14290565,-0.025859574,0.14292175,-0.018554712,-0.13988215,0.10184359,0.13899274,-0.19705132,-0.1322062,-0.07900228,0.18802749,0.050396062,-0.20987001,0.107863046,-0.034479365,0.21976785,0.122862816,-0.1066493,0.20809174,-0.063895985,0.06718298,0.15773505,0.48422033,-0.16554497,-0.09302646,0.26945946,0.2167921,-0.0281668,0.083635546,0.15283619,0.23474284,0.076102644,0.11975371,0.060379703,0.14493461,0.03454345,-0.04443511,0.1006807,0.10965381,0.23220952,-0.08779385,0.13883273,-0.0001728587,-0.075202964,-0.22546735,0.0013803401,-0.060432535,-0.0169362,-0.0022362121,-0.25916883,-0.12426446,-0.121072486,-0.2875212,0.05898055,-0.0010175465,0.05322907,0.045058526,-0.07964899,0.09162827,-0.009131985,0.005221942,0.1542995,-0.02576734,-0.1347986,0.18532565,-0.2503998,0.22189222,-0.11330783,0.028178325,0.00374352,0.040996313,-0.20818141,0.09393115,-0.10216291,0.27973774,-0.2813513,0.12231045,0.043020062,0.22103074,-0.09815406,-0.012768596,-0.06380909,0.003880398,-0.1741647,0.12168994,0.065641485,-0.20671546,-0.029156584,0.2764014,-0.12803721,0.07031903,0.06194206,-0.011793631,-0.18252485,-0.06748425,0.14233395,0.15613681,0.09926961,-0.29563424,-0.2954094,0.18499902,-0.19477408,0.35534,0.03640696,-0.20730649,-0.040083736,0.060621675,-0.06802881,-0.023898669,-0.058071177,0.09672054,0.060140777,-0.11682117,0.15141128,-0.13643917,-0.279729,-0.07713508,0.4362851,0.051160254
1_11232_u,0.3386654,-0.3121303,0.07954566,-0.16620599,-0.15013199,0.17127484,-0.016394353,-0.007059799,-0.24849725,-0.121321514,0.16708647,0.005891809,-0.11744016,0.14730786,0.37585336,-0.072358996,-0.021004891,0.30493256,-0.22453313,-0.06730228,0.38248548,-0.27247742,0.09525472,-0.017914718,0.0948152,-0.08952633,-0.0466831,-0.07928729,-0.1966933,-0.28423038,-0.26678762,0.14681761,0.0720878,-0.49392518,0.25929284,-0.27474156,-0.27723822,-0.005669642,-0.011481757,0.3275291,0.021125393,0.11741995,0.040343273,0.2546648,0.3476006,0.12682353,-0.07436526,-0.000844606,-0.11396801,-0.032034516,-0.22850402,0.04626484,-0.06554373,-0.14650278,0.069498874,0.023524674,-0.16428451,-0.19999029,-0.07919951,-0.25370273,0.061946936,0.1880086,0.26095828,-0.063509434,-0.113765016,-0.052195985,0.38581282,0.32004756,0.14599155,-0.20775557,0.01552611,-0.5049102,-0.46725965,0.20014028,-0.03525438,-0.12471316,0.029085873,0.06368591,0.24199012,0.055570018,-0.15836224,0.2515665,-0.023818692,-0.043238405,0.11477579,-0.038664807,0.09611126,-0.0012810894,-0.4803741,0.04571555,0.16272667,-0.23717843,-0.042245395,0.18335178,0.027252102,-0.22397767,0.060302544,-0.31439248,0.14728363,0.18633913,-0.019900305,0.06974758,0.04765853,0.063385114,-0.23370771,-0.20468798,0.29109386,-0.4003257,-0.1453114,0.13247107,-0.009314494,0.16275203,-0.36748058,0.011828541,0.4842817,0.19680099,0.18647695,-0.26317978,-0.13352153,0.10023542,0.10805774,0.2545532,-0.35128465,-0.18886286,0.15412523,-0.04435013,0.2863181,0.03895855,0.15202269,-0.055635482,0.095512755,0.07477577,0.24840692,-0.151493,-0.0682941,-0.35525167,-0.26752487,0.1538101,0.4393774,0.24561603,-0.06373718,-0.22691941,0.20166187,0.048751164,0.15731837,0.13109218,-0.08670969,0.11334413,0.01695816,-0.23536761,0.13199335,-0.07860269,0.46106505,-0.09110119,0.10222955,-0.058754355,0.04753827,-0.07820618,-0.0052530398,0.23843132,-0.0017142438,0.059275776,-0.07441995,0.11570837,0.068852924,-0.010042252,-0.08502829,0.008408472,-0.0300282,0.065685466,0.28264782,0.109866336,0.20864795,0.09219139,0.0380959,0.082792096,0.15760788,0.38545775,0.18291722,0.0009693416,-0.47853056,-0.19257052,0.059773214,0.08591705,-0.17048045,0.05018244,-0.24869338,-0.23336451,-0.09891203,-0.14593866,-0.12708312,-0.045846175,0.25469375,-0.09085431,-0.27237585,0.545924,0.18935037,-0.10460954,0.30251238,0.04384261,-0.08356374,-0.047770955,-0.043111317,0.13291827,0.11862425,0.022761626,-0.04744523,-0.085664086,-0.023461998,-0.04302862,-0.053403735,0.42967588,-0.06597493,0.16974206,0.21115251,0.27988756,0.03556198,0.1618833,-0.0487079,-0.23572126,-0.15150933,0.37688208,0.117056705,-0.05620855,0.27460828,0.32118636,-0.11656499,0.23261979,0.038507916,-0.042877734,0.23365794,-0.12421683,0.053514797,-0.0046130703,0.057260927,-0.09781241,-0.24770479,-0.041496973,-0.0793435,0.50033695,-0.08025356,-0.33129847,-0.22970203,0.062277265,-0.44294667,-0.046211112,-0.28793755,-0.03889444,0.08595172,0.23429361,0.12800962,-0.1058676,0.034827676,0.2412561,0.079266705,0.15389632
1_11236_u,0.2238694,-0.22782138,-0.16331473,0.018515265,0.063773386,-0.14287668,0.21103083,-0.5224831,0.066376925,0.10215392,0.23338924,0.00661676,-0.11247969,0.1356055,0.14008912,-0.10124562,0.017680477,-0.038762167,-0.18895781,-0.028707022,0.19923683,-0.34750244,0.07379674,0.25532645,0.36044183,-0.046210647,0.10577624,0.11990849,0.09074348,-0.16805668,-0.40907845,0.06997803,0.22161794,-0.27265158,0.43717304,-0.52004874,0.023169138,0.03129906,0.080045156,0.16663058,0.045136362,0.0946475,-0.26760074,0.015639901,-0.09785241,0.099821724,-0.20527308,-0.29779616,-0.049735926,-0.05054423,-0.2118598,0.23861907,0.23685418,-0.07576815,0.40485737,0.09278426,0.0013409645,-0.2016002,-0.050885964,0.1267955,-0.21541524,0.04823742,0.32968053,-0.23961495,-0.19480252,0.0017481672,0.16892198,0.17139395,0.11128666,-0.37144914,0.28224933,0.006917069,0.11723961,0.08923612,-0.18684347,0.1977766,0.19019441,-0.0993726,0.5759205,0.26422647,-0.1994702,0.27416173,0.0034006424,0.5526417,0.044666108,-0.25665885,-0.012950082,-0.25040004,-0.2768827,0.16405712,0.36508268,-0.11279416,-0.3191073,0.30630288,0.06169364,-0.2720382,0.01077118,-0.114860035,0.27004895,0.44313237,-0.050121974,0.02626422,0.0027433569,0.17819898,0.2265439,-0.104345314,0.27085015,-0.27127746,0.068224005,0.183582,0.16913615,0.14637311,-0.08066493,0.06932275,0.15443705,0.051111627,0.35825,-0.2443933,-0.00654952,-0.030873818,0.09939725,0.19943924,-0.17019822,0.38864818,-0.08647913,-0.17770602,0.48837358,-0.5342592,0.25652266,0.30894676,0.11852764,-0.18859205,0.29766414,0.20981823,0.10432047,-0.09025281,-0.2486238,-0.26998806,0.03965578,0.0807749,-0.058279216,-0.1717722,0.15277933,-0.061431944,-0.31933805,-0.10105475,-0.051364865,0.14257029,0.108120255,-0.3582139,0.26294556,0.06317462,0.19550495,0.14474426,-0.24741213,0.3122316,-0.16412947,0.07364799,0.12947407,0.34072384,-0.2283647,-0.0907683,0.20891245,0.0824581,0.15199368,0.061514277,-0.0950466,0.36153227,0.008383947,0.09055581,0.051112134,0.11628884,0.19550793,-0.036992766,0.053881343,-0.0013198853,0.18766986,-0.07813132,0.06254646,-0.0011749968,-0.26510388,-0.23421374,0.0023828435,-0.115372896,-0.13624151,-0.020950379,-0.25609526,-0.10897974,-0.23121095,-0.39076605,0.11716787,0.030046208,0.047563255,-0.20198996,-0.14315109,0.1510344,-0.04720397,0.12077482,0.047827516,-0.08838269,-0.09687145,0.23062932,-0.41564932,0.34094638,-0.028475517,-0.1342924,0.037650984,-0.021580776,-0.24660301,-0.014986651,-0.098303385,0.2865204,-0.33301532,0.03238797,0.03964707,0.2834116,0.01404492,0.09805801,-0.12334583,-0.09275824,-0.25080138,0.20888679,0.080993906,-0.07935011,0.061966468,0.12544928,-0.18005268,-0.041972972,0.12857282,-0.07467859,0.08232191,0.0031413983,0.07122902,0.1366396,0.07780346,-0.35112968,-0.28104064,0.1306411,-0.25970268,0.3033281,-0.056196447,-0.20450373,-0.085433856,0.06608528,-0.0061379257,0.12154257,0.025079286,0.26986098,0.015067509,-0.2448204,0.16337724,-0.0858245,-0.28045207,-0.045939147,0.4715105,0.016620092
