ImageName,Embedding_0,Embedding_1,Embedding_2,Embedding_3,Embedding_4,Embedding_5,Embedding_6,Embedding_7,Embedding_8,Embedding_9,Embedding_10,Embedding_11,Embedding_12,Embedding_13,Embedding_14,Embedding_15,Embedding_16,Embedding_17,Embedding_18,Embedding_19,Embedding_20,Embedding_21,Embedding_22,Embedding_23,Embedding_24,Embedding_25,Embedding_26,Embedding_27,Embedding_28,Embedding_29,Embedding_30,Embedding_31,Embedding_32,Embedding_33,Embedding_34,Embedding_35,Embedding_36,Embedding_37,Embedding_38,Embedding_39,Embedding_40,Embedding_41,Embedding_42,Embedding_43,Embedding_44,Embedding_45,Embedding_46,Embedding_47,Embedding_48,Embedding_49,Embedding_50,Embedding_51,Embedding_52,Embedding_53,Embedding_54,Embedding_55,Embedding_56,Embedding_57,Embedding_58,Embedding_59,Embedding_60,Embedding_61,Embedding_62,Embedding_63,Embedding_64,Embedding_65,Embedding_66,Embedding_67,Embedding_68,Embedding_69,Embedding_70,Embedding_71,Embedding_72,Embedding_73,Embedding_74,Embedding_75,Embedding_76,Embedding_77,Embedding_78,Embedding_79,Embedding_80,Embedding_81,Embedding_82,Embedding_83,Embedding_84,Embedding_85,Embedding_86,Embedding_87,Embedding_88,Embedding_89,Embedding_90,Embedding_91,Embedding_92,Embedding_93,Embedding_94,Embedding_95,Embedding_96,Embedding_97,Embedding_98,Embedding_99,Embedding_100,Embedding_101,Embedding_102,Embedding_103,Embedding_104,Embedding_105,Embedding_106,Embedding_107,Embedding_108,Embedding_109,Embedding_110,Embedding_111,Embedding_112,Embedding_113,Embedding_114,Embedding_115,Embedding_116,Embedding_117,Embedding_118,Embedding_119,Embedding_120,Embedding_121,Embedding_122,Embedding_123,Embedding_124,Embedding_125,Embedding_126,Embedding_127,Embedding_128,Embedding_129,Embedding_130,Embedding_131,Embedding_132,Embedding_133,Embedding_134,Embedding_135,Embedding_136,Embedding_137,Embedding_138,Embedding_139,Embedding_140,Embedding_141,Embedding_142,Embedding_143,Embedding_144,Embedding_145,Embedding_146,Embedding_147,Embedding_148,Embedding_149,Embedding_150,Embedding_151,Embedding_152,Embedding_153,Embedding_154,Embedding_155,Embedding_156,Embedding_157,Embedding_158,Embedding_159,Embedding_160,Embedding_161,Embedding_162,Embedding_163,Embedding_164,Embedding_165,Embedding_166,Embedding_167,Embedding_168,Embedding_169,Embedding_170,Embedding_171,Embedding_172,Embedding_173,Embedding_174,Embedding_175,Embedding_176,Embedding_177,Embedding_178,Embedding_179,Embedding_180,Embedding_181,Embedding_182,Embedding_183,Embedding_184,Embedding_185,Embedding_186,Embedding_187,Embedding_188,Embedding_189,Embedding_190,Embedding_191,Embedding_192,Embedding_193,Embedding_194,Embedding_195,Embedding_196,Embedding_197,Embedding_198,Embedding_199,Embedding_200,Embedding_201,Embedding_202,Embedding_203,Embedding_204,Embedding_205,Embedding_206,Embedding_207,Embedding_208,Embedding_209,Embedding_210,Embedding_211,Embedding_212,Embedding_213,Embedding_214,Embedding_215,Embedding_216,Embedding_217,Embedding_218,Embedding_219,Embedding_220,Embedding_221,Embedding_222,Embedding_223,Embedding_224,Embedding_225,Embedding_226,Embedding_227,Embedding_228,Embedding_229,Embedding_230,Embedding_231,Embedding_232,Embedding_233,Embedding_234,Embedding_235,Embedding_236,Embedding_237,Embedding_238,Embedding_239,Embedding_240,Embedding_241,Embedding_242,Embedding_243,Embedding_244,Embedding_245,Embedding_246,Embedding_247,Embedding_248,Embedding_249,Embedding_250,Embedding_251,Embedding_252,Embedding_253,Embedding_254,Embedding_255
2_356_u_8,0.07214494794607162,0.037675660103559494,-0.052074920386075974,0.003154476871713996,-0.047234248369932175,0.3449702262878418,0.07572188973426819,-0.2924695611000061,-0.0727924183011055,0.034895431250333786,0.009538169950246811,-0.05097775533795357,-0.16802750527858734,-0.32783451676368713,-0.1277915984392166,-0.08472289890050888,0.17017559707164764,0.0036378272343426943,-0.08650082349777222,-0.07161860913038254,-0.20303462445735931,-0.002374772448092699,-0.2212994396686554,0.09706009179353714,-0.21413326263427734,0.04563403129577637,0.05584999918937683,0.14442197978496552,0.1262608915567398,0.31246230006217957,0.18332481384277344,-0.060996163636446,-0.03392654284834862,0.19996370375156403,-0.24656100571155548,-0.34311768412590027,-0.06554847210645676,-0.11787384748458862,-0.10250625759363174,-0.18134893476963043,-0.1211048886179924,0.31716299057006836,0.2035028487443924,0.10329192131757736,0.11950899660587311,-0.0028731231577694416,-0.1280728429555893,0.03156828507781029,-0.06133584305644035,0.016197387129068375,0.2856001555919647,0.23011772334575653,-0.18884126842021942,0.07999398559331894,-0.1310417801141739,0.038061756640672684,-0.07640842348337173,0.13692191243171692,0.020873425528407097,-0.16504338383674622,0.0026183943264186382,0.07017343491315842,0.15591834485530853,0.07287775725126266,-0.0017829149728640914,-0.15271149575710297,-0.025770997628569603,-0.03230328485369682,-0.12830813229084015,-0.00480645801872015,-0.1424235850572586,-0.08836177736520767,-0.44234776496887207,-0.07195291668176651,-0.04766387492418289,0.3264414966106415,0.629431962966919,0.09056594222784042,-0.052449680864810944,-0.04043632000684738,0.008652769960463047,-0.01428416557610035,0.04703855514526367,-0.3736186623573303,0.45003172755241394,-0.013106388039886951,0.2955703139305115,0.19707389175891876,-0.2898693382740021,-0.18112121522426605,-0.3125421702861786,-0.1455967128276825,0.20912599563598633,-0.05443654581904411,-0.07632231712341309,-0.20348142087459564,-0.1256275773048401,0.06868167966604233,0.20499025285243988,-0.16702987253665924,-0.182173952460289,-0.09279286116361618,0.015578354708850384,-0.13951502740383148,0.08246749639511108,-0.08215586096048355,0.11357995122671127,0.13174891471862793,0.009642688557505608,0.05911707878112793,0.023177260532975197,-0.28306061029434204,0.014131235890090466,0.025414301082491875,0.09336530417203903,-0.2668532133102417,0.2859022319316864,0.1302647590637207,-0.06947913765907288,0.16198685765266418,0.02900158427655697,0.004064336884766817,0.3267259895801544,0.22119605541229248,-0.3953428864479065,-0.12159238010644913,0.2049439400434494,-0.012144871987402439,-0.09497511386871338,-0.08265628665685654,0.16867198050022125,0.04415910691022873,0.09374907612800598,0.18118849396705627,0.15234927833080292,-0.11546298116445541,0.028629271313548088,0.13315995037555695,0.16652730107307434,-0.008646388538181782,0.12315195798873901,0.08574357628822327,-0.05357993394136429,-0.24132795631885529,-0.0010905422968789935,0.3525720238685608,0.2852931022644043,0.2404336929321289,-0.1830829381942749,0.051721252501010895,0.16269263625144958,-0.13339892029762268,-0.20879574120044708,-0.04766656830906868,0.1226905956864357,0.029743904247879982,-0.35281774401664734,0.15840038657188416,0.22498276829719543,-0.18648096919059753,0.1489073485136032,0.1039544865489006,-0.30217447876930237,-0.15275897085666656,0.10042650997638702,-0.2551177740097046,-0.09712418913841248,0.08469608426094055,0.05189945176243782,0.057758282870054245,0.14549817144870758,-0.09791236370801926,-0.3505967855453491,0.293016642332077,-0.12640830874443054,-0.11978273838758469,0.3633456230163574,-0.6993210911750793,0.19914190471172333,-0.004248186480253935,0.11379485577344894,-0.15172623097896576,-0.3490755259990692,-0.06793505698442459,0.14107410609722137,-0.157898411154747,0.12621764838695526,0.3315565288066864,0.2009393274784088,-0.15687552094459534,-0.11826449632644653,-0.2827376425266266,0.015406888909637928,0.003001973032951355,0.02530662715435028,0.16072940826416016,0.18901503086090088,-0.22479000687599182,-0.14501596987247467,-0.11671223491430283,0.0907488688826561,0.1823904812335968,-0.0046156360767781734,-0.1517927646636963,-0.3826659321784973,-0.06851267069578171,0.1915595978498459,-0.0895850881934166,0.08084843307733536,-0.36106833815574646,-0.11895284801721573,0.021844854578375816,0.3226345479488373,0.004835014697164297,-0.16096779704093933,0.3178783059120178,0.16372035443782806,0.02235189639031887,0.24077549576759338,-0.4207155406475067,0.031502801924943924,0.10983478277921677,0.011601700447499752,0.07894457876682281,0.2149738073348999,-0.23053228855133057,0.007996219210326672,0.12063635885715485,-0.15958347916603088,-0.05349954590201378,0.1334245800971985,-0.06585068255662918,0.13295108079910278,-0.26461687684059143,0.2026635855436325,-0.008949622511863708,-0.2742815613746643,-0.05568757280707359,-0.1927955150604248,-0.29516226053237915,0.07872437685728073,-0.291502445936203,0.2343888282775879,-0.1361594945192337,-0.2221996784210205,-0.11977723985910416,-0.3618268370628357,0.0761578381061554,-0.231944277882576,0.03078802302479744,-0.32628685235977173,0.17179739475250244,0.3166569173336029,-0.502865731716156,-0.15102718770503998,-0.1061137467622757
2_356_u_9,0.070146344602108,0.04480079561471939,-0.05880420282483101,0.005555984564125538,-0.04737444594502449,0.35496655106544495,0.08224713802337646,-0.29260388016700745,-0.07034989446401596,0.044936079531908035,0.011580842547118664,-0.04269837960600853,-0.1745869666337967,-0.3379006087779999,-0.12939170002937317,-0.08685600757598877,0.16468046605587006,-0.005300838965922594,-0.09144704043865204,-0.06991561502218246,-0.19303075969219208,-0.004211306571960449,-0.2263597995042801,0.10525339096784592,-0.20479898154735565,0.033919017761945724,0.05843691900372505,0.13512979447841644,0.11948110908269882,0.3236086070537567,0.19028709828853607,-0.06996902078390121,-0.03480730578303337,0.19148613512516022,-0.24924635887145996,-0.35259562730789185,-0.06928526610136032,-0.10333261638879776,-0.09658073633909225,-0.18955370783805847,-0.13331225514411926,0.3101607859134674,0.2125396728515625,0.09432309120893478,0.11817573755979538,0.0006379596889019012,-0.1300506442785263,0.04157228022813797,-0.05399180203676224,0.02096416987478733,0.28996342420578003,0.23887287080287933,-0.18561391532421112,0.0789036676287651,-0.11648636311292648,0.034464847296476364,-0.06408333033323288,0.14405976235866547,0.02754245698451996,-0.16443489491939545,-0.004550608340650797,0.0684640184044838,0.16224418580532074,0.07238667458295822,-0.007445789873600006,-0.15276694297790527,-0.03268285095691681,-0.03563046082854271,-0.13003753125667572,0.000926936452742666,-0.1399839073419571,-0.08105666935443878,-0.4448845088481903,-0.06498241424560547,-0.04257557913661003,0.3252658247947693,0.6394950747489929,0.09910779446363449,-0.051056910306215286,-0.043072011321783066,0.018937990069389343,-0.027634775266051292,0.04589542746543884,-0.3739529848098755,0.45284268260002136,0.002638882724568248,0.30202484130859375,0.18694524466991425,-0.29013341665267944,-0.18847273290157318,-0.30654820799827576,-0.14601171016693115,0.21666014194488525,-0.05160392448306084,-0.06517108529806137,-0.20291662216186523,-0.1314048022031784,0.07288476079702377,0.19967249035835266,-0.16130487620830536,-0.18727067112922668,-0.08098305761814117,0.007655046414583921,-0.13777169585227966,0.08479749411344528,-0.07649794965982437,0.11046788841485977,0.1362774521112442,-0.003949954640120268,0.0645979791879654,0.02305012196302414,-0.29455074667930603,0.019444752484560013,0.02959873341023922,0.0899936705827713,-0.27096113562583923,0.28524038195610046,0.13370971381664276,-0.07950388640165329,0.14519661664962769,0.03197750076651573,0.007587803993374109,0.3249593675136566,0.22872601449489594,-0.40745821595191956,-0.133823424577713,0.21268998086452484,-0.014342851005494595,-0.09852316230535507,-0.0851173996925354,0.17239344120025635,0.04121258482336998,0.08938606828451157,0.17329682409763336,0.1502862274646759,-0.10773389786481857,0.025141580030322075,0.12882541120052338,0.15515528619289398,-0.015885621309280396,0.1302444189786911,0.08178340643644333,-0.04915110394358635,-0.23960228264331818,-0.006632216274738312,0.35269999504089355,0.28154444694519043,0.24719639122486115,-0.17787908017635345,0.04458673670887947,0.16310764849185944,-0.13782000541687012,-0.21092498302459717,-0.05697911977767944,0.1197587177157402,0.0393638089299202,-0.36098018288612366,0.15264442563056946,0.2280346006155014,-0.18386149406433105,0.15833990275859833,0.10709553211927414,-0.28395286202430725,-0.15390436351299286,0.10125749558210373,-0.2668536603450775,-0.10386275500059128,0.08262952417135239,0.041040003299713135,0.05479754880070686,0.14839580655097961,-0.11194059997797012,-0.3485140800476074,0.29903140664100647,-0.12655125558376312,-0.13502751290798187,0.3588791489601135,-0.7035245299339294,0.20373788475990295,0.0017980769043788314,0.10971855372190475,-0.15606258809566498,-0.35288506746292114,-0.052865054458379745,0.14724671840667725,-0.15735118091106415,0.13145063817501068,0.3350752294063568,0.20585396885871887,-0.15185429155826569,-0.11762072145938873,-0.2720996141433716,0.01984739489853382,0.003954138141125441,0.01819055899977684,0.16200771927833557,0.1933722347021103,-0.22229447960853577,-0.14814262092113495,-0.12069368362426758,0.09574897587299347,0.1796819120645523,-0.011356125585734844,-0.15817348659038544,-0.39195773005485535,-0.06059993430972099,0.19885295629501343,-0.08658423274755478,0.08095556497573853,-0.36200520396232605,-0.12171024084091187,0.01668243668973446,0.32524386048316956,-0.0015021160943433642,-0.1617937684059143,0.3168787360191345,0.17026297748088837,0.017427224665880203,0.24756275117397308,-0.42888960242271423,0.04128057882189751,0.12043817341327667,0.012094772420823574,0.08723651617765427,0.2195710390806198,-0.23117129504680634,-0.003496035933494568,0.11728985607624054,-0.16097107529640198,-0.061224889010190964,0.129342183470726,-0.06751903146505356,0.13465844094753265,-0.27383750677108765,0.20056508481502533,-0.01633664406836033,-0.2642015218734741,-0.05808060243725777,-0.19968168437480927,-0.30563458800315857,0.08116568624973297,-0.30204957723617554,0.24066077172756195,-0.13605736196041107,-0.22952024638652802,-0.11815517395734787,-0.3689158260822296,0.07599844038486481,-0.22667470574378967,0.034875016659498215,-0.3267701268196106,0.16342835128307343,0.31426599621772766,-0.5102217793464661,-0.15961681306362152,-0.10600799322128296
2_357_u_1,0.15602093935012817,-0.07893215119838715,-0.06617174297571182,-0.06854430586099625,-0.10841565579175949,0.33567389845848083,0.09349998086690903,-0.1742076724767685,-0.12122142314910889,0.001494509051553905,-0.11533725261688232,-0.17772439122200012,-0.12119591236114502,-0.33222299814224243,-0.13892756402492523,-0.1399918794631958,0.20271678268909454,-0.013977847062051296,-0.1330052763223648,0.009791770949959755,-0.23017330467700958,0.03576496243476868,-0.18033546209335327,0.09994207322597504,-0.2631828486919403,-0.022416850551962852,0.01669497601687908,0.05424204096198082,0.14903764426708221,0.23531346023082733,0.0014345869421958923,0.12956146895885468,-0.019441425800323486,0.19461889564990997,-0.30072835087776184,-0.42899608612060547,-0.013451053760945797,-0.04193808510899544,-0.16127030551433563,-0.1890103667974472,-0.05615008622407913,0.24123001098632812,0.12223146110773087,0.029146960005164146,0.1380782127380371,0.00016541891091037542,-0.07900094240903854,-0.09097851067781448,-0.07327119261026382,0.05706968531012535,0.1773991733789444,0.17342454195022583,-0.07426022738218307,0.0873144194483757,-0.1457071751356125,0.025546163320541382,-0.18490172922611237,0.1320459246635437,0.09766842424869537,-0.22254852950572968,0.0052175372838974,0.018374908715486526,0.10169533640146255,0.01493152230978012,0.1032794862985611,-0.01094113290309906,-0.100461445748806,-0.15942811965942383,0.02288341335952282,0.09643669426441193,-0.026977842673659325,-0.1301865130662918,-0.34390735626220703,-0.03366528078913689,-0.131318598985672,0.31915876269340515,0.5022681951522827,0.01840922236442566,0.04967186972498894,-0.12141149491071701,0.04358702525496483,-0.010834725573658943,0.09977807849645615,-0.4487329423427582,0.42277413606643677,0.05087311938405037,0.17037032544612885,0.2049306184053421,-0.2150270789861679,-0.07828688621520996,-0.339585542678833,-0.09207794070243835,0.07497628778219223,0.08386069536209106,-0.015331827104091644,-0.08453866094350815,-0.07309646904468536,0.24919393658638,0.2415047138929367,-0.10861314833164215,-0.13236014544963837,-0.1220778226852417,0.15631775557994843,-0.18394668400287628,0.035707585513591766,-0.05860697105526924,-0.03262272849678993,0.16421495378017426,0.02471262775361538,-0.01928800716996193,0.03188246861100197,-0.2846883237361908,-0.05860092118382454,0.07662130892276764,0.054760243743658066,-0.16277574002742767,0.24465075135231018,0.11044221371412277,-0.148970365524292,0.18809688091278076,0.08950641006231308,-0.04149528965353966,0.2889591157436371,0.21015368402004242,-0.2950693666934967,-0.029850706458091736,0.11753533035516739,-0.05622990056872368,0.017333677038550377,0.02206200547516346,0.0907793715596199,-0.012742373161017895,0.15292751789093018,0.17964601516723633,0.004099145065993071,-0.189029261469841,0.03588089719414711,0.1524120420217514,0.06930872052907944,-0.026420315727591515,0.14548814296722412,0.20321865379810333,-0.06578738242387772,-0.32431694865226746,0.02796817384660244,0.1809978038072586,0.4154873788356781,0.11265033483505249,-0.08421536535024643,0.06821692734956741,0.18873000144958496,-0.08259254693984985,-0.15000580251216888,0.08687985688447952,0.10584612935781479,-0.05030917003750801,-0.268419086933136,0.2993721663951874,0.15738514065742493,-0.06584905833005905,0.23959305882453918,0.24363549053668976,-0.33490538597106934,-0.1971345990896225,0.020108846947550774,-0.32907262444496155,-0.09256120771169662,0.1017894372344017,-0.03164864704012871,-0.1459711641073227,0.19556079804897308,-0.06720606237649918,-0.37693896889686584,0.33823010325431824,-0.047105249017477036,-0.16938193142414093,0.3613528609275818,-0.6632515788078308,0.1824948489665985,0.03794664889574051,-0.00546522531658411,-0.10046883672475815,-0.3556647002696991,-0.06051522120833397,0.05941653996706009,-0.08504410833120346,0.15988515317440033,0.23925843834877014,0.20675873756408691,-0.1806664615869522,-0.22742460668087006,-0.11099784821271896,0.1374126672744751,0.04720991477370262,-0.008441237732768059,0.17884665727615356,0.05490598827600479,-0.163351908326149,-0.04995959624648094,-0.054056376218795776,0.1259862631559372,0.24469099938869476,0.09930791705846786,-0.01761253923177719,-0.24661968648433685,-0.14318732917308807,0.13566294312477112,-0.052107106894254684,0.11348160356283188,-0.3193017542362213,-0.10615313053131104,0.11114688217639923,0.25277385115623474,0.0956314206123352,-0.019399026408791542,0.2633157968521118,0.13884058594703674,0.050736285746097565,0.18311810493469238,-0.20742261409759521,-0.03484300896525383,0.1356697529554367,-0.007265163119882345,0.18766812980175018,0.23891602456569672,-0.24336516857147217,0.05763145908713341,0.08716529607772827,-0.04922961816191673,-0.13568063080310822,0.15224207937717438,-0.15874065458774567,0.11910559982061386,-0.35332807898521423,0.08764957636594772,0.05520885810256004,-0.2765561044216156,-0.013296397402882576,-0.1434842199087143,-0.21751940250396729,0.0656324252486229,-0.20287755131721497,0.254314124584198,-0.14398698508739471,-0.2292191982269287,-0.07940277457237244,-0.26967912912368774,-0.020064977928996086,-0.2592111825942993,0.012979335151612759,-0.16919724643230438,0.17491963505744934,0.24157695472240448,-0.5143474340438843,-0.2577657699584961,-0.11550263315439224
2_357_u_2,0.15143747627735138,-0.03396530821919441,-0.08817926049232483,-0.06572502106428146,-0.08377056568861008,0.37129300832748413,0.1236087828874588,-0.2128562033176422,-0.10930407047271729,0.012080973945558071,-0.11470577865839005,-0.1572125256061554,-0.1430538445711136,-0.36715278029441833,-0.1593000441789627,-0.15267996490001678,0.17755024135112762,-0.005778131075203419,-0.1308613419532776,-0.02612927369773388,-0.2047535479068756,0.05195613577961922,-0.20272110402584076,0.11230788379907608,-0.2729162871837616,-0.016026688739657402,0.022535894066095352,0.06041305884718895,0.14064502716064453,0.26349350810050964,0.060047268867492676,0.09825826436281204,-0.02827848494052887,0.19966240227222443,-0.3272758722305298,-0.4546845555305481,-0.02143423818051815,-0.027301732450723648,-0.15298281610012054,-0.2061985582113266,-0.08926703035831451,0.25431686639785767,0.1568632870912552,0.02880469523370266,0.14432595670223236,0.014459083788096905,-0.09624319523572922,-0.07589083909988403,-0.08046094328165054,0.07259181886911392,0.21069978177547455,0.19771461188793182,-0.0960199162364006,0.09791906923055649,-0.13612888753414154,0.02490929327905178,-0.1653355360031128,0.13878481090068817,0.09287672489881516,-0.24078117311000824,0.005225600209087133,0.04198881983757019,0.12206893414258957,0.03200697898864746,0.1045054942369461,-0.025134343653917313,-0.12402903288602829,-0.15978005528450012,-0.002231998834758997,0.10386630147695541,-0.05445048213005066,-0.1347697675228119,-0.3810863196849823,-0.036870189011096954,-0.13599936664104462,0.3355500400066376,0.5591386556625366,0.036259353160858154,0.04968729242682457,-0.13984417915344238,0.049781981855630875,-0.04208623990416527,0.10698304325342178,-0.4744681417942047,0.46216636896133423,0.06084742769598961,0.20160488784313202,0.207381010055542,-0.22349262237548828,-0.08567745238542557,-0.3326161503791809,-0.11738641560077667,0.08974473923444748,0.07141374051570892,-0.018135985359549522,-0.11061830818653107,-0.09608662128448486,0.23968982696533203,0.23748312890529633,-0.13772426545619965,-0.1461813896894455,-0.10837193578481674,0.14302130043506622,-0.19999592006206512,0.046728603541851044,-0.04776867479085922,-0.02239403687417507,0.19265052676200867,-0.016831979155540466,-0.002464891178533435,0.013541690073907375,-0.305757999420166,-0.044664110988378525,0.07071524858474731,0.043780617415905,-0.19561710953712463,0.24357114732265472,0.11633580923080444,-0.1661023199558258,0.146669402718544,0.08614843338727951,-0.026423482224345207,0.3145545423030853,0.21554525196552277,-0.3470121920108795,-0.06307130306959152,0.13741552829742432,-0.08062249422073364,0.005626145284622908,-0.018133394420146942,0.1316935271024704,-0.016870934516191483,0.13411609828472137,0.1640549898147583,0.04396437108516693,-0.1536920815706253,0.019038716331124306,0.1574966460466385,0.0740799680352211,-0.04985292628407478,0.16515882313251495,0.16812793910503387,-0.06284277886152267,-0.32610630989074707,0.03443120792508125,0.22330553829669952,0.41532474756240845,0.15635573863983154,-0.09630854427814484,0.0695953220129013,0.19607026875019073,-0.07256325334310532,-0.19739599525928497,0.062191106379032135,0.11274798959493637,-0.041007429361343384,-0.3123689591884613,0.2754823863506317,0.18659181892871857,-0.07161317020654678,0.2639544606208801,0.23596039414405823,-0.33058062195777893,-0.20954576134681702,0.028938783332705498,-0.3717179298400879,-0.1195230484008789,0.12451046705245972,-0.043738920241594315,-0.1148495078086853,0.19493499398231506,-0.10268060117959976,-0.3782620429992676,0.35612592101097107,-0.06101539731025696,-0.18045249581336975,0.36391496658325195,-0.7265942692756653,0.1977420300245285,0.04776257276535034,0.017490265890955925,-0.1222098097205162,-0.3782218098640442,-0.025110894814133644,0.056128211319446564,-0.09447024017572403,0.18809489905834198,0.29621395468711853,0.20365400612354279,-0.1637313812971115,-0.20953059196472168,-0.12501981854438782,0.12420083582401276,0.03176034614443779,-0.00817650742828846,0.17641979455947876,0.07483301311731339,-0.15824878215789795,-0.056948840618133545,-0.06008465215563774,0.1367698758840561,0.23634977638721466,0.08454442024230957,-0.05198702961206436,-0.2920522391796112,-0.13282498717308044,0.1407790333032608,-0.03578057512640953,0.11396127194166183,-0.3296252489089966,-0.13099558651447296,0.09712707996368408,0.2568694055080414,0.08340547233819962,-0.03263609856367111,0.28848695755004883,0.1620883345603943,0.05030004307627678,0.20553313195705414,-0.2511070966720581,-0.013126767240464687,0.1708984673023224,-0.013127999380230904,0.20708255469799042,0.26442915201187134,-0.2562595307826996,0.0378548838198185,0.06637397408485413,-0.06515335291624069,-0.17351406812667847,0.13892260193824768,-0.1668776124715805,0.10808336734771729,-0.37481480836868286,0.08518441021442413,0.042128533124923706,-0.2840227782726288,-0.004849299322813749,-0.2018851339817047,-0.2473466396331787,0.0757531076669693,-0.234080508351326,0.268757164478302,-0.14295579493045807,-0.24100923538208008,-0.07002349942922592,-0.2963690459728241,-0.008995628915727139,-0.25926217436790466,0.015339234843850136,-0.1961357593536377,0.17767368257045746,0.29062458872795105,-0.5516799688339233,-0.26691117882728577,-0.12545256316661835
2_358_u_1,0.06550458073616028,-0.059534043073654175,-0.005142951849848032,-0.008897722698748112,-0.07847440987825394,0.2494923621416092,-0.026354318484663963,-0.17587225139141083,-0.056614577770233154,0.01786275953054428,0.0034747347235679626,-0.05266707018017769,-0.14814530313014984,-0.24825774133205414,-0.0908641591668129,-0.05975858122110367,0.2138935774564743,-0.042473312467336655,-0.10888677835464478,-0.01587658002972603,-0.21783307194709778,-0.03685637190937996,-0.13012270629405975,0.056588251143693924,-0.2110913246870041,0.05440354347229004,0.019330333918333054,0.10454747825860977,0.13728149235248566,0.2598337233066559,0.04825618118047714,-0.0074431151151657104,-0.008917254395782948,0.1539568305015564,-0.1759498566389084,-0.2741921544075012,-0.035612594336271286,-0.16146095097064972,-0.16060017049312592,-0.15141402184963226,-0.04188709333539009,0.28376224637031555,0.11558504402637482,0.09051527827978134,0.07615657150745392,-0.029007285833358765,-0.1033930554986,0.031606461852788925,-0.0458720438182354,0.03878260776400566,0.2232442945241928,0.20210011303424835,-0.1416195034980774,0.047025565057992935,-0.1245676651597023,0.04477814584970474,-0.09204879403114319,0.1256927251815796,0.014507866464555264,-0.0999981015920639,0.014499679207801819,0.03137558326125145,0.1274929642677307,0.043026674538850784,0.019022783264517784,-0.13917608559131622,0.016393039375543594,-0.06204192712903023,-0.07760853320360184,0.013945335522294044,-0.07295127958059311,-0.07797486335039139,-0.3793034553527832,-0.06989939510822296,-0.02997066080570221,0.27415385842323303,0.5081374049186707,0.05528831481933594,-0.07452594488859177,0.03811847046017647,0.0018380172550678253,0.06486272066831589,0.03015032410621643,-0.3004257380962372,0.35204094648361206,-0.026045531034469604,0.22040532529354095,0.15581296384334564,-0.24058897793293,-0.18258632719516754,-0.28903451561927795,-0.08033829927444458,0.13468384742736816,-0.02713949792087078,-0.0728936716914177,-0.1234574243426323,-0.13098305463790894,0.04134562611579895,0.1896946281194687,-0.08074775338172913,-0.11779891699552536,-0.06310490518808365,0.03772973641753197,-0.0810309424996376,0.041489340364933014,-0.10091257095336914,0.12965039908885956,0.07078534364700317,0.08389740437269211,0.058885909616947174,0.026479730382561684,-0.20467500388622284,0.024705562740564346,0.04360508918762207,0.1361076384782791,-0.18822620809078217,0.3033510148525238,0.14495396614074707,-0.02824297919869423,0.19965535402297974,0.00753282755613327,-0.05082299932837486,0.27823349833488464,0.194575697183609,-0.2654902935028076,-0.05618659406900406,0.18180638551712036,0.03392544761300087,-0.06673363596200943,-0.014600194059312344,0.0952485129237175,0.03492225334048271,0.10935597866773605,0.17539645731449127,0.11313161998987198,-0.12210490554571152,0.07901810109615326,0.12667962908744812,0.12732534110546112,0.07734928280115128,0.09503074735403061,0.1620827615261078,-0.0564236044883728,-0.1681799739599228,-0.009178617037832737,0.27813956141471863,0.22016213834285736,0.11047632992267609,-0.13357332348823547,0.038277026265859604,0.14985810220241547,-0.13889437913894653,-0.056924235075712204,0.006689738016575575,0.08586614578962326,-0.0012740448582917452,-0.2684876024723053,0.19888794422149658,0.14435957372188568,-0.15117065608501434,0.07623019069433212,0.09486756473779678,-0.29260024428367615,-0.10002543032169342,0.10717584937810898,-0.15197010338306427,-0.10043346881866455,0.03035823069512844,0.052909623831510544,-0.0012520283926278353,0.11466135829687119,-0.036941047757864,-0.27444687485694885,0.23364372551441193,-0.10841905325651169,-0.0756576880812645,0.30025967955589294,-0.5323588848114014,0.18585240840911865,-0.022904863581061363,0.07085590809583664,-0.13331355154514313,-0.32609087228775024,-0.09958041459321976,0.19048647582530975,-0.10741671174764633,0.04948326572775841,0.25362834334373474,0.23250506818294525,-0.18922609090805054,-0.12768904864788055,-0.23104603588581085,0.03960453346371651,0.06601937860250473,0.06501021981239319,0.11655481159687042,0.1749579906463623,-0.18668070435523987,-0.0806906521320343,-0.09661202132701874,0.060073357075452805,0.11542516201734543,-0.03189637139439583,-0.07880552858114243,-0.30276522040367126,-0.04814113676548004,0.21870802342891693,-0.13919608294963837,0.033810291439294815,-0.3358781933784485,-0.02503923885524273,0.03822043910622597,0.3248665928840637,0.052268218249082565,-0.146290585398674,0.2658904492855072,0.14625728130340576,0.057418789714574814,0.18618237972259521,-0.3346218168735504,-0.014747793786227703,-0.002304056426510215,0.05713830515742302,0.012952561490237713,0.1663013994693756,-0.21861790120601654,0.03513844311237335,0.14810560643672943,-0.1196916326880455,-0.02222517319023609,0.1403302401304245,-0.002496840199455619,0.17211399972438812,-0.19639816880226135,0.20992760360240936,0.022597678005695343,-0.23683343827724457,-0.04935499653220177,-0.09802507609128952,-0.21660052239894867,0.06177407503128052,-0.23110465705394745,0.20626981556415558,-0.1217082291841507,-0.18474876880645752,-0.11797406524419785,-0.28929540514945984,0.0536348782479763,-0.2153802365064621,-0.0022993411403149366,-0.2730662524700165,0.16417992115020752,0.261747270822525,-0.3641466200351715,-0.13438327610492706,-0.10502586513757706
2_359_u_1,0.0719403326511383,-0.18143601715564728,0.11903420835733414,0.008063586428761482,-0.1051393523812294,0.08553734421730042,-0.14166542887687683,-0.058594267815351486,-0.08296003192663193,-0.06074023246765137,0.07956048101186752,-0.07179064303636551,-0.06541600078344345,-0.18424274027347565,0.04943813011050224,0.03451056778430939,0.2956383526325226,-0.14721524715423584,-0.08473379164934158,0.07711756229400635,-0.22626006603240967,-0.12753696739673615,-0.1410846710205078,0.02556625008583069,-0.18352854251861572,0.1673300415277481,0.09437070041894913,0.0029043660033494234,0.14570823311805725,0.2071043998003006,0.006035632453858852,0.045612361282110214,0.08776333183050156,0.08144833892583847,-0.019033921882510185,-0.0781136304140091,-0.07589631527662277,-0.1742740124464035,-0.30779707431793213,-0.09056945890188217,0.11075025796890259,0.29372426867485046,0.03589477017521858,0.10869919508695602,-0.021027518436312675,-0.053179722279310226,-0.07400614023208618,0.031610891222953796,-0.047609418630599976,-0.0514182448387146,0.2057943344116211,0.1365775614976883,-0.13306818902492523,-0.08368600904941559,-0.16560374200344086,0.0063135274685919285,-0.1450149118900299,0.15367084741592407,-0.039760101586580276,0.06508348882198334,-0.042054761201143265,-0.04433714225888252,0.1738596260547638,-0.02289780043065548,0.07319807261228561,-0.21403013169765472,0.15128497779369354,-0.0009093426051549613,-0.005541856866329908,-0.0028751776553690434,-0.06499568372964859,-0.11319537460803986,-0.25211405754089355,-0.07239759713411331,-0.010485246777534485,0.24372242391109467,0.4879112243652344,0.03324363753199577,-0.1720830649137497,0.17155304551124573,-0.06048978120088577,0.14133241772651672,-0.032029591500759125,-0.2104402780532837,0.24610793590545654,-0.06023598462343216,0.14633916318416595,0.12107067555189133,-0.20286527276039124,-0.11656713485717773,-0.32270872592926025,-0.041178833693265915,0.046788573265075684,-0.03633662685751915,-0.09503578394651413,-0.0708194375038147,-0.1932395100593567,0.004775169771164656,0.10734231770038605,-0.05623086169362068,-0.11327850073575974,-0.07605971395969391,-0.03575596958398819,-0.03031199611723423,-0.0859953761100769,-0.241683229804039,0.16030631959438324,-0.050052762031555176,0.21034537255764008,-0.048660676926374435,0.12197478115558624,-0.1417989581823349,0.022694813087582588,0.05720172077417374,0.20377731323242188,-0.15733544528484344,0.28169581294059753,0.1804485023021698,-0.018906120210886,0.34708723425865173,-0.0954911932349205,-0.09045407921075821,0.22690366208553314,0.16146238148212433,-0.11767182499170303,0.05417187139391899,0.13470394909381866,0.23014362156391144,-0.06038279086351395,0.013147654011845589,-0.034284792840480804,0.008515062741935253,0.24346506595611572,0.2157105654478073,-0.048069801181554794,-0.11838345974683762,0.18443194031715393,0.07577221840620041,0.14114663004875183,0.2269734889268875,0.0019806274212896824,0.19168159365653992,-0.1363694816827774,-0.07225760072469711,-0.024979518726468086,0.23578956723213196,0.14696723222732544,-0.03015606664121151,-0.04919544979929924,0.12482275813817978,0.04800450801849365,-0.19880636036396027,0.060425449162721634,0.0322052501142025,0.028110850602388382,-0.054887790232896805,-0.17123112082481384,0.19853995740413666,-0.04694875702261925,-0.12475492060184479,-0.018095804378390312,0.04269176721572876,-0.28277939558029175,0.044338926672935486,0.16457270085811615,-0.018865277990698814,-0.017737364396452904,0.021082771942019463,0.07698143273591995,0.02015312947332859,0.04241151362657547,0.09898855537176132,-0.10044057667255402,0.19882188737392426,-0.10709164291620255,-0.025835899636149406,0.2842934727668762,-0.34209558367729187,0.20558957755565643,-0.11815798282623291,0.06549394875764847,-0.14286522567272186,-0.2936610281467438,-0.1713944673538208,0.2210569828748703,-0.10582909733057022,-0.07851686328649521,0.1116969957947731,0.2504814863204956,-0.2025560438632965,-0.0925179049372673,-0.23202724754810333,0.03492080047726631,0.040179070085287094,0.14210417866706848,0.15804976224899292,0.2104732096195221,-0.1498478800058365,-0.09496711939573288,-0.10888093709945679,-0.04085364565253258,-0.0011312849819660187,-0.034550990909338,0.0067064897157251835,-0.2704685628414154,-0.057527750730514526,0.35857388377189636,-0.3404890298843384,-0.04340014606714249,-0.28569504618644714,0.09056831151247025,0.011640946380794048,0.3298437297344208,0.11063208431005478,-0.21527142822742462,0.13422273099422455,0.13446038961410522,0.09259849786758423,0.08158233761787415,-0.27570196986198425,-0.03654620051383972,-0.22311027348041534,0.0974118635058403,-0.11285103857517242,0.0925300121307373,-0.2735828459262848,0.051775313913822174,0.287060022354126,-0.12266165018081665,0.16132214665412903,0.1803484410047531,0.10286279022693634,0.1934726983308792,-0.006857884116470814,0.26738858222961426,0.050774212926626205,-0.12945342063903809,-0.09460928291082382,0.08783111721277237,-0.04365129396319389,0.02647898904979229,-0.125344380736351,0.21525731682777405,-0.05193259194493294,-0.16047997772693634,-0.1443084478378296,-0.22202114760875702,0.03483377769589424,-0.14262916147708893,-0.05760488659143448,-0.2061515897512436,0.18619787693023682,0.1612495630979538,-0.20849578082561493,-0.07172953337430954,-0.11156775057315826
2_359_u_2,0.02211633324623108,-0.11176411062479019,0.19449912011623383,0.04013514518737793,-0.12957444787025452,0.027257278561592102,-0.10736095905303955,0.003128543496131897,-0.04115273430943489,-0.03892209380865097,0.11063171923160553,-0.058563023805618286,0.03879692032933235,-0.2618338465690613,0.06169280409812927,0.0841887816786766,0.2947513163089752,-0.2578914165496826,-0.026937395334243774,0.07480937987565994,-0.14399240911006927,-0.0694330558180809,-0.11209329217672348,0.036957137286663055,-0.09809958934783936,0.021842962130904198,0.24140337109565735,-0.10966949909925461,0.15713493525981903,0.1617843508720398,0.053740788251161575,0.019599532708525658,0.15333598852157593,-0.1291913241147995,0.13425253331661224,0.08559896796941757,-0.1394614279270172,0.12295321375131607,-0.3155480623245239,-0.03830967843532562,0.1324760913848877,0.18914011120796204,-0.0632990226149559,0.10151692479848862,-0.06382062286138535,0.058470238000154495,0.029853228479623795,0.11843372881412506,-0.06934603303670883,-0.0516846738755703,0.22900505363941193,0.10726477950811386,-0.018304821103811264,-0.19700756669044495,-0.058645814657211304,-0.04872744157910347,-0.09782832115888596,0.08022379875183105,-0.12857873737812042,0.21739791333675385,-0.10584960132837296,-0.0267135389149189,0.10860339552164078,0.02125134877860546,0.07772674411535263,-0.19569948315620422,0.13229705393314362,-0.002841366920620203,0.045204032212495804,-0.14412537217140198,-0.07218071073293686,-0.057648271322250366,-0.14022739231586456,-0.05862916633486748,0.0302882082760334,0.166915163397789,0.5032898187637329,0.11750886589288712,-0.14633522927761078,0.15974417328834534,0.00894044991582632,0.05392324551939964,0.06073120981454849,0.045834533870220184,0.14351485669612885,0.11497030407190323,0.17563527822494507,-0.035975612699985504,-0.1157102957367897,-0.023898711428046227,-0.15329806506633759,-0.005523999221622944,0.12516389787197113,-0.15208007395267487,0.005782080348581076,-0.05652637407183647,-0.20795820653438568,-0.0765298381447792,-0.01495143212378025,0.0863214060664177,-0.05967801436781883,0.005271851550787687,-0.006649903487414122,0.024367423728108406,-0.27885374426841736,-0.28839269280433655,0.1900993436574936,-0.18249531090259552,0.05033313110470772,-0.10248877108097076,0.19504402577877045,-0.16035333275794983,0.25969916582107544,0.10648941993713379,0.056239306926727295,-0.1140063926577568,0.17334499955177307,0.041558638215065,-0.011798190884292126,0.2218410074710846,0.07109583169221878,-0.14378713071346283,0.1837465465068817,0.054113682359457016,-0.104377880692482,0.030045688152313232,0.08346162736415863,0.32171472907066345,-0.018702959641814232,0.08548598736524582,-0.17828799784183502,-0.07939126342535019,0.2854040563106537,0.10476898401975632,-0.15064696967601776,0.018096281215548515,0.20287509262561798,0.05024949833750725,0.07991422712802887,0.2830708622932434,0.07365170121192932,0.09497860074043274,-0.14881257712841034,0.10836900770664215,-0.05954832583665848,0.27443715929985046,0.02437925711274147,0.06489209085702896,-0.012951209209859371,0.16413116455078125,0.09276533871889114,-0.06408005952835083,0.06579209864139557,0.004722119774669409,-0.012898564338684082,0.05819427967071533,-0.24117842316627502,-0.018425563350319862,-0.2657845914363861,0.008999737910926342,-0.0402856320142746,0.08994706720113754,-0.07201596349477768,0.06523694843053818,0.10644858330488205,0.008834540843963623,-0.04860062897205353,0.12510278820991516,0.014654779806733131,0.10400042682886124,-0.021258393302559853,0.00402751425281167,0.2092086374759674,0.11089738458395004,-0.11819108575582504,-0.13752198219299316,0.2668527364730835,-0.14614441990852356,0.2689290940761566,-0.11326310783624649,0.03134820982813835,-0.15652893483638763,-0.12558050453662872,-0.1762831211090088,0.17512862384319305,-0.0418052077293396,-0.09323419630527496,0.11479301750659943,0.14208590984344482,-0.15752534568309784,0.016058703884482384,-0.1416569948196411,0.05955791473388672,-0.023712748661637306,0.09530925005674362,0.22247903048992157,0.27251943945884705,-0.02990357019007206,-0.07543092966079712,-0.0596255362033844,0.036843638867139816,-0.09829896688461304,-0.13458049297332764,-0.00171603262424469,-0.17894354462623596,0.009495346806943417,0.4647393226623535,-0.3552096486091614,-0.08290223032236099,-0.13034676015377045,0.019886517897248268,-0.15388408303260803,0.15233556926250458,-0.011319809593260288,-0.2032662183046341,0.033659931272268295,0.14512424170970917,0.12102841585874557,0.058053143322467804,-0.17371897399425507,-0.0008579902350902557,-0.10097701847553253,0.021812397986650467,-0.01470966823399067,0.13060711324214935,-0.2638046145439148,-0.08497170358896255,0.18253372609615326,-0.04335468262434006,0.19587214291095734,0.1730063408613205,0.11002420634031296,0.2112647294998169,0.13934476673603058,0.15636181831359863,0.04312378168106079,0.0209523793309927,-0.1024436354637146,0.1368127316236496,0.04550079256296158,0.003459219355136156,-0.027692530304193497,0.19029970467090607,0.04151849076151848,-0.07508232444524765,-0.1669360250234604,-0.033885639160871506,-0.011834720149636269,0.11872147768735886,-0.1406925916671753,0.015819137915968895,0.12554572522640228,0.07964354008436203,-0.00778789771720767,-0.0986066609621048,-0.02782142162322998
2_359_u_3,0.05503411218523979,0.0012366935843601823,-0.003924864809960127,0.003594671143218875,-0.06833972036838531,0.25234532356262207,-0.006040610373020172,-0.14343495666980743,-0.0397820845246315,0.07138841599225998,0.09160248935222626,0.024717381224036217,-0.1502380222082138,-0.25743570923805237,-0.022310905158519745,0.002350490540266037,0.1576177179813385,-0.17109329998493195,-0.1002812385559082,0.02722153067588806,-0.11388913542032242,-0.06792133301496506,-0.16793803870677948,0.09612905234098434,-0.09891625493764877,-0.0009099856251850724,0.1246323212981224,-0.026017600670456886,0.045052170753479004,0.2789750099182129,0.12036219984292984,-0.10380562394857407,-0.0010662981076166034,0.02453405223786831,-0.10136468708515167,-0.22602267563343048,-0.13353870809078217,-0.0009246207773685455,-0.09736666828393936,-0.17605279386043549,-0.07732927054166794,0.21743491291999817,0.14747755229473114,0.0393182709813118,0.02835351787507534,-0.02547152154147625,-0.09324014186859131,0.08206664770841599,0.019596092402935028,0.022411884739995003,0.22672250866889954,0.2145930379629135,-0.13429498672485352,-0.020987918600440025,-0.0007938146591186523,-0.04105764999985695,0.02938326634466648,0.14600367844104767,0.037555959075689316,-0.03326614573597908,-0.050149768590927124,-0.00438675144687295,0.18630564212799072,0.018130913376808167,-0.05046261474490166,-0.15820030868053436,0.008852481842041016,-0.04338781163096428,-0.03640540689229965,0.027157193049788475,-0.0932069644331932,-0.016436690464615822,-0.33146393299102783,-0.010672866366803646,0.01906231790781021,0.2433815449476242,0.5429444313049316,0.11373523622751236,-0.09791528433561325,0.02652059867978096,0.06198645383119583,-0.025952352210879326,0.001798834651708603,-0.21487878262996674,0.2899704873561859,0.08894379436969757,0.27049311995506287,0.05170115828514099,-0.21419334411621094,-0.1806524693965912,-0.21623936295509338,-0.07190261036157608,0.16335254907608032,-0.03475570306181908,0.005589435342699289,-0.0961328074336052,-0.17947006225585938,0.02709367871284485,0.09065191447734833,-0.0476052388548851,-0.1439923495054245,0.008377493359148502,-0.0852820873260498,-0.027390703558921814,0.019884591922163963,-0.0861441120505333,0.09836810827255249,0.048596497625112534,-0.013590085320174694,0.05492357537150383,0.05660709738731384,-0.23533371090888977,0.05515645816922188,0.06706301122903824,0.10616827011108398,-0.2012866586446762,0.2637336850166321,0.13251043856143951,-0.11144503206014633,0.08930324763059616,0.02519664168357849,-0.005604319274425507,0.21625211834907532,0.21110664308071136,-0.2966514825820923,-0.1274629384279251,0.20438168942928314,0.0734592005610466,-0.09171266853809357,-0.042519327253103256,0.04891789332032204,0.011494888924062252,0.11209554970264435,0.11926136165857315,0.029778853058815002,-0.04916961118578911,0.11795318126678467,0.05606160685420036,0.07784982025623322,0.03190454840660095,0.10625671595335007,0.0891985148191452,-0.03790898993611336,-0.08286172151565552,-0.09288307279348373,0.24155950546264648,0.13322441279888153,0.142903670668602,-0.07763675600290298,0.002832477679476142,0.09825402498245239,-0.18694274127483368,-0.052868880331516266,-0.052209146320819855,0.02810472808778286,0.08539945632219315,-0.2921624779701233,0.08573202043771744,0.09150620549917221,-0.14011886715888977,0.09005915373563766,0.056390609592199326,-0.07998372614383698,-0.021470198407769203,0.12263746559619904,-0.17728373408317566,-0.06667100638151169,-0.0012141790939494967,-0.04940062016248703,0.0549585223197937,0.08066131919622421,-0.1406933218240738,-0.12770140171051025,0.20145857334136963,-0.11278895288705826,-0.13925738632678986,0.2544328272342682,-0.40527811646461487,0.22096358239650726,0.026463324204087257,0.06869926303625107,-0.16365431249141693,-0.3058154881000519,0.016378896310925484,0.19507746398448944,-0.12086732685565948,0.06371056288480759,0.18933624029159546,0.20147180557250977,-0.13112901151180267,-0.06175116449594498,-0.14700506627559662,0.04885465279221535,0.007990638725459576,-0.007265277206897736,0.11335640400648117,0.1932501494884491,-0.1416604071855545,-0.13734304904937744,-0.11366546154022217,0.045449525117874146,0.02984563820064068,-0.07497712969779968,-0.11338493973016739,-0.29248419404029846,0.024745505303144455,0.2923787236213684,-0.17971031367778778,0.01802741177380085,-0.27675190567970276,-0.022901302203536034,-0.05434495955705643,0.27038779854774475,0.0005368784186430275,-0.16488707065582275,0.18839764595031738,0.16119538247585297,0.013444120064377785,0.1697399765253067,-0.3218783438205719,0.09969812631607056,0.003123584436252713,0.01649792492389679,0.03903345391154289,0.13410025835037231,-0.2157827466726303,-0.05516038462519646,0.15673114359378815,-0.13901005685329437,0.03502645716071129,0.08000990003347397,0.04508381709456444,0.17801621556282043,-0.13919411599636078,0.2272341251373291,-0.041625019162893295,-0.08515077084302902,-0.0890968069434166,-0.042274318635463715,-0.19867312908172607,0.07054998725652695,-0.2237168848514557,0.23299208283424377,-0.05474793538451195,-0.19205708801746368,-0.1291624754667282,-0.2546129822731018,0.052081912755966187,-0.08937716484069824,0.029479121789336205,-0.22746165096759796,0.0878056213259697,0.1202341690659523,-0.34093913435935974,-0.15247976779937744,-0.07934951782226562
2_359_u_4,0.10886404663324356,-0.009010461159050465,-0.05012741684913635,-0.016309406608343124,-0.06822668761014938,0.33956408500671387,0.054065216332674026,-0.2537970542907715,-0.07138413935899734,0.013502891175448895,-0.011844293214380741,-0.08811666816473007,-0.1626807004213333,-0.30943068861961365,-0.11496100574731827,-0.09219704568386078,0.18618284165859222,-0.01971764676272869,-0.12981396913528442,-0.03700754791498184,-0.22659988701343536,-0.023313507437705994,-0.20462505519390106,0.09037327021360397,-0.24472902715206146,0.06883846968412399,0.044718097895383835,0.12692050635814667,0.12101856619119644,0.29880911111831665,0.1319989413022995,-0.01835794560611248,-0.03167074918746948,0.19463405013084412,-0.25981879234313965,-0.3570733964443207,-0.05785892531275749,-0.14063063263893127,-0.14060525596141815,-0.19363181293010712,-0.09795760363340378,0.3151828348636627,0.17968593537807465,0.08743303269147873,0.12157871574163437,-0.023156005889177322,-0.11446410417556763,0.017537830397486687,-0.06147225573658943,0.039656322449445724,0.2546450197696686,0.22257395088672638,-0.1704823225736618,0.08616926521062851,-0.15082059800624847,0.04140162095427513,-0.10302720218896866,0.16141162812709808,0.02899748459458351,-0.16713911294937134,0.0187557190656662,0.03973881155252457,0.16053597629070282,0.06019100174307823,0.02227924019098282,-0.14424759149551392,-0.031938206404447556,-0.051352500915527344,-0.09842580556869507,0.04589099809527397,-0.11324440687894821,-0.10000228136777878,-0.4411017596721649,-0.06100592762231827,-0.06126660853624344,0.3259236514568329,0.6034892797470093,0.052929770201444626,-0.04096603021025658,-0.02544609270989895,0.01867707632482052,0.005706909578293562,0.06257738918066025,-0.4026407301425934,0.45188814401626587,-0.017252279445528984,0.2532527446746826,0.19024114310741425,-0.27242252230644226,-0.17940013110637665,-0.3561968505382538,-0.11958690732717514,0.13838161528110504,-0.01731233485043049,-0.06369586288928986,-0.15887413918972015,-0.14077918231487274,0.07715338468551636,0.20026758313179016,-0.14373987913131714,-0.1435319185256958,-0.09723421931266785,0.052854787558317184,-0.13763144612312317,0.08187568187713623,-0.08591309934854507,0.09555383026599884,0.1287645399570465,0.04043152555823326,0.05126533657312393,0.03379626199603081,-0.2524780333042145,-0.02424871362745762,0.03267497941851616,0.1260514110326767,-0.23312242329120636,0.3081546723842621,0.1615954041481018,-0.0679025873541832,0.18905189633369446,0.009411296807229519,-0.02055037021636963,0.32300522923469543,0.2227703332901001,-0.349417120218277,-0.10090698301792145,0.18584828078746796,-0.020062115043401718,-0.08415985107421875,-0.05273183062672615,0.15424342453479767,0.033827170729637146,0.11656790971755981,0.1958705186843872,0.14440861344337463,-0.13749200105667114,0.0627446249127388,0.14309783279895782,0.1347603052854538,0.0016379073495045304,0.11804157495498657,0.14104680716991425,-0.06265509873628616,-0.22914330661296844,0.008056032471358776,0.3265243172645569,0.2888021469116211,0.1713315099477768,-0.1628434956073761,0.05115103721618652,0.17162322998046875,-0.14404930174350739,-0.16326674818992615,0.00018158555030822754,0.10594067722558975,-0.013939404860138893,-0.3299902379512787,0.22341732680797577,0.20053470134735107,-0.18028315901756287,0.1422346830368042,0.12984387576580048,-0.3221770226955414,-0.14987671375274658,0.0915645882487297,-0.2509138286113739,-0.10981966555118561,0.07613322138786316,0.0474238246679306,0.003997274208813906,0.14665786921977997,-0.09399373084306717,-0.3636093735694885,0.27560678124427795,-0.1130487248301506,-0.10087435692548752,0.33856701850891113,-0.68342524766922,0.21718084812164307,-0.011446450836956501,0.09262523800134659,-0.14330856502056122,-0.38699445128440857,-0.06621762365102768,0.16719408333301544,-0.14259736239910126,0.10302451997995377,0.3163761794567108,0.24037161469459534,-0.18770620226860046,-0.15733103454113007,-0.26451876759529114,0.05045285448431969,0.015225834213197231,0.05413730815052986,0.14231525361537933,0.16729764640331268,-0.18231618404388428,-0.10259022563695908,-0.11432838439941406,0.0866592526435852,0.1657543033361435,0.021430352702736855,-0.1000371128320694,-0.36770352721214294,-0.08841996639966965,0.18935571610927582,-0.13654617965221405,0.07222902029752731,-0.38884425163269043,-0.07015284895896912,0.06881000846624374,0.3348948359489441,0.05087621882557869,-0.15230201184749603,0.33191758394241333,0.16585339605808258,0.04831625893712044,0.21520598232746124,-0.3798834979534149,0.009124696254730225,0.0598587803542614,0.031044965609908104,0.06291679292917252,0.2122722715139389,-0.25845637917518616,0.037558745592832565,0.13739466667175293,-0.13582521677017212,-0.08434722572565079,0.1412629336118698,-0.04918447881937027,0.15392298996448517,-0.28336119651794434,0.2166173905134201,0.006097027566283941,-0.27138158679008484,-0.04375828430056572,-0.1743588000535965,-0.27171024680137634,0.0786358192563057,-0.2563742697238922,0.2595289945602417,-0.14328111708164215,-0.23698365688323975,-0.09810594469308853,-0.3663807511329651,0.05948331952095032,-0.26168856024742126,0.02839449979364872,-0.3333092927932739,0.19352200627326965,0.309322327375412,-0.5130438208580017,-0.1682543009519577,-0.1202562227845192
2_35_u_1,0.0008194517577067018,-0.09501806646585464,0.10042595118284225,0.0030549047514796257,-0.08531930297613144,0.10798265784978867,-0.05932728201150894,-0.08468969166278839,-0.11181359738111496,0.03157738223671913,-0.03597955405712128,-0.034037210047245026,-0.040384888648986816,-0.2361367791891098,-0.07851764559745789,-0.03505707159638405,0.25850802659988403,0.003739838721230626,0.028119325637817383,-0.016058897599577904,-0.22608506679534912,0.004184364806860685,0.026441020891070366,0.014514039270579815,-0.17035214602947235,0.06225278601050377,0.07127268612384796,0.07800253480672836,0.18305157124996185,0.1639348715543747,-0.041595395654439926,0.07590474933385849,0.0577334463596344,0.1314084231853485,-0.03347104415297508,-0.1298665553331375,0.04601142928004265,-0.10594584047794342,-0.2238600105047226,-0.019382214173674583,0.07110872119665146,0.2600211799144745,0.0017800129717215896,0.14602236449718475,0.03792159631848335,0.0015241578221321106,-0.04522448033094406,-0.04165361449122429,-0.09366146475076675,-0.024295499548316002,0.2072063535451889,0.13919924199581146,-0.0944872722029686,-0.06233328580856323,-0.16312472522258759,0.05969029292464256,-0.10573749989271164,-0.023026639595627785,-0.02724234201014042,-0.020331379026174545,-0.016502350568771362,0.09578442573547363,0.028588375076651573,0.047384750097990036,0.1020633801817894,-0.16471737623214722,0.06771288067102432,-0.14065413177013397,-0.06876751035451889,-0.12414741516113281,-0.03463951125741005,-0.11485731601715088,-0.2532138526439667,-0.14848385751247406,-0.01945892721414566,0.2651061415672302,0.39756813645362854,0.13476377725601196,-0.05073772743344307,0.044039398431777954,-0.08357782661914825,0.1799219399690628,-0.00266042398288846,-0.17238304018974304,0.21584677696228027,-0.06903301924467087,0.19187401235103607,0.1470407098531723,-0.16014350950717926,-0.060198187828063965,-0.1342981457710266,-0.058391887694597244,0.15537704527378082,-0.0748710036277771,-0.10968250036239624,-0.14713633060455322,-0.08517640829086304,0.018785903230309486,0.26425644755363464,-0.0031254247296601534,-0.09894853085279465,-0.05566713958978653,0.10101830959320068,-0.06785397976636887,-0.05812577158212662,-0.2056579887866974,0.17051450908184052,-0.03521108254790306,0.0930243507027626,0.005781359504908323,0.019678933545947075,-0.18931230902671814,0.13361331820487976,0.0943433940410614,0.06158995255827904,-0.17945045232772827,0.2485068142414093,0.04488210380077362,0.022230226546525955,0.2340637892484665,0.09765680879354477,-0.08387339115142822,0.2577987313270569,0.06170231103897095,-0.17304515838623047,0.061460621654987335,0.13596554100513458,0.12454557418823242,0.018632981926202774,0.08430316299200058,-0.03168300539255142,0.032876089215278625,0.08383253961801529,0.13683103024959564,0.028420357033610344,-0.13005176186561584,0.08024082332849503,0.14110654592514038,0.1780713051557541,0.2123716175556183,0.06536107510328293,0.09989756345748901,-0.07339982688426971,-0.13220983743667603,-0.023756874725222588,0.27773359417915344,0.17621973156929016,0.09595197439193726,-0.138813778758049,0.11745905131101608,0.1365949511528015,-0.03954022005200386,0.01415856834501028,-0.008025476709008217,0.14463086426258087,-0.015067942440509796,-0.22268100082874298,0.12631727755069733,-0.008062641136348248,-0.03152364119887352,0.024144690483808517,0.11499442160129547,-0.3456937372684479,-0.1284349262714386,0.10469966381788254,-0.014772208407521248,-0.09060908854007721,0.12818598747253418,0.08691415190696716,0.03789292275905609,0.09063215553760529,0.12321239709854126,-0.10772750526666641,0.19263963401317596,-0.13386701047420502,-0.08984655886888504,0.3302215337753296,-0.3652758300304413,0.13517452776432037,-0.06828320771455765,0.03637519106268883,-0.08811783790588379,-0.16972146928310394,-0.24415941536426544,0.08969246596097946,-0.04416283220052719,0.012126668356359005,0.19765225052833557,0.15305010974407196,-0.1768495887517929,-0.022657131776213646,-0.2215125858783722,0.0303898137062788,0.09656991809606552,0.06373526901006699,0.17869418859481812,0.20651960372924805,-0.2090521603822708,-0.08960031718015671,-0.030496153980493546,0.05332843214273453,0.11385404318571091,-0.11194746941328049,-0.0754714235663414,-0.11620499938726425,0.0007074967143125832,0.2775682210922241,-0.06732266396284103,-0.028143687173724174,-0.19094768166542053,-0.07688730210065842,-0.07410065084695816,0.2366705983877182,0.0026506290305405855,-0.15008418262004852,0.11394814401865005,0.12221910804510117,0.10941411554813385,0.1825139820575714,-0.2229783535003662,-0.10346134006977081,0.007431322243064642,0.058371830731630325,0.025557339191436768,0.1266137957572937,-0.15097573399543762,0.02545398473739624,0.0796964168548584,-0.0951349139213562,0.14379902184009552,0.15358835458755493,-0.048341043293476105,0.11987213045358658,0.023420099169015884,0.1003701463341713,0.09548778831958771,-0.22501599788665771,-0.07867288589477539,-0.007123148534446955,-0.10358262062072754,0.025900989770889282,-0.17651423811912537,0.12324100732803345,-0.11332493275403976,-0.07329694926738739,-0.17848670482635498,-0.06624200195074081,0.003210275201126933,-0.11120277643203735,-0.11277381330728531,-0.053295768797397614,0.1879323273897171,0.2252536565065384,-0.08896161615848541,-0.10121609270572662,-0.03320760652422905
2_35_u_2,0.09291472285985947,-0.060327112674713135,0.06120050698518753,-0.03745093569159508,-0.08838256448507309,0.1388310343027115,-0.021226270124316216,-0.03890601545572281,-0.059771087020635605,-0.014580448158085346,0.06809937208890915,-0.07454982399940491,-0.054922401905059814,-0.24710510671138763,0.025340577587485313,0.0380435511469841,0.20742236077785492,-0.14428602159023285,-0.08418703824281693,0.07090505957603455,-0.1512509286403656,-0.05899769812822342,-0.13179759681224823,0.051106046885252,-0.1178777739405632,0.026723628863692284,0.11573858559131622,-0.03729122504591942,0.05065542459487915,0.17245100438594818,0.04693707823753357,0.047060586512088776,0.0778796449303627,-0.0032756165601313114,-0.023779334500432014,-0.13414154946804047,-0.08088204264640808,0.011517112143337727,-0.19675509631633759,-0.11646416038274765,0.03051048330962658,0.16616909205913544,0.0539858341217041,0.03292051702737808,0.020664121955633163,-0.007612165994942188,-0.05173764377832413,-0.01058549527078867,-0.014329597353935242,-0.04768773913383484,0.12943214178085327,0.12295836210250854,-0.08336536586284637,-0.06674330681562424,-0.06732877343893051,-0.027843723073601723,-0.07812602072954178,0.13004344701766968,0.02165135368704796,-0.008663645945489407,-0.04690319299697876,-0.03831096738576889,0.14079032838344574,-0.014415581710636616,0.034206461161375046,-0.1286613792181015,0.035122793167829514,-0.03991270437836647,0.01728321984410286,-0.005181381944566965,-0.08047983050346375,-0.07446159422397614,-0.20436277985572815,-0.022332683205604553,-0.04622925445437431,0.20061583817005157,0.40813779830932617,0.060187604278326035,-0.08662056177854538,0.02341911755502224,0.006715518422424793,0.0556500218808651,0.006862534675747156,-0.19079439342021942,0.22059063613414764,0.06427702307701111,0.1651109904050827,0.03514403849840164,-0.14018310606479645,-0.07443459331989288,-0.23078501224517822,-0.025262994691729546,0.052763450890779495,0.005711033474653959,-0.008680415339767933,-0.0586426742374897,-0.12568353116512299,0.07080310583114624,0.09954170137643814,-0.028842926025390625,-0.13018588721752167,-0.06209225580096245,-0.013685077428817749,-0.019625335931777954,-0.04738997295498848,-0.14423945546150208,0.02276984415948391,-0.010643026791512966,0.08026261627674103,-0.04440096393227577,0.14206337928771973,-0.14395053684711456,0.008438301272690296,0.04643639549612999,0.0907435193657875,-0.1250784695148468,0.2440904676914215,0.10416179895401001,-0.05851206183433533,0.20616059005260468,-0.005369666963815689,-0.036687541753053665,0.179596945643425,0.13222245872020721,-0.13935895264148712,-0.030232129618525505,0.10872397571802139,0.12776930630207062,-0.02082122303545475,0.02949041686952114,-0.02966292016208172,0.003794226096943021,0.18256671726703644,0.17848944664001465,-0.09734252840280533,-0.1067243441939354,0.16412222385406494,0.0419725738465786,0.06890758872032166,0.1017937883734703,0.02614547312259674,0.14109428226947784,-0.09136716276407242,-0.03596111014485359,-0.06627283990383148,0.1579214632511139,0.1478559374809265,0.035705387592315674,-0.029914263635873795,0.05030873045325279,0.051944177597761154,-0.1640906035900116,0.007028615567833185,0.055904485285282135,-0.0032416090834885836,-0.034410327672958374,-0.15837596356868744,0.1433417648077011,-0.019102096557617188,-0.09559905529022217,0.06805738061666489,0.06486250460147858,-0.14630115032196045,-0.0036301463842391968,0.06712540984153748,-0.1203184500336647,0.006834413856267929,0.0403878428041935,-0.04560757428407669,-0.023742297664284706,0.07980727404356003,-0.03383420780301094,-0.09921049326658249,0.15489111840724945,-0.08172142505645752,-0.07970821112394333,0.2364824265241623,-0.2771172523498535,0.17053861916065216,-0.05667447671294212,0.01833050325512886,-0.07340396195650101,-0.24268078804016113,-0.09817645698785782,0.14798836410045624,-0.12147935479879379,-0.02501545660197735,0.09761831164360046,0.1961250603199005,-0.1720433384180069,-0.06365063786506653,-0.11828391999006271,0.08770886063575745,-0.016251295804977417,0.005663407035171986,0.16534344851970673,0.13431291282176971,-0.10972572863101959,-0.10604413598775864,-0.08175235986709595,0.00804518349468708,0.05449148640036583,-0.021517500281333923,0.0013294722884893417,-0.19694750010967255,-0.04893355071544647,0.2715446352958679,-0.27357450127601624,0.027734387665987015,-0.24049091339111328,0.03305137902498245,0.019749445840716362,0.21896620094776154,0.06351923197507858,-0.0725569799542427,0.10747873783111572,0.11630721390247345,0.03419077396392822,0.06981714069843292,-0.15365265309810638,0.0144884018227458,-0.0710809975862503,0.008139293640851974,0.003639114322140813,0.09746968001127243,-0.2164042443037033,-0.014660618267953396,0.18943797051906586,-0.0992024838924408,0.11478319019079208,0.11790766566991806,0.03593125566840172,0.14034882187843323,-0.06933453679084778,0.20685608685016632,0.008400258608162403,-0.06676919758319855,-0.0953737273812294,0.05535382032394409,-0.035160213708877563,0.05436360836029053,-0.0926937460899353,0.21233688294887543,-0.042393527925014496,-0.15169663727283478,-0.1086750254034996,-0.19106541574001312,0.005940181203186512,-0.07158155739307404,-0.009866970591247082,-0.13293834030628204,0.14949671924114227,0.07059693336486816,-0.22848375141620636,-0.1389535367488861,-0.0524284727871418
2_35_u_3,0.05468889698386192,-0.21865181624889374,0.17399440705776215,0.027405401691794395,-0.1316814422607422,0.01694699004292488,-0.13116143643856049,0.015998600050807,-0.11135702580213547,-0.09311278164386749,0.033274855464696884,-0.12865868210792542,0.018833423033356667,-0.24061302840709686,0.04625998064875603,0.039192359894514084,0.36436566710472107,-0.13953357934951782,-0.04061121866106987,0.10526181757450104,-0.2360115796327591,-0.09524741768836975,-0.1178966537117958,-2.652108742040582e-05,-0.1810438483953476,0.11189769953489304,0.10801726579666138,-0.004685437772423029,0.18774159252643585,0.14476989209651947,-0.05640386417508125,0.1326625794172287,0.16345790028572083,0.03175630047917366,0.07350247353315353,0.005450233351439238,-0.012428211979568005,-0.06479497253894806,-0.35972079634666443,-0.07017926871776581,0.15562956035137177,0.20975704491138458,-0.04116082191467285,0.10745548456907272,-0.05666084215044975,-0.00017656163254287094,-0.03037933073937893,0.0009639859199523926,-0.10179992020130157,-0.08408290892839432,0.15740089118480682,0.08243422210216522,-0.03979599103331566,-0.15055260062217712,-0.1796175241470337,0.018689675256609917,-0.2125614881515503,0.13179729878902435,-0.06087629124522209,0.11641595512628555,-0.09152429550886154,-0.05022083595395088,0.1053246483206749,-0.009634626097977161,0.1375451683998108,-0.18230871856212616,0.15722854435443878,-0.05090072751045227,0.04473380744457245,-0.07335856556892395,-0.02277049422264099,-0.12101268768310547,-0.11530512571334839,-0.07984068989753723,-0.01138662826269865,0.20357994735240936,0.43348169326782227,0.08048246800899506,-0.14510123431682587,0.15972605347633362,-0.07282008975744247,0.15369689464569092,-0.02492496185004711,-0.13169430196285248,0.14326608180999756,0.0049216048792004585,0.0910281166434288,0.08412330597639084,-0.16896100342273712,-0.018880825489759445,-0.2256181687116623,-0.013739007525146008,0.03618429973721504,-0.06635036319494247,-0.0595100037753582,-0.053884219378232956,-0.17660324275493622,0.02256797067821026,0.10079459100961685,-0.00028181710513308644,-0.10339412838220596,-0.060810234397649765,0.04808930307626724,-0.03327641263604164,-0.17968367040157318,-0.2934701144695282,0.12860552966594696,-0.11179536581039429,0.20864319801330566,-0.12847016751766205,0.17967498302459717,-0.15012791752815247,0.08725813776254654,0.09834510087966919,0.1003996878862381,-0.12435603141784668,0.21776233613491058,0.10159149020910263,-0.0029519672971218824,0.39686331152915955,-0.049050718545913696,-0.1019170880317688,0.18008999526500702,0.07846245914697647,-0.08471491187810898,0.117353655397892,0.06638296693563461,0.2998206317424774,0.022333195433020592,0.08053231239318848,-0.12534241378307343,-0.00819264817982912,0.2888965308666229,0.2070104330778122,-0.16164472699165344,-0.1335296332836151,0.1792452335357666,0.08832227438688278,0.0983796939253807,0.2812713086605072,-0.037100303918123245,0.16420713067054749,-0.18672552704811096,-0.040476687252521515,-0.018992966040968895,0.24127459526062012,0.15471360087394714,-0.05156759172677994,0.0030467265751212835,0.18753737211227417,0.0541328564286232,-0.11202479898929596,0.08414160460233688,0.0790598914027214,0.03977204114198685,-0.03176061436533928,-0.11015567928552628,0.16142511367797852,-0.17859457433223724,-0.028610778972506523,-0.0029622339643538,0.12422653287649155,-0.27577757835388184,0.025948727503418922,0.11698316782712936,-0.0005350291612558067,-0.02351399138569832,0.09929709881544113,0.0756528303027153,-0.05302176624536514,0.020231280475854874,0.17492766678333282,-0.0064578005112707615,0.21724824607372284,-0.08177391439676285,-0.09554105252027512,0.26568904519081116,-0.2487587183713913,0.1848827451467514,-0.18601080775260925,0.004907547030597925,-0.08725972473621368,-0.16283933818340302,-0.23677079379558563,0.17240436375141144,-0.06302066892385483,-0.10576289147138596,0.06733202934265137,0.21260277926921844,-0.19740158319473267,-0.06438674032688141,-0.152277410030365,0.09304775297641754,0.05785674974322319,0.10838470607995987,0.24729982018470764,0.22306828200817108,-0.12433771044015884,-0.10322099924087524,-0.05647098645567894,-0.02602667175233364,0.03289921581745148,-0.058592308312654495,0.047347065061330795,-0.19902388751506805,-0.0829089879989624,0.397401362657547,-0.34231090545654297,-0.04373852163553238,-0.1905982494354248,0.04860952869057655,-0.0200363676995039,0.2501011788845062,0.08585204929113388,-0.15710730850696564,0.03858257457613945,0.11114318668842316,0.11194431781768799,0.06368132680654526,-0.15823118388652802,-0.11260777711868286,-0.17202574014663696,0.09554610401391983,-0.06777910143136978,0.11370861530303955,-0.25435635447502136,0.05073089152574539,0.23518016934394836,-0.06863903254270554,0.20938614010810852,0.2050613909959793,0.04608825221657753,0.16302862763404846,0.036353375762701035,0.1602458357810974,0.08427146822214127,-0.08558320254087448,-0.1186821237206459,0.14055459201335907,0.07348823547363281,-0.0061231935396790504,-0.0691622793674469,0.21445198357105255,-0.041494641453027725,-0.11825902760028839,-0.15893442928791046,-0.12054119259119034,-0.03406798839569092,-0.052104126662015915,-0.12577800452709198,-0.04602075740695,0.20421074330806732,0.15196190774440765,-0.04374179616570473,-0.11267375200986862,-0.06935261934995651
2_361_u_1,0.08433999866247177,-0.011151782236993313,-0.002247894648462534,-0.06457825750112534,-0.14140105247497559,0.29950791597366333,0.04252539202570915,-0.10702978819608688,-0.08616954833269119,0.10622698068618774,-0.01146062184125185,-0.07583046704530716,-0.13860630989074707,-0.31678393483161926,-0.08088161796331406,-0.04931652173399925,0.21663561463356018,-0.07398669421672821,-0.07769094407558441,-0.002052322030067444,-0.17078819870948792,-0.0062858955934643745,-0.10328101366758347,0.12575869262218475,-0.13192512094974518,-0.08208171278238297,0.060986217111349106,1.089721899916185e-05,0.07380463927984238,0.2826458811759949,0.013765175826847553,0.0032731976825743914,0.010505462996661663,0.08328544348478317,-0.15494951605796814,-0.39327648282051086,-0.05773044750094414,0.034971967339515686,-0.11293152719736099,-0.17153267562389374,-0.08052762597799301,0.17603807151317596,0.1339520514011383,-0.05566788464784622,0.09478490799665451,0.001573247485794127,-0.09308129549026489,-0.052992094308137894,-0.028435392305254936,0.028560539707541466,0.11973454803228378,0.19739757478237152,-0.03237621486186981,0.009445123374462128,-0.04798703268170357,-0.017853867262601852,-0.045159418135881424,0.11243899911642075,0.1049298569560051,-0.1681157797574997,-0.051908817142248154,0.003570876782760024,0.10979446023702621,0.00900116004049778,-0.019734790548682213,-0.05438603088259697,-0.0711391493678093,-0.14128313958644867,-0.022137179970741272,0.08293288946151733,-0.025345129892230034,-0.06330731511116028,-0.2694259285926819,-0.021002918481826782,-0.06390651315450668,0.26248303055763245,0.4873359203338623,0.12554693222045898,1.9136816717946203e-06,-0.09301700443029404,0.06688687950372696,0.00411959458142519,0.05083869770169258,-0.25563812255859375,0.28477635979652405,0.1387673020362854,0.2453540414571762,0.07043883949518204,-0.2044605314731598,-0.13270233571529388,-0.2065010815858841,0.003606515470892191,0.1408156156539917,0.03986264392733574,0.061252493411302567,-0.10932081192731857,-0.05824243649840355,0.16982410848140717,0.19905292987823486,0.0029102058615535498,-0.14132258296012878,-0.026361782103776932,0.039080072194337845,-0.06817514449357986,0.05777007341384888,-0.048642486333847046,-0.03435869142413139,0.07232381403446198,-0.013916529715061188,0.04969954863190651,0.08286671340465546,-0.296032190322876,-0.009594070725142956,0.07569675892591476,0.0638190284371376,-0.17551301419734955,0.25046297907829285,0.09723850339651108,-0.12265133857727051,0.12566956877708435,0.10744517296552658,-0.044697728008031845,0.2428804636001587,0.2037164270877838,-0.29221871495246887,-0.09117670357227325,0.187510684132576,0.02591630257666111,-0.01942148059606552,0.06929778307676315,0.033146779984235764,0.023503532633185387,0.09025903791189194,0.1393643021583557,-0.03905864804983139,-0.1894269436597824,0.09940338134765625,0.07034274190664291,0.07457470148801804,-0.018733391538262367,0.11528394371271133,0.14804160594940186,0.001392246806062758,-0.20527902245521545,-0.05267314240336418,0.15598973631858826,0.26824691891670227,0.08744996786117554,-0.0703117847442627,-0.0398179367184639,0.1155814528465271,-0.13682876527309418,-0.04017764702439308,-0.012704610824584961,0.07266642898321152,0.02228514291346073,-0.23844893276691437,0.22446095943450928,0.1133432388305664,-0.08844288438558578,0.20105473697185516,0.18338648974895477,-0.1571042835712433,-0.15545551478862762,0.026095623150467873,-0.2818232476711273,-0.04426480457186699,0.03281322121620178,-0.07436429709196091,-0.055260855704545975,0.1721123903989792,-0.12140586227178574,-0.24375827610492706,0.23472490906715393,-0.06731104105710983,-0.23015034198760986,0.30518245697021484,-0.40845632553100586,0.16921715438365936,0.04898431524634361,-0.051007308065891266,-0.06110522896051407,-0.28491517901420593,-0.04707559198141098,0.1321474313735962,-0.08909314125776291,0.11387906223535538,0.19975626468658447,0.20155031979084015,-0.139424666762352,-0.16062085330486298,-0.07125783711671829,0.15514306724071503,0.07732080668210983,-0.059672094881534576,0.20439855754375458,0.13244940340518951,-0.18811045587062836,-0.1384461671113968,-0.07000154256820679,0.1067369356751442,0.1856149286031723,-0.01422545500099659,-0.030531777068972588,-0.18272621929645538,-0.03963636979460716,0.20693592727184296,-0.06512705236673355,0.06507731229066849,-0.2859104573726654,-0.08653455227613449,0.015232759527862072,0.24749302864074707,0.03865877911448479,-0.040987323969602585,0.11532630026340485,0.15054066479206085,0.0066524045541882515,0.20161066949367523,-0.22818779945373535,0.013713860884308815,0.11473043262958527,-0.038168538361787796,0.17232248187065125,0.14752550423145294,-0.20887994766235352,-0.055696289986371994,0.09814882278442383,-0.0945492535829544,-0.018355736508965492,0.1322852522134781,-0.09311868250370026,0.11872217804193497,-0.2569051682949066,0.1013481616973877,-0.0031870061066001654,-0.1470756083726883,-0.06965047866106033,-0.05834140256047249,-0.24212852120399475,0.07830323278903961,-0.23863641917705536,0.21927176415920258,-0.14893189072608948,-0.23755697906017303,-0.11926580965518951,-0.23960058391094208,-0.004839539527893066,-0.16337214410305023,0.03593369200825691,-0.14565622806549072,0.11641155928373337,0.10828888416290283,-0.41238757967948914,-0.24428120255470276,-0.06749285757541656
2_361_u_2,0.09323316812515259,-0.02356419526040554,0.003996787127107382,-0.06358253210783005,-0.14035314321517944,0.2853570878505707,0.032172609120607376,-0.09858856350183487,-0.08499733358621597,0.09700344502925873,-0.00881719496101141,-0.08426808565855026,-0.13120685517787933,-0.31710854172706604,-0.07092656195163727,-0.04569081589579582,0.2247142791748047,-0.07643873989582062,-0.085076704621315,0.01290708314627409,-0.18261145055294037,-0.017322495579719543,-0.10811197012662888,0.11783840507268906,-0.13265688717365265,-0.06599825620651245,0.062085699290037155,-0.0012102395994588733,0.07138214260339737,0.2752656638622284,0.009849609807133675,0.012855342589318752,0.01691867969930172,0.0798325464129448,-0.1469261348247528,-0.3763402998447418,-0.05387366935610771,0.017396874725818634,-0.12572996318340302,-0.1675676554441452,-0.07061673700809479,0.18019108474254608,0.13281132280826569,-0.04053486883640289,0.09090635925531387,-0.00890296045690775,-0.090494804084301,-0.05154343321919441,-0.030104247853159904,0.01790618896484375,0.11731143295764923,0.1935661882162094,-0.03424519672989845,0.00646142428740859,-0.058775752782821655,-0.013032657094299793,-0.05539156123995781,0.12174588441848755,0.09886739403009415,-0.15620844066143036,-0.051563989371061325,-0.0029247142374515533,0.11281933635473251,0.0063474164344370365,-0.013345128856599331,-0.06584816426038742,-0.060044944286346436,-0.1336592584848404,-0.015869157388806343,0.07630620896816254,-0.02881282940506935,-0.06229308992624283,-0.2710054814815521,-0.02208426035940647,-0.05791695788502693,0.26241743564605713,0.48305732011795044,0.11733720451593399,-0.008350212126970291,-0.07925311475992203,0.06159327179193497,0.01581367664039135,0.04286189004778862,-0.2614811360836029,0.2846328616142273,0.13109420239925385,0.24143843352794647,0.07429444044828415,-0.20762167870998383,-0.130795419216156,-0.2153381109237671,0.0005105644813738763,0.13198626041412354,0.03584345802664757,0.04692557081580162,-0.10363366454839706,-0.062274277210235596,0.16248133778572083,0.1956072896718979,-0.0029169439803808928,-0.13895808160305023,-0.03236977383494377,0.037168923765420914,-0.06946941465139389,0.054258137941360474,-0.06152000650763512,-0.029128670692443848,0.06593155115842819,0.008530039340257645,0.04104168340563774,0.08784238994121552,-0.2886755168437958,-0.01601659320294857,0.07867096364498138,0.0707782655954361,-0.17510175704956055,0.25507059693336487,0.10757090151309967,-0.11352341622114182,0.1489003598690033,0.09168324619531631,-0.0436074398458004,0.23646007478237152,0.2053801566362381,-0.2799253463745117,-0.08219555765390396,0.17931059002876282,0.03766245394945145,-0.019782090559601784,0.0683768168091774,0.024739054962992668,0.029193973168730736,0.10369212925434113,0.1496201604604721,-0.04878369718790054,-0.18988656997680664,0.10571890324354172,0.07119882106781006,0.0755203366279602,-0.004959420766681433,0.10252245515584946,0.15322159230709076,-0.012706874869763851,-0.2005578577518463,-0.055330391973257065,0.16061483323574066,0.26584503054618835,0.07849881052970886,-0.0675056129693985,-0.029789457097649574,0.11183585971593857,-0.143036350607872,-0.03222715109586716,-0.002759912284091115,0.06851040571928024,0.017494671046733856,-0.22747626900672913,0.230583056807518,0.10449495166540146,-0.09273643791675568,0.19176310300827026,0.17538514733314514,-0.16713948547840118,-0.1470915973186493,0.03327163681387901,-0.27108684182167053,-0.040713127702474594,0.03190397098660469,-0.06095658615231514,-0.06260063499212265,0.16907790303230286,-0.10464664548635483,-0.24194549024105072,0.24012306332588196,-0.06976187229156494,-0.21408939361572266,0.30710116028785706,-0.4026821553707123,0.17142172157764435,0.034446943551301956,-0.045720674097537994,-0.057694800198078156,-0.28565627336502075,-0.06250103563070297,0.13844093680381775,-0.09129849821329117,0.09811131656169891,0.18720726668834686,0.20644402503967285,-0.14959749579429626,-0.1631220281124115,-0.076723113656044,0.15697428584098816,0.07695908844470978,-0.053038597106933594,0.20125404000282288,0.13151778280735016,-0.18489232659339905,-0.13862113654613495,-0.07426583021879196,0.09278127551078796,0.17898745834827423,-0.014662319794297218,-0.026895886287093163,-0.18830753862857819,-0.046456024050712585,0.21707701683044434,-0.08992772549390793,0.06546767055988312,-0.28961658477783203,-0.07509414106607437,0.016854405403137207,0.2555259168148041,0.04400482401251793,-0.04428062587976456,0.1177135482430458,0.1429661065340042,0.0091962069272995,0.19297513365745544,-0.22584138810634613,0.0035656155087053776,0.09212920069694519,-0.025189010426402092,0.15211351215839386,0.1411287784576416,-0.21168175339698792,-0.04684697464108467,0.11449597030878067,-0.09562046825885773,-0.001574985682964325,0.13221998512744904,-0.0851355642080307,0.1264692097902298,-0.24771559238433838,0.11498116701841354,-0.0015635520685464144,-0.14697273075580597,-0.07382337003946304,-0.041128009557724,-0.22237074375152588,0.07217533886432648,-0.2271871119737625,0.22260084748268127,-0.14435935020446777,-0.233851820230484,-0.1181345209479332,-0.24439416825771332,-0.004422344267368317,-0.16156308352947235,0.03533899784088135,-0.15049698948860168,0.12160768359899521,0.10939550399780273,-0.40061092376708984,-0.23673005402088165,-0.07096817344427109
2_361_u_3,0.08731533586978912,-0.0342765711247921,0.022648468613624573,-0.06116006523370743,-0.14906391501426697,0.25741860270500183,0.01974879577755928,-0.07804706692695618,-0.08984397351741791,0.09269573539495468,-0.000920535996556282,-0.08883403241634369,-0.11548575013875961,-0.31389158964157104,-0.059788282960653305,-0.03194626048207283,0.2429109662771225,-0.08213914930820465,-0.07635102421045303,0.022162115201354027,-0.19199267029762268,-0.02402416430413723,-0.10093338787555695,0.11175836622714996,-0.12594521045684814,-0.0726015493273735,0.06560123711824417,-0.010053800418972969,0.07360249757766724,0.26985064148902893,-0.007018457632511854,0.01973528414964676,0.03318943828344345,0.060543905943632126,-0.11242425441741943,-0.3473622500896454,-0.04804292321205139,0.029620235785841942,-0.13824814558029175,-0.15724711120128632,-0.05936093255877495,0.17142145335674286,0.12084853649139404,-0.03819238021969795,0.07716339081525803,-0.006348883267492056,-0.0852978527545929,-0.051898229867219925,-0.03447910398244858,0.002573792589828372,0.10610705614089966,0.18406619131565094,-0.021441010758280754,-0.012298693880438805,-0.06031542643904686,-0.0122254379093647,-0.06097525358200073,0.11768653243780136,0.0958356186747551,-0.13656875491142273,-0.06115331873297691,-0.006862963084131479,0.10442662239074707,0.004249166697263718,-0.009353876113891602,-0.07206107676029205,-0.047504592686891556,-0.13568852841854095,-0.00928306020796299,0.05738893896341324,-0.019303100183606148,-0.05734232813119888,-0.24261914193630219,-0.020730404183268547,-0.05256909877061844,0.2549821138381958,0.46966496109962463,0.12420240789651871,-0.01721351221203804,-0.07197510451078415,0.05956203490495682,0.033060524612665176,0.03720099478960037,-0.23084942996501923,0.2555418014526367,0.1430196464061737,0.23775862157344818,0.05972309038043022,-0.20105038583278656,-0.11819186061620712,-0.19498319923877716,0.008108052425086498,0.13305149972438812,0.02623659372329712,0.046219080686569214,-0.1002669557929039,-0.06072751805186272,0.1545453816652298,0.1907384693622589,0.007801248226314783,-0.1330854296684265,-0.03078867495059967,0.035537537187337875,-0.05797736719250679,0.03475215286016464,-0.07754287868738174,-0.030610984191298485,0.039997704327106476,0.024128079414367676,0.028925318270921707,0.10412555932998657,-0.28126129508018494,-0.007801327388733625,0.08837362378835678,0.06415235251188278,-0.17038655281066895,0.25023767352104187,0.09952328354120255,-0.10413366556167603,0.16681574285030365,0.08850400894880295,-0.04878825694322586,0.2248493880033493,0.19965241849422455,-0.2628813683986664,-0.07034184783697128,0.16752423346042633,0.06316393613815308,-0.013257453218102455,0.08450645208358765,-0.0019222826231271029,0.030781244859099388,0.12034875154495239,0.15265463292598724,-0.07561897486448288,-0.19329772889614105,0.11557883024215698,0.06632338464260101,0.07156147062778473,0.01421510148793459,0.08873705565929413,0.15335385501384735,-0.02165023609995842,-0.18369951844215393,-0.06266800314188004,0.15123532712459564,0.25368162989616394,0.06969984620809555,-0.0529828779399395,-0.027761200442910194,0.10601232200860977,-0.14225749671459198,-0.015480341389775276,0.008438496850430965,0.06745238602161407,0.0201145987957716,-0.20811305940151215,0.21887806057929993,0.07320235669612885,-0.08264730870723724,0.1812611222267151,0.17549565434455872,-0.15991723537445068,-0.13843588531017303,0.03089953400194645,-0.2539968490600586,-0.02821514569222927,0.03614162653684616,-0.05648539587855339,-0.06504275649785995,0.1644086092710495,-0.09116479009389877,-0.21350574493408203,0.23141621053218842,-0.06772653013467789,-0.2179831564426422,0.3014012277126312,-0.3640718162059784,0.1650940477848053,0.019780663773417473,-0.0545935332775116,-0.04643796756863594,-0.26363030076026917,-0.08582581579685211,0.13824887573719025,-0.09125109016895294,0.08006123453378677,0.16725336015224457,0.2034694254398346,-0.1550225168466568,-0.15235461294651031,-0.06489057838916779,0.1640368551015854,0.08123457431793213,-0.05662809684872627,0.21303963661193848,0.13665494322776794,-0.1862148493528366,-0.1443624049425125,-0.07171770185232162,0.08981984853744507,0.17534159123897552,-0.020062794908881187,-0.016010526567697525,-0.17013773322105408,-0.0470198318362236,0.23707686364650726,-0.10221327841281891,0.06107628345489502,-0.2745550274848938,-0.07019298523664474,0.008167102001607418,0.24425946176052094,0.041596055030822754,-0.040145665407180786,0.09174621105194092,0.1324305385351181,0.010550297796726227,0.18369916081428528,-0.20715785026550293,-0.004719873424619436,0.08038549870252609,-0.021898696199059486,0.140478253364563,0.13155309855937958,-0.20733729004859924,-0.04809318110346794,0.11739744246006012,-0.08798183500766754,0.028758330270648003,0.14132007956504822,-0.07901962846517563,0.1344051957130432,-0.22131839394569397,0.11270014196634293,-0.0024657943286001682,-0.13407862186431885,-0.08311554789543152,-0.0135686369612813,-0.19924412667751312,0.06708119064569473,-0.21063093841075897,0.21672289073467255,-0.1400054693222046,-0.2223244160413742,-0.12425655126571655,-0.22380788624286652,-0.013187780976295471,-0.13838839530944824,0.021428894251585007,-0.12916527688503265,0.12061982601881027,0.09205548465251923,-0.36289697885513306,-0.23547254502773285,-0.05924767255783081
2_361_u_4,0.08520384877920151,-0.03518856316804886,0.02455347590148449,-0.05763323977589607,-0.14639495313167572,0.25321313738822937,0.017306772992014885,-0.08140543848276138,-0.08843204379081726,0.08972660452127457,-0.0035114381462335587,-0.08507457375526428,-0.11506112664937973,-0.31829437613487244,-0.062208425253629684,-0.03506215661764145,0.24911077320575714,-0.0780978724360466,-0.07693009823560715,0.02133309096097946,-0.19623923301696777,-0.02150580659508705,-0.09833686798810959,0.10816283524036407,-0.12968133389949799,-0.06388025730848312,0.06036620959639549,-0.004595094360411167,0.07658784836530685,0.2675377428531647,-0.006206254940479994,0.018464678898453712,0.03284177929162979,0.06705701351165771,-0.11426416784524918,-0.34344133734703064,-0.039784349501132965,0.01835526153445244,-0.14282077550888062,-0.15649625658988953,-0.058985479176044464,0.17437238991260529,0.12063316255807877,-0.02857031300663948,0.07488112896680832,-0.007561047561466694,-0.09221842885017395,-0.046291809529066086,-0.03899477794766426,0.004086369648575783,0.11124678701162338,0.1849314272403717,-0.02533481828868389,-0.012269413098692894,-0.06302019208669662,-0.00785045325756073,-0.0640357956290245,0.11996070295572281,0.08942978829145432,-0.13465948402881622,-0.05843197926878929,-0.004372875671833754,0.10099513828754425,0.007762403227388859,-0.003854698035866022,-0.08132687956094742,-0.044335246086120605,-0.1401013433933258,-0.011264088563621044,0.053959429264068604,-0.021160773932933807,-0.05780947208404541,-0.2495446652173996,-0.027653086930513382,-0.04611856862902641,0.25840553641319275,0.473057359457016,0.12460843473672867,-0.020353971049189568,-0.06496994197368622,0.053760796785354614,0.038659024983644485,0.031922969967126846,-0.23625893890857697,0.25859662890434265,0.13762609660625458,0.23846061527729034,0.06485141068696976,-0.20493559539318085,-0.12010855972766876,-0.19550369679927826,0.005168377887457609,0.13444764912128448,0.022463083267211914,0.037426721304655075,-0.1037188321352005,-0.06574883311986923,0.14738023281097412,0.19429230690002441,0.004441964905709028,-0.13247142732143402,-0.027127189561724663,0.03868334740400314,-0.06147271394729614,0.034454334527254105,-0.08211074769496918,-0.01790137030184269,0.040891099721193314,0.029538840055465698,0.02908318303525448,0.09731854498386383,-0.2837061285972595,-0.001239784061908722,0.08852039277553558,0.0639968067407608,-0.1749759167432785,0.25331029295921326,0.10583611577749252,-0.09969513863325119,0.17366953194141388,0.08356305211782455,-0.04731208086013794,0.22529752552509308,0.19915591180324554,-0.27052557468414307,-0.0646224245429039,0.1695493757724762,0.0629599392414093,-0.01191015262156725,0.07978951185941696,0.0014185429317876697,0.03284567594528198,0.11688312143087387,0.1513037532567978,-0.0704045444726944,-0.1882396787405014,0.1115337386727333,0.0731310173869133,0.07262740284204483,0.021224111318588257,0.08695376664400101,0.14941583573818207,-0.029001405462622643,-0.18327467143535614,-0.06075967475771904,0.16436277329921722,0.24825716018676758,0.07214518636465073,-0.05747426301240921,-0.02220979891717434,0.11022616922855377,-0.13818171620368958,-0.015985602512955666,0.009227357804775238,0.07325956225395203,0.02321614883840084,-0.2073957473039627,0.21675501763820648,0.07604076713323593,-0.08279489725828171,0.17865215241909027,0.1728602647781372,-0.17181745171546936,-0.13749249279499054,0.03792315348982811,-0.2471354752779007,-0.03196088224649429,0.03891776129603386,-0.04862817004323006,-0.06580737233161926,0.1600205898284912,-0.0815683975815773,-0.2114122360944748,0.24145498871803284,-0.0729103684425354,-0.21381333470344543,0.3036116063594818,-0.372836172580719,0.1676379293203354,0.015479380264878273,-0.04850270599126816,-0.048265136778354645,-0.2669542729854584,-0.09029603004455566,0.14159944653511047,-0.08799494802951813,0.07752542197704315,0.1717929095029831,0.20521390438079834,-0.15718618035316467,-0.15230685472488403,-0.07111189514398575,0.16551731526851654,0.08530203253030777,-0.048774030059576035,0.2092830240726471,0.14280866086483002,-0.1879923790693283,-0.14480994641780853,-0.06898932158946991,0.08549921959638596,0.1729486584663391,-0.02856830321252346,-0.02360154315829277,-0.17716899514198303,-0.04479430243372917,0.24024522304534912,-0.10580682009458542,0.05354864522814751,-0.27629896998405457,-0.07120775431394577,0.003458717605099082,0.2511530816555023,0.04279497638344765,-0.04570041224360466,0.09857004135847092,0.13593201339244843,0.01295276265591383,0.1856537163257599,-0.21436627209186554,-0.010429739020764828,0.07973194867372513,-0.01198295596987009,0.13113942742347717,0.13121452927589417,-0.20828691124916077,-0.04563208296895027,0.116817407310009,-0.08818989247083664,0.02752147987484932,0.13777649402618408,-0.07973798364400864,0.13644888997077942,-0.22434119880199432,0.11695819348096848,0.0006653651944361627,-0.1412598341703415,-0.08457186073064804,-0.017400911077857018,-0.19626180827617645,0.0629119798541069,-0.21314191818237305,0.21673202514648438,-0.1391630470752716,-0.21855686604976654,-0.12750421464443207,-0.22393856942653656,-0.012735898606479168,-0.13930609822273254,0.017844578251242638,-0.13425694406032562,0.12339406460523605,0.10805821418762207,-0.3527028262615204,-0.23310410976409912,-0.06446094810962677
2_361_u_5,0.10842956602573395,-0.014802026562392712,-0.11273597925901413,-0.0266030915081501,-0.0018571291584521532,0.274687260389328,0.12481900304555893,-0.15245598554611206,-0.09815509617328644,-0.10031137615442276,-0.043853338807821274,-0.11542751640081406,-0.06301049888134003,-0.21632051467895508,-0.11544882506132126,-0.07746224850416183,0.09780136495828629,-0.10867392271757126,-0.0903865322470665,0.038842540234327316,-0.03534012660384178,0.030012447386980057,-0.24100647866725922,0.007431957870721817,-0.23577788472175598,-0.040857069194316864,0.06363030523061752,-0.022523662075400352,0.08752842247486115,0.1279764175415039,0.07986117899417877,0.1325298547744751,0.029155924916267395,0.11369315534830093,-0.2182074338197708,-0.224075585603714,-0.0815105065703392,0.16362805664539337,-0.11183412373065948,-0.19349612295627594,0.0014049068558961153,0.1179073229432106,0.06963683664798737,0.04704219102859497,0.06704359501600266,0.0598042868077755,0.025541206821799278,-0.06867118179798126,-0.02702970802783966,0.07795695215463638,0.20430974662303925,0.10881741344928741,-0.1092662587761879,0.07131947576999664,-0.08304107189178467,-0.012959368526935577,-0.16613629460334778,0.0783700942993164,0.03829222545027733,-0.1027989611029625,-0.013151413761079311,-0.013332097791135311,0.1136992946267128,0.015820428729057312,0.10776513069868088,0.049888867884874344,-0.10023242235183716,-0.09404950588941574,0.09261021018028259,-0.0231854896992445,-0.04052498936653137,-0.11321486532688141,-0.21815109252929688,0.00963329803198576,-0.16187061369419098,0.24414797127246857,0.4485142230987549,-0.012105696834623814,0.042529117316007614,-0.12172853946685791,0.006782721262425184,-0.10793604701757431,0.07011816650629044,-0.38086962699890137,0.27527719736099243,0.04966146871447563,0.09272844344377518,0.14911715686321259,-0.11392410099506378,-0.010176542215049267,-0.23668928444385529,-0.16168458759784698,0.010832472704350948,0.062189120799303055,-0.012544350698590279,-0.04629433527588844,-0.12066944688558578,0.25993597507476807,0.10567772388458252,-0.14418065547943115,-0.16996309161186218,-0.1462434083223343,0.058198995888233185,-0.1409398317337036,-0.09170698374509811,-0.04948347434401512,-0.0912037119269371,0.19575382769107819,-0.042226243764162064,-0.13197676837444305,0.09541003406047821,-0.17035679519176483,-0.06925453990697861,0.04008133336901665,-0.05103171989321709,-0.11535268276929855,0.13083307445049286,0.0016980350483208895,-0.18430757522583008,0.07501763850450516,0.12132253497838974,0.04232271388173103,0.18012621998786926,0.1295974999666214,-0.18132583796977997,-0.07385625690221786,0.038674261420965195,0.038330644369125366,0.07402265816926956,-0.10546934604644775,0.1121072992682457,-0.0175755824893713,0.1737925112247467,0.11979146301746368,-0.04763924703001976,-0.0701487585902214,0.028959590941667557,0.14561127126216888,0.05681941658258438,-0.030788565054535866,0.11898096650838852,0.09194163233041763,-0.09251076728105545,-0.21701236069202423,-0.013851610012352467,0.12597434222698212,0.37981370091438293,0.10804172605276108,-0.054775137454271317,0.12157005071640015,0.11032557487487793,-0.05107969045639038,-0.21672140061855316,0.08201423287391663,0.05861183628439903,0.0007527932757511735,-0.2367083579301834,0.1055588349699974,0.0756353884935379,-0.019447917118668556,0.2199009507894516,0.16757065057754517,-0.20154862105846405,-0.06142371892929077,0.02706211805343628,-0.24873481690883636,-0.08490996062755585,0.14115919172763824,-0.08311083167791367,-0.12128546088933945,0.04099182412028313,-0.08634018898010254,-0.21215985715389252,0.28457051515579224,0.02192358300089836,-0.09223487228155136,0.23195257782936096,-0.5860960483551025,0.14226391911506653,0.044783394783735275,0.031858544796705246,-0.12813396751880646,-0.21492789685726166,0.0296697448939085,-0.035939689725637436,-0.08811986446380615,0.17357221245765686,0.1768508106470108,0.05078801140189171,-0.08698509633541107,-0.07930851727724075,-0.011903221718966961,0.019087450578808784,-0.10041113197803497,-0.05743448808789253,0.11927034705877304,0.010119395330548286,-0.03908519074320793,-0.03998880460858345,-0.032846588641405106,0.056471120566129684,0.18369947373867035,0.09108325839042664,-0.05508314445614815,-0.2008242905139923,-0.09373878687620163,0.08974709361791611,-0.07716654986143112,0.07908212393522263,-0.1261530965566635,-0.13728883862495422,0.05332595109939575,0.07782374322414398,0.0033007138408720493,0.002562007401138544,0.2451598197221756,0.06962724030017853,0.030987173318862915,0.05578601360321045,-0.11967992782592773,0.03708306699991226,0.09057958424091339,-0.03795326501131058,0.18135614693164825,0.24047748744487762,-0.1738567352294922,0.024573564529418945,0.05763555318117142,-0.041680920869112015,-0.06822177022695541,0.11711343377828598,-0.08384864777326584,0.08537010103464127,-0.23365984857082367,0.0360928550362587,-0.024224860593676567,-0.14567434787750244,-0.016368133947253227,-0.1613190770149231,-0.01686936244368553,0.080773264169693,-0.14146696031093597,0.22893379628658295,-0.04350856691598892,-0.1473073959350586,-0.05880704149603844,-0.14339224994182587,-0.026743868365883827,-0.11702709645032883,-0.016237897798419,-0.04267945513129234,0.14636348187923431,0.11078362911939621,-0.36863404512405396,-0.19779875874519348,-0.03191716596484184
2_365_u_1,0.07394783943891525,0.05994122847914696,-0.10374846309423447,0.021489858627319336,-0.07365160435438156,0.43928709626197815,0.09656297415494919,-0.24785082042217255,-0.031779855489730835,0.13992570340633392,0.019142935052514076,0.02296377904713154,-0.2505359351634979,-0.40809932351112366,-0.14031529426574707,-0.09272405505180359,0.14255113899707794,-0.11156056076288223,-0.17126308381557465,-0.03995784744620323,-0.12499989569187164,-0.02149820886552334,-0.2366832047700882,0.18451984226703644,-0.12601213157176971,-0.07295796275138855,0.05624302849173546,0.03735572472214699,0.06538977473974228,0.44083380699157715,0.18881334364414215,-0.13391028344631195,-0.057468172162771225,0.09952560067176819,-0.26155444979667664,-0.45698046684265137,-0.09885626286268234,0.0008094556978903711,-0.05189881473779678,-0.2743663787841797,-0.21724346280097961,0.2491927444934845,0.2681024670600891,0.0012829849729314446,0.09801685065031052,0.015842439606785774,-0.15258558094501495,0.12391102313995361,0.012892233207821846,0.09968478977680206,0.2860587537288666,0.3271096646785736,-0.13557110726833344,0.06964333355426788,0.016266241669654846,0.0037338424008339643,0.03669111803174019,0.23198239505290985,0.10739051550626755,-0.14687637984752655,-0.05357803776860237,0.025488561019301414,0.2096233367919922,0.06719757616519928,-0.07668044418096542,-0.14325328171253204,-0.07858036458492279,-0.09676069021224976,-0.1266760528087616,0.09659504890441895,-0.08125623315572739,0.007905515842139721,-0.48055312037467957,-0.007299161050468683,0.015073224902153015,0.31003639101982117,0.7163670659065247,0.17522725462913513,-0.04291660711169243,-0.03777825087308884,0.14343947172164917,-0.14554929733276367,0.051027145236730576,-0.3578462302684784,0.4461478292942047,0.15897725522518158,0.33540773391723633,0.0816831961274147,-0.28887033462524414,-0.2794540822505951,-0.2589387595653534,-0.11013820022344589,0.2562651038169861,-0.019698936492204666,0.06378301978111267,-0.16099540889263153,-0.1916598081588745,0.10063155740499496,0.15914687514305115,-0.07019646465778351,-0.18362820148468018,0.05828191712498665,-0.03599663823843002,-0.10166992992162704,0.1023944765329361,-0.0218211580067873,0.08816112577915192,0.15100546181201935,-0.10369972139596939,0.13565652072429657,0.015901893377304077,-0.3854494094848633,0.05985581874847412,0.08971190452575684,0.09297807514667511,-0.28775307536125183,0.31448349356651306,0.17878465354442596,-0.16272607445716858,0.017013227567076683,0.05645979568362236,0.0076265581883490086,0.3050728440284729,0.2942248284816742,-0.49756065011024475,-0.22551484405994415,0.2979063093662262,-0.022490819916129112,-0.11600782722234726,-0.06689795106649399,0.17382921278476715,0.014543071389198303,0.05761352926492691,0.09936393797397614,0.13307829201221466,-0.04935957118868828,0.030577553436160088,0.0755748376250267,0.017520595341920853,-0.06694155186414719,0.1850983202457428,0.10721638053655624,0.00914656650274992,-0.20275059342384338,-0.06374053657054901,0.35003575682640076,0.22179925441741943,0.24907870590686798,-0.11046548187732697,-0.036068547517061234,0.17552196979522705,-0.17302432656288147,-0.15699094533920288,-0.10885832458734512,0.08736880868673325,0.11013870686292648,-0.41538214683532715,0.1569572389125824,0.2376444786787033,-0.15101034939289093,0.20913787186145782,0.15917959809303284,-0.11216497421264648,-0.16993848979473114,0.10346309095621109,-0.36286816000938416,-0.18698178231716156,0.04259127005934715,-0.056401919573545456,0.0005405214033089578,0.1668119877576828,-0.25484490394592285,-0.32400187849998474,0.34239664673805237,-0.12696166336536407,-0.27970924973487854,0.2941460609436035,-0.6785169839859009,0.26192808151245117,0.050803400576114655,0.048365265130996704,-0.19795122742652893,-0.39844873547554016,0.09167459607124329,0.2408805936574936,-0.13263702392578125,0.1647767871618271,0.36249032616615295,0.2841653525829315,-0.13502076268196106,-0.1322309523820877,-0.15867473185062408,0.08871884644031525,0.05606386810541153,-0.02212044596672058,0.16212069988250732,0.23861312866210938,-0.176884725689888,-0.14828668534755707,-0.15081296861171722,0.13986678421497345,0.12218941748142242,-0.0834924727678299,-0.1789356917142868,-0.4557093679904938,0.012425165623426437,0.293006032705307,-0.07074707746505737,0.06501910090446472,-0.40517789125442505,-0.11018963158130646,-0.025729913264513016,0.36063671112060547,-0.026871664449572563,-0.1617416888475418,0.2984238266944885,0.24040208756923676,-0.01709553599357605,0.3080824911594391,-0.48779043555259705,0.10425825417041779,0.1696101278066635,0.04089288040995598,0.15200214087963104,0.24905791878700256,-0.25695982575416565,-0.10857778787612915,0.093967966735363,-0.15778902173042297,-0.14687637984752655,0.09170731157064438,-0.05619816109538078,0.1729382574558258,-0.3720385432243347,0.17999058961868286,-0.06528163701295853,-0.15918676555156708,-0.07600586116313934,-0.24902740120887756,-0.39990732073783875,0.10438543558120728,-0.3846012055873871,0.32033225893974304,-0.14499427378177643,-0.30435094237327576,-0.0987502709031105,-0.42070919275283813,0.05682235583662987,-0.18992222845554352,0.05995708703994751,-0.32391357421875,0.0878877192735672,0.2977096736431122,-0.5815852284431458,-0.25462958216667175,-0.11405348032712936
