ImageName,Embedding_0,Embedding_1,Embedding_2,Embedding_3,Embedding_4,Embedding_5,Embedding_6,Embedding_7,Embedding_8,Embedding_9,Embedding_10,Embedding_11,Embedding_12,Embedding_13,Embedding_14,Embedding_15,Embedding_16,Embedding_17,Embedding_18,Embedding_19,Embedding_20,Embedding_21,Embedding_22,Embedding_23,Embedding_24,Embedding_25,Embedding_26,Embedding_27,Embedding_28,Embedding_29,Embedding_30,Embedding_31,Embedding_32,Embedding_33,Embedding_34,Embedding_35,Embedding_36,Embedding_37,Embedding_38,Embedding_39,Embedding_40,Embedding_41,Embedding_42,Embedding_43,Embedding_44,Embedding_45,Embedding_46,Embedding_47,Embedding_48,Embedding_49,Embedding_50,Embedding_51,Embedding_52,Embedding_53,Embedding_54,Embedding_55,Embedding_56,Embedding_57,Embedding_58,Embedding_59,Embedding_60,Embedding_61,Embedding_62,Embedding_63,Embedding_64,Embedding_65,Embedding_66,Embedding_67,Embedding_68,Embedding_69,Embedding_70,Embedding_71,Embedding_72,Embedding_73,Embedding_74,Embedding_75,Embedding_76,Embedding_77,Embedding_78,Embedding_79,Embedding_80,Embedding_81,Embedding_82,Embedding_83,Embedding_84,Embedding_85,Embedding_86,Embedding_87,Embedding_88,Embedding_89,Embedding_90,Embedding_91,Embedding_92,Embedding_93,Embedding_94,Embedding_95,Embedding_96,Embedding_97,Embedding_98,Embedding_99,Embedding_100,Embedding_101,Embedding_102,Embedding_103,Embedding_104,Embedding_105,Embedding_106,Embedding_107,Embedding_108,Embedding_109,Embedding_110,Embedding_111,Embedding_112,Embedding_113,Embedding_114,Embedding_115,Embedding_116,Embedding_117,Embedding_118,Embedding_119,Embedding_120,Embedding_121,Embedding_122,Embedding_123,Embedding_124,Embedding_125,Embedding_126,Embedding_127,Embedding_128,Embedding_129,Embedding_130,Embedding_131,Embedding_132,Embedding_133,Embedding_134,Embedding_135,Embedding_136,Embedding_137,Embedding_138,Embedding_139,Embedding_140,Embedding_141,Embedding_142,Embedding_143,Embedding_144,Embedding_145,Embedding_146,Embedding_147,Embedding_148,Embedding_149,Embedding_150,Embedding_151,Embedding_152,Embedding_153,Embedding_154,Embedding_155,Embedding_156,Embedding_157,Embedding_158,Embedding_159,Embedding_160,Embedding_161,Embedding_162,Embedding_163,Embedding_164,Embedding_165,Embedding_166,Embedding_167,Embedding_168,Embedding_169,Embedding_170,Embedding_171,Embedding_172,Embedding_173,Embedding_174,Embedding_175,Embedding_176,Embedding_177,Embedding_178,Embedding_179,Embedding_180,Embedding_181,Embedding_182,Embedding_183,Embedding_184,Embedding_185,Embedding_186,Embedding_187,Embedding_188,Embedding_189,Embedding_190,Embedding_191,Embedding_192,Embedding_193,Embedding_194,Embedding_195,Embedding_196,Embedding_197,Embedding_198,Embedding_199,Embedding_200,Embedding_201,Embedding_202,Embedding_203,Embedding_204,Embedding_205,Embedding_206,Embedding_207,Embedding_208,Embedding_209,Embedding_210,Embedding_211,Embedding_212,Embedding_213,Embedding_214,Embedding_215,Embedding_216,Embedding_217,Embedding_218,Embedding_219,Embedding_220,Embedding_221,Embedding_222,Embedding_223,Embedding_224,Embedding_225,Embedding_226,Embedding_227,Embedding_228,Embedding_229,Embedding_230,Embedding_231,Embedding_232,Embedding_233,Embedding_234,Embedding_235,Embedding_236,Embedding_237,Embedding_238,Embedding_239,Embedding_240,Embedding_241,Embedding_242,Embedding_243,Embedding_244,Embedding_245,Embedding_246,Embedding_247,Embedding_248,Embedding_249,Embedding_250,Embedding_251,Embedding_252,Embedding_253,Embedding_254,Embedding_255
1_10004_u_1,-0.04379747435450554,-0.22106750309467316,-0.13621209561824799,-0.1349109262228012,-0.26019853353500366,0.059669043868780136,-0.128774493932724,-0.11968042701482773,-0.09443119168281555,-0.05422225594520569,0.02608206868171692,0.3233411908149719,0.06019289419054985,-0.035192497074604034,0.0350165069103241,-0.1586645096540451,0.1286979764699936,0.0913868248462677,0.2695736587047577,0.04535558447241783,0.1727372407913208,-0.05824407935142517,0.0313594713807106,0.03921950235962868,0.6030263304710388,0.14015807211399078,0.25922566652297974,0.1270039677619934,-0.24672555923461914,-0.10946910828351974,-0.10348819941282272,-0.3478199243545532,0.018505200743675232,-0.024310221895575523,-0.14329718053340912,-0.15183815360069275,-0.04025556519627571,-0.10814940184354782,-0.4796249568462372,0.39775851368904114,-0.32266536355018616,-0.11292024701833725,0.11464818567037582,0.18942873179912567,0.08359833806753159,-0.04703102633357048,0.481199711561203,0.139042466878891,0.12958325445652008,-0.16894541680812836,0.13742195069789886,-0.09485810250043869,0.18635790050029755,0.031361501663923264,-0.0814855769276619,-0.005199435167014599,-0.0794413611292839,-0.07394879311323166,-0.20021085441112518,-0.16552197933197021,-0.182913139462471,-0.03917784243822098,0.14702478051185608,-0.29227614402770996,0.36390453577041626,0.10828574001789093,0.2172286957502365,-0.012370170094072819,0.037942081689834595,0.15389886498451233,-0.2510105073451996,0.22877275943756104,-0.22300080955028534,-0.08124896138906479,-0.14737366139888763,-0.17712847888469696,-0.48246318101882935,0.05789973959326744,-0.5397741198539734,0.22116315364837646,-0.0033342819660902023,0.03195285052061081,-0.08182357996702194,-0.0828835517168045,0.2502627670764923,0.008419192396104336,0.12155616283416748,0.059458084404468536,0.0018226280808448792,-0.19584991037845612,-0.3627292811870575,0.0659145936369896,-0.15357238054275513,0.26397639513015747,0.30925482511520386,0.4492940604686737,0.12452123314142227,0.08073421567678452,-0.5350936055183411,-0.3509567379951477,-0.2313268482685089,0.4662148654460907,0.037622448056936264,0.12217932939529419,0.2849735617637634,0.2239818125963211,-0.11700322479009628,-0.23683248460292816,0.02578107826411724,-0.0792280063033104,-0.16925667226314545,0.26209506392478943,-0.08304312825202942,-0.1076473742723465,-0.10868033021688461,0.2607724368572235,0.02497413568198681,-0.03282426670193672,-0.1731398105621338,0.030075600370764732,0.19747351109981537,0.25067687034606934,0.2477266788482666,0.2953800857067108,-0.2662716805934906,0.22371111810207367,-0.005666494369506836,0.20560888946056366,-0.3604906499385834,-0.3072808086872101,-0.0008287098607979715,0.24701400101184845,-0.042333900928497314,-0.3404591977596283,0.16259253025054932,-0.2069138139486313,-0.07773862034082413,-0.1222509890794754,0.017592811957001686,-0.2533174753189087,-0.26582834124565125,0.006179047282785177,0.20096687972545624,-0.2192625254392624,-0.04957142472267151,0.07365091145038605,-0.2711302638053894,0.030864793807268143,-0.23012764751911163,0.0837683379650116,-0.038937777280807495,-0.025818729773163795,0.11376074701547623,0.04211759567260742,-0.24574482440948486,0.2832653224468231,0.12358152866363525,0.11853915452957153,-0.28145092725753784,-0.06411486119031906,0.20076344907283783,0.09630429744720459,0.16216973960399628,0.08616112917661667,0.04357371851801872,-0.06002238020300865,-0.003589564235880971,-0.1564498394727707,-0.17257334291934967,0.04297560453414917,-0.1355697363615036,0.43973276019096375,0.011420662514865398,0.13973943889141083,0.08409494906663895,0.06702685356140137,-0.03185516223311424,0.032371193170547485,-0.1699027717113495,0.04669276997447014,-0.15082600712776184,0.011203238740563393,-0.19453226029872894,0.1451607346534729,0.08815937489271164,0.004868588875979185,-0.10948128998279572,0.14734861254692078,-0.1654936671257019,0.16600589454174042,0.09811877459287643,-0.0236133374273777,-0.21449461579322815,-0.09853468090295792,0.17879514396190643,0.131228968501091,0.15090441703796387,0.10040416568517685,0.1348295658826828,-0.020232774317264557,0.013944992795586586,-0.20957930386066437,-0.018794557079672813,0.38762590289115906,0.25084349513053894,0.04982074722647667,0.09300079196691513,0.06758900731801987,0.005214271601289511,0.030155682936310768,-0.09872852265834808,-0.007983759045600891,0.2787955701351166,-0.013452501967549324,-0.022081570699810982,-0.24576537311077118,0.0026005131658166647,0.2902751564979553,0.01571759022772312,0.031812410801649094,0.2565760314464569,-0.05979614332318306,-0.35407257080078125,-0.1960892379283905,0.3456506133079529,-0.04797843098640442,0.28674235939979553,-0.08077269792556763,-0.23708680272102356,0.2829808294773102,-0.014457747340202332,0.1975531131029129,-0.14586743712425232,0.40439659357070923,-0.06105039268732071,-0.316384881734848,0.40426111221313477,-0.3162773549556732,-0.19161918759346008,-0.17594006657600403,0.3692385256290436,-0.10905392467975616,-0.2633455991744995,-0.2666532099246979,-0.043865665793418884,0.20384779572486877,0.21676094830036163,0.1116512194275856,0.13765783607959747,-0.2206706553697586,-0.21190284192562103,-0.02783629298210144,-0.221048042178154,-0.22735582292079926,0.09367521107196808,0.02933220937848091
1_10004_u_2,-0.000106307867099531,-0.25456446409225464,-0.17041154205799103,-0.12887200713157654,-0.21702413260936737,0.05657784268260002,-0.14554385840892792,-0.10352683067321777,-0.060287412256002426,-0.040142931044101715,0.045105334371328354,0.26705172657966614,0.0741615742444992,-0.0008012130856513977,0.001239829696714878,-0.11747007817029953,0.11441769450902939,0.07691998779773712,0.20493195950984955,0.030802711844444275,0.17410950362682343,-0.07317417114973068,0.010832183063030243,0.042642075568437576,0.5595912933349609,0.13325391709804535,0.21830658614635468,0.09674222767353058,-0.2496475726366043,-0.0877300575375557,-0.09883808344602585,-0.34468910098075867,0.028767723590135574,0.032320331782102585,-0.10793419927358627,-0.15243102610111237,-0.05097918584942818,-0.07546044141054153,-0.44519516825675964,0.3635241389274597,-0.3505367934703827,-0.1599734127521515,0.08972856402397156,0.14302842319011688,0.05932989716529846,-0.03793373703956604,0.4514481723308563,0.17910662293434143,0.1267538070678711,-0.12039154022932053,0.16958637535572052,-0.10164306312799454,0.17544732987880707,0.017021924257278442,-0.06244611740112305,0.0015266512054949999,-0.044038619846105576,-0.09776730835437775,-0.22326353192329407,-0.18020875751972198,-0.18978480994701385,-0.016437387093901634,0.15188178420066833,-0.27898579835891724,0.35741063952445984,0.08482632786035538,0.23550406098365784,-0.020883405581116676,0.037124257534742355,0.09690346568822861,-0.24466083943843842,0.2391190081834793,-0.19720935821533203,-0.06979679316282272,-0.15058569610118866,-0.14977875351905823,-0.46996989846229553,0.004539807327091694,-0.48479127883911133,0.1754535287618637,0.004459324758499861,0.09762722998857498,-0.06437207013368607,-0.15702593326568604,0.24320626258850098,-0.00013122931704856455,0.11224769800901413,0.027186840772628784,0.032400619238615036,-0.16311107575893402,-0.35163623094558716,0.05281650647521019,-0.13144205510616302,0.2668773829936981,0.28509464859962463,0.4181098937988281,0.10143373161554337,0.010882265865802765,-0.5091411471366882,-0.3098274767398834,-0.19504082202911377,0.4117589592933655,0.03465520963072777,0.13415254652500153,0.27927809953689575,0.2617606818675995,-0.09982239454984665,-0.2180691957473755,0.009658271446824074,-0.09610321372747421,-0.10935473442077637,0.25496071577072144,-0.15471847355365753,-0.05972187593579292,-0.10030081123113632,0.2032201588153839,0.06131662055850029,0.010463415645062923,-0.140836700797081,0.0015308636939153075,0.17211948335170746,0.25130435824394226,0.26108500361442566,0.25036492943763733,-0.2786754071712494,0.17375706136226654,0.0050354874692857265,0.17364279925823212,-0.36582449078559875,-0.2530045211315155,0.009051625616848469,0.2259836047887802,-0.0049061039462685585,-0.32592806220054626,0.17880743741989136,-0.17144742608070374,-0.05472586303949356,-0.11321796476840973,0.01137892622500658,-0.21720901131629944,-0.30201515555381775,0.026695145294070244,0.16955669224262238,-0.18666966259479523,-0.0400397889316082,0.05954446271061897,-0.19512350857257843,-0.04494382068514824,-0.22450177371501923,0.025455797091126442,-0.01898672990500927,-0.02118048258125782,0.08957403898239136,0.04404019936919212,-0.18091624975204468,0.25816577672958374,0.14064374566078186,0.21105995774269104,-0.2478657066822052,-0.011954465880990028,0.1557924598455429,0.08378533273935318,0.08716116100549698,0.07662325352430344,0.03957545757293701,-0.04793998599052429,-0.018546590581536293,-0.1665997952222824,-0.19966468214988708,0.030601615086197853,-0.1565934270620346,0.4975588023662567,0.016044875606894493,0.0903659537434578,0.061529725790023804,0.048100799322128296,-0.09658757597208023,-0.0017687752842903137,-0.17808862030506134,0.016106635332107544,-0.1446082890033722,-0.009403878822922707,-0.18900100886821747,0.16327206790447235,0.1197572574019432,0.0048285783268511295,-0.12176277488470078,0.14365790784358978,-0.12698224186897278,0.17596803605556488,0.04483465105295181,-0.03914369270205498,-0.1659346967935562,-0.10577147454023361,0.1766781508922577,0.14664694666862488,0.2054833471775055,0.05170320346951485,0.12892939150333405,-0.03533109650015831,0.007701253052800894,-0.24803555011749268,0.007026846054941416,0.32243284583091736,0.2720434069633484,0.11329133808612823,0.09457092732191086,0.02264454774558544,-0.013144992291927338,0.05143233761191368,-0.1106773167848587,-0.04503778740763664,0.2314615696668625,-0.032893892377614975,-0.008415207266807556,-0.2099972516298294,0.028261417523026466,0.30599114298820496,0.04904719814658165,0.04870320111513138,0.2162502110004425,-0.09178771823644638,-0.2842424809932709,-0.19971518218517303,0.36378175020217896,-0.0664631649851799,0.2292579710483551,-0.10413628816604614,-0.2206668108701706,0.2662264108657837,-0.029312878847122192,0.17275066673755646,-0.19069814682006836,0.39550039172172546,0.015381069853901863,-0.31698307394981384,0.41729268431663513,-0.2853374183177948,-0.19075731933116913,-0.174958273768425,0.37775421142578125,-0.07354067265987396,-0.2025502473115921,-0.23469583690166473,-0.04742392525076866,0.13541723787784576,0.24303875863552094,0.06917942315340042,0.09643428772687912,-0.1655586063861847,-0.15323318541049957,-0.001582085038535297,-0.19740264117717743,-0.22818009555339813,0.1321890652179718,0.05807526782155037
1_10004_u_3,-0.004976058844476938,-0.24985209107398987,-0.1849052459001541,-0.16908374428749084,-0.203838512301445,0.053435828536748886,-0.1415518969297409,-0.11962004005908966,-0.015371798537671566,-0.05857154726982117,0.03783133253455162,0.27722108364105225,0.08305005729198456,0.004698197823017836,0.008422584272921085,-0.11484207212924957,0.1332312524318695,0.12436409294605255,0.23714761435985565,0.04872117191553116,0.19494779407978058,-0.08586221188306808,0.018279090523719788,0.04874659329652786,0.5731462240219116,0.1461106389760971,0.24238620698451996,0.07392226159572601,-0.23592273890972137,-0.10842042416334152,-0.09495218843221664,-0.37797924876213074,0.04327145963907242,0.02246561460196972,-0.12260135263204575,-0.1394541710615158,-0.04052861034870148,-0.05550098419189453,-0.4520599842071533,0.3766646981239319,-0.3379015624523163,-0.08404915034770966,0.11599717289209366,0.15363170206546783,0.07288922369480133,-0.04091552644968033,0.4321342408657074,0.18323926627635956,0.13459299504756927,-0.12285270541906357,0.12818977236747742,-0.11804375797510147,0.18533550202846527,0.026435736566781998,-0.0946023240685463,-0.026641294360160828,-0.036956340074539185,-0.11309400945901871,-0.2242286205291748,-0.18125024437904358,-0.1761763095855713,-0.009922797791659832,0.15727318823337555,-0.28923889994621277,0.35526829957962036,0.10961244255304337,0.19033372402191162,-0.05999838188290596,0.059990789741277695,0.10704512894153595,-0.2586063742637634,0.2279190570116043,-0.21033893525600433,-0.05429169163107872,-0.1680787354707718,-0.14439965784549713,-0.4548773467540741,0.02672334387898445,-0.49470216035842896,0.18294714391231537,-0.02201729454100132,0.07567980140447617,-0.06511757522821426,-0.13234396278858185,0.22890137135982513,0.013652845285832882,0.10376160591840744,0.09065930545330048,0.044604767113924026,-0.15996740758419037,-0.3559799790382385,0.06187370419502258,-0.1300862580537796,0.23899753391742706,0.30356669425964355,0.43906059861183167,0.12517474591732025,0.014945886097848415,-0.5282490253448486,-0.309455931186676,-0.20845822989940643,0.45314082503318787,0.05559200793504715,0.12013133615255356,0.27576813101768494,0.22854724526405334,-0.1081148162484169,-0.2419135421514511,0.04281247779726982,-0.07872654497623444,-0.08565937727689743,0.2810996174812317,-0.1254756897687912,-0.04187918081879616,-0.07565142959356308,0.2267240732908249,0.04923155531287193,0.026893550530076027,-0.12363958358764648,-0.001837562769651413,0.18558481335639954,0.23018944263458252,0.2698301076889038,0.2691289186477661,-0.2628639042377472,0.17886920273303986,-0.0225579384714365,0.22348597645759583,-0.3663971424102783,-0.2706971764564514,0.02623118832707405,0.2612192630767822,0.019690271466970444,-0.33803319931030273,0.17633254826068878,-0.17988751828670502,-0.052347391843795776,-0.1080179437994957,0.019587798044085503,-0.2176145315170288,-0.28955304622650146,0.023579735308885574,0.18577520549297333,-0.2107798308134079,-0.04788963124155998,0.07414513826370239,-0.18219129741191864,-0.011702259071171284,-0.2214195281267166,0.04186620935797691,-0.012955001555383205,-0.01636158488690853,0.07200878858566284,0.020946823060512543,-0.15996073186397552,0.30912768840789795,0.10013756901025772,0.19244301319122314,-0.28167393803596497,-0.019578417763113976,0.15630820393562317,0.09584808349609375,0.10632772743701935,0.09535560756921768,0.05303420498967171,-0.03290491923689842,0.012698642909526825,-0.18042033910751343,-0.21318046748638153,0.020115863531827927,-0.17242248356342316,0.4902571737766266,-0.027550268918275833,0.12734177708625793,0.07124058902263641,0.05769893154501915,-0.08193960040807724,0.02683855965733528,-0.14321349561214447,0.018317459151148796,-0.14159563183784485,-0.03324144706130028,-0.16492556035518646,0.16650229692459106,0.1324101686477661,0.008972813375294209,-0.1220342144370079,0.16361819207668304,-0.15167482197284698,0.18853799998760223,0.05172032117843628,-0.03525064140558243,-0.17880554497241974,-0.11611753702163696,0.14047984778881073,0.15027888119220734,0.17300119996070862,0.07325109839439392,0.13252119719982147,-0.04259498044848442,0.0006988484528847039,-0.2548198699951172,-0.011005562730133533,0.3472000062465668,0.25217294692993164,0.11834259331226349,0.09216845035552979,0.036393582820892334,-0.015134532935917377,0.050583887845277786,-0.11507358402013779,-0.06410317867994308,0.23718297481536865,-0.02479708194732666,-0.021725622937083244,-0.25061294436454773,0.019423753023147583,0.3509159982204437,0.058378588408231735,0.039511170238256454,0.2420703023672104,-0.09795904159545898,-0.30152344703674316,-0.19194577634334564,0.3482600748538971,-0.08980938792228699,0.2728462219238281,-0.1072588711977005,-0.23192401230335236,0.2895927131175995,-0.004412719514220953,0.17495016753673553,-0.1771974414587021,0.4070720672607422,-0.012998560443520546,-0.31472525000572205,0.4210960566997528,-0.2890033721923828,-0.19920307397842407,-0.16319076716899872,0.40522700548171997,-0.09355885535478592,-0.19551622867584229,-0.23279844224452972,-0.03153567388653755,0.17754876613616943,0.2426636964082718,0.08213463425636292,0.09201723337173462,-0.1960623413324356,-0.1892716884613037,-0.01811075024306774,-0.1960580050945282,-0.23203305900096893,0.09553154557943344,0.05060642957687378
1_10004_u_4,-0.026207400485873222,-0.21993283927440643,-0.13298764824867249,-0.1390400379896164,-0.25868290662765503,0.07301121205091476,-0.12098418921232224,-0.11512359231710434,-0.13644373416900635,-0.03843967244029045,-0.006145771127194166,0.32551270723342896,0.03002084232866764,-0.041295360773801804,0.06680715084075928,-0.09562072902917862,0.1206570640206337,0.06509261578321457,0.3010493218898773,0.04212668165564537,0.13128124177455902,-0.05233992263674736,0.07785537093877792,0.06561316549777985,0.6442371606826782,0.14545713365077972,0.27592092752456665,0.15541012585163116,-0.2383190244436264,-0.097844697535038,-0.10785110294818878,-0.32016226649284363,0.031570907682180405,-0.009552168659865856,-0.174208402633667,-0.13587236404418945,-0.07076939195394516,-0.14623306691646576,-0.4922853112220764,0.43663355708122253,-0.3809621334075928,-0.16411201655864716,0.1195431724190712,0.13042403757572174,0.13413003087043762,-0.045590080320835114,0.5445426106452942,0.1501874476671219,0.16933517158031464,-0.1711486428976059,0.196684330701828,-0.1013745591044426,0.19861005246639252,-0.009987655095756054,-0.08858882635831833,0.06306915730237961,-0.10994889587163925,-0.04709671810269356,-0.1872945874929428,-0.18569426238536835,-0.1948590725660324,-0.04621051624417305,0.18441101908683777,-0.35173702239990234,0.3968389928340912,0.12361446768045425,0.28722310066223145,-0.048868000507354736,0.013019694946706295,0.15266337990760803,-0.25027844309806824,0.22212746739387512,-0.2481086254119873,-0.11820689588785172,-0.11273156851530075,-0.16803009808063507,-0.5792973637580872,0.054704226553440094,-0.5321976542472839,0.2000800222158432,0.010487516410648823,0.07595520466566086,-0.09152128547430038,-0.08822770416736603,0.26596584916114807,0.0015976660652086139,0.1505218893289566,0.024342725053429604,0.01205914281308651,-0.2042119950056076,-0.3797793686389923,0.07134316861629486,-0.1534697562456131,0.31410279870033264,0.2950790822505951,0.51689213514328,0.0980750173330307,0.07260849326848984,-0.6175631880760193,-0.3935907781124115,-0.29353830218315125,0.45381078124046326,0.03988196328282356,0.11652181297540665,0.3074500560760498,0.25227558612823486,-0.12848572432994843,-0.17762261629104614,0.02575245499610901,-0.10759194940328598,-0.1944579780101776,0.2377338856458664,-0.10207134485244751,-0.1528802216053009,-0.13558414578437805,0.25951576232910156,0.023978358134627342,-0.1059294268488884,-0.19891412556171417,0.09037952870130539,0.21102304756641388,0.29357290267944336,0.26384902000427246,0.3664415776729584,-0.37133485078811646,0.2184697389602661,-0.00438143964856863,0.15488658845424652,-0.3645428717136383,-0.2895476818084717,0.0011407046113163233,0.25112196803092957,0.006505735218524933,-0.39628463983535767,0.18025365471839905,-0.25196701288223267,-0.03832884505391121,-0.11015257984399796,0.032051898539066315,-0.29330044984817505,-0.28465649485588074,-0.004704208113253117,0.1958683729171753,-0.23100009560585022,-0.05594908818602562,0.07591575384140015,-0.26450639963150024,0.008499962277710438,-0.20775675773620605,0.07249486446380615,-0.0921979621052742,0.007133938372135162,0.1154259443283081,0.08082641661167145,-0.2114509791135788,0.31532809138298035,0.12047531455755234,0.1512613147497177,-0.27107009291648865,-0.08835452795028687,0.14483335614204407,0.13332688808441162,0.17067308723926544,0.04506109282374382,0.11148647218942642,-0.08443071693181992,0.008952817879617214,-0.15774495899677277,-0.16332070529460907,0.08323013782501221,-0.1498454064130783,0.4893442690372467,0.01737365685403347,0.1303342580795288,0.08261357992887497,0.10893263667821884,-0.016552042216062546,0.012901744805276394,-0.21001146733760834,0.051335033029317856,-0.1543833464384079,0.03899722173810005,-0.2611580789089203,0.11180329322814941,0.1607472151517868,-0.0023035928606987,-0.07141386717557907,0.14920280873775482,-0.21033377945423126,0.15586164593696594,0.08658863604068756,-0.06397145986557007,-0.19511306285858154,-0.12067025154829025,0.19103799760341644,0.1631152182817459,0.14770327508449554,0.1049249917268753,0.14548467099666595,0.017310041934251785,0.058504264801740646,-0.20653028786182404,-0.02517215721309185,0.4108414649963379,0.2650693356990814,0.052315544337034225,0.08495040982961655,0.07952047884464264,0.05294381454586983,0.05362256243824959,-0.11665661633014679,-0.04320692643523216,0.3300006091594696,-0.01931804232299328,0.01664874330163002,-0.211028054356575,0.022518835961818695,0.28026944398880005,0.026809707283973694,0.09615384787321091,0.27496305108070374,-0.008327039889991283,-0.35684940218925476,-0.21379247307777405,0.431314080953598,-0.03054879978299141,0.3262588381767273,-0.11836375296115875,-0.2974819839000702,0.3035212755203247,-0.01218504086136818,0.26295313239097595,-0.19771592319011688,0.4268277585506439,-0.0450536273419857,-0.37235555052757263,0.4327508509159088,-0.33365902304649353,-0.16572366654872894,-0.21895435452461243,0.3878549635410309,-0.15593327581882477,-0.3122616708278656,-0.3143329322338104,-0.018753010779619217,0.20887437462806702,0.2555966079235077,0.11572060734033585,0.13633233308792114,-0.2465682029724121,-0.22725366055965424,-0.025021374225616455,-0.2802559435367584,-0.2618286609649658,0.10741426795721054,0.006965434644371271
1_10009_u_1,-0.0947173461318016,-0.13623885810375214,-0.06293902546167374,-0.06925296038389206,-0.3153533935546875,0.0444023497402668,-0.12059183418750763,-0.10647144168615341,-0.19049151241779327,-0.013742051087319851,0.005507014226168394,0.40857765078544617,0.02737516537308693,-0.17220883071422577,0.05831946060061455,-0.23168013989925385,0.11899175494909286,-0.0170308705419302,0.2526204288005829,-0.006480525713413954,0.09808946400880814,-0.002243052003905177,0.0571133978664875,-0.004088795743882656,0.5925165414810181,0.12987641990184784,0.2420867532491684,0.22101373970508575,-0.24480466544628143,-0.11789015680551529,-0.07394760102033615,-0.2708967924118042,-0.04045281931757927,-0.10635600239038467,-0.1509864181280136,-0.19227471947669983,-0.06119272857904434,-0.18464891612529755,-0.5331118106842041,0.38335785269737244,-0.3518817126750946,-0.1847020387649536,0.07181236147880554,0.24214361608028412,0.07029291242361069,-0.07534433156251907,0.5436403155326843,0.053989868611097336,0.1087052971124649,-0.23288361728191376,0.12751610577106476,-0.06261815875768661,0.13460277020931244,0.016497580334544182,-0.04661811888217926,0.01766100525856018,-0.16660980880260468,-0.006553081329911947,-0.2197548896074295,-0.09743272513151169,-0.20049051940441132,-0.079303078353405,0.06813802570104599,-0.24617497622966766,0.3179498314857483,0.08934447914361954,0.26628658175468445,0.10604339092969894,0.030758628621697426,0.2658957242965698,-0.20431195199489594,0.19951151311397552,-0.2666202187538147,-0.12252669781446457,-0.12393162399530411,-0.2291906177997589,-0.4999336898326874,0.08652444928884506,-0.5789929628372192,0.2361479103565216,0.07348590344190598,-0.03877111151814461,-0.04755130782723427,0.0047911894507706165,0.26003581285476685,0.0139385387301445,0.12657292187213898,-0.05257536843419075,-0.11748834699392319,-0.27944618463516235,-0.3497501015663147,0.01769249700009823,-0.1821775883436203,0.2627604901790619,0.2599956691265106,0.39037737250328064,0.13444776833057404,0.1348327398300171,-0.47412392497062683,-0.3833897113800049,-0.23754265904426575,0.4390060603618622,-0.017151717096567154,0.1296265572309494,0.2731592059135437,0.2500254213809967,-0.10898324102163315,-0.16658365726470947,0.025083160027861595,-0.04586640000343323,-0.2514761686325073,0.18412703275680542,-0.012168461456894875,-0.18363700807094574,-0.18406429886817932,0.2943144142627716,-0.020529387518763542,-0.07127844542264938,-0.2983321249485016,0.05535254627466202,0.23759733140468597,0.27368542551994324,0.19170011579990387,0.25100651383399963,-0.24040034413337708,0.26012060046195984,0.03816498816013336,0.14261884987354279,-0.34131333231925964,-0.3735402524471283,-0.07551269978284836,0.13362239301204681,-0.15656322240829468,-0.28630921244621277,0.16902028024196625,-0.19933637976646423,-0.11771990358829498,-0.11345183849334717,0.009773003868758678,-0.25602588057518005,-0.20860515534877777,-0.028241444379091263,0.23202519118785858,-0.22999274730682373,0.0011718691093847156,0.056942593306303024,-0.39283427596092224,0.0849798247218132,-0.20416302978992462,0.15032611787319183,-0.10022173076868057,-0.05627027153968811,0.1480998992919922,0.09980935603380203,-0.38818371295928955,0.15782023966312408,0.19092519581317902,0.018075918778777122,-0.21772949397563934,-0.1319107860326767,0.24950550496578217,0.07387200742959976,0.23994341492652893,0.08699742704629898,0.01148493867367506,-0.09786219894886017,-0.04875598102807999,-0.08424579352140427,-0.1523037999868393,0.03953685611486435,-0.06023833900690079,0.32155081629753113,0.0633930191397667,0.13281883299350739,0.07803436368703842,0.12873665988445282,0.05498943850398064,0.03168363869190216,-0.19841575622558594,0.0908542051911354,-0.17967870831489563,0.14161334931850433,-0.24229276180267334,0.13956156373023987,0.03518873453140259,-0.007640394847840071,-0.099675253033638,0.1339198797941208,-0.13323771953582764,0.08725880831480026,0.15200798213481903,-0.015482105314731598,-0.2279393970966339,-0.04967343434691429,0.21509893238544464,0.1009313240647316,0.09189464896917343,0.12137853354215622,0.1240469366312027,-0.01671697571873665,0.030582843348383904,-0.12258956581354141,-0.013873735442757607,0.38839444518089294,0.24118852615356445,-0.06347005069255829,0.11582913249731064,0.11442156136035919,0.02721620909869671,-0.07659410685300827,-0.05708092078566551,0.11604398488998413,0.3119567930698395,0.03655495122075081,-0.005461535882204771,-0.2187318652868271,-0.015379850752651691,0.19041010737419128,-0.048498235642910004,0.00601969426497817,0.2651607096195221,-0.05672626569867134,-0.4276803135871887,-0.200282484292984,0.3262947201728821,0.007689898367971182,0.2167470008134842,-0.060149163007736206,-0.2102828472852707,0.27484872937202454,-0.017356932163238525,0.19866517186164856,-0.09659172594547272,0.3776952922344208,-0.12715011835098267,-0.29492583870887756,0.35055527091026306,-0.31364741921424866,-0.16929030418395996,-0.2280898094177246,0.3020437955856323,-0.09096657484769821,-0.3154074549674988,-0.26518192887306213,-0.08130820840597153,0.23501233756542206,0.17451970279216766,0.10958924144506454,0.1410152167081833,-0.2303357571363449,-0.22981314361095428,-0.010090190917253494,-0.24999581277370453,-0.23852677643299103,0.0989895761013031,-0.0494428388774395
1_10009_u_2,0.03544985130429268,-0.3806019425392151,-0.217453271150589,-0.10597675293684006,-0.16879115998744965,0.06895258277654648,-0.18968252837657928,-0.05976537615060806,-0.16396686434745789,-0.035321611911058426,0.08085453510284424,0.10908503830432892,0.1030220314860344,0.11257455497980118,0.05080605298280716,0.042064081877470016,0.0967138335108757,0.1331677883863449,0.13358555734157562,0.03255821391940117,0.11508440971374512,-0.15094886720180511,-0.04796188697218895,0.008345368318259716,0.4212159216403961,0.12664155662059784,0.1783381551504135,0.06845255941152573,-0.13635127246379852,0.04121334105730057,-0.16698186099529266,-0.24128206074237823,0.037091124802827835,0.1680864542722702,-0.004589749965816736,-0.10560263693332672,-0.05406156927347183,-0.08670294284820557,-0.28626367449760437,0.27582499384880066,-0.31681424379348755,-0.27287521958351135,0.03779299557209015,0.01485597062855959,0.0782274603843689,0.020905081182718277,0.33209332823753357,0.23580379784107208,0.09976846724748611,0.0136056337505579,0.2887330651283264,-0.10555215924978256,0.2010318785905838,-0.02310360223054886,0.06147955730557442,0.02525460161268711,0.0054845004342496395,-0.09348618239164352,-0.0943821594119072,-0.2883264124393463,-0.19169151782989502,0.06475571542978287,0.24220065772533417,-0.2912997305393219,0.36661386489868164,0.06761395186185837,0.259507417678833,-0.05359756946563721,-0.009200881235301495,-0.08223606646060944,-0.23632530868053436,0.21826934814453125,0.021580368280410767,-0.02799975872039795,-0.13951073586940765,-0.054160118103027344,-0.44367361068725586,-0.06017153337597847,-0.2596910893917084,0.08726751059293747,-0.004442931152880192,0.19484061002731323,-0.09140005707740784,-0.31459975242614746,0.1859956532716751,-0.03594938665628433,0.09762119501829147,-0.010327521711587906,0.11209918558597565,0.027828264981508255,-0.2727409899234772,0.08149190992116928,-0.08171185106039047,0.3388199210166931,0.20606651902198792,0.3356894254684448,-0.027141695842146873,-0.08197499066591263,-0.42617279291152954,-0.23780551552772522,-0.11556295305490494,0.20192287862300873,-0.011486858129501343,0.16395163536071777,0.25502535700798035,0.2999623417854309,-0.09831807762384415,-0.1972416192293167,-0.0687427893280983,-0.1714247316122055,-0.032302070409059525,0.23337753117084503,-0.3012700378894806,0.010098237544298172,-0.024924039840698242,0.010048228316009045,0.1102731004357338,-0.018528465181589127,-0.07619117945432663,-0.015513208694756031,0.02765161171555519,0.2522634267807007,0.16082873940467834,0.2913060784339905,-0.3832596242427826,0.06697650253772736,0.05858510360121727,0.08238478004932404,-0.3219470977783203,-0.053551483899354935,0.0050317975692451,0.19559280574321747,0.0009844409069046378,-0.3170895576477051,0.12717875838279724,-0.1468673199415207,0.06570993363857269,-0.0630466416478157,0.00790964625775814,-0.11962951719760895,-0.35010072588920593,0.05378860980272293,0.016622647643089294,-0.0805269107222557,-0.04126392677426338,0.06815949827432632,-0.01936928741633892,-0.13507428765296936,-0.200968936085701,-0.12163066864013672,0.015586325898766518,-0.028980731964111328,0.023567289113998413,0.018578095361590385,-0.06261423975229263,0.23320002853870392,0.24083450436592102,0.34045812487602234,-0.1646079272031784,0.10708119720220566,0.05662182718515396,0.08087869733572006,-0.04638148099184036,-0.0002528719778638333,0.05830413103103638,-0.09709866344928741,-0.09606126695871353,-0.1643238514661789,-0.12934079766273499,0.07265458256006241,-0.17577186226844788,0.5929725766181946,0.03522501513361931,-0.017562419176101685,-0.03513422608375549,-0.03427714481949806,-0.17739883065223694,-0.0465785376727581,-0.16374047100543976,-0.040574800223112106,-0.04521528631448746,-0.10261199623346329,-0.15886807441711426,0.07780825346708298,0.11407842487096786,0.07572390884160995,-0.12991483509540558,0.09473534673452377,-0.10809214413166046,0.0873672366142273,-0.028868213295936584,-0.008586355485022068,-0.10467810928821564,-0.15788760781288147,0.171330526471138,0.12128348648548126,0.28522950410842896,-0.023619145154953003,0.15406076610088348,0.019383205100893974,0.044424425810575485,-0.24771086871623993,0.018694162368774414,0.17735998332500458,0.28655314445495605,0.19347058236598969,0.1263565570116043,-0.0971168801188469,-0.0015613947762176394,0.18110856413841248,-0.16202597320079803,-0.15368513762950897,0.16889254748821259,-0.08483247458934784,0.09062366932630539,-0.0913083478808403,0.06365368515253067,0.21763722598552704,0.07329975068569183,0.10219861567020416,0.06847430020570755,-0.08383720368146896,-0.09403000771999359,-0.24883030354976654,0.3604026436805725,-0.08244917541742325,0.1545887440443039,-0.08042541891336441,-0.1593780368566513,0.12012236565351486,-0.153312548995018,0.14964497089385986,-0.3036499619483948,0.316554456949234,0.04888366535305977,-0.36957621574401855,0.4334757328033447,-0.2720501124858856,-0.15132200717926025,-0.18372726440429688,0.3179798722267151,-0.05868399888277054,-0.1863895207643509,-0.23759634792804718,-0.009637526236474514,-0.04156197980046272,0.23491059243679047,0.0248821210116148,0.08975575864315033,0.007817934267222881,-0.018604161217808723,-0.001403804519213736,-0.12833528220653534,-0.17870165407657623,0.22352519631385803,0.12469654530286789
1_10009_u_3,-0.0675901398062706,-0.2057378590106964,-0.10179952532052994,-0.12172241508960724,-0.2390063852071762,0.07521279901266098,-0.12377762794494629,-0.16137614846229553,-0.026173969730734825,-0.10087408870458603,0.07335539162158966,0.35728922486305237,0.07459723949432373,-0.004340414423495531,0.0034943067003041506,-0.21039946377277374,0.12094936519861221,0.06959380954504013,0.2953137457370758,0.04011574387550354,0.19720330834388733,-0.03964915871620178,0.031165597960352898,0.10905524343252182,0.7140344977378845,0.16889208555221558,0.3069435656070709,0.1372816413640976,-0.3286939859390259,-0.13720117509365082,-0.09156773239374161,-0.4384341239929199,0.0298444963991642,-0.04126306250691414,-0.15328580141067505,-0.14899758994579315,-0.004544320050626993,-0.0971265509724617,-0.5609576106071472,0.44332990050315857,-0.31963253021240234,-0.0865887925028801,0.14295139908790588,0.20095615088939667,0.04990049824118614,-0.08683272451162338,0.5520285964012146,0.13197743892669678,0.11363086849451065,-0.21382489800453186,0.12560588121414185,-0.0830145999789238,0.16819250583648682,0.08039505779743195,-0.13755498826503754,0.02471185103058815,-0.09904656559228897,-0.04086897522211075,-0.2683367133140564,-0.11785389482975006,-0.2104002982378006,-0.09832795709371567,0.1326696127653122,-0.36048778891563416,0.381418913602829,0.09070316702127457,0.22915971279144287,-0.007825515232980251,0.043014682829380035,0.19771204888820648,-0.24414901435375214,0.24769560992717743,-0.3014795482158661,-0.12529438734054565,-0.16311383247375488,-0.17837753891944885,-0.5248147249221802,0.05660836771130562,-0.6032916307449341,0.26435497403144836,-0.006308640819042921,0.012357647530734539,-0.10523998737335205,-0.05410756543278694,0.2706644535064697,-0.010989764705300331,0.13073711097240448,0.03920477256178856,-0.006240729242563248,-0.2534056603908539,-0.3925281763076782,0.07326789200305939,-0.17797806859016418,0.18328507244586945,0.41084596514701843,0.5309742093086243,0.16400234401226044,0.12169819325208664,-0.6545698046684265,-0.3984033763408661,-0.24857620894908905,0.5601739883422852,0.10906951874494553,0.13044899702072144,0.31192660331726074,0.17819011211395264,-0.11027870327234268,-0.253561794757843,0.03001500479876995,-0.09568408876657486,-0.19801561534404755,0.3055475652217865,-0.037379391491413116,-0.15753239393234253,-0.12695938348770142,0.3416260778903961,0.03342239558696747,-0.06818532943725586,-0.15987619757652283,-0.0067856633104383945,0.2768953740596771,0.2215362787246704,0.2868797481060028,0.3201318681240082,-0.19910602271556854,0.29498836398124695,-0.056399036198854446,0.24387697875499725,-0.40082821249961853,-0.3995993733406067,-0.022475585341453552,0.3030599355697632,-0.006690077017992735,-0.35064777731895447,0.15448974072933197,-0.26038658618927,-0.08936791867017746,-0.16346466541290283,0.022214284166693687,-0.31845980882644653,-0.289791077375412,0.008305777795612812,0.25648048520088196,-0.26057764887809753,-0.07804077118635178,0.13845515251159668,-0.34205642342567444,0.053621429949998856,-0.21247954666614532,0.08674830198287964,-0.006867322605103254,-0.026692485436797142,0.16604027152061462,0.05657302215695381,-0.28124499320983887,0.30164018273353577,0.029051726683974266,0.097451351583004,-0.30245348811149597,-0.1146729364991188,0.23452436923980713,0.08381645381450653,0.19201618432998657,0.08682096004486084,0.05381057783961296,-0.08307300508022308,0.07340846210718155,-0.19992747902870178,-0.1720009297132492,0.034667134284973145,-0.12391219288110733,0.43426886200904846,0.06962155550718307,0.20516924560070038,0.129419207572937,0.025323867797851562,-0.02426391839981079,0.02981308102607727,-0.21572203934192657,0.03834947571158409,-0.1464153379201889,0.026939231902360916,-0.18500499427318573,0.16696320474147797,0.0943107157945633,-0.04256946220993996,-0.07313235849142075,0.16220222413539886,-0.1602342128753662,0.2862430214881897,0.12679114937782288,-0.031025579199194908,-0.2569977343082428,-0.09757400304079056,0.2147657722234726,0.15084397792816162,0.1705753356218338,0.15300458669662476,0.13609255850315094,-0.007357876747846603,0.04377494007349014,-0.2311485856771469,0.005013690795749426,0.46448859572410583,0.25162073969841003,0.09140272438526154,0.10481876134872437,0.11170345544815063,0.004475509747862816,0.018577247858047485,-0.0971146747469902,0.01827247254550457,0.3446022570133209,0.012273292057216167,-0.034039441496133804,-0.29522618651390076,-0.004088906105607748,0.3159976899623871,0.02355283685028553,0.0024798267986625433,0.3454199433326721,-0.07568059861660004,-0.4402298033237457,-0.1740548461675644,0.3197741210460663,-0.02771425060927868,0.33055800199508667,-0.06951814144849777,-0.3042711317539215,0.3103797733783722,0.02113950252532959,0.2066294252872467,-0.10898877680301666,0.4113907814025879,-0.018064146861433983,-0.3152945041656494,0.4154399037361145,-0.3260228931903839,-0.18821419775485992,-0.06802459806203842,0.40132924914360046,-0.10192333906888962,-0.2764591872692108,-0.302849143743515,-0.05197948217391968,0.23061852157115936,0.236669659614563,0.12892746925354004,0.17607766389846802,-0.31663891673088074,-0.27806293964385986,-0.027649516239762306,-0.2655583322048187,-0.19548676908016205,0.05838165432214737,0.07594292610883713
1_1001_u_1,0.024723155423998833,-0.3872247338294983,-0.2078368216753006,-0.10895109176635742,-0.18682217597961426,0.07152300328016281,-0.2032683938741684,-0.07325968146324158,-0.16348318755626678,-0.04407406970858574,0.07722504436969757,0.1343398243188858,0.09441825747489929,0.11712360382080078,0.05856991931796074,0.0615067183971405,0.0866880714893341,0.11574094742536545,0.1664208471775055,0.03712109848856926,0.1088763028383255,-0.15853746235370636,-0.03140859305858612,0.0302880946546793,0.48589205741882324,0.12780976295471191,0.2012770175933838,0.08181863278150558,-0.15702424943447113,0.03156270086765289,-0.1713036149740219,-0.2593705952167511,0.05073956400156021,0.1557559221982956,-0.016915081068873405,-0.09569353610277176,-0.05831214413046837,-0.09448829293251038,-0.31643912196159363,0.315458208322525,-0.33586055040359497,-0.28476670384407043,0.050738997757434845,-0.009744508191943169,0.0978664681315422,0.008496055379509926,0.38266417384147644,0.24658194184303284,0.12096382677555084,-0.005401970352977514,0.29485228657722473,-0.1098148450255394,0.2036866396665573,-0.02246839366853237,0.043515224009752274,0.03318842127919197,-0.01492801308631897,-0.09428741782903671,-0.10676763206720352,-0.29213839769363403,-0.20190420746803284,0.04336914047598839,0.2756741940975189,-0.3305682837963104,0.4033327102661133,0.0765937864780426,0.27199745178222656,-0.06794958561658859,-0.010568728670477867,-0.061620790511369705,-0.23697392642498016,0.23353175818920135,-0.011058242991566658,-0.04394800588488579,-0.13810327649116516,-0.04927124083042145,-0.5113314986228943,-0.04751541465520859,-0.2861252725124359,0.09430015087127686,-0.018262606114149094,0.20577025413513184,-0.10365289449691772,-0.3070527911186218,0.18921051919460297,-0.039231497794389725,0.12122855335474014,-0.0037868001963943243,0.111927829682827,0.009545193053781986,-0.3019688129425049,0.07983217388391495,-0.09000151604413986,0.36824819445610046,0.22899296879768372,0.39131221175193787,-0.026021752506494522,-0.0722603127360344,-0.4892367422580719,-0.265987366437912,-0.14487707614898682,0.23001399636268616,0.010131016373634338,0.14213500916957855,0.26671692728996277,0.29771122336387634,-0.11222509294748306,-0.18581297993659973,-0.06160184368491173,-0.1880493462085724,-0.04541153833270073,0.25066232681274414,-0.30429673194885254,-0.01626192405819893,-0.05590568855404854,0.030514905229210854,0.10699877887964249,-0.05054822564125061,-0.0707555040717125,0.000129341337014921,0.06002471596002579,0.2710617482662201,0.1676567643880844,0.34465914964675903,-0.41367706656455994,0.08428742736577988,0.050807882100343704,0.10249961912631989,-0.3325257897377014,-0.06959815323352814,-0.0021090798545628786,0.21273906528949738,0.028673836961388588,-0.3528234660625458,0.12870551645755768,-0.17943339049816132,0.07892226427793503,-0.06646405905485153,0.0206239502876997,-0.1487439125776291,-0.3746066689491272,0.0364232063293457,0.04835377633571625,-0.09385456889867783,-0.05109373852610588,0.08427592366933823,-0.04319463670253754,-0.14149563014507294,-0.19481661915779114,-0.10136139392852783,0.008137814700603485,-0.021887851879000664,0.03385841101408005,0.03183874487876892,-0.06779982894659042,0.2584483325481415,0.2284780591726303,0.34537267684936523,-0.18182459473609924,0.07736130803823471,0.04620271548628807,0.10040801763534546,-0.024488836526870728,-0.011902077123522758,0.08081164956092834,-0.11707859486341476,-0.08601867407560349,-0.18467871844768524,-0.13734754920005798,0.08330994844436646,-0.1795947402715683,0.6245455145835876,0.04523696377873421,-0.00485548609867692,-0.03405278921127319,-0.02080507017672062,-0.16054904460906982,-0.05706242471933365,-0.17833732068538666,-0.036327894777059555,-0.06134394556283951,-0.10574674606323242,-0.17816422879695892,0.06327464431524277,0.15722988545894623,0.04435179382562637,-0.11821480095386505,0.10662470012903214,-0.12625405192375183,0.10473857074975967,-0.010288229212164879,-0.02522522769868374,-0.12453750520944595,-0.1688774973154068,0.1817757934331894,0.13799099624156952,0.2781461775302887,-0.0007389456150121987,0.1603832095861435,0.030056539922952652,0.06535499542951584,-0.26541706919670105,0.016729772090911865,0.21681666374206543,0.3049947917461395,0.2137240469455719,0.12388963997364044,-0.07381720840930939,0.018501050770282745,0.17042215168476105,-0.1758950650691986,-0.16734325885772705,0.2181442826986313,-0.0787774920463562,0.10172827541828156,-0.09535696357488632,0.07600323110818863,0.23414193093776703,0.08220036327838898,0.113882876932621,0.10319361835718155,-0.06412818282842636,-0.12572167813777924,-0.25624847412109375,0.38865038752555847,-0.08094906061887741,0.18724918365478516,-0.08677855879068375,-0.1937999576330185,0.146209254860878,-0.13843747973442078,0.19360186159610748,-0.32184210419654846,0.3343174159526825,0.05891142040491104,-0.38189148902893066,0.4589519202709198,-0.296345055103302,-0.15084248781204224,-0.19269028306007385,0.34828272461891174,-0.07286757230758667,-0.22473648190498352,-0.2772851884365082,-0.008814570493996143,-0.017575977370142937,0.2755253314971924,0.03485975041985512,0.1083669662475586,-0.025201603770256042,-0.05071405693888664,-0.0028150209691375494,-0.15510857105255127,-0.19248934090137482,0.2260979413986206,0.12246352434158325
1_1003_u_1,-0.059934090822935104,-0.27144208550453186,-0.16111594438552856,-0.13016270101070404,-0.26834893226623535,0.0701340064406395,-0.14928923547267914,-0.09671001881361008,-0.18273238837718964,-0.03889665752649307,0.01049803476780653,0.24656811356544495,0.06816935539245605,-0.021447481587529182,0.08594595640897751,-0.07625840604305267,0.12929926812648773,0.14736859500408173,0.26556259393692017,0.06590458750724792,0.12048331648111343,-0.10069288313388824,0.0155295105651021,-0.0038083072286099195,0.5347197651863098,0.13657985627651215,0.27381667494773865,0.11257614195346832,-0.12941956520080566,-0.051168885082006454,-0.14411571621894836,-0.2978448271751404,0.018378986045718193,0.029921192675828934,-0.11182587593793869,-0.11527381092309952,-0.053539205342531204,-0.14724098145961761,-0.3835580050945282,0.37210556864738464,-0.2796396315097809,-0.17545439302921295,0.1094820499420166,0.14349232614040375,0.12571634352207184,-0.012298869900405407,0.42582279443740845,0.1521465927362442,0.10941314697265625,-0.13163571059703827,0.16263096034526825,-0.10074163973331451,0.2579207420349121,0.012784309685230255,0.008024601265788078,-0.012232770211994648,-0.07144879549741745,-0.0710686519742012,-0.09740107506513596,-0.24199235439300537,-0.16901934146881104,0.005173342768102884,0.20218975841999054,-0.305462121963501,0.38100817799568176,0.1331334263086319,0.2062849998474121,-0.056931715458631516,0.01714218221604824,0.08669068664312363,-0.26724138855934143,0.18594829738140106,-0.07494022697210312,-0.042214520275592804,-0.10864102840423584,-0.16025157272815704,-0.4672715663909912,0.06090856343507767,-0.4244156777858734,0.19438964128494263,-0.024627933278679848,0.04167257621884346,-0.11387745290994644,-0.13746988773345947,0.22471876442432404,-0.0031128523405641317,0.10883114486932755,0.06763387471437454,0.0044672186486423016,-0.08006178587675095,-0.3208700716495514,0.09688600897789001,-0.14347738027572632,0.304769903421402,0.24529586732387543,0.40128952264785767,0.05612163618206978,0.03166317939758301,-0.4896327555179596,-0.34755292534828186,-0.20500092208385468,0.3818202316761017,-0.011004894971847534,0.13354647159576416,0.25606295466423035,0.2226472645998001,-0.11590840667486191,-0.2405393123626709,0.014609075151383877,-0.08892574161291122,-0.12653282284736633,0.2270616590976715,-0.11191405355930328,-0.09069943428039551,-0.031750913709402084,0.1675451397895813,-0.002010731026530266,-0.06847210973501205,-0.1691618412733078,0.0528307668864727,0.12010184675455093,0.2590915262699127,0.18904343247413635,0.34081560373306274,-0.3522152602672577,0.18568730354309082,0.037613071501255035,0.1578906923532486,-0.3317199647426605,-0.2238614559173584,0.0008654145640321076,0.2213331013917923,-0.0519438199698925,-0.36184871196746826,0.13747692108154297,-0.18372903764247894,-0.020256532356142998,-0.09029240906238556,0.0009109739330597222,-0.2202678918838501,-0.24939380586147308,0.0004287749470677227,0.12774135172367096,-0.1591276228427887,-0.04372679814696312,0.06791262328624725,-0.20016339421272278,0.04194512963294983,-0.21576233208179474,0.06348729133605957,-0.04019032046198845,-0.03205760195851326,0.06398313492536545,0.020441653206944466,-0.19206248223781586,0.29185187816619873,0.17812974750995636,0.12174637615680695,-0.2627379596233368,-0.01394858118146658,0.15544715523719788,0.13086988031864166,0.14842037856578827,0.06465895473957062,0.0737253949046135,-0.09308897703886032,-0.07041411101818085,-0.12823486328125,-0.1074441596865654,0.0781555101275444,-0.1266176700592041,0.4621952176094055,-0.0015638619661331177,0.11511886119842529,0.0045057679526507854,0.05334353446960449,-0.02037609927356243,0.03720458969473839,-0.12879467010498047,0.0075536491349339485,-0.10141706466674805,-0.027247613295912743,-0.17728452384471893,0.07318596541881561,0.07481294870376587,0.06915105879306793,-0.11422478407621384,0.11648356914520264,-0.1911138892173767,0.10002978146076202,0.07360310852527618,-0.009125067852437496,-0.19927816092967987,-0.1387951523065567,0.15873144567012787,0.14437775313854218,0.1434897631406784,0.08027830719947815,0.16124801337718964,0.009174546226859093,0.041383177042007446,-0.19118772447109222,-0.04396630451083183,0.3381563723087311,0.21310579776763916,0.02667754888534546,0.10635381191968918,0.032819706946611404,0.020789077505469322,0.11664598435163498,-0.10882467031478882,-0.05335252359509468,0.23797321319580078,-0.036153413355350494,0.061338674277067184,-0.1938793659210205,0.010411344468593597,0.23145322501659393,0.003326145699247718,0.0712171122431755,0.17344950139522552,-0.02664049342274666,-0.24899454414844513,-0.2631896138191223,0.3468071520328522,-0.04529103264212608,0.2860685884952545,-0.05624593421816826,-0.19377732276916504,0.2087293416261673,-0.07058178633451462,0.18411028385162354,-0.21079806983470917,0.3830074965953827,-0.09522520750761032,-0.34597691893577576,0.42359814047813416,-0.3258979022502899,-0.16449978947639465,-0.2186729460954666,0.33089977502822876,-0.11827836185693741,-0.2794487774372101,-0.2675700783729553,-0.02259218692779541,0.1594749242067337,0.21488015353679657,0.11084466427564621,0.14000219106674194,-0.1520235538482666,-0.15915249288082123,-0.031018966808915138,-0.1828261762857437,-0.19303278625011444,0.10906102508306503,0.024870697408914566
1_1003_u_2,-0.05149013549089432,-0.1973780244588852,-0.15762732923030853,-0.13646236062049866,-0.22852149605751038,0.06913799792528152,-0.10413674265146255,-0.1118420884013176,-0.09501367062330246,-0.024235518649220467,0.007001017220318317,0.2793440818786621,0.06967157125473022,-0.06474698334932327,0.05447405204176903,-0.11945189535617828,0.15915054082870483,0.17095564305782318,0.2955988347530365,0.05359138175845146,0.15111248195171356,-0.06320077925920486,0.06356663256883621,0.002494045067578554,0.5489162802696228,0.16519318521022797,0.2694895267486572,0.10800733417272568,-0.15802989900112152,-0.10435415804386139,-0.10805673897266388,-0.33137694001197815,-0.00266419374383986,0.01002639438956976,-0.1597277969121933,-0.12536278367042542,-0.043977197259664536,-0.1416604220867157,-0.45589596033096313,0.3790411949157715,-0.3145883083343506,-0.10517692565917969,0.13274335861206055,0.20293176174163818,0.1136510893702507,-0.019397929310798645,0.44041234254837036,0.1301874965429306,0.12568716704845428,-0.1586683839559555,0.11454738676548004,-0.11363400518894196,0.2605336606502533,0.0014695707941427827,-0.053291868418455124,-0.02501942217350006,-0.08112776279449463,-0.06755630671977997,-0.15311047434806824,-0.19301287829875946,-0.15623603761196136,-0.032858218997716904,0.1542973518371582,-0.28793957829475403,0.33258792757987976,0.1427805870771408,0.1999843418598175,-0.07502329349517822,0.045384906232357025,0.1472090184688568,-0.2707314193248749,0.16921144723892212,-0.18197660148143768,-0.04383913055062294,-0.12670354545116425,-0.18245530128479004,-0.4344549775123596,0.060054995119571686,-0.47218042612075806,0.19490063190460205,-0.013267329894006252,0.007012512069195509,-0.08396933972835541,-0.057781070470809937,0.25020039081573486,0.030933765694499016,0.07456517964601517,0.08978018164634705,-0.023997848853468895,-0.1554168462753296,-0.32408851385116577,0.07317052036523819,-0.15146632492542267,0.21811841428279877,0.2662931978702545,0.43348509073257446,0.09416022896766663,0.0417039692401886,-0.5220041871070862,-0.38571232557296753,-0.22828398644924164,0.47503992915153503,0.007134874351322651,0.14793920516967773,0.27404236793518066,0.21193543076515198,-0.1107628345489502,-0.24440328776836395,0.06963267177343369,-0.04398275539278984,-0.14169037342071533,0.24475038051605225,-0.02773549221456051,-0.10076738893985748,-0.03364570066332817,0.2555665671825409,-0.009051491506397724,-0.05301661044359207,-0.17458444833755493,0.05892861634492874,0.17651750147342682,0.2402191162109375,0.25143954157829285,0.2821347415447235,-0.30541524291038513,0.21017001569271088,-0.0005025390419177711,0.16976258158683777,-0.3240998387336731,-0.30850479006767273,0.021969689056277275,0.24040284752845764,-0.0272964034229517,-0.35487282276153564,0.14435331523418427,-0.17664013803005219,-0.05906127020716667,-0.10182031244039536,0.0009185349917970598,-0.2462562620639801,-0.2185520976781845,-0.001474833465181291,0.16136112809181213,-0.2091052085161209,-0.04763175919651985,0.06211545690894127,-0.21586556732654572,0.08683423697948456,-0.19560344517230988,0.10209324210882187,-0.06367223709821701,-0.006007734220474958,0.05543450266122818,0.03826209530234337,-0.2298687994480133,0.3196781277656555,0.09584885835647583,0.08833020180463791,-0.3072783052921295,-0.07034145295619965,0.18456244468688965,0.1344117969274521,0.1880854219198227,0.07346953451633453,0.08451365679502487,-0.049674127250909805,-0.002059346530586481,-0.12364701181650162,-0.13930605351924896,0.05674504116177559,-0.11514784395694733,0.4199840724468231,-0.05575565621256828,0.16549289226531982,0.04838883504271507,0.08786285668611526,0.0013450650731101632,0.05635414272546768,-0.11599057912826538,0.02179207280278206,-0.1384020745754242,0.01604541204869747,-0.17583560943603516,0.12367158383131027,0.07654261589050293,0.0722232535481453,-0.10286445915699005,0.14521002769470215,-0.21384933590888977,0.13862356543540955,0.06811392307281494,-0.03713924065232277,-0.19872422516345978,-0.13872934877872467,0.1300339251756668,0.1571483463048935,0.11191525310277939,0.09834521263837814,0.154347226023674,-0.013778641819953918,0.03299019858241081,-0.1587558090686798,-0.06341242045164108,0.3600306212902069,0.1805933713912964,0.013349716551601887,0.09002508223056793,0.0787079930305481,0.027717871591448784,0.09392180293798447,-0.07214998453855515,-0.02006429247558117,0.2534721791744232,-0.022349391132593155,0.0021052148658782244,-0.2644557058811188,-0.008284837007522583,0.2836415469646454,0.02535456232726574,0.07791722565889359,0.2232363224029541,-0.040818460285663605,-0.2998081147670746,-0.23210720717906952,0.3342483937740326,-0.03464503586292267,0.31932154297828674,-0.08280347287654877,-0.22127977013587952,0.2689034938812256,0.0005930796614848077,0.17431814968585968,-0.13657760620117188,0.4302702844142914,-0.09672218561172485,-0.3517356514930725,0.41292259097099304,-0.3131714463233948,-0.16543452441692352,-0.18088476359844208,0.3581133782863617,-0.139008030295372,-0.23740243911743164,-0.2338133305311203,-0.01041440013796091,0.23964689671993256,0.20142176747322083,0.1312347650527954,0.10433591902256012,-0.23548193275928497,-0.2019950896501541,-0.02689283899962902,-0.204123854637146,-0.22716665267944336,0.02102036587893963,0.03194775804877281
1_10190_u_1,-0.041713159531354904,-0.18214388191699982,-0.15767039358615875,-0.11268728971481323,-0.17514435946941376,0.04189315438270569,-0.07481300085783005,-0.09891492128372192,-0.08841677755117416,-0.007099492941051722,-0.017689112573862076,0.21739232540130615,0.09071926027536392,-0.10544095188379288,0.05275179073214531,-0.09418587386608124,0.19638101756572723,0.23076577484607697,0.22167754173278809,0.04778037592768669,0.10585260391235352,-0.08324509859085083,0.05223363637924194,-0.05979558825492859,0.3551277220249176,0.15472134947776794,0.22472405433654785,0.05241486430168152,-0.03956930711865425,-0.0939161479473114,-0.0948139950633049,-0.25676998496055603,-0.05780693516135216,0.036564797163009644,-0.1365855634212494,-0.13159313797950745,-0.04041382297873497,-0.11569812148809433,-0.37715980410575867,0.29203736782073975,-0.2477041482925415,-0.02443586476147175,0.08819784224033356,0.25625085830688477,0.09176327288150787,0.02805761806666851,0.28589949011802673,0.11106639355421066,0.09306351095438004,-0.11652650684118271,0.05162658914923668,-0.14341294765472412,0.2407398223876953,-0.01994292065501213,0.03580079600214958,-0.11905080080032349,-0.07318311929702759,-0.1051926389336586,-0.11581295728683472,-0.2066693753004074,-0.12892302870750427,0.056618835777044296,0.14769691228866577,-0.14686155319213867,0.20511339604854584,0.1519164890050888,0.0921003520488739,-0.06659997999668121,0.07793743908405304,0.1428999900817871,-0.24192042648792267,0.1164809837937355,-0.10789256542921066,0.03180845081806183,-0.1241154819726944,-0.1820899248123169,-0.23501940071582794,0.052280258387327194,-0.3590293824672699,0.12831678986549377,-0.004532271064817905,-0.030759144574403763,-0.03590468689799309,-0.042850226163864136,0.21187584102153778,0.0510246716439724,-0.007657603360712528,0.1382688730955124,-0.08842294663190842,-0.12285497039556503,-0.2197396606206894,0.048597123473882675,-0.12759900093078613,0.151112362742424,0.1715216487646103,0.23362313210964203,0.08093167096376419,-0.017215676605701447,-0.325570672750473,-0.2672542929649353,-0.14355126023292542,0.37192344665527344,-0.07537851482629776,0.1744811087846756,0.1922709047794342,0.2015002965927124,-0.07641153782606125,-0.27553683519363403,0.1073247417807579,-0.002082403749227524,-0.05703620985150337,0.21181941032409668,0.020250268280506134,-0.020536476746201515,0.049000803381204605,0.19622859358787537,-0.06603728979825974,0.06405287235975266,-0.19515089690685272,0.06448771804571152,0.11590220779180527,0.2032477855682373,0.18965616822242737,0.16078516840934753,-0.26079174876213074,0.16801343858242035,0.04640791565179825,0.11866748332977295,-0.25940701365470886,-0.2970695197582245,0.04028474912047386,0.14529657363891602,-0.10524002462625504,-0.2483510971069336,0.15708690881729126,-0.06494329124689102,-0.08316272497177124,-0.04555695131421089,-0.03275689482688904,-0.11925830692052841,-0.08949223160743713,-0.006130560301244259,0.11308585852384567,-0.1647413671016693,-0.011927307583391666,0.0010135456686839461,-0.0796542763710022,0.14259940385818481,-0.15164212882518768,0.11705198138952255,-0.07533667981624603,-0.022944539785385132,-0.03805069252848625,-0.014009487815201283,-0.20863251388072968,0.2524823248386383,0.15849809348583221,0.0570186972618103,-0.2764913737773895,-0.036083050072193146,0.15573588013648987,0.110260508954525,0.1557319164276123,0.09770946949720383,0.04248834028840065,0.02864888869225979,-0.05398878455162048,-0.04887503385543823,-0.1574789136648178,0.0068676830269396305,-0.089451365172863,0.31168004870414734,-0.12439437210559845,0.13659237325191498,-0.01668511889874935,0.07906057685613632,0.0454944409430027,0.11069448292255402,0.006006288807839155,-0.0011422841344028711,-0.13310135900974274,0.010694152675569057,-0.09941373765468597,0.1232224702835083,0.01170346513390541,0.09460798650979996,-0.14108562469482422,0.15911193192005157,-0.2140895575284958,0.020336005836725235,0.03062625788152218,-0.0025333461817353964,-0.15035507082939148,-0.12169113010168076,0.047799430787563324,0.09292956441640854,0.04219887778162956,0.05581885576248169,0.10071954876184464,-0.05077241733670235,-0.04519001767039299,-0.09758875519037247,-0.08843249827623367,0.24603410065174103,0.08682971447706223,-0.05148234963417053,0.11849155277013779,0.042960137128829956,-0.0007838369347155094,0.08023582398891449,-0.018565207719802856,0.008336715400218964,0.12338755279779434,-0.0012074612313881516,0.021843761205673218,-0.2767502963542938,-0.023153401911258698,0.2695578634738922,0.036578401923179626,0.07389017939567566,0.13728538155555725,-0.08095269650220871,-0.19963589310646057,-0.2255081683397293,0.1946564018726349,-0.065440833568573,0.2174677848815918,-0.06714274734258652,-0.08070182800292969,0.2131209373474121,-0.04621557518839836,0.06600811332464218,-0.09322690963745117,0.356000155210495,-0.18896813690662384,-0.2861233651638031,0.3168242573738098,-0.24734623730182648,-0.16065751016139984,-0.22121332585811615,0.2879236042499542,-0.10482455790042877,-0.20014634728431702,-0.12007465213537216,-0.01895427517592907,0.21217761933803558,0.12589633464813232,0.101054348051548,0.03905400261282921,-0.12307646125555038,-0.13000188767910004,-0.02730964496731758,-0.10744815319776535,-0.19694392383098602,-0.03837450221180916,-0.01552688330411911
1_10190_u_2,-0.10336668789386749,-0.15297797322273254,-0.10280348360538483,-0.09781596809625626,-0.29191479086875916,0.044425785541534424,-0.11890950053930283,-0.10279911756515503,-0.16525180637836456,-0.002013336168602109,-0.0016388435615226626,0.34800490736961365,0.05077474191784859,-0.1670287847518921,0.0588974729180336,-0.20565132796764374,0.14739494025707245,0.07761960476636887,0.2613246738910675,0.042586080729961395,0.11189164966344833,-0.0301076527684927,0.047542840242385864,-0.03823280334472656,0.5136820673942566,0.14166581630706787,0.24816659092903137,0.15527097880840302,-0.16289834678173065,-0.11209207028150558,-0.07555098831653595,-0.27892524003982544,-0.048187702894210815,-0.06828860938549042,-0.15935444831848145,-0.1747131049633026,-0.052761565893888474,-0.17526446282863617,-0.4784879684448242,0.3614327907562256,-0.30039000511169434,-0.13647077977657318,0.0928300991654396,0.27724677324295044,0.07211103290319443,-0.03776269406080246,0.45945414900779724,0.06373923271894455,0.10195597261190414,-0.2112375795841217,0.07300176471471786,-0.09479314088821411,0.20762018859386444,0.020566999912261963,-7.084161188686267e-05,-0.05660955235362053,-0.14168226718902588,-0.05184384807944298,-0.17200003564357758,-0.14423048496246338,-0.17100845277309418,-0.030920160934329033,0.10340055078268051,-0.2210572063922882,0.2916485667228699,0.11661076545715332,0.17349836230278015,0.042882468551397324,0.05026527866721153,0.23239175975322723,-0.23312734067440033,0.16351458430290222,-0.19711685180664062,-0.05061612278223038,-0.11078423261642456,-0.23807406425476074,-0.4066416919231415,0.10043372958898544,-0.5216302275657654,0.22098945081233978,0.03190327808260918,-0.05450205132365227,-0.056154508143663406,-0.0024506528861820698,0.24622145295143127,0.035006988793611526,0.06655667722225189,0.03265078738331795,-0.1283615380525589,-0.2216704934835434,-0.3115569055080414,0.03758387267589569,-0.16061265766620636,0.22845318913459778,0.2310379296541214,0.3359658718109131,0.11176788061857224,0.08719539642333984,-0.4241088926792145,-0.3726505935192108,-0.20117397606372833,0.44638925790786743,-0.05521594360470772,0.14324623346328735,0.24553702771663666,0.22272606194019318,-0.10591816902160645,-0.23972192406654358,0.07583710551261902,-0.01726238615810871,-0.18930481374263763,0.2022756189107895,0.01565803773701191,-0.12986555695533752,-0.07002844661474228,0.25943896174430847,-0.05216351896524429,-0.028885429725050926,-0.26295915246009827,0.06190156936645508,0.19785915315151215,0.2512173354625702,0.18884097039699554,0.22711525857448578,-0.25094398856163025,0.24783937633037567,0.05612514168024063,0.14494352042675018,-0.31886816024780273,-0.36010584235191345,-0.03271785005927086,0.13948601484298706,-0.1620052307844162,-0.2859603464603424,0.16650505363941193,-0.13967148959636688,-0.12015992403030396,-0.09523124247789383,-0.03227335214614868,-0.21949847042560577,-0.15735451877117157,-0.030679835006594658,0.1899648904800415,-0.1997458040714264,-0.0053051128052175045,0.03213931992650032,-0.29961714148521423,0.1365264505147934,-0.20328500866889954,0.17391133308410645,-0.08885984867811203,-0.06214088201522827,0.07588817179203033,0.048407264053821564,-0.34386393427848816,0.19294491410255432,0.1872582584619522,-0.0007811777177266777,-0.2602061927318573,-0.10671348869800568,0.23770712316036224,0.09124486893415451,0.24835573136806488,0.10975297540426254,0.005300042685121298,-0.057051368057727814,-0.07311537116765976,-0.05344211682677269,-0.13827386498451233,0.03537973389029503,-0.058535169810056686,0.3158857524394989,-0.009474808350205421,0.1512446105480194,0.025755468755960464,0.11593444645404816,0.06961964815855026,0.06471612304449081,-0.10856461524963379,0.04929705336689949,-0.1735132932662964,0.08974536508321762,-0.18455055356025696,0.13131773471832275,0.018019331619143486,0.04314301535487175,-0.14181767404079437,0.13694417476654053,-0.17897550761699677,0.06463272124528885,0.12111111730337143,0.004320747219026089,-0.23593886196613312,-0.08528783172369003,0.14877790212631226,0.11833765357732773,0.051480818539857864,0.11383789777755737,0.1367432177066803,-0.04297718405723572,0.0032756419386714697,-0.1185186430811882,-0.05284010246396065,0.3547954261302948,0.1721411496400833,-0.08948276191949844,0.11413083225488663,0.1084345206618309,0.0156176732853055,-0.019235363230109215,-0.036987245082855225,0.09719099849462509,0.23699398338794708,0.026440029963850975,0.019329797476530075,-0.2473774254322052,-0.02627844549715519,0.22150805592536926,-0.02652030624449253,0.02367980219423771,0.20597712695598602,-0.06393257528543472,-0.34736838936805725,-0.2331300526857376,0.28157490491867065,-0.010628655552864075,0.23240093886852264,-0.04618777707219124,-0.15082865953445435,0.24617624282836914,-0.029430288821458817,0.1379106491804123,-0.10528498142957687,0.3934253752231598,-0.17906630039215088,-0.2872534692287445,0.3596152365207672,-0.3134582042694092,-0.17961485683918,-0.23253133893013,0.2996295988559723,-0.08928285539150238,-0.294023334980011,-0.20602892339229584,-0.06846079975366592,0.24303126335144043,0.1593066304922104,0.12000911682844162,0.11906731128692627,-0.20286552608013153,-0.1894221305847168,-0.012965122237801552,-0.17918939888477325,-0.21119876205921173,0.0370914526283741,-0.04571270942687988
1_10190_u_3,-0.060203563421964645,-0.11160408705472946,-0.13459108769893646,-0.17168502509593964,-0.27436381578445435,0.04445335641503334,-0.07944758981466293,-0.12336371093988419,-0.07874803990125656,-0.011257258243858814,-0.044161345809698105,0.41485729813575745,0.03445756062865257,-0.1757943034172058,0.052447546273469925,-0.18775562942028046,0.1795232892036438,0.11230342835187912,0.3307156562805176,0.055327605456113815,0.149672269821167,-0.011886302381753922,0.10669815540313721,-0.003291164292022586,0.6138747334480286,0.17477421462535858,0.2796300947666168,0.15741267800331116,-0.2014281302690506,-0.18753957748413086,-0.051127102226018906,-0.33692046999931335,-0.009771828539669514,-0.0891495794057846,-0.240317702293396,-0.18413205444812775,-0.06481192260980606,-0.1579468697309494,-0.5659469962120056,0.42997416853904724,-0.3854864537715912,-0.04409023001790047,0.14229010045528412,0.279039204120636,0.11925456672906876,-0.04548121988773346,0.5331932306289673,0.08338820189237595,0.16801907122135162,-0.2237081080675125,0.06108567863702774,-0.1258259266614914,0.22124257683753967,-0.009552234783768654,-0.11111241579055786,-0.0396590381860733,-0.1293429732322693,-0.06321367621421814,-0.23965425789356232,-0.12391870468854904,-0.16142751276493073,-0.03987351804971695,0.11054553836584091,-0.2582251727581024,0.3185793161392212,0.1658260077238083,0.20187044143676758,-0.036347657442092896,0.07028331607580185,0.27811503410339355,-0.2673836946487427,0.17482593655586243,-0.336154580116272,-0.07690080255270004,-0.12773697078227997,-0.2549896240234375,-0.47473546862602234,0.11475793272256851,-0.6063650250434875,0.22671031951904297,0.02791234850883484,-0.049540478736162186,-0.045718371868133545,0.03936421871185303,0.29232507944107056,0.06198681518435478,0.07567532360553741,0.09962254017591476,-0.0923517644405365,-0.3054657578468323,-0.378017395734787,0.038883041590452194,-0.15919752418994904,0.2315203696489334,0.2726539969444275,0.4591647684574127,0.17313723266124725,0.09792931377887726,-0.5528027415275574,-0.4196423590183258,-0.30160820484161377,0.5636019706726074,0.0015685920370742679,0.12502335011959076,0.2874087393283844,0.22015495598316193,-0.11906842142343521,-0.24750976264476776,0.13504302501678467,0.0031692595221102238,-0.20095716416835785,0.23460893332958221,0.04410102218389511,-0.15027497708797455,-0.10721856355667114,0.3599400520324707,-0.04429345205426216,-0.029577836394309998,-0.25541505217552185,0.12567442655563354,0.25928401947021484,0.26841920614242554,0.30563461780548096,0.274118036031723,-0.3001976013183594,0.2561924457550049,-0.0198537465184927,0.1877877563238144,-0.3429214060306549,-0.41817227005958557,0.02675834856927395,0.2297976016998291,-0.06890164315700531,-0.35592976212501526,0.2194143533706665,-0.20203879475593567,-0.1288747638463974,-0.10349246114492416,0.00136800785548985,-0.2835295796394348,-0.15719862282276154,-0.017996950075030327,0.23671816289424896,-0.29736393690109253,-0.04170765355229378,0.019521424546837807,-0.3074691891670227,0.13288168609142303,-0.19848576188087463,0.1925479918718338,-0.14241176843643188,-0.007123395334929228,0.08187388628721237,0.064797542989254,-0.3098294138908386,0.31155335903167725,0.10367057472467422,0.022341832518577576,-0.3376421630382538,-0.14901435375213623,0.2218046933412552,0.14075106382369995,0.2760825455188751,0.11839049309492111,0.0810353085398674,-0.01783437281847,0.010126431472599506,-0.08642593771219254,-0.20953033864498138,0.026112062856554985,-0.11491646617650986,0.37511298060417175,-0.10647805035114288,0.1978093683719635,0.10339174419641495,0.19268269836902618,0.051935579627752304,0.09243663400411606,-0.12033522129058838,0.07306713610887527,-0.21286682784557343,0.09705670177936554,-0.24263091385364532,0.1655973643064499,0.09625644981861115,0.031068161129951477,-0.10680126398801804,0.18253380060195923,-0.2522125244140625,0.11418235301971436,0.118221715092659,-0.05391964316368103,-0.21122312545776367,-0.09432532638311386,0.12690065801143646,0.1519729346036911,0.031371623277664185,0.1248973160982132,0.14453822374343872,-0.05258716270327568,-0.009324406273663044,-0.1533290296792984,-0.09194321185350418,0.4396374225616455,0.18180374801158905,-0.06760942190885544,0.08597005158662796,0.15520499646663666,0.03749048337340355,-0.02476212941110134,-0.04355495795607567,0.04996554180979729,0.28952816128730774,0.01977037452161312,-0.04393228515982628,-0.31726908683776855,-0.022153081372380257,0.3426206111907959,0.01680886186659336,0.06083519384264946,0.3028753101825714,-0.04937407001852989,-0.42415639758110046,-0.2076592743396759,0.36625245213508606,-0.030888304114341736,0.34080469608306885,-0.1172226220369339,-0.2484186738729477,0.3568156957626343,0.054327547550201416,0.1967344582080841,-0.08979857712984085,0.4785519242286682,-0.17122386395931244,-0.3415909707546234,0.40739694237709045,-0.3276185095310211,-0.1932380050420761,-0.24862466752529144,0.39344295859336853,-0.15981988608837128,-0.29209890961647034,-0.24346795678138733,-0.043498601764440536,0.32871922850608826,0.19552180171012878,0.1433068960905075,0.08990734815597534,-0.30577975511550903,-0.2712216079235077,-0.02278844080865383,-0.2566172480583191,-0.3126968443393707,-0.008064184337854385,-0.07636775821447372
1_10190_u_4,-0.08055263012647629,-0.15625928342342377,-0.1304580122232437,-0.09879028052091599,-0.24251703917980194,0.030544018372893333,-0.09233643859624863,-0.10845980793237686,-0.1320727914571762,-0.011835790239274502,-0.01761038415133953,0.29588428139686584,0.08194658905267715,-0.1648903340101242,0.0823386162519455,-0.17404387891292572,0.17831286787986755,0.17580822110176086,0.25491762161254883,0.042513445019721985,0.09204031527042389,-0.04786918684840202,0.048878952860832214,-0.07332971692085266,0.4059816002845764,0.15168146789073944,0.24200820922851562,0.08005974441766739,-0.0762949287891388,-0.11315395683050156,-0.08544762432575226,-0.2534480094909668,-0.058306992053985596,-0.04343714937567711,-0.16121867299079895,-0.15067453682422638,-0.04903673008084297,-0.1650790423154831,-0.4402371346950531,0.29490476846694946,-0.2642506957054138,-0.04482873156666756,0.08630435913801193,0.30949413776397705,0.07633358985185623,0.0008542672148905694,0.3387090861797333,0.0550088956952095,0.08241958916187286,-0.17363522946834564,0.015226408839225769,-0.12261354178190231,0.23504920303821564,0.004912791308015585,0.05616605281829834,-0.12728649377822876,-0.11901412159204483,-0.08963879197835922,-0.14603187143802643,-0.18679924309253693,-0.14142553508281708,0.034174367785453796,0.12198895215988159,-0.1319277137517929,0.22233346104621887,0.1453041285276413,0.07194666564464569,-0.004662300925701857,0.07541057467460632,0.21741187572479248,-0.2471267431974411,0.12262890487909317,-0.12738946080207825,0.011081591248512268,-0.09927282482385635,-0.23656736314296722,-0.25705060362815857,0.09980892390012741,-0.43385592103004456,0.166035994887352,0.013022403232753277,-0.0693994089961052,-0.038116782903671265,-0.002027556300163269,0.2251044511795044,0.06123931333422661,0.002376621589064598,0.10726841539144516,-0.148030623793602,-0.17811386287212372,-0.2422054260969162,0.032774120569229126,-0.1414463073015213,0.16966882348060608,0.17383983731269836,0.22636787593364716,0.12347369641065598,0.049831680953502655,-0.32498979568481445,-0.30588245391845703,-0.1689854860305786,0.40568166971206665,-0.09387370198965073,0.16912752389907837,0.21165978908538818,0.1926952451467514,-0.08131857216358185,-0.29848456382751465,0.1373593956232071,0.01239877101033926,-0.12463895231485367,0.20476441085338593,0.06905229389667511,-0.0727388933300972,0.023809630423784256,0.242534801363945,-0.09860124439001083,0.03355630859732628,-0.26316890120506287,0.07308501750230789,0.15661822259426117,0.20869898796081543,0.18166930973529816,0.16630910336971283,-0.23430049419403076,0.21757745742797852,0.05497097969055176,0.11461808532476425,-0.28010478615760803,-0.36612749099731445,-0.011403776705265045,0.11865778267383575,-0.1845526546239853,-0.22782061994075775,0.18424780666828156,-0.08309977501630783,-0.11548910290002823,-0.06486083567142487,-0.059648193418979645,-0.1449480503797531,-0.0732121393084526,-0.025560786947607994,0.14829151332378387,-0.17980407178401947,0.028820380568504333,-0.003468056907877326,-0.18166986107826233,0.1997351199388504,-0.1871398240327835,0.18798497319221497,-0.09999089688062668,-0.06590250134468079,0.005296416115015745,0.001761965686455369,-0.2922210395336151,0.20347200334072113,0.1880839318037033,-0.02210613153874874,-0.274878591299057,-0.05863418057560921,0.2266242504119873,0.08916293829679489,0.22498194873332977,0.12064813822507858,0.009272306226193905,0.00881948322057724,-0.09443399310112,-0.010557710193097591,-0.14877630770206451,0.008301984518766403,-0.05467404052615166,0.25039124488830566,-0.07709663361310959,0.16105473041534424,0.0018934933468699455,0.1142849251627922,0.09887787699699402,0.10627907514572144,-0.016495896503329277,0.02410772442817688,-0.1804804652929306,0.040459536015987396,-0.11686766147613525,0.11725272983312607,-0.018948562443256378,0.07557949423789978,-0.15764521062374115,0.1678694486618042,-0.2116042822599411,0.02783205546438694,0.09714209288358688,0.019022716209292412,-0.19830551743507385,-0.0857098177075386,0.0910840779542923,0.11968912929296494,-0.014648737385869026,0.08292486518621445,0.12410316616296768,-0.04980180412530899,-0.03733200952410698,-0.0906875729560852,-0.10469000786542892,0.30285221338272095,0.09702383726835251,-0.11021566390991211,0.13285160064697266,0.10698769241571426,-0.00985661894083023,0.030146652832627296,-0.002057622419670224,0.09340681880712509,0.1414821892976761,0.02805384434759617,0.01963035576045513,-0.28298720717430115,-0.021249210461974144,0.24066214263439178,-0.00904623419046402,0.034649331122636795,0.18136443197727203,-0.06595055013895035,-0.27893730998039246,-0.24584399163722992,0.20406916737556458,-0.03757133707404137,0.22029411792755127,-0.06235620006918907,-0.06347492337226868,0.2093673050403595,-0.05159389600157738,0.04815499112010002,-0.07103358954191208,0.36324840784072876,-0.25520047545433044,-0.26969578862190247,0.3037094473838806,-0.28323179483413696,-0.18594253063201904,-0.22843411564826965,0.27308452129364014,-0.08837193995714188,-0.24762693047523499,-0.14505963027477264,-0.06848134845495224,0.2351490557193756,0.11901263147592545,0.12013380974531174,0.06650048494338989,-0.158141627907753,-0.1605338752269745,-0.025534624233841896,-0.11378356069326401,-0.17858685553073883,-0.033665139228105545,-0.06535203754901886
1_10190_u_5,-0.09638660401105881,-0.12251020967960358,-0.10958635807037354,-0.09390264749526978,-0.2700161933898926,0.025466978549957275,-0.09595821052789688,-0.09855835884809494,-0.1500999927520752,0.01923401467502117,-0.030753416940569878,0.35108691453933716,0.05077514052391052,-0.2034623920917511,0.07879932224750519,-0.19528619945049286,0.1680329293012619,0.1142827495932579,0.25818324089050293,0.04043419286608696,0.08424825966358185,-0.021471837535500526,0.06687232106924057,-0.06726831197738647,0.441768079996109,0.14210282266139984,0.22962169349193573,0.12792891263961792,-0.11401428282260895,-0.1415867805480957,-0.06517475843429565,-0.23818016052246094,-0.06676652282476425,-0.08350253105163574,-0.1822163611650467,-0.1730077564716339,-0.0696755051612854,-0.1787092387676239,-0.47536501288414,0.3309091031551361,-0.3040912449359894,-0.07908118516206741,0.08246114104986191,0.31817442178726196,0.08018030226230621,-0.009543686173856258,0.3994985818862915,0.04253844544291496,0.10894490778446198,-0.20338526368141174,0.02453848160803318,-0.11073583364486694,0.21089816093444824,-0.011785737238824368,0.02651025727391243,-0.09692773967981339,-0.14298978447914124,-0.06517352908849716,-0.16795922815799713,-0.15544287860393524,-0.14481721818447113,-0.0010155037743970752,0.10196869820356369,-0.1490856260061264,0.2339538186788559,0.1318550407886505,0.11759340018033981,0.019849929958581924,0.06554137170314789,0.26181426644325256,-0.23131468892097473,0.12487351149320602,-0.20667003095149994,-0.015082567930221558,-0.09547143429517746,-0.25443828105926514,-0.32665491104125977,0.10985507816076279,-0.49223604798316956,0.18284544348716736,0.03482581302523613,-0.08249391615390778,-0.02499230019748211,0.03316308185458183,0.24323387444019318,0.05811011791229248,0.02868678607046604,0.06681831181049347,-0.16066162288188934,-0.23660551011562347,-0.2743755877017975,0.009608971886336803,-0.14184188842773438,0.20613360404968262,0.17801758646965027,0.27523884177207947,0.1237601637840271,0.07938350737094879,-0.3572211265563965,-0.3355526626110077,-0.1996123343706131,0.43121129274368286,-0.09951826184988022,0.15472720563411713,0.22120964527130127,0.2240227907896042,-0.09682480245828629,-0.2580666244029999,0.12815482914447784,0.016284704208374023,-0.1678721308708191,0.16894106566905975,0.07433030754327774,-0.09903053194284439,-0.03489789739251137,0.269113153219223,-0.08491434901952744,0.01316532026976347,-0.2875400483608246,0.09101293236017227,0.18493817746639252,0.25142788887023926,0.1910984367132187,0.1699434369802475,-0.25612837076187134,0.22030317783355713,0.05679871514439583,0.10955264419317245,-0.2813818156719208,-0.3810357451438904,-0.02248569019138813,0.10587216913700104,-0.1894129067659378,-0.24988634884357452,0.18802285194396973,-0.10746414959430695,-0.14075703918933868,-0.06303651630878448,-0.043891772627830505,-0.1743711233139038,-0.09871555864810944,-0.031207937747240067,0.1896784007549286,-0.20750021934509277,0.03432631492614746,-0.009254567325115204,-0.2431371659040451,0.18521057069301605,-0.18689878284931183,0.20753073692321777,-0.1285703182220459,-0.06443756073713303,0.03252749517560005,0.03248097002506256,-0.3358285129070282,0.1872796267271042,0.20237021148204803,-0.03522072359919548,-0.2748490273952484,-0.10434682667255402,0.23084942996501923,0.09471852332353592,0.26193225383758545,0.12520907819271088,0.017268074676394463,-0.01454078871756792,-0.09074705094099045,-0.005667184945195913,-0.16083279252052307,0.015854310244321823,-0.055965304374694824,0.2559671401977539,-0.0707578957080841,0.15656276047229767,0.01947559230029583,0.15432099997997284,0.1131788119673729,0.09391604363918304,-0.050297439098358154,0.04277399554848671,-0.19868670403957367,0.09889549016952515,-0.16840189695358276,0.12973956763744354,0.0056439973413944244,0.05056565999984741,-0.15623682737350464,0.16180749237537384,-0.2056683599948883,0.023308400064706802,0.11694824695587158,0.004456198308616877,-0.2080945521593094,-0.06452731788158417,0.11159098148345947,0.11290710419416428,-0.018523696810007095,0.09808584302663803,0.12440498173236847,-0.06118704751133919,-0.028314650058746338,-0.0841040089726448,-0.09389650076627731,0.3274819254875183,0.12273278087377548,-0.13194523751735687,0.11603903770446777,0.12687493860721588,0.01024685800075531,-0.030232101678848267,-0.01055416651070118,0.12228071689605713,0.1844518780708313,0.039148785173892975,0.013297796249389648,-0.2677208483219147,-0.030996253713965416,0.23076120018959045,-0.011701776646077633,0.04071782901883125,0.20295469462871552,-0.06437353044748306,-0.3226892948150635,-0.23448172211647034,0.25402775406837463,-0.028558844700455666,0.21391604840755463,-0.07517728209495544,-0.09594658762216568,0.2506798803806305,-0.03169184550642967,0.09416830539703369,-0.07839446514844894,0.38356897234916687,-0.23862139880657196,-0.27552616596221924,0.3181483745574951,-0.2916865944862366,-0.17641423642635345,-0.26445427536964417,0.2803071439266205,-0.092730812728405,-0.2760462760925293,-0.16090592741966248,-0.06701748818159103,0.25931087136268616,0.1317109614610672,0.12057405710220337,0.07417663931846619,-0.1831541657447815,-0.18348224461078644,-0.015861259773373604,-0.15073268115520477,-0.22459714114665985,-0.015392640605568886,-0.1015099287033081
1_10190_u_6,-0.06424783915281296,-0.19720493257045746,-0.12190777063369751,-0.09693636745214462,-0.26334866881370544,0.03264255076646805,-0.10470321029424667,-0.08178164809942245,-0.19277095794677734,-0.015245688147842884,-0.04853628948330879,0.29227185249328613,0.04741569235920906,-0.1294727921485901,0.09038984030485153,-0.10934396088123322,0.16539934277534485,0.12369558960199356,0.23824456334114075,0.02718396857380867,0.0765858069062233,-0.05800333619117737,0.0515570305287838,-0.04315146431326866,0.44880589842796326,0.13751889765262604,0.23375582695007324,0.1248074322938919,-0.074851393699646,-0.08029743283987045,-0.10531262308359146,-0.23094037175178528,-0.04078059270977974,-0.01304298173636198,-0.14113903045654297,-0.14892685413360596,-0.07959810644388199,-0.16606824100017548,-0.40695759654045105,0.33713069558143616,-0.2939787805080414,-0.12210805714130402,0.0740603357553482,0.2179316282272339,0.12540216743946075,-0.006319744978100061,0.38888511061668396,0.0932566374540329,0.10082157701253891,-0.14872339367866516,0.10631747543811798,-0.11556686460971832,0.21386535465717316,-0.014070895500481129,0.026229489594697952,-0.04651531204581261,-0.10970848053693771,-0.07102561742067337,-0.12761235237121582,-0.20354406535625458,-0.15523551404476166,0.0333290658891201,0.14793753623962402,-0.17779260873794556,0.2799488604068756,0.13469873368740082,0.17022617161273956,-0.0054744528606534,0.045267533510923386,0.1811732053756714,-0.22484861314296722,0.1553501933813095,-0.13224270939826965,-0.028485914692282677,-0.10328974574804306,-0.20222163200378418,-0.3578185737133026,0.0728326365351677,-0.4265865385532379,0.15459191799163818,0.026637298986315727,-0.005603906232863665,-0.06375351548194885,-0.05817718058824539,0.22792570292949677,0.03560430929064751,0.05069591477513313,0.05567040666937828,-0.08116116374731064,-0.16572721302509308,-0.2713927924633026,0.041308410465717316,-0.14985886216163635,0.26135167479515076,0.16624806821346283,0.2935076355934143,0.08443479984998703,0.03783312067389488,-0.36817142367362976,-0.3004821836948395,-0.1969263255596161,0.34765034914016724,-0.07545425742864609,0.14650584757328033,0.22130656242370605,0.2473125457763672,-0.09802626073360443,-0.2264518290758133,0.05818216875195503,-0.03067491389811039,-0.1358242779970169,0.1892707794904709,-0.023708079010248184,-0.0922618955373764,-0.04443361237645149,0.20196180045604706,-0.05413249880075455,-0.0006528705707751215,-0.24762828648090363,0.08482170850038528,0.12607736885547638,0.2560510039329529,0.1767871230840683,0.23255407810211182,-0.30804014205932617,0.1810247153043747,0.058478355407714844,0.11869826167821884,-0.2943456768989563,-0.2885407507419586,-0.0017556309467181563,0.1305459588766098,-0.13187332451343536,-0.2793463170528412,0.1596403867006302,-0.1239413172006607,-0.08108185976743698,-0.06167057156562805,-0.0017115585505962372,-0.1643233746290207,-0.13485625386238098,-0.021281689405441284,0.15587717294692993,-0.17138002812862396,0.008646591566503048,0.007223418448120356,-0.19552959501743317,0.10695099085569382,-0.17709152400493622,0.1301148384809494,-0.08702119439840317,-0.04220329225063324,0.04684760048985481,0.03935043886303902,-0.24675343930721283,0.21124403178691864,0.22319018840789795,0.05090434476733208,-0.2247328758239746,-0.0479869619011879,0.16341827809810638,0.11806740611791611,0.1736808568239212,0.09106453508138657,0.04045621678233147,-0.02708774246275425,-0.08904557675123215,-0.0511871837079525,-0.14956854283809662,0.03454739972949028,-0.08844558894634247,0.32665038108825684,-0.03882235288619995,0.11144629865884781,0.005340714007616043,0.11622581630945206,0.055865950882434845,0.07387664914131165,-0.08306985348463058,0.038118258118629456,-0.14465934038162231,0.05222979933023453,-0.1750274896621704,0.10505463927984238,0.03266037628054619,0.05397266149520874,-0.11760158836841583,0.14229659736156464,-0.18900083005428314,0.003222118364647031,0.07898818701505661,-0.0042665512301027775,-0.17275269329547882,-0.08879248052835464,0.117767833173275,0.08881346881389618,0.060446809977293015,0.07121384143829346,0.10756124556064606,-0.0161077082157135,-0.015187101438641548,-0.12300916016101837,-0.062708280980587,0.2916644215583801,0.14382021129131317,-0.06809306889772415,0.12340259552001953,0.06810599565505981,0.02057834528386593,0.03331566974520683,-0.05216510221362114,0.03078019618988037,0.18938980996608734,0.000728773360606283,0.03893139958381653,-0.2202771008014679,-0.0052514285780489445,0.20658691227436066,-0.010545946657657623,0.05421176552772522,0.18050354719161987,-0.04902128130197525,-0.27547845244407654,-0.23697152733802795,0.27344590425491333,-0.04791932553052902,0.21821533143520355,-0.06637007743120193,-0.12866462767124176,0.22331027686595917,-0.06370501965284348,0.1377478688955307,-0.12401425838470459,0.3509278893470764,-0.17368115484714508,-0.30374875664711,0.338180273771286,-0.28441327810287476,-0.15713287889957428,-0.2856690287590027,0.2867145538330078,-0.12461800873279572,-0.267959862947464,-0.2036547213792801,-0.04664430767297745,0.19387438893318176,0.14949055016040802,0.10514073818922043,0.09253585338592529,-0.12995795905590057,-0.1581854373216629,-0.02001894824206829,-0.16335009038448334,-0.2281673699617386,0.058124203234910965,-0.061107780784368515
1_10462_u_1,-0.08430919051170349,-0.22804875671863556,-0.1368805468082428,-0.1483355015516281,-0.33580753207206726,0.06345631927251816,-0.14688347280025482,-0.10010486096143723,-0.19590580463409424,-0.025046130642294884,-0.013889706693589687,0.34817811846733093,0.04730755463242531,-0.10271620750427246,0.08512694388628006,-0.15570391714572906,0.14825311303138733,0.09557187557220459,0.3046722114086151,0.0693591982126236,0.13340528309345245,-0.05140534043312073,0.03504839539527893,-0.0009832337964326143,0.6259880065917969,0.15079927444458008,0.2998499572277069,0.16116206347942352,-0.1738576740026474,-0.09770020097494125,-0.11479609459638596,-0.32991084456443787,0.003702748566865921,-0.04149511083960533,-0.1691678762435913,-0.1604946106672287,-0.07008787244558334,-0.17579106986522675,-0.4803643226623535,0.42456522583961487,-0.32724976539611816,-0.1718667596578598,0.12976743280887604,0.20092129707336426,0.12869256734848022,-0.04567794129252434,0.5230701565742493,0.10757654905319214,0.12601974606513977,-0.20055615901947021,0.13702891767024994,-0.09791947156190872,0.2534153461456299,0.03346293047070503,-0.02512880228459835,-0.00912898313254118,-0.10923933982849121,-0.05944286659359932,-0.15285108983516693,-0.19495169818401337,-0.18738502264022827,-0.021432435140013695,0.16667823493480682,-0.3197079598903656,0.4029823839664459,0.14582648873329163,0.22478704154491425,-0.018159128725528717,0.02763351798057556,0.18183989822864532,-0.2727788984775543,0.2023601084947586,-0.17616160213947296,-0.06491296738386154,-0.10978291183710098,-0.2184303253889084,-0.5169562697410583,0.11064889281988144,-0.5447747111320496,0.25064632296562195,0.008914778009057045,-0.001626538927666843,-0.11679905652999878,-0.07795597612857819,0.268498957157135,0.01665685884654522,0.11815126985311508,0.05388316139578819,-0.0494673065841198,-0.18487198650836945,-0.3664378821849823,0.08021257072687149,-0.16539688408374786,0.31087157130241394,0.27390405535697937,0.4456796646118164,0.10300300270318985,0.08405935019254684,-0.5443932414054871,-0.41256895661354065,-0.25384241342544556,0.4649079740047455,-0.0049980501644313335,0.12926004827022552,0.291960209608078,0.2365841120481491,-0.1245170459151268,-0.2516748607158661,0.046786051243543625,-0.060133662074804306,-0.18603502213954926,0.24002383649349213,-0.05784718319773674,-0.14734089374542236,-0.07602322101593018,0.24643723666667938,-0.02750774659216404,-0.07621321082115173,-0.22857551276683807,0.07645862549543381,0.18198759853839874,0.27248021960258484,0.22638539969921112,0.34562817215919495,-0.33173540234565735,0.2473980039358139,0.029234135523438454,0.18580566346645355,-0.37498196959495544,-0.3189164102077484,-0.010325388051569462,0.22128139436244965,-0.09382446855306625,-0.367887407541275,0.16753368079662323,-0.20452161133289337,-0.07073255628347397,-0.12257329374551773,-0.0009179340559057891,-0.2755586504936218,-0.22546570003032684,-0.01675182394683361,0.19128672778606415,-0.21219424903392792,-0.03811373934149742,0.05497140809893608,-0.31792083382606506,0.08903104066848755,-0.23579978942871094,0.13226352632045746,-0.06558968126773834,-0.046233344823122025,0.11247672885656357,0.055092424154281616,-0.28423529863357544,0.2771121859550476,0.18395738303661346,0.05695820972323418,-0.2790130078792572,-0.07645314931869507,0.21210013329982758,0.13382156193256378,0.2345859259366989,0.10651596635580063,0.05780015513300896,-0.09540464729070663,-0.06624337285757065,-0.11634504050016403,-0.1349184364080429,0.0641278401017189,-0.11540728062391281,0.4335038363933563,0.0064758858643472195,0.15731436014175415,0.04029981419444084,0.10821483284235,0.019253887236118317,0.04897664114832878,-0.15770582854747772,0.04325125738978386,-0.14303861558437347,0.03943207487463951,-0.22716180980205536,0.1092275008559227,0.06838448345661163,0.04821004346013069,-0.11461615562438965,0.12970462441444397,-0.21013514697551727,0.11232750862836838,0.11608459800481796,-0.006178000476211309,-0.2465958148241043,-0.11709394305944443,0.17406754195690155,0.15519200265407562,0.10812254995107651,0.11566638201475143,0.17184090614318848,-0.00850363727658987,0.022872110828757286,-0.19508956372737885,-0.05086524412035942,0.4090448319911957,0.2097090482711792,-0.03176549822092056,0.11083456128835678,0.10183461755514145,0.027113189920783043,0.04482102021574974,-0.09789357334375381,0.020103899762034416,0.2825802266597748,-0.005726022645831108,0.035249631851911545,-0.23987536132335663,-0.005645315628498793,0.255593866109848,-0.025675637647509575,0.03852323815226555,0.23470067977905273,-0.03731224313378334,-0.36502137780189514,-0.26894354820251465,0.37594345211982727,-0.024938741698861122,0.32265791296958923,-0.05787433311343193,-0.21596519649028778,0.259188175201416,-0.0403694324195385,0.2027997225522995,-0.16962294280529022,0.4352663457393646,-0.13952162861824036,-0.35180509090423584,0.4388870894908905,-0.3562358319759369,-0.1883128136396408,-0.24924392998218536,0.3542815148830414,-0.13275550305843353,-0.3265348970890045,-0.28969651460647583,-0.0496026873588562,0.22380752861499786,0.21308155357837677,0.13477782905101776,0.16131086647510529,-0.230716273188591,-0.20920227468013763,-0.01700754463672638,-0.22729544341564178,-0.23406736552715302,0.09636905044317245,-0.02841768227517605
1_10462_u_2,-0.03198007121682167,-0.257049560546875,-0.1450968086719513,-0.15452836453914642,-0.2544015347957611,0.07679563760757446,-0.14011526107788086,-0.12390661239624023,-0.11348066478967667,-0.06261955946683884,0.013369913212954998,0.2953053414821625,0.04652290418744087,0.014512821100652218,0.05955623462796211,-0.08703801780939102,0.11947301775217056,0.08949293941259384,0.29969581961631775,0.06322953850030899,0.15381696820259094,-0.07033425569534302,0.05038942024111748,0.08733909577131271,0.6684054732322693,0.15201063454151154,0.29624372720718384,0.1211409941315651,-0.24420304596424103,-0.09263675659894943,-0.11850642412900925,-0.359966903924942,0.053210485726594925,0.0009049773216247559,-0.15951420366764069,-0.11944638937711716,-0.05484454706311226,-0.12815475463867188,-0.47545894980430603,0.44662389159202576,-0.34862199425697327,-0.1530417650938034,0.13453026115894318,0.10996808856725693,0.12651541829109192,-0.04766135290265083,0.5334804058074951,0.17398829758167267,0.15574894845485687,-0.16385741531848907,0.19321583211421967,-0.10395282506942749,0.21561646461486816,0.011214197613298893,-0.08838292211294174,0.05381917953491211,-0.09080207347869873,-0.05993882939219475,-0.18178187310695648,-0.20609275996685028,-0.19465939700603485,-0.03561646118760109,0.21287094056606293,-0.39009734988212585,0.43051132559776306,0.12135425955057144,0.26334840059280396,-0.07791779190301895,0.014168458990752697,0.11773376911878586,-0.2609961926937103,0.22883932292461395,-0.21854256093502045,-0.10406718403100967,-0.11572270840406418,-0.15385103225708008,-0.5769814848899841,0.0558382086455822,-0.5201160907745361,0.20637214183807373,-0.014335027895867825,0.08633720129728317,-0.11862149089574814,-0.1264699250459671,0.25868162512779236,-0.011937640607357025,0.15127991139888763,0.04289131984114647,0.035908687859773636,-0.17462539672851562,-0.377670019865036,0.08979514986276627,-0.14754225313663483,0.3058350086212158,0.32904425263404846,0.5386151671409607,0.09402689337730408,0.0643242597579956,-0.6454864740371704,-0.3957870304584503,-0.2794661223888397,0.46371960639953613,0.0709863007068634,0.10678785294294357,0.31007155776023865,0.22961504757404327,-0.1284303516149521,-0.20723342895507812,0.018537506461143494,-0.12012260407209396,-0.1660357117652893,0.2645793557167053,-0.11677490919828415,-0.1409689337015152,-0.10395561903715134,0.2455662488937378,0.03504031151533127,-0.10189193487167358,-0.1526709496974945,0.05918586254119873,0.2017219066619873,0.27300870418548584,0.2724359333515167,0.39341625571250916,-0.3599327504634857,0.21999774873256683,-0.018206169828772545,0.1855434775352478,-0.37746521830558777,-0.2811511158943176,0.009144242852926254,0.29042744636535645,0.030369827523827553,-0.41281840205192566,0.16446278989315033,-0.2585880160331726,-0.023090248927474022,-0.11778070777654648,0.03606843948364258,-0.2997458279132843,-0.3074246942996979,0.008591333404183388,0.1950954645872116,-0.22438345849514008,-0.07416170090436935,0.09801548719406128,-0.2524526119232178,-0.0004238322435412556,-0.21577386558055878,0.05715179443359375,-0.049957048147916794,0.0004920833162032068,0.11937763541936874,0.061570119112730026,-0.17166633903980255,0.34375879168510437,0.10270791500806808,0.165699765086174,-0.2853985130786896,-0.0723109170794487,0.1404719203710556,0.13845062255859375,0.15566754341125488,0.04847617447376251,0.11350832134485245,-0.09399323910474777,0.019931156188249588,-0.18258558213710785,-0.15268202126026154,0.08019229024648666,-0.1641732007265091,0.5184465050697327,0.028547152876853943,0.1441715806722641,0.07595346122980118,0.06369640678167343,-0.043976496905088425,0.004581359215080738,-0.2052469104528427,0.02841131202876568,-0.1316470056772232,-0.011978249065577984,-0.2339479923248291,0.1121830940246582,0.16760443150997162,-0.007837997749447823,-0.07125803083181381,0.14096926152706146,-0.20625744760036469,0.20093946158885956,0.08436109870672226,-0.0514240562915802,-0.20939336717128754,-0.13557709753513336,0.1964661329984665,0.1759151965379715,0.1731782704591751,0.10974878072738647,0.15525807440280914,0.02487366832792759,0.059154774993658066,-0.2433747798204422,-0.017021793872117996,0.41845059394836426,0.26020005345344543,0.09487535804510117,0.08984246104955673,0.07427491992712021,0.03820399194955826,0.08546870201826096,-0.1417894810438156,-0.06824463605880737,0.3165104389190674,-0.020786721259355545,0.025300994515419006,-0.21483145654201508,0.025802036747336388,0.29811131954193115,0.04115927219390869,0.07845105975866318,0.2766329050064087,-0.01651865243911743,-0.3454298675060272,-0.22262676060199738,0.41807660460472107,-0.04196082428097725,0.35010072588920593,-0.10022597759962082,-0.3027855455875397,0.2905646860599518,-0.018617181107401848,0.25045862793922424,-0.2147834748029709,0.422537237405777,-0.021586580201983452,-0.366584450006485,0.4502285420894623,-0.3413689136505127,-0.17273467779159546,-0.1784985512495041,0.4001534879207611,-0.1461348980665207,-0.3020910918712616,-0.328470379114151,-0.016137851402163506,0.1866668313741684,0.27336806058883667,0.11685550212860107,0.15318766236305237,-0.25180870294570923,-0.23093698918819427,-0.029103050008416176,-0.27222225069999695,-0.2331589311361313,0.11180436611175537,0.03989659994840622
