ImageName,Embedding_0,Embedding_1,Embedding_2,Embedding_3,Embedding_4,Embedding_5,Embedding_6,Embedding_7,Embedding_8,Embedding_9,Embedding_10,Embedding_11,Embedding_12,Embedding_13,Embedding_14,Embedding_15,Embedding_16,Embedding_17,Embedding_18,Embedding_19,Embedding_20,Embedding_21,Embedding_22,Embedding_23,Embedding_24,Embedding_25,Embedding_26,Embedding_27,Embedding_28,Embedding_29,Embedding_30,Embedding_31,Embedding_32,Embedding_33,Embedding_34,Embedding_35,Embedding_36,Embedding_37,Embedding_38,Embedding_39,Embedding_40,Embedding_41,Embedding_42,Embedding_43,Embedding_44,Embedding_45,Embedding_46,Embedding_47,Embedding_48,Embedding_49,Embedding_50,Embedding_51,Embedding_52,Embedding_53,Embedding_54,Embedding_55,Embedding_56,Embedding_57,Embedding_58,Embedding_59,Embedding_60,Embedding_61,Embedding_62,Embedding_63,Embedding_64,Embedding_65,Embedding_66,Embedding_67,Embedding_68,Embedding_69,Embedding_70,Embedding_71,Embedding_72,Embedding_73,Embedding_74,Embedding_75,Embedding_76,Embedding_77,Embedding_78,Embedding_79,Embedding_80,Embedding_81,Embedding_82,Embedding_83,Embedding_84,Embedding_85,Embedding_86,Embedding_87,Embedding_88,Embedding_89,Embedding_90,Embedding_91,Embedding_92,Embedding_93,Embedding_94,Embedding_95,Embedding_96,Embedding_97,Embedding_98,Embedding_99,Embedding_100,Embedding_101,Embedding_102,Embedding_103,Embedding_104,Embedding_105,Embedding_106,Embedding_107,Embedding_108,Embedding_109,Embedding_110,Embedding_111,Embedding_112,Embedding_113,Embedding_114,Embedding_115,Embedding_116,Embedding_117,Embedding_118,Embedding_119,Embedding_120,Embedding_121,Embedding_122,Embedding_123,Embedding_124,Embedding_125,Embedding_126,Embedding_127,Embedding_128,Embedding_129,Embedding_130,Embedding_131,Embedding_132,Embedding_133,Embedding_134,Embedding_135,Embedding_136,Embedding_137,Embedding_138,Embedding_139,Embedding_140,Embedding_141,Embedding_142,Embedding_143,Embedding_144,Embedding_145,Embedding_146,Embedding_147,Embedding_148,Embedding_149,Embedding_150,Embedding_151,Embedding_152,Embedding_153,Embedding_154,Embedding_155,Embedding_156,Embedding_157,Embedding_158,Embedding_159,Embedding_160,Embedding_161,Embedding_162,Embedding_163,Embedding_164,Embedding_165,Embedding_166,Embedding_167,Embedding_168,Embedding_169,Embedding_170,Embedding_171,Embedding_172,Embedding_173,Embedding_174,Embedding_175,Embedding_176,Embedding_177,Embedding_178,Embedding_179,Embedding_180,Embedding_181,Embedding_182,Embedding_183,Embedding_184,Embedding_185,Embedding_186,Embedding_187,Embedding_188,Embedding_189,Embedding_190,Embedding_191,Embedding_192,Embedding_193,Embedding_194,Embedding_195,Embedding_196,Embedding_197,Embedding_198,Embedding_199,Embedding_200,Embedding_201,Embedding_202,Embedding_203,Embedding_204,Embedding_205,Embedding_206,Embedding_207,Embedding_208,Embedding_209,Embedding_210,Embedding_211,Embedding_212,Embedding_213,Embedding_214,Embedding_215,Embedding_216,Embedding_217,Embedding_218,Embedding_219,Embedding_220,Embedding_221,Embedding_222,Embedding_223,Embedding_224,Embedding_225,Embedding_226,Embedding_227,Embedding_228,Embedding_229,Embedding_230,Embedding_231,Embedding_232,Embedding_233,Embedding_234,Embedding_235,Embedding_236,Embedding_237,Embedding_238,Embedding_239,Embedding_240,Embedding_241,Embedding_242,Embedding_243,Embedding_244,Embedding_245,Embedding_246,Embedding_247,Embedding_248,Embedding_249,Embedding_250,Embedding_251,Embedding_252,Embedding_253,Embedding_254,Embedding_255
1_6645_u_3,0.24326692521572113,0.049028608947992325,-0.2357655018568039,-0.16309989988803864,-0.021673837676644325,0.24969349801540375,0.1991431564092636,0.21329951286315918,-0.11520455032587051,-0.13377885520458221,-0.036171119660139084,-0.1666787564754486,0.12199955433607101,0.27943363785743713,-0.17124365270137787,0.06851231306791306,-0.07905901223421097,0.13380518555641174,-0.13602863252162933,-0.02089034579694271,0.047926124185323715,0.15241383016109467,-0.060407854616642,0.06415420770645142,0.03796212375164032,-0.07437365502119064,0.022587796673178673,0.03895768150687218,-0.049595169723033905,0.14667128026485443,-0.22928355634212494,-0.07183227688074112,0.08833081275224686,0.01998758129775524,-0.1629742532968521,0.11507640033960342,0.0959562137722969,-0.21482227742671967,-0.13686177134513855,0.21343789994716644,-0.17498527467250824,-0.022206073626875877,0.009427662007510662,0.11492105573415756,-0.1460515558719635,0.02717912755906582,-0.11098053306341171,0.22617630660533905,-0.0666535422205925,-0.29053184390068054,0.012735769152641296,-0.33257684111595154,-0.10180729627609253,0.12275830656290054,-0.006520483177155256,-0.009835297241806984,0.1354328840970993,-0.023243777453899384,0.04858091473579407,0.17229729890823364,-0.07781680673360825,0.06469796597957611,-0.10596618801355362,-0.0036236306186765432,-0.12832599878311157,-0.07350452989339828,0.2841692864894867,0.13531719148159027,-0.11358137428760529,0.026044389232993126,0.148626446723938,-0.20229177176952362,-0.28233906626701355,-0.1729009449481964,-0.067549929022789,-0.17490467429161072,0.11991303414106369,0.030734509229660034,0.0501895509660244,0.11421103775501251,-0.10432813316583633,0.10917561501264572,0.13873903453350067,-0.15893720090389252,0.026151267811655998,0.0072593363001942635,0.049825336784124374,-0.22156403958797455,-0.23310227692127228,0.3636067509651184,0.03031325899064541,-0.16849477589130402,0.043392669409513474,-0.06970411539077759,-0.03594902902841568,0.07496659457683563,0.31075602769851685,0.15712903439998627,-0.1666363924741745,-0.08102651685476303,0.1982584297657013,-0.191123828291893,-0.1085854172706604,0.02298351190984249,0.15220259130001068,0.33127546310424805,-0.005551760550588369,-0.16601647436618805,0.2049746811389923,-0.08053692430257797,0.02498246356844902,-0.018180668354034424,-0.08219349384307861,-0.46933338046073914,-0.15246246755123138,0.14992837607860565,0.03727197274565697,-0.05798378214240074,-0.16154736280441284,-0.15795905888080597,-0.03597014397382736,-0.41306233406066895,0.03457706421613693,-0.09471794217824936,-0.16350781917572021,0.19481079280376434,0.07270971685647964,0.17241112887859344,0.24920788407325745,0.028419358655810356,-0.010988019406795502,0.10916268080472946,-0.04308746010065079,-0.3000686466693878,0.12277519702911377,-0.19220054149627686,-0.3901697099208832,0.13645924627780914,-0.0644029751420021,0.11165713518857956,0.1125800833106041,-0.3990045487880707,0.026609886437654495,0.3929156959056854,-0.06000545248389244,-0.015511179342865944,0.16781611740589142,-0.2907242178916931,0.012329469434916973,0.472187340259552,-0.06856963038444519,0.2096365988254547,-0.19392897188663483,-0.12425283342599869,0.31456848978996277,0.16220319271087646,-0.019169310107827187,0.16217009723186493,-0.05904499813914299,-0.11206215620040894,-0.0014739632606506348,0.06476358324289322,-0.457763671875,-0.09960868954658508,0.045908380299806595,0.0009834785014390945,0.18310761451721191,-0.049401815980672836,0.04159684106707573,0.13752473890781403,-0.04450608417391777,0.15611504018306732,0.11860320717096329,-0.11551105231046677,0.044517017900943756,0.278338760137558,-0.038124095648527145,-0.008560589514672756,0.19595633447170258,-0.572468101978302,-0.2620638310909271,0.2118425816297531,0.07199574261903763,-0.08383370190858841,-0.24098248779773712,0.14322040975093842,0.2376277893781662,0.16876940429210663,-0.16933801770210266,0.09235409647226334,-0.026059269905090332,-0.17552216351032257,-0.16903701424598694,-0.3706265389919281,-0.02807215228676796,0.1695437878370285,0.11130308359861374,0.07411154359579086,0.3669075071811676,-0.1317700892686844,-0.07682573050260544,0.21144047379493713,0.04408254846930504,0.09164803475141525,0.151046022772789,0.005107048433274031,-0.18304961919784546,0.16685925424098969,0.18079446256160736,-0.01809447444975376,0.10408320277929306,-0.31564435362815857,-0.04833963140845299,-0.12276031821966171,-0.09454329311847687,-0.12128802388906479,0.1564585119485855,0.23751018941402435,0.27912187576293945,0.3525678217411041,0.1450226604938507,-0.3491118848323822,-0.1964040994644165,0.028422964736819267,0.03326019272208214,0.20834794640541077,-0.19454656541347504,-0.0045464918948709965,0.31975266337394714,-0.04722265526652336,0.07409947365522385,-0.0259077288210392,0.13749121129512787,0.21514324843883514,0.17490564286708832,-0.271959513425827,-0.048567261546850204,0.2341419756412506,-0.015275436453521252,0.015448587015271187,-0.33855199813842773,0.14811165630817413,0.06379309296607971,-0.16630199551582336,-0.33918753266334534,-0.05269273743033409,-0.4076632559299469,-0.04262654483318329,0.1611867994070053,-0.20614007115364075,-0.006252818740904331,-0.052642595022916794,-0.013668169267475605,0.19499675929546356,-0.07863790541887283,-0.11847420036792755
1_6645_u_4,0.19669295847415924,-0.21860401332378387,-0.10551287978887558,-0.352165549993515,0.22278645634651184,0.38716912269592285,-0.044507283717393875,0.3048931062221527,-0.1650838851928711,0.01072667259722948,-0.20803828537464142,-0.21268068253993988,0.12981316447257996,0.4144602417945862,-0.06791406124830246,0.19149582087993622,-0.33502957224845886,0.07495235651731491,-0.3745904266834259,0.0442102812230587,0.11299393326044083,0.10856857150793076,-0.03504820540547371,0.2221939116716385,-0.18147024512290955,0.030709926038980484,0.2212626039981842,0.20515024662017822,-0.29673057794570923,0.061558742076158524,-0.05131986364722252,0.05438101291656494,0.20077548921108246,-0.040327757596969604,-0.03102141059935093,0.15741732716560364,-0.22724460065364838,-0.06524164974689484,-0.07945194095373154,0.4279969334602356,-0.12130146473646164,0.0953293964266777,-0.126847505569458,-0.013451308012008667,-0.07246854156255722,-0.18281005322933197,-0.19255809485912323,0.13081558048725128,-0.011659215204417706,-0.2577991485595703,0.035233110189437866,-0.4283822476863861,-0.0041832998394966125,0.083316370844841,-0.026566004380583763,-0.09544932842254639,0.2802935838699341,-0.00862356461584568,0.19567172229290009,0.2895577549934387,0.1331939548254013,-0.06480938196182251,-0.11803998798131943,-0.1535116285085678,0.04814500734210014,0.02711380086839199,0.5106729865074158,0.028724296018481255,-0.1468123346567154,0.24784700572490692,0.2719992399215698,-0.27029722929000854,-0.1067124530673027,0.08046060055494308,0.23754386603832245,-0.11685303598642349,0.21717405319213867,-0.13334986567497253,-0.09601428359746933,0.1433091014623642,-0.29242321848869324,0.1116352304816246,0.04196722060441971,0.12226036936044693,-0.19257815182209015,0.2383100539445877,0.05738663300871849,0.05142594128847122,-0.24263416230678558,0.4708225727081299,-0.08579572290182114,0.20757058262825012,-0.20784102380275726,0.1995270848274231,0.1331314593553543,0.12710779905319214,0.44970208406448364,0.12297435849905014,0.12054796516895294,0.014336861670017242,0.12570218741893768,0.003428123891353607,-0.06142745539546013,-0.05497938022017479,-0.07683270424604416,0.42610669136047363,-0.11828179657459259,-0.29237931966781616,0.2747407853603363,-0.09343040734529495,-0.07827971875667572,0.027348721399903297,-0.10876784473657608,-0.3884159028530121,-0.023984668776392937,0.09022251516580582,0.10418283194303513,-0.11600333452224731,0.11070027202367783,-0.2034018486738205,0.1717844009399414,-0.48253297805786133,0.054048508405685425,-0.11576604843139648,-0.07282672077417374,-0.20474854111671448,-0.1982479840517044,0.20779168605804443,0.13425050675868988,-0.07370606064796448,-0.10836615413427353,0.1938343644142151,-0.1674860268831253,-0.15875549614429474,0.18193455040454865,-0.18679185211658478,0.08396756649017334,0.3338156044483185,-0.24927745759487152,0.15386255085468292,0.1462564468383789,-0.3431552052497864,0.08906017988920212,0.2640082836151123,-0.25145190954208374,-0.18909083306789398,0.2111743986606598,-0.35850295424461365,0.032803744077682495,0.3269275724887848,-0.014707825146615505,-0.03426303714513779,-0.2894255220890045,-0.15612445771694183,0.4099291265010834,0.19209836423397064,0.0172142181545496,0.23691940307617188,0.06697409600019455,-0.059490498155355453,0.008361720480024815,-0.0020593299996107817,-0.3564590513706207,0.0626247450709343,-0.0573553703725338,-0.09396614879369736,0.2117462158203125,-0.005644581746309996,0.1566125899553299,-0.1697068065404892,-0.13189633190631866,0.00013681947893928736,0.11437308043241501,0.17978306114673615,0.02299988456070423,-0.008842432871460915,-0.039599284529685974,-0.05595992133021355,-0.0017766371602192521,-0.45372334122657776,-0.32634586095809937,0.41003045439720154,0.09382855147123337,0.019183939322829247,-0.11897337436676025,-0.003972461447119713,0.1965397447347641,0.287131667137146,-0.1184801235795021,-0.07736322283744812,-0.09542326629161835,-0.05184009298682213,-0.15000681579113007,-0.10634490102529526,-0.1838047057390213,0.138486847281456,0.36326906085014343,-0.015879301354289055,0.14702287316322327,-0.12615421414375305,0.024620527401566505,0.2554578483104706,0.20168328285217285,0.14340977370738983,0.11062121391296387,-0.1991267204284668,0.0777449756860733,0.17446397244930267,-0.08452129364013672,-0.1838391125202179,0.1877789944410324,-0.4220726490020752,0.11777897924184799,-0.14449940621852875,-0.10348691046237946,-0.21081364154815674,0.33044227957725525,0.15379317104816437,0.3536982536315918,0.17791177332401276,0.30206528306007385,-0.020093103870749474,-0.1525026559829712,-0.19613026082515717,-0.12382259219884872,0.11534726619720459,-0.29779306054115295,0.21725259721279144,0.1073557510972023,-0.06922556459903717,0.027424577623605728,0.10271117836236954,0.13134954869747162,0.3755747973918915,0.3736132085323334,-0.2772790193557739,-0.09563195705413818,0.20284731686115265,0.3334316313266754,0.04392904043197632,-0.056073158979415894,0.15343661606311798,-0.09002983570098877,-0.2287658452987671,-0.255375474691391,-0.19172878563404083,-0.17311888933181763,0.11877886205911636,0.021031463518738747,-0.08992238342761993,-7.036626629997045e-05,0.0972788855433464,-0.10207853466272354,-0.02635982073843479,0.00850347988307476,-0.24801628291606903
1_6648_u_1,0.22845812141895294,-0.10485067218542099,-0.2156110256910324,-0.25635042786598206,0.20485973358154297,0.3559720516204834,0.07216283679008484,0.319314181804657,-0.14496895670890808,-0.016674978658556938,-0.19090168178081512,-0.18942458927631378,0.16646310687065125,0.4486015737056732,-0.08250132948160172,0.18575100600719452,-0.32927390933036804,0.0700012668967247,-0.33696606755256653,0.07018925249576569,0.06852062791585922,0.12255427986383438,-0.010339598171412945,0.09700783342123032,-0.10137144476175308,0.014493204653263092,0.1345142424106598,0.20220251381397247,-0.1955873817205429,0.05660895258188248,-0.11919313669204712,0.03169595077633858,0.18880566954612732,-0.01353390235453844,-0.01456297654658556,0.1907142996788025,-0.09579162299633026,-0.1850028783082962,-0.1304146945476532,0.4744105935096741,-0.11271307617425919,0.03970412164926529,-0.012470128946006298,0.025794697925448418,-0.09112095832824707,-0.08341117948293686,-0.1610737144947052,0.24388456344604492,-0.10848374664783478,-0.340127170085907,0.09443831443786621,-0.4514022767543793,-0.07818295061588287,0.11927255243062973,0.02812892198562622,-0.031211286783218384,0.3491365611553192,-0.0027904107701033354,0.1915513128042221,0.29922157526016235,0.23205475509166718,-0.019231846556067467,-0.12338697910308838,-0.12713201344013214,-0.010478059761226177,-0.01507613342255354,0.397737592458725,0.09870461374521255,-0.189411923289299,0.14692802727222443,0.18519526720046997,-0.2777772843837738,-0.1561770886182785,-0.08985184133052826,0.11244133859872818,-0.2041899710893631,0.12179117649793625,-0.11556269228458405,-0.031803879886865616,0.17116045951843262,-0.20485930144786835,0.12713102996349335,0.12240057438611984,0.09598743170499802,-0.09309623390436172,0.17277604341506958,0.09406337141990662,-0.064116470515728,-0.20160655677318573,0.44958773255348206,-0.04183656722307205,0.006604564841836691,-0.07282388210296631,0.1457366794347763,0.07788440585136414,0.18100450932979584,0.48159274458885193,0.13797274231910706,-0.029863644391298294,0.1075427308678627,0.17716453969478607,-0.01746176742017269,-0.031523168087005615,-0.01972583308815956,-0.027254564687609673,0.4944496750831604,-0.09467075765132904,-0.26480206847190857,0.2365262359380722,-0.11333461850881577,-0.024488667026162148,0.03429163619875908,-0.13256914913654327,-0.49453970789909363,-0.01846958138048649,0.11815769970417023,0.144919753074646,-0.10141928493976593,0.03427650034427643,-0.2306479960680008,0.14156152307987213,-0.5608217120170593,-0.009933039546012878,-0.08492564409971237,-0.06789516657590866,-0.0014559064293280244,-0.10419248789548874,0.2882997691631317,0.24567094445228577,-0.048160068690776825,-0.07977123558521271,0.17282354831695557,-0.13626547157764435,-0.28990504145622253,0.14704398810863495,-0.1889481097459793,-0.1531694382429123,0.24789290130138397,-0.21425111591815948,0.10798525810241699,0.12745340168476105,-0.42926523089408875,0.0705304741859436,0.36578449606895447,-0.19000504910945892,-0.1470365673303604,0.34786340594291687,-0.3116343915462494,-0.06790342181921005,0.4571928083896637,-0.011971285566687584,0.0034466495271772146,-0.2738710939884186,-0.17552626132965088,0.3811003863811493,0.2441805601119995,-0.008957265876233578,0.219622403383255,0.04183551296591759,-0.01086611021310091,-0.09443023055791855,-0.05052100494503975,-0.3452978730201721,0.021891290321946144,0.07218014448881149,-0.033380117267370224,0.23425225913524628,-0.015611395239830017,0.21315693855285645,-0.08690232038497925,-0.11901607364416122,0.21973060071468353,0.1526181548833847,0.03175196424126625,0.009142621420323849,0.02030126377940178,-0.04898975417017937,-0.06702377647161484,0.10898106545209885,-0.5010509490966797,-0.37830445170402527,0.2954806983470917,0.10401817411184311,0.0007733643287792802,-0.20796184241771698,0.07020951062440872,0.28707414865493774,0.2890322804450989,-0.1493895947933197,0.020290955901145935,-0.12628555297851562,-0.13147644698619843,-0.14048781991004944,-0.2476324588060379,-0.19307035207748413,0.12321787327528,0.2967471182346344,0.08993641287088394,0.26022106409072876,-0.16202381253242493,-0.1335279792547226,0.2180304080247879,0.21582452952861786,0.166962668299675,0.13284899294376373,-0.12152280658483505,0.019595911726355553,0.17912474274635315,0.014141077175736427,-0.14395771920681,0.17311511933803558,-0.4812288284301758,0.04523206502199173,-0.08229847252368927,-0.16990123689174652,-0.14897042512893677,0.2515467703342438,0.2185756266117096,0.333644300699234,0.23193924129009247,0.24638843536376953,-0.18119500577449799,-0.1542491912841797,-0.12375153601169586,-0.0696168765425682,0.22666721045970917,-0.3724116086959839,0.12504254281520844,0.20002208650112152,-0.012353461235761642,0.03322193771600723,0.016927596181631088,0.17200401425361633,0.3324917256832123,0.36418601870536804,-0.302060604095459,-0.07810378074645996,0.2915254533290863,0.3083742558956146,-0.030431503430008888,-0.2141529619693756,0.07637689262628555,-0.038476429879665375,-0.19748544692993164,-0.26821041107177734,-0.21606063842773438,-0.37465640902519226,0.013102023862302303,0.05211001634597778,-0.1305474191904068,0.02347809448838234,0.0001238610566360876,-0.10825633257627487,0.11668878048658371,-0.0011792622972279787,-0.27180907130241394
1_6648_u_2,0.22642269730567932,-0.07550358027219772,-0.22515888512134552,-0.23146358132362366,0.17910443246364594,0.3332139551639557,0.08621301501989365,0.31526321172714233,-0.14626142382621765,-0.04127680882811546,-0.1749899685382843,-0.19618895649909973,0.17589712142944336,0.42222103476524353,-0.0924605056643486,0.17784172296524048,-0.294854998588562,0.0688389241695404,-0.30724892020225525,0.06612132489681244,0.07446350902318954,0.12691862881183624,-0.01755489781498909,0.08846788108348846,-0.08655213564634323,0.012647843919694424,0.12203730642795563,0.19015200436115265,-0.17245404422283173,0.07794966548681259,-0.1372520625591278,0.01420146506279707,0.18125183880329132,-0.002619334729388356,-0.019810758531093597,0.16971814632415771,-0.06730900704860687,-0.2027658224105835,-0.14678089320659637,0.45417284965515137,-0.11504149436950684,0.025818277150392532,0.01846441999077797,0.02168678119778633,-0.10976675897836685,-0.0632670447230339,-0.14787159860134125,0.24929066002368927,-0.1123432144522667,-0.34504976868629456,0.09347071498632431,-0.4461410641670227,-0.09288650751113892,0.12669330835342407,0.025073563680052757,-0.020811408758163452,0.33997029066085815,-0.002345916349440813,0.18393836915493011,0.2808724045753479,0.2021784633398056,0.007246737834066153,-0.11798296123743057,-0.10998763144016266,-0.017303192988038063,-0.021389324218034744,0.36013472080230713,0.10706903785467148,-0.17999839782714844,0.12963968515396118,0.1645345538854599,-0.2755146026611328,-0.18396849930286407,-0.1143096461892128,0.08554345369338989,-0.2084326595067978,0.10881619900465012,-0.10174532234668732,-0.023377427831292152,0.16833098232746124,-0.17552101612091064,0.12784947454929352,0.12966561317443848,0.06216849014163017,-0.06139383465051651,0.15434031188488007,0.08801999688148499,-0.08557604253292084,-0.20087754726409912,0.42915210127830505,-0.03670435771346092,-0.04168720170855522,-0.047679778188467026,0.11006780713796616,0.06101062521338463,0.16930167376995087,0.46682611107826233,0.1363617330789566,-0.05588851496577263,0.09199589490890503,0.1918068379163742,-0.041343044489622116,-0.03711463138461113,0.000536296924110502,0.00112073530908674,0.48586907982826233,-0.07918620109558105,-0.26288434863090515,0.22596029937267303,-0.1086488887667656,-0.007316990289837122,0.03090495802462101,-0.13462914526462555,-0.49747124314308167,-0.031701307743787766,0.11808343231678009,0.13947661221027374,-0.08127331733703613,0.006050698924809694,-0.22581367194652557,0.12597079575061798,-0.559672474861145,-0.017183173447847366,-0.08282902091741562,-0.07660873979330063,0.02863720990717411,-0.07230497151613235,0.2685430347919464,0.2568325400352478,-0.030589723959565163,-0.06009290739893913,0.14870715141296387,-0.12058086693286896,-0.3080389201641083,0.1342620700597763,-0.18735139071941376,-0.20506151020526886,0.22511406242847443,-0.19793204963207245,0.09785725921392441,0.13180279731750488,-0.4273677468299866,0.06017697975039482,0.3712545931339264,-0.17385847866535187,-0.13031531870365143,0.3346395492553711,-0.2953976094722748,-0.07503922283649445,0.46864983439445496,-0.012301071546971798,0.028097081929445267,-0.2658005654811859,-0.16803286969661713,0.3668627440929413,0.23366789519786835,-0.003544182749465108,0.20777085423469543,0.03244684636592865,-0.024111688137054443,-0.09885214269161224,-0.047786857932806015,-0.3590191900730133,0.00996545609086752,0.08113070577383041,-0.02113690786063671,0.23004518449306488,-0.023090029135346413,0.2009725421667099,-0.05667353793978691,-0.11248228698968887,0.24288073182106018,0.14818386733531952,-0.010928723961114883,0.01817360892891884,0.05001971870660782,-0.037201177328825,-0.052217997610569,0.13590461015701294,-0.5129615664482117,-0.3768771290779114,0.2741316556930542,0.0970633253455162,-0.014418725855648518,-0.22087423503398895,0.09236478060483932,0.2822677791118622,0.2800711691379547,-0.15256290137767792,0.04114849120378494,-0.11346491426229477,-0.14184346795082092,-0.13849659264087677,-0.2758124768733978,-0.16684333980083466,0.12020891904830933,0.26620563864707947,0.09956317394971848,0.28757235407829285,-0.15852905809879303,-0.14427407085895538,0.21028462052345276,0.19361580908298492,0.170296311378479,0.12796618044376373,-0.09145712852478027,-0.004138458054512739,0.16994334757328033,0.03307504206895828,-0.12502887845039368,0.16270433366298676,-0.46809855103492737,0.033997900784015656,-0.07861284166574478,-0.17514412105083466,-0.13847264647483826,0.2296588271856308,0.22566664218902588,0.3085513114929199,0.2451670616865158,0.22536981105804443,-0.21102666854858398,-0.16494160890579224,-0.10294939577579498,-0.06147872284054756,0.24210308492183685,-0.36392050981521606,0.10077011585235596,0.2193899154663086,-0.007693639490753412,0.04570082202553749,0.005084685515612364,0.16574671864509583,0.3120942711830139,0.3437764644622803,-0.3024345338344574,-0.07786358892917633,0.2919721305370331,0.2699841558933258,-0.026565272361040115,-0.2404615879058838,0.07499676942825317,-0.01404929906129837,-0.19556614756584167,-0.2692992687225342,-0.2057816982269287,-0.3980015814304352,-0.008200774900615215,0.05317232012748718,-0.13425874710083008,0.026725852862000465,-0.020198673009872437,-0.1094890609383583,0.1435864418745041,-0.006121933460235596,-0.25134000182151794
1_6648_u_3,0.22440241277217865,-0.11685899645090103,-0.2465650588274002,-0.2880497872829437,0.20544807612895966,0.3808666169643402,-0.0008695260039530694,0.2576938569545746,-0.17697760462760925,-0.03182871267199516,-0.17618337273597717,-0.20430593192577362,0.20215211808681488,0.36725157499313354,-0.10524862259626389,0.1923522800207138,-0.2524084746837616,0.11176182329654694,-0.3171416223049164,0.0973261371254921,0.11264846473932266,0.13310015201568604,-0.044296424835920334,0.21471333503723145,-0.10386853665113449,-0.009478071704506874,0.22594158351421356,0.17791815102100372,-0.20522283017635345,0.1204134002327919,-0.12601295113563538,0.015326397493481636,0.17139697074890137,0.012550659477710724,-0.01552609633654356,0.10269618034362793,-0.18106739223003387,-0.1342134326696396,-0.20239479839801788,0.4356918931007385,-0.1637955904006958,-0.00598818389698863,-0.031839579343795776,-0.038948751986026764,-0.049619972705841064,-0.15498916804790497,-0.13045604526996613,0.2555428743362427,-0.06240115314722061,-0.2845958173274994,0.07364574819803238,-0.45771217346191406,-0.016275225207209587,0.0993424579501152,0.0019004651112481952,-0.02662031166255474,0.3489496409893036,-0.024103639647364616,0.1974918693304062,0.22063875198364258,0.06473667919635773,0.010628360323607922,-0.10943501442670822,-0.058901965618133545,-0.014624531380832195,-0.040721531957387924,0.41930609941482544,0.04243771359324455,-0.1436847299337387,0.13772602379322052,0.1438055783510208,-0.28317782282829285,-0.19639994204044342,-0.018671846017241478,0.12178148329257965,-0.15275149047374725,0.16561263799667358,-0.17682455480098724,-0.04661756753921509,0.1504218578338623,-0.12877130508422852,0.1647179126739502,0.05513725429773331,-0.036505721509456635,-0.08317016810178757,0.16926489770412445,0.03596837446093559,-0.08047362416982651,-0.23219025135040283,0.41556572914123535,0.02772148884832859,0.01823105290532112,-0.09155472368001938,0.15646086633205414,0.07008863240480423,0.1532604694366455,0.42374786734580994,0.12196625769138336,0.03323259577155113,-0.04301748424768448,0.1683340072631836,-0.11755307018756866,-0.10327043384313583,0.07432553917169571,0.09346143156290054,0.4021938443183899,-0.08165275305509567,-0.25823745131492615,0.27175775170326233,-0.0986931100487709,-0.029415076598525047,-0.01779232546687126,-0.08109759539365768,-0.4992639720439911,-0.024611908942461014,0.10351117700338364,0.12796616554260254,-0.06817244738340378,0.0314459390938282,-0.20947594940662384,0.16807921230793,-0.4912289083003998,-0.03124193847179413,-0.10357176512479782,-0.0908588096499443,-0.03529283031821251,-0.0953494980931282,0.1926811784505844,0.17667455971240997,-0.061891820281744,-0.006547178607434034,0.15464137494564056,-0.13529007136821747,-0.26182645559310913,0.14805768430233002,-0.19037657976150513,-0.13343586027622223,0.28253912925720215,-0.2338300496339798,0.14524014294147491,0.11088261753320694,-0.3804859220981598,0.025391710922122,0.3151308596134186,-0.1654919981956482,-0.10122919082641602,0.25482043623924255,-0.2621057331562042,-0.013624734245240688,0.4414922893047333,-0.03397093340754509,0.009862241335213184,-0.293146550655365,-0.1618116945028305,0.3818383514881134,0.2621273696422577,0.01734589971601963,0.18058224022388458,0.06970202177762985,-0.053861331194639206,-0.07475876808166504,-0.00027340129599906504,-0.4030260145664215,0.027289360761642456,0.02249222807586193,-0.021145964041352272,0.23307429254055023,0.021974924951791763,0.21205802261829376,-0.06327853351831436,-0.11228598654270172,0.15679150819778442,0.1201418861746788,0.02950022928416729,0.06175272539258003,0.12107324600219727,-0.01640712283551693,0.07423929870128632,0.08694561570882797,-0.5001415610313416,-0.36790356040000916,0.3346942961215973,0.06342371553182602,-0.028548171743750572,-0.20643208920955658,0.03454482555389404,0.2110443115234375,0.33445239067077637,-0.11845331639051437,0.050918083637952805,-0.04445897042751312,-0.08670908212661743,-0.09559197723865509,-0.2654944360256195,-0.12821386754512787,0.10875680297613144,0.2587732970714569,0.04506736621260643,0.2962084710597992,-0.07429704815149307,-0.10927952826023102,0.21599765121936798,0.14548717439174652,0.16511300206184387,0.21247892081737518,-0.04908670857548714,-0.01895591989159584,0.1464475393295288,-0.028814172372221947,-0.05646156147122383,0.1478573977947235,-0.42952823638916016,0.07800263911485672,-0.0591336265206337,-0.09241047501564026,-0.16444705426692963,0.22385354340076447,0.13355325162410736,0.3000219464302063,0.22639189660549164,0.25706371665000916,-0.14781849086284637,-0.15708564221858978,-0.15632253885269165,-0.07915019243955612,0.24466632306575775,-0.3676747977733612,0.15932059288024902,0.18714237213134766,-0.08106493204832077,0.07876864820718765,0.03172358497977257,0.18322879076004028,0.2788832485675812,0.3332338333129883,-0.3353266417980194,-0.04158390685915947,0.1866672933101654,0.2710666358470917,0.059711992740631104,-0.24096380174160004,0.1364796757698059,0.03857764974236488,-0.3154999911785126,-0.20911426842212677,-0.16579018533229828,-0.2884177267551422,0.079374298453331,0.036659762263298035,-0.12450367212295532,-0.036903269588947296,0.038899924606084824,-0.10162866115570068,0.11641158163547516,0.018862206488847733,-0.19385483860969543
1_6683_u_1,0.2537684142589569,-0.16802938282489777,-0.26613330841064453,-0.34403687715530396,0.2523936927318573,0.4383520185947418,-0.048107411712408066,0.3009694516658783,-0.19720469415187836,0.0190463587641716,-0.2131902426481247,-0.18969261646270752,0.21615739166736603,0.41392794251441956,-0.10696765035390854,0.22703038156032562,-0.29571768641471863,0.1265745908021927,-0.37702712416648865,0.11122939735651016,0.11334824562072754,0.12160046398639679,-0.046512674540281296,0.2468249648809433,-0.13614512979984283,-0.003626712365075946,0.2713778018951416,0.1950867772102356,-0.25011515617370605,0.1242145225405693,-0.10691332817077637,0.037430621683597565,0.17576299607753754,0.027218202129006386,0.028572751209139824,0.12115490436553955,-0.22154398262500763,-0.11870777606964111,-0.21822240948677063,0.48905420303344727,-0.17301912605762482,-0.020399155095219612,-0.07014647871255875,-0.06594504415988922,-0.030689332634210587,-0.20517921447753906,-0.14000853896141052,0.27039670944213867,-0.06142566725611687,-0.26340287923812866,0.10175508260726929,-0.5189119577407837,0.014658749103546143,0.09177505970001221,-0.0007883072248660028,-0.047560278326272964,0.4204373359680176,-0.02010487951338291,0.23216381669044495,0.2567768096923828,0.09718143939971924,-0.02066374570131302,-0.11337822675704956,-0.07078937441110611,-0.01751011796295643,-0.0364733450114727,0.502216100692749,0.04519215598702431,-0.16244088113307953,0.16769611835479736,0.15998296439647675,-0.31006237864494324,-0.19181863963603973,0.026523668318986893,0.1729617565870285,-0.16670335829257965,0.1858140230178833,-0.2245081514120102,-0.05798092111945152,0.1435144692659378,-0.1615269035100937,0.1845627725124359,0.04277283698320389,-0.004570766352117062,-0.11012402921915054,0.20687070488929749,0.03640617057681084,-0.05539505556225777,-0.22765497863292694,0.4916485846042633,0.05956041440367699,0.07430778443813324,-0.1198650524020195,0.20417991280555725,0.08523041009902954,0.20066945254802704,0.46711465716362,0.1399839222431183,0.08472266793251038,-0.024663759395480156,0.15406446158885956,-0.10213573276996613,-0.11010260879993439,0.07324156910181046,0.085846908390522,0.45015451312065125,-0.09312497824430466,-0.2740691602230072,0.3144805431365967,-0.11676909774541855,-0.04897214099764824,-0.015571624040603638,-0.07373478263616562,-0.5608333945274353,-0.00623747194185853,0.1281598061323166,0.14582398533821106,-0.08309774845838547,0.08166155219078064,-0.2292252629995346,0.21738608181476593,-0.5021131038665771,-0.03485582396388054,-0.1056726798415184,-0.07689078897237778,-0.0720549151301384,-0.12102081626653671,0.23118853569030762,0.1754862368106842,-0.1052556037902832,-0.025658870115876198,0.2018931359052658,-0.16770006716251373,-0.24810171127319336,0.17008762061595917,-0.20346739888191223,-0.09869378805160522,0.33743521571159363,-0.2822483479976654,0.1558539867401123,0.10014098137617111,-0.4182778298854828,0.04501856863498688,0.3486348092556,-0.17743456363677979,-0.11520224809646606,0.3077392280101776,-0.27768784761428833,-0.026671433821320534,0.4768940508365631,-0.035916756838560104,-0.027972787618637085,-0.3338766098022461,-0.18825700879096985,0.42151424288749695,0.3174009919166565,0.011669041588902473,0.20098446309566498,0.09309913218021393,-0.04825550317764282,-0.07838589698076248,-0.01803189516067505,-0.4190283417701721,0.04733572155237198,0.01367564219981432,-0.031719621270895004,0.27278730273246765,0.06402216851711273,0.24045446515083313,-0.10137053579092026,-0.11191979795694351,0.14067308604717255,0.12295452505350113,0.08538692444562912,0.048803385347127914,0.07698924094438553,-0.01086920965462923,0.08134982734918594,0.05333063006401062,-0.5454684495925903,-0.38494792580604553,0.3854922950267792,0.07104155421257019,-0.011455259285867214,-0.20943622291088104,-0.0163460373878479,0.22174155712127686,0.3862511217594147,-0.12608753144741058,0.050017695873975754,-0.0489702932536602,-0.08215879648923874,-0.09231064468622208,-0.29618003964424133,-0.1707233488559723,0.1076570525765419,0.3159882724285126,0.04456916078925133,0.2958868145942688,-0.07530295103788376,-0.12681736052036285,0.2355993241071701,0.19788818061351776,0.17989657819271088,0.24884572625160217,-0.062016811221838,-0.012318036518990993,0.14837932586669922,-0.05529993772506714,-0.07139968127012253,0.17992480099201202,-0.46569594740867615,0.11403638124465942,-0.05368324741721153,-0.06146423891186714,-0.1959114372730255,0.26609453558921814,0.12063588947057724,0.3480178415775299,0.2242165058851242,0.3164404332637787,-0.11813316494226456,-0.16300445795059204,-0.1957085281610489,-0.10337202996015549,0.26491469144821167,-0.41011396050453186,0.21368280053138733,0.1855728179216385,-0.09845949709415436,0.07835142314434052,0.04209751635789871,0.2155490666627884,0.30535364151000977,0.3609974682331085,-0.37869730591773987,-0.023583054542541504,0.18145786225795746,0.33704450726509094,0.06036273390054703,-0.2346738874912262,0.13999240100383759,0.014577411115169525,-0.3603408634662628,-0.18681922554969788,-0.17153456807136536,-0.2594887614250183,0.10430271923542023,0.04161379858851433,-0.14052745699882507,-0.027911340817809105,0.07404821366071701,-0.08800193667411804,0.09041189402341843,0.0369252972304821,-0.2369246929883957
1_6683_u_2,0.2578186094760895,-0.16554959118366241,-0.2767021954059601,-0.35833412408828735,0.25438952445983887,0.44234567880630493,-0.06512076407670975,0.27913403511047363,-0.2032008171081543,0.02328331209719181,-0.2033112496137619,-0.18489277362823486,0.22240984439849854,0.3895566463470459,-0.115533746778965,0.22800186276435852,-0.2714000344276428,0.14299745857715607,-0.37330254912376404,0.11425615847110748,0.11972656100988388,0.1220620647072792,-0.05143528804183006,0.27693989872932434,-0.13416944444179535,-0.009665614925324917,0.28835329413414,0.17847253382205963,-0.25074315071105957,0.13688652217388153,-0.10887952893972397,0.030881071463227272,0.1690477877855301,0.040606047958135605,0.03150331601500511,0.1053679957985878,-0.24901394546031952,-0.1000743880867958,-0.24013261497020721,0.4760059416294098,-0.18464651703834534,-0.035502295941114426,-0.07804281264543533,-0.08271558582782745,-0.01504710502922535,-0.22506384551525116,-0.1312754601240158,0.27657029032707214,-0.04639710113406181,-0.24809403717517853,0.10755924135446548,-0.5204669833183289,0.033265531063079834,0.07644796371459961,-0.004814468324184418,-0.04715646430850029,0.42506662011146545,-0.027856940403580666,0.2280627340078354,0.23412537574768066,0.043277740478515625,-0.01861012727022171,-0.10969924181699753,-0.049382638186216354,-0.024423226714134216,-0.04985383152961731,0.5117106437683105,0.037809595465660095,-0.1495833545923233,0.1608082354068756,0.14927850663661957,-0.30715617537498474,-0.20019148290157318,0.051822394132614136,0.17885175347328186,-0.14915309846401215,0.19999007880687714,-0.24413369596004486,-0.0611363910138607,0.13773997128009796,-0.1404474824666977,0.19765053689479828,0.03243531659245491,-0.029583388939499855,-0.10880603641271591,0.20888514816761017,0.018811330199241638,-0.06298202276229858,-0.23004050552845,0.48464393615722656,0.08915021270513535,0.08049901574850082,-0.12309680134057999,0.20755508542060852,0.0806342139840126,0.19682542979717255,0.4501371383666992,0.14326654374599457,0.10681148618459702,-0.06727110594511032,0.1436830312013626,-0.12648755311965942,-0.12821702659130096,0.09626012295484543,0.12632741034030914,0.413295716047287,-0.0835006833076477,-0.26396870613098145,0.3295065760612488,-0.11861814558506012,-0.05320114642381668,-0.027103900909423828,-0.052448101341724396,-0.5650421977043152,-0.0054867686703801155,0.12236487120389938,0.14372840523719788,-0.07327069342136383,0.08058295398950577,-0.21814389526844025,0.22792576253414154,-0.4717082977294922,-0.04070600867271423,-0.10410844534635544,-0.08663200587034225,-0.07713343948125839,-0.11418356001377106,0.2077561467885971,0.1543121337890625,-0.12034771591424942,-0.00592591380700469,0.19912263751029968,-0.17051811516284943,-0.24190746247768402,0.1737360954284668,-0.20470869541168213,-0.08988727629184723,0.344940185546875,-0.28424516320228577,0.16724786162376404,0.08963459730148315,-0.4066069722175598,0.031138276681303978,0.3338347375392914,-0.17140637338161469,-0.10359066724777222,0.2876259982585907,-0.26219093799591064,-0.0038197406101971865,0.47775039076805115,-0.04297932982444763,-0.032104164361953735,-0.3333747088909149,-0.1815136820077896,0.4198502004146576,0.3278183937072754,0.013488180004060268,0.1835831254720688,0.09925102442502975,-0.06038812920451164,-0.061626870185136795,-0.0016196726355701685,-0.4233812987804413,0.04654356464743614,-0.0046640424989163876,-0.03132057189941406,0.2704106867313385,0.07576131075620651,0.24114751815795898,-0.0943765789270401,-0.10957477241754532,0.1152963861823082,0.10823631286621094,0.08548404276371002,0.06343686580657959,0.10132455825805664,-0.0020027842838317156,0.11871760338544846,0.03923911228775978,-0.5438551306724548,-0.3769705593585968,0.39440426230430603,0.060503579676151276,-0.01335977017879486,-0.20728202164173126,-0.03259141743183136,0.19950245320796967,0.40158089995384216,-0.1257505714893341,0.05754212290048599,-0.029171336442232132,-0.06912008672952652,-0.0802934318780899,-0.29465779662132263,-0.16191725432872772,0.10143885761499405,0.30944064259529114,0.033154796808958054,0.3076781630516052,-0.05121048167347908,-0.12033655494451523,0.23273997008800507,0.1852962225675583,0.17826032638549805,0.2778979241847992,-0.041245754808187485,-0.02818063274025917,0.14037181437015533,-0.07001792639493942,-0.0441771000623703,0.1728287935256958,-0.44224879145622253,0.12392585724592209,-0.046902552247047424,-0.03218773007392883,-0.19765768945217133,0.25278210639953613,0.09451340138912201,0.339732825756073,0.22148136794567108,0.32080861926078796,-0.10229537636041641,-0.15803933143615723,-0.21119050681591034,-0.1031256914138794,0.2664564847946167,-0.4056882858276367,0.22507205605506897,0.18370047211647034,-0.119109608232975,0.091289222240448,0.049129512161016464,0.21795399487018585,0.286713570356369,0.34526899456977844,-0.3810431957244873,-0.005300034768879414,0.15090246498584747,0.3281654417514801,0.0848153755068779,-0.23476377129554749,0.1590503454208374,0.03156024590134621,-0.3967759311199188,-0.16403745114803314,-0.16012173891067505,-0.22190533578395844,0.12238719314336777,0.04317546635866165,-0.1422942578792572,-0.04892502352595329,0.08944129198789597,-0.08964034169912338,0.08299151808023453,0.04384027048945427,-0.2194274514913559
1_6683_u_3,0.24144695699214935,-0.1398323029279709,-0.2629946768283844,-0.3247554898262024,0.22547395527362823,0.41813549399375916,-0.04524877667427063,0.255607545375824,-0.19543352723121643,-0.028174618259072304,-0.17914128303527832,-0.22499465942382812,0.22818796336650848,0.35738542675971985,-0.10373721271753311,0.21095354855060577,-0.2455650418996811,0.12624754011631012,-0.3369685411453247,0.12140844017267227,0.13569724559783936,0.13751257956027985,-0.053097065538167953,0.27014750242233276,-0.11751021444797516,-0.015758803114295006,0.2841110825538635,0.1770184487104416,-0.21908636391162872,0.1504782885313034,-0.11681299656629562,0.022472143173217773,0.17140138149261475,0.02699391357600689,-0.0004900388303212821,0.07695672661066055,-0.2292308360338211,-0.11385034769773483,-0.22600451111793518,0.45480385422706604,-0.19687609374523163,-0.03308947756886482,-0.047430314123630524,-0.08463998883962631,-0.03861793130636215,-0.1974460929632187,-0.12623246014118195,0.2685888111591339,-0.0462767668068409,-0.26475563645362854,0.068600133061409,-0.4898093342781067,0.011260781437158585,0.10478740185499191,-0.0210069939494133,-0.03213074430823326,0.3765200972557068,-0.03314829617738724,0.22357046604156494,0.21137790381908417,0.011697334237396717,0.024660123512148857,-0.10303836315870285,-0.024591391906142235,-0.013132894411683083,-0.05156001076102257,0.4597267806529999,0.02472495473921299,-0.12376978248357773,0.14256219565868378,0.1416507065296173,-0.286344051361084,-0.21230342984199524,0.02281847409904003,0.14155295491218567,-0.14256760478019714,0.1887819766998291,-0.21952727437019348,-0.05653955414891243,0.1439448744058609,-0.10856709629297256,0.1984529346227646,0.015967566519975662,-0.07808538526296616,-0.09586401283740997,0.1813286393880844,0.007951358333230019,-0.08609869331121445,-0.25237181782722473,0.4306822717189789,0.06205620989203453,0.034837670624256134,-0.10961049050092697,0.1819172203540802,0.07036416977643967,0.15774224698543549,0.4204462170600891,0.1170935183763504,0.06596094369888306,-0.0940142497420311,0.1632411628961563,-0.1497548669576645,-0.14170119166374207,0.12106741964817047,0.14344483613967896,0.39309391379356384,-0.0834759995341301,-0.27698948979377747,0.2966504991054535,-0.1036844477057457,-0.03791036084294319,-0.03726807236671448,-0.05344334989786148,-0.5227352976799011,-0.010342827998101711,0.1141100525856018,0.11976797878742218,-0.05088889226317406,0.04500066861510277,-0.21036270260810852,0.19103780388832092,-0.47124215960502625,-0.044850196689367294,-0.11916866153478622,-0.10132072120904922,-0.06725902110338211,-0.10562379658222198,0.17406971752643585,0.15499329566955566,-0.07575010508298874,0.02430424652993679,0.1693139225244522,-0.1487414389848709,-0.2621382176876068,0.15590207278728485,-0.19816511869430542,-0.11946316808462143,0.3272626996040344,-0.26907941699028015,0.16791710257530212,0.09796229749917984,-0.37604185938835144,0.01038812380284071,0.31279826164245605,-0.1525377482175827,-0.0873376801609993,0.24152015149593353,-0.24845445156097412,0.0057694329880177975,0.452014684677124,-0.03753737732768059,0.006247504148632288,-0.31793200969696045,-0.15657947957515717,0.40562859177589417,0.283498078584671,0.02192196622490883,0.17496265470981598,0.08044516295194626,-0.06535162776708603,-0.08866401016712189,0.002336720237508416,-0.4368232190608978,0.03835081681609154,0.0016329213976860046,-0.031938064843416214,0.2402133047580719,0.04915979877114296,0.23248933255672455,-0.07448551058769226,-0.1037386879324913,0.1343686729669571,0.10794056951999664,0.03982402756810188,0.08652104437351227,0.15233802795410156,-0.0012047982309013605,0.12414603680372238,0.08888205140829086,-0.5161614418029785,-0.3902675211429596,0.37816205620765686,0.047704678028821945,-0.03033006563782692,-0.20603875815868378,0.0150099266320467,0.1879880726337433,0.36882439255714417,-0.11526693403720856,0.06678729504346848,-0.010628761723637581,-0.06445062160491943,-0.07561590522527695,-0.284513384103775,-0.10846296697854996,0.10335451364517212,0.267360657453537,0.03880072757601738,0.3154367208480835,-0.03999890759587288,-0.10099872201681137,0.22019913792610168,0.12693767249584198,0.18341276049613953,0.2554176151752472,-0.018270066007971764,-0.03380666673183441,0.13624805212020874,-0.046746253967285156,-0.02731405198574066,0.15057185292243958,-0.43411755561828613,0.10342101007699966,-0.04246753081679344,-0.055633749812841415,-0.18742026388645172,0.22477293014526367,0.09186216443777084,0.30376437306404114,0.21256057918071747,0.28039756417274475,-0.134323388338089,-0.1778401881456375,-0.18026326596736908,-0.09372178465127945,0.268374502658844,-0.38969552516937256,0.19049465656280518,0.17800651490688324,-0.11115086078643799,0.09691699594259262,0.041508741676807404,0.2006678581237793,0.2761664092540741,0.34736841917037964,-0.36616969108581543,-0.027090473100543022,0.14764820039272308,0.27531862258911133,0.0925239846110344,-0.2547096312046051,0.15268342196941376,0.06526481360197067,-0.38994717597961426,-0.1824806034564972,-0.1538168489933014,-0.2530182898044586,0.11257431656122208,0.027534393593668938,-0.13657671213150024,-0.06116444617509842,0.07232382148504257,-0.09336209297180176,0.11399399489164352,0.026644770056009293,-0.1869821548461914
1_672_u_1,0.2069171518087387,-0.13507001101970673,-0.18291182816028595,-0.2984314560890198,0.20876727998256683,0.36163103580474854,-0.02448061853647232,0.21843592822551727,-0.14544324576854706,-0.0331776961684227,-0.16750097274780273,-0.20789308845996857,0.17351441085338593,0.3552953898906708,-0.08027182519435883,0.17903850972652435,-0.25342854857444763,0.09980041533708572,-0.32694530487060547,0.07156284153461456,0.10738762468099594,0.1358601301908493,-0.026482386514544487,0.23901091516017914,-0.12322767078876495,-0.0020448092836886644,0.22229988873004913,0.17463670670986176,-0.2385852336883545,0.08240634202957153,-0.0971526950597763,0.011515221558511257,0.1778586208820343,-0.016331424936652184,-0.04340359568595886,0.12120063602924347,-0.2348102629184723,-0.08885278552770615,-0.162215456366539,0.40491142868995667,-0.14101658761501312,0.04269614443182945,-0.06853729486465454,-0.007717491593211889,-0.03485729917883873,-0.15432944893836975,-0.15348617732524872,0.19473972916603088,-0.018406366929411888,-0.2717294692993164,0.05876351147890091,-0.40954285860061646,0.00472890492528677,0.07665719836950302,0.0016476685414090753,-0.04364780709147453,0.3019315302371979,-0.02396429143846035,0.16420574486255646,0.20328441262245178,0.047101158648729324,-0.012549263425171375,-0.12515203654766083,-0.07378889620304108,0.023465121164917946,-0.026478363201022148,0.42145177721977234,0.021557120606303215,-0.12039082497358322,0.17186124622821808,0.18172553181648254,-0.2628112733364105,-0.15575863420963287,0.02686498872935772,0.1612817347049713,-0.12342456728219986,0.20293374359607697,-0.16915440559387207,-0.06414871662855148,0.16180093586444855,-0.1452915072441101,0.15248429775238037,0.05335630103945732,0.0035045945551246405,-0.14051495492458344,0.18820029497146606,0.038012828677892685,-0.028157979249954224,-0.2495856136083603,0.3977857828140259,-0.013227132149040699,0.09559543430805206,-0.1420474499464035,0.1611783653497696,0.09096060693264008,0.10445316135883331,0.396129846572876,0.10267950594425201,0.07161309570074081,-0.05708590894937515,0.13082771003246307,-0.08502501994371414,-0.09869828075170517,0.03945012018084526,0.04499311372637749,0.34175029397010803,-0.08123348653316498,-0.24414828419685364,0.25950077176094055,-0.0847131535410881,-0.05671214684844017,-0.006978523917496204,-0.07810115069150925,-0.4202796518802643,-0.02522873692214489,0.06505632400512695,0.1066276952624321,-0.07953055948019028,0.04606198891997337,-0.18046489357948303,0.16488954424858093,-0.45375940203666687,-0.003658537520095706,-0.09165968000888824,-0.07882993668317795,-0.09948921948671341,-0.14694854617118835,0.15694843232631683,0.12402969598770142,-0.07053059339523315,-0.0237826406955719,0.15609782934188843,-0.1491692066192627,-0.20813047885894775,0.16178368031978607,-0.16954699158668518,-0.02264038287103176,0.286594033241272,-0.2395205944776535,0.16606131196022034,0.11494766920804977,-0.32821178436279297,0.024607982486486435,0.26145505905151367,-0.2035863846540451,-0.14170560240745544,0.19814084470272064,-0.2720310389995575,0.04168199002742767,0.35908040404319763,-0.03504975140094757,-0.017789052799344063,-0.2567260265350342,-0.14156506955623627,0.37614405155181885,0.21861281991004944,0.01881841942667961,0.18498416244983673,0.06631403416395187,-0.05349571630358696,-0.02261812798678875,0.028167439624667168,-0.35795530676841736,0.03633245453238487,-0.024193130433559418,-0.05323386937379837,0.17830748856067657,-0.009304246865212917,0.187162846326828,-0.09664493799209595,-0.1271251142024994,0.07830077409744263,0.09578710049390793,0.0892883911728859,0.061125945299863815,0.09564419090747833,-0.033569708466529846,0.03290901705622673,0.043307606130838394,-0.44546395540237427,-0.33740711212158203,0.3401535153388977,0.06296608597040176,0.003991339821368456,-0.15031364560127258,0.021469315513968468,0.17907464504241943,0.30638575553894043,-0.09771745651960373,-0.0008696697768755257,-0.05695207789540291,-0.06316174566745758,-0.1020742654800415,-0.16421835124492645,-0.13941983878612518,0.10649453848600388,0.27136048674583435,0.00018499120778869838,0.22682610154151917,-0.059985168278217316,-0.03917945176362991,0.2204175442457199,0.1394285410642624,0.15063302218914032,0.19353727996349335,-0.10071799904108047,0.022577309980988503,0.16087159514427185,-0.07484563440084457,-0.06928548961877823,0.1389138549566269,-0.40328437089920044,0.08929181843996048,-0.08552869409322739,-0.0848408192396164,-0.17645619809627533,0.24074549973011017,0.11583023518323898,0.2949068248271942,0.20239882171154022,0.25975167751312256,-0.06471963971853256,-0.13759128749370575,-0.1936313360929489,-0.10358619689941406,0.1765659600496292,-0.3139447867870331,0.18565639853477478,0.13296644389629364,-0.08499622344970703,0.05953630432486534,0.07131480425596237,0.13809087872505188,0.290093332529068,0.33218443393707275,-0.2891434133052826,-0.075009785592556,0.17199011147022247,0.2750535011291504,0.07135374844074249,-0.16031567752361298,0.16650629043579102,0.012932151556015015,-0.3020496070384979,-0.21405012905597687,-0.1791350543498993,-0.20009687542915344,0.11926392465829849,0.028248796239495277,-0.08279982209205627,-0.05218888446688652,0.058232832700014114,-0.11208116263151169,0.0360606387257576,0.02055041491985321,-0.17930029332637787
1_672_u_2,0.20449553430080414,-0.1304558962583542,-0.17466352880001068,-0.28914377093315125,0.20208926498889923,0.35341593623161316,-0.010081754997372627,0.22269700467586517,-0.13937798142433167,-0.03425811603665352,-0.16683264076709747,-0.2062804251909256,0.16355730593204498,0.36353060603141785,-0.07733525335788727,0.17413970828056335,-0.2613382935523987,0.09267592430114746,-0.32419249415397644,0.06511109322309494,0.09809648990631104,0.1348343789577484,-0.021635988727211952,0.22183142602443695,-0.11884436756372452,0.0014756921445950866,0.20276641845703125,0.17647390067577362,-0.2336329072713852,0.06892313808202744,-0.09614872932434082,0.01311410404741764,0.17921756207942963,-0.020168781280517578,-0.05140857771039009,0.13389679789543152,-0.22004294395446777,-0.0959780141711235,-0.14682869613170624,0.4031800329685211,-0.1301393061876297,0.05308803915977478,-0.06439045816659927,0.007496360223740339,-0.04065636545419693,-0.1394355595111847,-0.15931357443332672,0.18789470195770264,-0.02289711870253086,-0.27976134419441223,0.05728922039270401,-0.4008219242095947,-0.00615649251267314,0.07926847785711288,0.00643573934212327,-0.04485886171460152,0.2902635633945465,-0.02206059731543064,0.1580272912979126,0.21024703979492188,0.0677192211151123,-0.014958217740058899,-0.12676294147968292,-0.08528553694486618,0.023617219179868698,-0.02171330712735653,0.41189250349998474,0.025710580870509148,-0.12511828541755676,0.17201247811317444,0.18966363370418549,-0.25834187865257263,-0.1484067291021347,0.01633325032889843,0.15689457952976227,-0.12769107520580292,0.19986653327941895,-0.15449386835098267,-0.061524536460638046,0.16440477967262268,-0.15545783936977386,0.14324747025966644,0.06447773426771164,0.01959296129643917,-0.14306826889514923,0.18295706808567047,0.046538010239601135,-0.02570611797273159,-0.2467309981584549,0.39463600516319275,-0.02839001826941967,0.09411320835351944,-0.1403512805700302,0.1564091295003891,0.09159290790557861,0.10093436390161514,0.39919206500053406,0.10475658625364304,0.05908144637942314,-0.03843439742922783,0.13249965012073517,-0.07060454040765762,-0.08782096207141876,0.02143142931163311,0.02696133591234684,0.3469941318035126,-0.08081749081611633,-0.24248409271240234,0.2502082586288452,-0.08354417979717255,-0.05506560951471329,0.0004090716247446835,-0.0860256552696228,-0.41045841574668884,-0.028152836486697197,0.06436502188444138,0.10705864429473877,-0.08740167319774628,0.04243984818458557,-0.18085110187530518,0.1564403772354126,-0.46071434020996094,0.0026849517598748207,-0.08733411878347397,-0.07782171666622162,-0.0941481813788414,-0.1486157774925232,0.16707152128219604,0.13200528919696808,-0.06546223908662796,-0.03391529992222786,0.1563500314950943,-0.14487682282924652,-0.21024039387702942,0.1618393510580063,-0.16722925007343292,-0.022886360064148903,0.27519217133522034,-0.23184604942798615,0.1586274951696396,0.1176174059510231,-0.33004412055015564,0.02891014888882637,0.26335570216178894,-0.20758982002735138,-0.14962413907051086,0.20240794122219086,-0.2793515920639038,0.03916431590914726,0.3555273413658142,-0.0323861725628376,-0.014079897664487362,-0.24968492984771729,-0.14347119629383087,0.37333670258522034,0.21027982234954834,0.016455087810754776,0.1912023276090622,0.05981304869055748,-0.04929924011230469,-0.019350478425621986,0.025705844163894653,-0.34694239497184753,0.03284462168812752,-0.020516127347946167,-0.05526047572493553,0.17347043752670288,-0.018276002258062363,0.1825687438249588,-0.09690772742033005,-0.12903837859630585,0.08349602669477463,0.10159679502248764,0.08774283528327942,0.05541682243347168,0.08411120623350143,-0.04046931490302086,0.01169151533395052,0.044349271804094315,-0.4375455975532532,-0.3329688608646393,0.3297531306743622,0.06922619789838791,0.007380943279713392,-0.14885444939136505,0.03047049604356289,0.1884167641401291,0.2913186550140381,-0.10091739147901535,-0.010023207403719425,-0.06982879340648651,-0.06994752585887909,-0.11062665283679962,-0.15303663909435272,-0.1454542875289917,0.1104743480682373,0.27302026748657227,0.0018323995172977448,0.2182595282793045,-0.07176442444324493,-0.036276329308748245,0.22004035115242004,0.1454751193523407,0.14698775112628937,0.17573615908622742,-0.11490178108215332,0.027901237830519676,0.16480253636837006,-0.07032735645771027,-0.08378928154706955,0.1383916139602661,-0.40348300337791443,0.08093343675136566,-0.09231831878423691,-0.09920423477888107,-0.17213810980319977,0.24500170350074768,0.13052502274513245,0.29552212357521057,0.2037316858768463,0.25382670760154724,-0.06850805878639221,-0.1336989551782608,-0.18609604239463806,-0.09977281093597412,0.1654229611158371,-0.3065556585788727,0.17466454207897186,0.13428902626037598,-0.07239995151758194,0.05309446528553963,0.07043136656284332,0.1329679638147354,0.2942603528499603,0.33514705300331116,-0.27762123942375183,-0.08230520784854889,0.18682189285755157,0.27266770601272583,0.05900956317782402,-0.1531561315059662,0.16003862023353577,0.0006548993405885994,-0.2756476402282715,-0.22706453502178192,-0.18410582840442657,-0.2130061388015747,0.10959013551473618,0.030080217868089676,-0.08074962347745895,-0.04259069636464119,0.049509670585393906,-0.11505817621946335,0.0339667871594429,0.015242022462189198,-0.1843661218881607
1_6766_u_1,0.23127488791942596,-0.11319424957036972,-0.23931050300598145,-0.2924290597438812,0.21099869906902313,0.362807035446167,-0.0013030094560235739,0.27879759669303894,-0.1743641346693039,-0.018013717606663704,-0.17466920614242554,-0.1825278252363205,0.1847677081823349,0.38465777039527893,-0.10466547310352325,0.19775371253490448,-0.2719091475009918,0.10592080652713776,-0.3242540657520294,0.08317267149686813,0.09516266733407974,0.11941830068826675,-0.03954051807522774,0.19967849552631378,-0.11522608995437622,-0.0013944481033831835,0.21423251926898956,0.16695092618465424,-0.2100353240966797,0.09812682121992111,-0.11713039129972458,0.012069708667695522,0.17047618329524994,0.011963245458900928,-0.006518922746181488,0.1347036212682724,-0.17858919501304626,-0.13243529200553894,-0.1887534111738205,0.4397866427898407,-0.14834238588809967,0.004824416246265173,-0.025422027334570885,-0.032755088061094284,-0.06138651445508003,-0.1545066088438034,-0.12661968171596527,0.24600596725940704,-0.0646929144859314,-0.2840261459350586,0.09727486222982407,-0.4577402174472809,-0.015929747372865677,0.0856032520532608,-0.009097250178456306,-0.02900960110127926,0.3549955487251282,-0.017297962680459023,0.19483205676078796,0.24151895940303802,0.09841334074735641,-0.009281127713620663,-0.12155342102050781,-0.0693838968873024,-0.014021912589669228,-0.02557588927447796,0.42342081665992737,0.05747309327125549,-0.14346536993980408,0.15234647691249847,0.1568349152803421,-0.27962517738342285,-0.1925114393234253,-0.014257353730499744,0.14061687886714935,-0.16757427155971527,0.16435866057872772,-0.1698177307844162,-0.047005217522382736,0.1627267450094223,-0.15289358794689178,0.15870442986488342,0.06888758391141891,0.023182639852166176,-0.09270286560058594,0.18922574818134308,0.0409054234623909,-0.06947316229343414,-0.2085125893354416,0.4331832528114319,0.016205165535211563,0.03311074525117874,-0.08660677075386047,0.1533413976430893,0.07441162317991257,0.1625508964061737,0.4362683892250061,0.12498853355646133,0.04534827172756195,-0.007127626333385706,0.1571548730134964,-0.0833493322134018,-0.08296141028404236,0.04803803190588951,0.06864795833826065,0.4272630214691162,-0.07105468958616257,-0.2528897821903229,0.2812873423099518,-0.1088220477104187,-0.02640780806541443,0.005265377461910248,-0.09312369674444199,-0.5026671290397644,-0.022691508755087852,0.10537517070770264,0.13528865575790405,-0.06714124232530594,0.04541439190506935,-0.21308520436286926,0.179630309343338,-0.48113641142845154,-0.02015097811818123,-0.08901126682758331,-0.08012814819812775,-0.04656347259879112,-0.10288341343402863,0.22235308587551117,0.1766950637102127,-0.07565506547689438,-0.03152622655034065,0.15886376798152924,-0.14388997852802277,-0.2633889317512512,0.16570013761520386,-0.18516109883785248,-0.1247338280081749,0.2751932740211487,-0.2281661480665207,0.13215355575084686,0.11764176934957504,-0.39999327063560486,0.03672643005847931,0.32590264081954956,-0.1793346107006073,-0.12373023480176926,0.2905683219432831,-0.27099278569221497,-0.021500153467059135,0.4506659209728241,-0.024666329845786095,-0.006487959064543247,-0.27870675921440125,-0.15494726598262787,0.3854540288448334,0.2609482407569885,0.0016719409031793475,0.18703551590442657,0.06560846418142319,-0.054517608135938644,-0.06028853729367256,-0.012877478264272213,-0.36779698729515076,0.03370426222681999,0.010833128355443478,-0.03253377601504326,0.22888211905956268,0.015733817592263222,0.212771937251091,-0.0851735845208168,-0.11255093663930893,0.1586800366640091,0.11585403978824615,0.04208219796419144,0.03605450689792633,0.07753999531269073,-0.023763267323374748,0.03523389250040054,0.06656988710165024,-0.510530412197113,-0.34692031145095825,0.32653918862342834,0.0818103775382042,-0.010355080477893353,-0.20440807938575745,0.02467762492597103,0.22944943606853485,0.33186623454093933,-0.13058225810527802,0.03844846412539482,-0.06704189628362656,-0.09296102821826935,-0.10746460407972336,-0.2566313147544861,-0.15212924778461456,0.11247970163822174,0.2823546826839447,0.051320768892765045,0.2808612883090973,-0.10907378047704697,-0.1087186336517334,0.2143736183643341,0.17831675708293915,0.16539034247398376,0.20118694007396698,-0.06807833909988403,-0.009114670567214489,0.1562185138463974,-0.039074476808309555,-0.08081024140119553,0.16463495790958405,-0.4352787137031555,0.08055216073989868,-0.07009615004062653,-0.09342630207538605,-0.16965177655220032,0.22664609551429749,0.1484105885028839,0.30131542682647705,0.2178809642791748,0.2693087160587311,-0.13271348178386688,-0.15977363288402557,-0.170266792178154,-0.08343341201543808,0.2283708155155182,-0.3586784899234772,0.16186349093914032,0.17469431459903717,-0.06971379369497299,0.07245451211929321,0.03235514089465141,0.1717861294746399,0.28334513306617737,0.32482442259788513,-0.31494417786598206,-0.05318288877606392,0.1971116065979004,0.28142619132995605,0.03923985734581947,-0.20887985825538635,0.12127784639596939,0.006357462145388126,-0.2985503673553467,-0.20060232281684875,-0.1794884353876114,-0.2700195908546448,0.05766090750694275,0.034075118601322174,-0.11569639295339584,-0.025103557854890823,0.0448610745370388,-0.10134217888116837,0.09446082264184952,0.02348325587809086,-0.21738965809345245
1_6766_u_2,0.23742914199829102,-0.11635690182447433,-0.24798448383808136,-0.29735952615737915,0.21712195873260498,0.37688323855400085,-0.00025960206403397024,0.28214991092681885,-0.1757248193025589,-0.01602613553404808,-0.18092595040798187,-0.1852097362279892,0.1928669959306717,0.39534348249435425,-0.10469001531600952,0.2023555040359497,-0.27767905592918396,0.11070042103528976,-0.334151029586792,0.0890762060880661,0.09548880159854889,0.12405315786600113,-0.038401950150728226,0.20083580911159515,-0.11382777988910675,-0.0017386872787028551,0.21940147876739502,0.17398139834403992,-0.2154604196548462,0.10040342807769775,-0.12023289501667023,0.016474690288305283,0.17004930973052979,0.01574777625501156,-0.003518578363582492,0.1367730349302292,-0.18012085556983948,-0.13768520951271057,-0.19544939696788788,0.45180970430374146,-0.15071053802967072,0.001990772783756256,-0.029318207874894142,-0.03256284072995186,-0.05566718056797981,-0.15686969459056854,-0.12975703179836273,0.25604888796806335,-0.06908132880926132,-0.28965631127357483,0.09862317889928818,-0.4697282016277313,-0.0161406472325325,0.08887194842100143,-0.0012322083348408341,-0.030467236414551735,0.36876481771469116,-0.01823822595179081,0.20047259330749512,0.2471628040075302,0.10614849627017975,-0.009840453043580055,-0.12219362705945969,-0.07172689586877823,-0.016361888498067856,-0.03014083206653595,0.4341669976711273,0.058710481971502304,-0.14943499863147736,0.15160612761974335,0.1581547111272812,-0.2885681688785553,-0.19343164563179016,-0.017506428062915802,0.13911011815071106,-0.17118526995182037,0.16597497463226318,-0.17596662044525146,-0.04672950133681297,0.16267772018909454,-0.15278564393520355,0.16451667249202728,0.07494869083166122,0.019562112167477608,-0.09309722483158112,0.188407301902771,0.04443126544356346,-0.07196634262800217,-0.21225586533546448,0.4435696303844452,0.02150871604681015,0.03262533247470856,-0.08924438059329987,0.16177307069301605,0.07407572120428085,0.1711297333240509,0.4478553831577301,0.12952356040477753,0.04279216751456261,-0.003806229680776596,0.1621287316083908,-0.0889158770442009,-0.08456792682409286,0.049951981753110886,0.07023821026086807,0.4371681809425354,-0.07529449462890625,-0.2557268738746643,0.2850991189479828,-0.1103435754776001,-0.029238352552056313,0.0021437276154756546,-0.09413541853427887,-0.517808735370636,-0.022600451484322548,0.10821745544672012,0.14101247489452362,-0.07318589836359024,0.047780171036720276,-0.22060365974903107,0.18309514224529266,-0.4962068200111389,-0.024529047310352325,-0.09003729373216629,-0.0809679701924324,-0.041279640048742294,-0.10279928892850876,0.23014116287231445,0.18207378685474396,-0.07743456214666367,-0.031899016350507736,0.16463196277618408,-0.1481831967830658,-0.2685644030570984,0.16606788337230682,-0.19036434590816498,-0.1303877830505371,0.2822102904319763,-0.23591232299804688,0.13511823117733002,0.1169593557715416,-0.4101424217224121,0.03728572651743889,0.33723801374435425,-0.17984798550605774,-0.12326953560113907,0.29977425932884216,-0.275353342294693,-0.027112146839499474,0.4636761248111725,-0.026328852400183678,-0.00736762210726738,-0.2891160547733307,-0.16327287256717682,0.39535772800445557,0.27251124382019043,0.003730815602466464,0.19010314345359802,0.0687001571059227,-0.04957034811377525,-0.06569156795740128,-0.0137936444953084,-0.37770208716392517,0.03222265467047691,0.01693582907319069,-0.030173704028129578,0.2378653734922409,0.021230803802609444,0.22251395881175995,-0.08549424260854721,-0.11390557140111923,0.16646336019039154,0.12217801064252853,0.043138060718774796,0.03859798237681389,0.07898073643445969,-0.024615373462438583,0.03909773752093315,0.0702090784907341,-0.5197321772575378,-0.3589418828487396,0.33352938294410706,0.08159194141626358,-0.01141473650932312,-0.2124498337507248,0.024166090413928032,0.2349465936422348,0.34047529101371765,-0.13209019601345062,0.04172476753592491,-0.06562792509794235,-0.09615860134363174,-0.10832452774047852,-0.2677323520183563,-0.15909159183502197,0.11022122949361801,0.286805123090744,0.05323207005858421,0.28842759132385254,-0.10523603111505508,-0.11977888643741608,0.21837888658046722,0.18384353816509247,0.16874994337558746,0.20816710591316223,-0.06713061779737473,-0.012200795114040375,0.15828834474086761,-0.03944600746035576,-0.08164223283529282,0.1665126234292984,-0.4470710754394531,0.08064989000558853,-0.06880529969930649,-0.09634454548358917,-0.1713404506444931,0.23185141384601593,0.1497444361448288,0.31128165125846863,0.22448645532131195,0.27602308988571167,-0.1392238736152649,-0.1583573818206787,-0.1722732037305832,-0.0847303494811058,0.23969249427318573,-0.37144753336906433,0.16653959453105927,0.18099234998226166,-0.0725751519203186,0.0734768733382225,0.029976701363921165,0.18099699914455414,0.289904922246933,0.3345363438129425,-0.32680055499076843,-0.05108147859573364,0.20288832485675812,0.2929619252681732,0.03923685476183891,-0.22172026336193085,0.12323258072137833,0.00854776706546545,-0.30522438883781433,-0.2051457166671753,-0.18225498497486115,-0.28244075179100037,0.06071585416793823,0.038501955568790436,-0.12154006212949753,-0.02485155127942562,0.04210391268134117,-0.10140279680490494,0.10020164400339127,0.024506201967597008,-0.22467128932476044
1_6766_u_3,0.24532480537891388,0.0544377826154232,-0.2642219066619873,-0.1654762476682663,0.04011832922697067,0.24651364982128143,0.16933786869049072,0.2587748169898987,-0.11600861698389053,-0.07458453625440598,-0.08165019005537033,-0.14090095460414886,0.14640271663665771,0.3215704560279846,-0.15433020889759064,0.11631573736667633,-0.1592879593372345,0.10596209019422531,-0.18755654990673065,0.00388602283783257,0.017970113083720207,0.13063782453536987,-0.03752179443836212,0.056198131293058395,0.010453794151544571,-0.04409820958971977,0.011992163024842739,0.06344589591026306,-0.06738494336605072,0.10540659725666046,-0.18936878442764282,-0.042271070182323456,0.11058571189641953,0.04518703743815422,-0.08784418553113937,0.1638636738061905,0.05399108678102493,-0.2365155667066574,-0.16102191805839539,0.2994159162044525,-0.11840056627988815,-0.022199736908078194,0.03534609451889992,0.08932897448539734,-0.12789396941661835,0.0066911703906953335,-0.12553057074546814,0.26396405696868896,-0.099862240254879,-0.3153753876686096,0.08959480375051498,-0.36642321944236755,-0.12826687097549438,0.12020571529865265,0.024791253730654716,-0.024463148787617683,0.23183254897594452,-0.010405506007373333,0.08914067596197128,0.22765961289405823,0.04868970438838005,0.027827739715576172,-0.11129206418991089,-0.044997695833444595,-0.10580828040838242,-0.07046156376600266,0.2845108211040497,0.1509723961353302,-0.15405918657779694,0.03697499632835388,0.12562887370586395,-0.2280355989933014,-0.26157933473587036,-0.16846798360347748,-0.030042603611946106,-0.1865999549627304,0.10054711252450943,-0.011435897089540958,0.039999574422836304,0.13849757611751556,-0.10965333133935928,0.11445529758930206,0.19000937044620514,-0.05412011221051216,0.0054379357025027275,0.06263279914855957,0.06018158420920372,-0.20918110013008118,-0.1911337822675705,0.39079549908638,0.03258433938026428,-0.16353578865528107,0.03264519199728966,-0.04512357339262962,-0.03250674903392792,0.12603768706321716,0.39223653078079224,0.17808113992214203,-0.15807166695594788,0.01388387568295002,0.18204662203788757,-0.10239219665527344,-0.07210827618837357,0.013140744529664516,0.12120213359594345,0.38557514548301697,-0.006178233306854963,-0.1798979490995407,0.1983417123556137,-0.11136915534734726,0.03772389516234398,0.013841313309967518,-0.09979620575904846,-0.4994983375072479,-0.11297142505645752,0.1507032960653305,0.10048313438892365,-0.06360539048910141,-0.12515400350093842,-0.16777156293392181,0.018019644543528557,-0.44566401839256287,0.0019645856227725744,-0.05889798328280449,-0.13326020538806915,0.19337643682956696,0.052696216851472855,0.2405659705400467,0.2683345377445221,-0.007862563244998455,-0.01574261300265789,0.14017292857170105,-0.0790000781416893,-0.34295979142189026,0.1283588409423828,-0.18151964247226715,-0.3697855472564697,0.11875013262033463,-0.08748456090688705,0.0664583072066307,0.10168015956878662,-0.4419735074043274,0.028156965970993042,0.4080185890197754,-0.09086799621582031,-0.07682210206985474,0.2651450037956238,-0.2744409739971161,-0.047547947615385056,0.49857863783836365,-0.04405347630381584,0.15159399807453156,-0.18830028176307678,-0.16289150714874268,0.3113381564617157,0.21001175045967102,-0.030149077996611595,0.1643051952123642,-0.033354852348566055,-0.07131513208150864,-0.03503921627998352,0.020840633660554886,-0.3748705983161926,-0.07343340665102005,0.053337860852479935,0.002410546410828829,0.20098400115966797,-0.03603624925017357,0.12082753330469131,0.08155081421136856,-0.06825970858335495,0.21496915817260742,0.14325052499771118,-0.11839228868484497,0.03995385393500328,0.16476444900035858,-0.03407732769846916,-0.029263457283377647,0.16859221458435059,-0.5571094751358032,-0.2787540853023529,0.18818765878677368,0.0944957286119461,-0.06497707217931747,-0.24861405789852142,0.12636499106884003,0.2737313210964203,0.2093433439731598,-0.18076913058757782,0.08037613332271576,-0.08585707098245621,-0.1888480931520462,-0.16569088399410248,-0.3434049189090729,-0.12221387773752213,0.1523025780916214,0.1541035771369934,0.08980029076337814,0.36427971720695496,-0.16042962670326233,-0.12688784301280975,0.20289960503578186,0.1284525990486145,0.11376988887786865,0.12835071980953217,-0.02052347920835018,-0.15006843209266663,0.14198990166187286,0.11967866867780685,-0.07278405874967575,0.12794870138168335,-0.3605686128139496,-0.009809240698814392,-0.11709435284137726,-0.13152465224266052,-0.11936726421117783,0.1481783241033554,0.2501792013645172,0.27878689765930176,0.32795625925064087,0.1568213403224945,-0.3052769601345062,-0.15966755151748657,-0.01574915647506714,0.007141690235584974,0.23984412848949432,-0.2551731467247009,0.011953418143093586,0.3050330579280853,-0.008846855722367764,0.06902711093425751,-0.02970132790505886,0.16064007580280304,0.21472373604774475,0.22014541923999786,-0.2461831122636795,-0.037700679153203964,0.267077773809433,0.07621878385543823,-0.0002557216212153435,-0.3106899857521057,0.11305443197488785,0.03404535725712776,-0.15630140900611877,-0.28578445315361023,-0.09424404799938202,-0.4137934744358063,-0.07181796431541443,0.12907297909259796,-0.1874774694442749,0.029298072680830956,-0.07596790790557861,-0.063628189265728,0.19149567186832428,-0.04430754855275154,-0.17765431106090546
1_6769_u_1,0.23864832520484924,0.0429316870868206,-0.2815120220184326,-0.26337215304374695,0.0882762148976326,0.25694260001182556,0.013995061628520489,0.22254636883735657,-0.19139139354228973,-0.06026781350374222,-0.05984378978610039,-0.139982208609581,0.15241195261478424,0.18965981900691986,-0.16824373602867126,0.14692170917987823,-0.10513069480657578,0.17663466930389404,-0.17048899829387665,0.014816931448876858,0.07747751474380493,0.12525303661823273,-0.07453440129756927,0.23777656257152557,-0.02485031448304653,-0.045729342848062515,0.1843799203634262,-0.042956460267305374,-0.13505253195762634,0.16770872473716736,-0.14985515177249908,-0.05022025108337402,0.0710686594247818,0.1139441505074501,-0.06194768473505974,0.050749171525239944,-0.16272710263729095,-0.1361629217863083,-0.25345438718795776,0.22850576043128967,-0.18503086268901825,-0.060980286449193954,0.010913853533565998,-0.06488972157239914,-0.08696600049734116,-0.16431038081645966,-0.04491986334323883,0.25371456146240234,-0.03772366791963577,-0.23864232003688812,0.10365498065948486,-0.3634769022464752,-0.035500265657901764,0.03909067437052727,-0.0711173340678215,-0.01960023306310177,0.22990266978740692,-0.03749147057533264,0.12235318869352341,0.15265773236751556,-0.1919143944978714,0.02082781121134758,-0.10722016543149948,0.05992710590362549,-0.08519073575735092,-0.07425497472286224,0.3629798889160156,0.0956961065530777,-0.054176073521375656,0.07024761289358139,0.1438199281692505,-0.19115817546844482,-0.3008376657962799,0.007042063865810633,0.08008245378732681,-0.12610626220703125,0.19859009981155396,-0.11279429495334625,-0.00938322301954031,0.13884557783603668,-0.09465403854846954,0.18905194103717804,0.053083308041095734,-0.11304376274347305,-0.0011227288050577044,0.11690511554479599,-0.06537853181362152,-0.22483156621456146,-0.21763618290424347,0.36153048276901245,0.14875644445419312,-0.04219760745763779,-0.007948195561766624,-0.050249189138412476,-0.03944621607661247,0.09489279240369797,0.32388684153556824,0.1648520529270172,0.010503789409995079,-0.1643482893705368,0.14584402740001678,-0.16820314526557922,-0.18426883220672607,0.12090639024972916,0.2819277048110962,0.3152567446231842,0.022940414026379585,-0.21119384467601776,0.29588577151298523,-0.12212266772985458,0.01434558629989624,-0.062393058091402054,-0.0403660349547863,-0.48092299699783325,-0.09392724186182022,0.1749044954776764,0.08839840441942215,0.013193263672292233,-0.08877265453338623,-0.14680147171020508,0.11509056389331818,-0.28646430373191833,0.018516143783926964,-0.06519340723752975,-0.15767723321914673,0.07645579427480698,0.04046952724456787,0.16767270863056183,0.11006902903318405,-0.06121843680739403,0.032710734754800797,0.13595665991306305,-0.11185763031244278,-0.3033214509487152,0.19851118326187134,-0.20345664024353027,-0.28220832347869873,0.19854877889156342,-0.12219097465276718,0.14916448295116425,0.10428178310394287,-0.3801649510860443,-0.0017067976295948029,0.3473019301891327,-0.10434045642614365,-0.0885918065905571,0.13776642084121704,-0.20147207379341125,0.050102174282073975,0.5153422355651855,-0.01596301607787609,0.11605869978666306,-0.18864373862743378,-0.11024262011051178,0.3380005359649658,0.1859360784292221,-0.03996240347623825,0.12465305626392365,0.010437281802296638,-0.1703275889158249,0.04971067234873772,0.055711545050144196,-0.36806720495224,-0.029582062736153603,-0.0817558541893959,-0.0368708074092865,0.1624099314212799,-0.005097048822790384,0.15205056965351105,0.032525934278964996,-0.030552459880709648,0.056983496993780136,0.07998373359441757,-0.1019359603524208,0.08915770798921585,0.22696073353290558,0.021238377317786217,0.07762176543474197,0.09497285634279251,-0.5715199112892151,-0.2011422961950302,0.26464295387268066,0.05760926008224487,-0.05780555680394173,-0.21946397423744202,0.04504626989364624,0.15650060772895813,0.30095574259757996,-0.17263484001159668,0.07922246307134628,0.014799150638282299,-0.0877595767378807,-0.1304607093334198,-0.31043219566345215,-0.052329182624816895,0.14915210008621216,0.14735537767410278,0.029607081785798073,0.3941931426525116,-0.12111090868711472,-0.04348130524158478,0.2171662151813507,0.0730118378996849,0.1035759225487709,0.23112860321998596,0.0677478089928627,-0.17082013189792633,0.0930507704615593,0.006351678166538477,-0.001730352989397943,0.15408889949321747,-0.27008581161499023,0.07334720343351364,-0.10643305629491806,0.022344032302498817,-0.19088727235794067,0.07742686569690704,0.1141008511185646,0.21572041511535645,0.2606255114078522,0.19780591130256653,-0.2178361415863037,-0.19567625224590302,-0.12306695431470871,0.021462513133883476,0.23908905684947968,-0.23854000866413116,0.09135957807302475,0.24317574501037598,-0.12290278822183609,0.10923824459314346,0.03283997252583504,0.13333041965961456,0.13922487199306488,0.17472849786281586,-0.22653436660766602,-0.01939433254301548,0.1165102943778038,0.06486459821462631,0.13003642857074738,-0.2150741070508957,0.14863763749599457,0.10365619510412216,-0.349278062582016,-0.14005276560783386,-0.047033485025167465,-0.1589820683002472,-0.0037735127843916416,0.08141573518514633,-0.178272545337677,-0.049254272133111954,0.05122147873044014,-0.03618106618523598,0.1385425329208374,-0.009870709851384163,-0.10868537425994873
1_6769_u_2,0.20476034283638,0.006234066095203161,-0.29703259468078613,-0.2752847373485565,0.08800496906042099,0.27088865637779236,-0.01566748134791851,0.16312344372272491,-0.18430601060390472,0.005985885858535767,-0.07773517817258835,-0.05453475937247276,0.13285164535045624,0.13930469751358032,-0.17810992896556854,0.15242300927639008,-0.09889596700668335,0.22585812211036682,-0.15992780029773712,0.028107112273573875,0.05007808282971382,0.13056723773479462,-0.06849976629018784,0.24390597641468048,0.0015862472355365753,-0.0656716451048851,0.16995862126350403,-0.0574616901576519,-0.16421936452388763,0.1281784027814865,-0.1859680712223053,-0.07087676227092743,0.04443720355629921,0.14082665741443634,-0.03048093058168888,0.08061039447784424,-0.19562041759490967,-0.09815686196088791,-0.25496920943260193,0.2141779512166977,-0.2047426700592041,-0.08962640166282654,-0.07747795432806015,-0.043418508023023605,-0.006647631525993347,-0.20051002502441406,-0.05456685647368431,0.3146378993988037,-0.02666541375219822,-0.2067977488040924,0.12354379892349243,-0.34409448504447937,-0.019965022802352905,0.005186781287193298,-0.01995103992521763,-0.0480133518576622,0.2420126497745514,-0.04556868597865105,0.07853146642446518,0.17328140139579773,-0.20990245044231415,-0.034691136330366135,-0.1264297217130661,0.06828900426626205,-0.13480086624622345,-0.1042683869600296,0.3948092460632324,0.11484837532043457,-0.05623617768287659,0.04889790341258049,0.10899478197097778,-0.16269977390766144,-0.24073484539985657,0.06808965653181076,0.07369017601013184,-0.06957025825977325,0.18258598446846008,-0.16546890139579773,0.004042279906570911,0.10492081940174103,-0.11840321123600006,0.16318269073963165,0.07603364437818527,-0.0879892036318779,-0.03174314275383949,0.12316840142011642,-0.07062932103872299,-0.21206307411193848,-0.1699824333190918,0.3751950263977051,0.2388303279876709,-0.0038834025617688894,0.00044411123963072896,0.009765795432031155,-0.05224853381514549,0.12168567627668381,0.3285009264945984,0.21100783348083496,0.03213123604655266,-0.15249018371105194,0.0772988572716713,-0.16157154738903046,-0.19258281588554382,0.13346055150032043,0.34770604968070984,0.24369406700134277,-0.010992089286446571,-0.1489792913198471,0.3276151120662689,-0.1389457881450653,0.010190382599830627,-0.1061716303229332,0.011720235459506512,-0.5281096696853638,-0.06236077472567558,0.19399242103099823,0.10419167578220367,-0.0002741530479397625,-0.07355523109436035,-0.11954312771558762,0.11342578381299973,-0.2097160369157791,-0.004254771862179041,-0.024065228179097176,-0.135769784450531,0.09333682805299759,0.04503393545746803,0.16348540782928467,0.07499969750642776,-0.08814375847578049,0.025336796417832375,0.19977402687072754,-0.15805649757385254,-0.27791157364845276,0.2248651087284088,-0.22378256916999817,-0.2493366301059723,0.19498883187770844,-0.1020498275756836,0.18188326060771942,0.05097297579050064,-0.39156436920166016,0.017823362722992897,0.34841543436050415,-0.09015029668807983,-0.06971614807844162,0.14606614410877228,-0.17371006309986115,0.05649661645293236,0.5188655257225037,-0.03162791207432747,0.09904862940311432,-0.19303898513317108,-0.15715651214122772,0.33463284373283386,0.24031062424182892,-0.035636235028505325,0.11955716460943222,0.03554290160536766,-0.11849949508905411,0.07973350584506989,0.0798305794596672,-0.3082793056964874,-0.05353781208395958,-0.09763213247060776,-0.007524472661316395,0.14291827380657196,0.027568815276026726,0.17469702661037445,0.029349667951464653,-0.013000572100281715,0.006859391927719116,0.06317707151174545,-0.07828149944543839,0.10744338482618332,0.1859031468629837,0.02466602437198162,0.12687571346759796,0.05073782429099083,-0.5409535765647888,-0.1344934105873108,0.27728092670440674,0.056000590324401855,-0.04683287441730499,-0.18921932578086853,0.0021432244684547186,0.1296522617340088,0.3146761357784271,-0.16080336272716522,0.08524712175130844,0.009902858175337315,-0.08036523312330246,-0.1085643544793129,-0.31034350395202637,-0.09527603536844254,0.1393764764070511,0.15590111911296844,0.013686606660485268,0.39381143450737,-0.08774147927761078,-0.07099614292383194,0.2138676941394806,0.08857846260070801,0.07933088392019272,0.28836777806282043,0.09098835289478302,-0.1726093590259552,0.05937302112579346,-0.002815084997564554,0.036010514944791794,0.15673740208148956,-0.22646279633045197,0.08628055453300476,-0.12046152353286743,0.11358807235956192,-0.14994178712368011,0.03810223937034607,0.08203927427530289,0.26576024293899536,0.2850596010684967,0.22311833500862122,-0.19233670830726624,-0.12055788189172745,-0.12021161615848541,0.06099946051836014,0.2554102838039398,-0.26204684376716614,0.1353909820318222,0.261076420545578,-0.17951560020446777,0.11878392845392227,0.03434174507856369,0.1882992535829544,0.09298201650381088,0.15169201791286469,-0.2403782606124878,0.02270975150167942,0.07419929653406143,0.08505936712026596,0.11436040699481964,-0.2086961716413498,0.18766729533672333,0.09687270224094391,-0.3760916292667389,-0.09736212342977524,0.007786897011101246,-0.06286574900150299,0.04696312174201012,0.15621666610240936,-0.19860583543777466,-0.045319147408008575,0.10315364599227905,-0.011044115759432316,0.1717773824930191,-0.0369727723300457,-0.12750281393527985
1_6769_u_3,0.22096292674541473,-0.010300049558281898,-0.255859375,-0.2735990285873413,0.15446069836616516,0.2899959981441498,-0.0014533099019899964,0.24772684276103973,-0.20060785114765167,-0.08735531568527222,-0.0903867557644844,-0.20404782891273499,0.20626990497112274,0.25103217363357544,-0.1337454915046692,0.17568151652812958,-0.1482890397310257,0.13774941861629486,-0.22563324868679047,0.06377121806144714,0.12515786290168762,0.12007694691419601,-0.06665933132171631,0.24519126117229462,-0.05637718364596367,-0.012473142705857754,0.23423953354358673,0.057040948420763016,-0.141293004155159,0.19453945755958557,-0.13131634891033173,-0.02472730539739132,0.12446165084838867,0.07323247194290161,-0.02911357581615448,0.02430187724530697,-0.1851598024368286,-0.14194582402706146,-0.24656641483306885,0.3299163579940796,-0.19267722964286804,-0.054131317883729935,0.045759011059999466,-0.11461098492145538,-0.10915137827396393,-0.1693875640630722,-0.05602267384529114,0.24415548145771027,-0.04314803332090378,-0.26984861493110657,0.07332748919725418,-0.4171450734138489,-0.02035544253885746,0.07947268337011337,-0.07586325705051422,0.00073376449290663,0.2820088565349579,-0.03183760866522789,0.184637650847435,0.16460460424423218,-0.11609113216400146,0.07024461776018143,-0.0970904529094696,0.03745431825518608,-0.039757683873176575,-0.053714897483587265,0.3597014844417572,0.0504499152302742,-0.06320057064294815,0.09039459377527237,0.12957154214382172,-0.2316209077835083,-0.28076934814453125,0.0003467928618192673,0.0995645672082901,-0.13795913755893707,0.17002840340137482,-0.15002690255641937,-0.03597774729132652,0.15375423431396484,-0.06854153424501419,0.2002892792224884,0.01190613117069006,-0.11053059250116348,-0.008178453892469406,0.15763720870018005,-0.04933249205350876,-0.16605941951274872,-0.23214049637317657,0.3419044613838196,0.08478808403015137,-0.04802693426609039,-0.040489982813596725,0.0330459289252758,0.011088051833212376,0.09640618413686752,0.3404054343700409,0.11164193600416183,0.02499154582619667,-0.1411123126745224,0.1698979139328003,-0.17766867578029633,-0.1607520580291748,0.14263242483139038,0.2284284085035324,0.35217830538749695,-0.00666393805295229,-0.2633553147315979,0.283604234457016,-0.11522489786148071,0.011486146599054337,-0.043568070977926254,-0.06329857558012009,-0.4703338146209717,-0.04335923120379448,0.12970881164073944,0.09845542907714844,0.016231853514909744,-0.03912339732050896,-0.1801663488149643,0.14797163009643555,-0.37715044617652893,-0.03284148871898651,-0.09440667182207108,-0.14011353254318237,-0.012784505262970924,-0.010218054056167603,0.14370539784431458,0.1277083158493042,-0.05319272354245186,0.0536520890891552,0.09922841936349869,-0.10566467046737671,-0.3145677149295807,0.15484432876110077,-0.1932958960533142,-0.23275195062160492,0.2483910322189331,-0.16548945009708405,0.13147275149822235,0.12149886041879654,-0.3531354069709778,-0.011349540203809738,0.29308485984802246,-0.13458944857120514,-0.07936819642782211,0.16779492795467377,-0.18824084103107452,0.030666867271065712,0.47131988406181335,-0.0027790875174105167,0.07576420158147812,-0.2349405288696289,-0.089230976998806,0.35891011357307434,0.1834719330072403,-0.01816415600478649,0.11543655395507812,0.03911064192652702,-0.1343865692615509,-0.016454774886369705,0.032162223011255264,-0.4103057086467743,-0.002518363995477557,-0.040463391691446304,-0.045392923057079315,0.1819479912519455,0.010318412445485592,0.18185867369174957,-0.020910469815135002,-0.058909881860017776,0.12271883338689804,0.07575153559446335,-0.08273208886384964,0.09665288031101227,0.20248757302761078,0.02485085092484951,0.11530324071645737,0.11639408022165298,-0.525784432888031,-0.3027060925960541,0.28774794936180115,0.04085664078593254,-0.04988941550254822,-0.2268897294998169,0.05515376478433609,0.16517813503742218,0.32898157835006714,-0.15723924338817596,0.0767388567328453,0.018299713730812073,-0.07412946224212646,-0.09706997871398926,-0.29273197054862976,-0.032250892370939255,0.12375789880752563,0.1861574649810791,0.04919194430112839,0.36296406388282776,-0.09133787453174591,-0.06719982624053955,0.19295577704906464,0.06085855886340141,0.16417178511619568,0.23639212548732758,0.06038916856050491,-0.10597739368677139,0.1095954179763794,-0.017641907557845116,0.002533068647608161,0.133973628282547,-0.3328770399093628,0.07640969753265381,-0.06726553291082382,-0.03710781782865524,-0.17150485515594482,0.11925584077835083,0.0942174419760704,0.21347598731517792,0.20098648965358734,0.2148904651403427,-0.19097088277339935,-0.22435462474822998,-0.13245747983455658,-0.021381860598921776,0.2484087496995926,-0.307223379611969,0.10230820626020432,0.19125813245773315,-0.11159038543701172,0.1072896271944046,0.03258296474814415,0.12839125096797943,0.18262174725532532,0.2391396015882492,-0.2707538306713104,-0.03633933886885643,0.13443396985530853,0.14300796389579773,0.12135227769613266,-0.22745977342128754,0.12754908204078674,0.1031518206000328,-0.3781251013278961,-0.14810043573379517,-0.12836705148220062,-0.21921606361865997,0.02622334472835064,0.028672639280557632,-0.13647612929344177,-0.07622227817773819,0.06097465381026268,-0.07817792147397995,0.1416654884815216,0.007750722113996744,-0.12439993768930435
1_6769_u_4,0.17738159000873566,0.02058153599500656,-0.2121545523405075,-0.2721692621707916,0.09236597269773483,0.20323406159877777,-0.01783013716340065,0.14885865151882172,-0.15192997455596924,0.00032416731119155884,-0.0358525887131691,-0.061863671988248825,0.0996200293302536,0.12447279691696167,-0.1612101048231125,0.13677483797073364,-0.09492786973714828,0.190987691283226,-0.15994064509868622,-0.013290132395923138,0.058378666639328,0.10969433933496475,-0.06554663181304932,0.2276754379272461,-0.018643172457814217,-0.04326103255152702,0.14835338294506073,-0.08225195109844208,-0.1486460268497467,0.10790091753005981,-0.13524702191352844,-0.0744461938738823,0.06002628803253174,0.09009998291730881,-0.04067326337099075,0.08963020145893097,-0.21091122925281525,-0.07011590152978897,-0.20410163700580597,0.15594859421253204,-0.141765296459198,-0.036702610552310944,-0.05368700250983238,-0.06677909940481186,-0.044235315173864365,-0.20014135539531708,-0.02473248913884163,0.21612361073493958,-0.001766868750564754,-0.19942151010036469,0.11041928827762604,-0.295152872800827,-0.03142504766583443,-0.03843795880675316,-0.06069595739245415,-0.02716842293739319,0.18612714111804962,-0.0359162762761116,0.05745739862322807,0.11853962391614914,-0.21115028858184814,-0.030405400320887566,-0.11485651880502701,0.04142806679010391,-0.07972443848848343,-0.06331177800893784,0.3405633866786957,0.10649603605270386,-0.04377586767077446,0.07289250940084457,0.15947343409061432,-0.15193413197994232,-0.2216026335954666,0.09860562533140182,0.12255021184682846,-0.06819695234298706,0.19672523438930511,-0.13749364018440247,-0.024022642523050308,0.11224737018346786,-0.13973885774612427,0.15773312747478485,0.044945280998945236,-0.025768069550395012,-0.020629024133086205,0.14726115763187408,-0.06797312200069427,-0.15943790972232819,-0.15437602996826172,0.3130858540534973,0.12905527651309967,0.05359770730137825,-0.05079716071486473,-0.0030425176955759525,-0.019100850448012352,0.0825875997543335,0.2980857789516449,0.1826738566160202,0.09382826089859009,-0.14407415688037872,0.07527049630880356,-0.12896433472633362,-0.14609618484973907,0.06446972489356995,0.24552468955516815,0.2069852352142334,0.006792867090553045,-0.16973350942134857,0.2982342839241028,-0.12429733574390411,-0.018001249060034752,-0.06225079298019409,-0.025499699637293816,-0.38910770416259766,-0.0925261601805687,0.13280333578586578,0.10234719514846802,0.018011121079325676,-0.04753952845931053,-0.1047583594918251,0.11999843269586563,-0.1943049281835556,0.029406387358903885,-0.028310904279351234,-0.14858265221118927,-0.0036768808495253325,0.023652678355574608,0.15594787895679474,0.02515813149511814,-0.08104138821363449,-0.03719722107052803,0.11917153745889664,-0.14061997830867767,-0.22647321224212646,0.22668138146400452,-0.21125487983226776,-0.1453040987253189,0.1719226837158203,-0.07500266283750534,0.14948277175426483,0.09014912694692612,-0.30820733308792114,0.022101102396845818,0.24749509990215302,-0.13469183444976807,-0.11321903765201569,0.08449272066354752,-0.1983160525560379,0.10040849447250366,0.4405701756477356,-0.004268109332770109,0.07454803586006165,-0.13806232810020447,-0.11313412338495255,0.2990085780620575,0.1507696658372879,-0.04044702649116516,0.0948692187666893,0.04197758063673973,-0.1540551632642746,0.1432524472475052,0.09240251034498215,-0.2417924851179123,-0.03573903068900108,-0.13545970618724823,-0.03817218542098999,0.12096311897039413,-0.00650829030200839,0.13855241239070892,-0.0038582172710448503,-0.025278637185692787,-0.05443347617983818,0.024949273094534874,-0.05356594920158386,0.09184136241674423,0.15408803522586823,0.01139648538082838,0.0569801889359951,0.013871674425899982,-0.48649993538856506,-0.10975620895624161,0.24628181755542755,0.050920695066452026,-0.016569433733820915,-0.16075679659843445,-0.006497308611869812,0.10126376152038574,0.272828072309494,-0.17476864159107208,0.026244452223181725,0.01638362742960453,-0.04932405427098274,-0.12769801914691925,-0.18811896443367004,-0.11799652874469757,0.13163450360298157,0.14486049115657806,-0.0058948989026248455,0.27546319365501404,-0.12261735647916794,0.0027348287403583527,0.20399391651153564,0.10314657539129257,0.06645573675632477,0.2325109988451004,0.0070535424165427685,-0.14668922126293182,0.06271450966596603,-0.07800979912281036,0.001189222908578813,0.14889228343963623,-0.16653047502040863,0.06853088736534119,-0.14656953513622284,0.08857128769159317,-0.157042995095253,0.029334692284464836,0.0700097605586052,0.18120184540748596,0.21125192940235138,0.19827622175216675,-0.12083374708890915,-0.12097997963428497,-0.17656010389328003,0.048943597823381424,0.15644386410713196,-0.1912771463394165,0.10907095670700073,0.19513581693172455,-0.1566878855228424,0.11644110828638077,0.060073256492614746,0.09699214994907379,0.10623558610677719,0.11155173927545547,-0.14209143817424774,-0.01832306757569313,0.06696974486112595,0.0903630405664444,0.11320513486862183,-0.10194871574640274,0.18230430781841278,0.03969591483473778,-0.32859835028648376,-0.08576982468366623,-0.054468195885419846,0.0021315806079655886,0.0527619831264019,0.09863104671239853,-0.13517878949642181,-0.05499385669827461,0.09169738739728928,-0.05792088061571121,0.05641618371009827,-0.03395044803619385,-0.11440680176019669
1_6835_u_1,0.25265130400657654,-0.22430923581123352,-0.23859243094921112,-0.37476620078086853,0.28039878606796265,0.4824469983577728,-0.058729689568281174,0.34939298033714294,-0.20535770058631897,0.017805784940719604,-0.2592262625694275,-0.23868651688098907,0.21142669022083282,0.46951889991760254,-0.08930053561925888,0.24170179665088654,-0.35307741165161133,0.10764332860708237,-0.4217427372932434,0.1192561537027359,0.13524042069911957,0.1280757039785385,-0.04303748533129692,0.25250309705734253,-0.16983453929424286,0.010346339084208012,0.2985225319862366,0.24533076584339142,-0.2997981309890747,0.12488152086734772,-0.0858064740896225,0.06895714998245239,0.20134194195270538,0.0024390427861362696,0.024693800136446953,0.12641742825508118,-0.2293941080570221,-0.12050770968198776,-0.18209947645664215,0.5430935621261597,-0.1747893989086151,0.010179111734032631,-0.1008063480257988,-0.06141132861375809,-0.041921425610780716,-0.2151929885149002,-0.17420513927936554,0.2421327829360962,-0.06413690000772476,-0.2819191515445709,0.07023759931325912,-0.5430592894554138,0.012456823140382767,0.12415950745344162,-0.0043887123465538025,-0.06920111179351807,0.426668256521225,-0.014324096031486988,0.27119630575180054,0.3062916696071625,0.15951840579509735,-0.03420266881585121,-0.11682609468698502,-0.11779643595218658,0.014027710072696209,-0.01298273541033268,0.5664543509483337,0.029192203655838966,-0.18500162661075592,0.21517328917980194,0.20658433437347412,-0.3356165587902069,-0.16864824295043945,0.028960784897208214,0.2062160223722458,-0.1710326224565506,0.20437343418598175,-0.2189234048128128,-0.07874274253845215,0.1461317539215088,-0.22247791290283203,0.17317043244838715,0.025596458464860916,0.019331907853484154,-0.14852766692638397,0.2280590832233429,0.059539277106523514,-0.019197504967451096,-0.25856277346611023,0.5356312394142151,0.014313322491943836,0.12248877435922623,-0.1654788702726364,0.24081753194332123,0.11866863816976547,0.20518915355205536,0.513422429561615,0.13129985332489014,0.09074731916189194,0.006019740831106901,0.17509415745735168,-0.06902926415205002,-0.10922636091709137,0.042919982224702835,0.017616577446460724,0.5185384154319763,-0.13316196203231812,-0.3212462067604065,0.32131892442703247,-0.11869163811206818,-0.06311166286468506,-0.008212648332118988,-0.09720729291439056,-0.5583738684654236,0.005811251699924469,0.13752710819244385,0.14297600090503693,-0.11038912832736969,0.11478332430124283,-0.25533154606819153,0.22354863584041595,-0.5703150033950806,-0.019069069996476173,-0.1353154182434082,-0.0700715184211731,-0.12658433616161346,-0.16988733410835266,0.25131192803382874,0.19047453999519348,-0.09430953115224838,-0.05365018919110298,0.2300156205892563,-0.17823174595832825,-0.23179160058498383,0.17213411629199982,-0.2077089101076126,-0.04464281350374222,0.3819678723812103,-0.3176495432853699,0.17002266645431519,0.122841976583004,-0.43672916293144226,0.06940530985593796,0.36930954456329346,-0.21176281571388245,-0.1419738382101059,0.32005739212036133,-0.328156441450119,-0.03944331780076027,0.4656444489955902,-0.026473795995116234,-0.03229537606239319,-0.37384483218193054,-0.20446603000164032,0.4581400454044342,0.3110695481300354,0.021035099402070045,0.24466104805469513,0.09510190784931183,-0.04352624714374542,-0.0998556911945343,-0.03800741583108902,-0.457444965839386,0.06736301630735397,0.018681911751627922,-0.05404672026634216,0.2899360656738281,0.061949778348207474,0.24919836223125458,-0.14394289255142212,-0.12926307320594788,0.13022290170192719,0.14825041592121124,0.13989685475826263,0.03919307515025139,0.045094508677721024,-0.019167611375451088,0.047162335366010666,0.05488232523202896,-0.5526334643363953,-0.433073490858078,0.43916353583335876,0.0782097578048706,-0.01747824437916279,-0.19211994111537933,-0.012909297831356525,0.2436458170413971,0.39234140515327454,-0.1248340979218483,0.016470516100525856,-0.06322982162237167,-0.07832314074039459,-0.10662849247455597,-0.2750978171825409,-0.18595832586288452,0.1345602571964264,0.36845362186431885,0.033355843275785446,0.2698450982570648,-0.08975224941968918,-0.10316448658704758,0.2672674357891083,0.21286523342132568,0.1940927356481552,0.21391311287879944,-0.11385443061590195,0.03559204563498497,0.16981105506420135,-0.05123389884829521,-0.1250850111246109,0.20496824383735657,-0.5209202170372009,0.12596829235553741,-0.06831762194633484,-0.09607724845409393,-0.2276965230703354,0.33348774909973145,0.13877178728580475,0.39386674761772156,0.2227332592010498,0.338156521320343,-0.10582702606916428,-0.18584497272968292,-0.19290481507778168,-0.13119004666805267,0.25934410095214844,-0.4332664906978607,0.24267660081386566,0.1705382913351059,-0.09315665811300278,0.05599656328558922,0.0567777156829834,0.23046723008155823,0.37655746936798096,0.42737317085266113,-0.4006604254245758,-0.04604470357298851,0.21658925712108612,0.3899058401584625,0.05289630964398384,-0.21712353825569153,0.1354830116033554,-0.007143072318285704,-0.34486955404281616,-0.2323085516691208,-0.1912665069103241,-0.29404744505882263,0.12000147253274918,0.02750036120414734,-0.13581334054470062,-0.008158608339726925,0.09063128381967545,-0.08737227320671082,0.0762612447142601,0.03616635873913765,-0.2724664509296417
