,0,1,2,3,4,5,6,7,8,9,10,11,12,13,14,15,16,17,18,19,20,21,22,23,24,25,26,27,28,29,30,31,32,33,34,35,36,37,38,39,40,41,42,43,44,45,46,47,48,49,50,51,52,53,54,55,56,57,58,59,60,61,62,63,64,65,66,67,68,69,70,71,72,73,74,75,76,77,78,79,80,81,82,83,84,85,86,87,88,89,90,91,92,93,94,95,96,97,98,99,100,101,102,103,104,105,106,107,108,109,110,111,112,113,114,115,116,117,118,119,120,121,122,123,124,125,126,127,128,129,130,131,132,133,134,135,136,137,138,139,140,141,142,143,144,145,146,147,148,149,150,151,152,153,154,155,156,157,158,159,160,161,162,163,164,165,166,167,168,169,170,171,172,173,174,175,176,177,178,179,180,181,182,183,184,185,186,187,188,189,190,191,192,193,194,195,196,197,198,199,200,201,202,203,204,205,206,207,208,209,210,211,212,213,214,215,216,217,218,219,220,221,222,223,224,225,226,227,228,229,230,231,232,233,234,235,236,237,238,239,240,241,242,243,244,245,246,247,248,249,250,251,252,253,254,255
1_10004_u,-0.079560034,0.117668174,-0.14071707,0.114817224,0.13962889,-0.040694248,-0.17417888,-0.012370161,-0.044536587,0.095747896,-0.3998056,0.15199979,0.13273393,-0.018039199,0.11398908,-0.11011747,-0.16952682,0.017644234,0.09481807,0.3990709,0.026671246,-0.11240115,-0.14262672,-0.075486824,0.12266175,0.12213963,0.06551925,-0.1846969,0.16510908,-0.013539344,-0.24485444,0.1785616,0.21649991,-0.25380164,-0.20473354,-0.027233059,0.20667847,-0.15433082,-0.0924603,0.23532414,0.090957664,0.11904233,0.06696752,0.04376292,-0.1305785,-0.1614909,-0.18245438,0.12357706,0.008297899,0.048062984,-0.14651424,-0.11546075,-0.13479923,0.3178396,0.07371077,-0.2696037,0.15899722,0.046845738,0.09361109,0.13928285,0.055374403,-0.13185757,0.10316032,0.20019992,-0.12378488,0.33906257,0.22824262,0.050092053,0.3373954,0.062835634,0.19104727,0.029940698,0.08432733,-0.013792902,-0.26678512,-0.1941476,-0.06402611,0.22961807,-0.052971132,0.013967405,0.11717899,0.08228791,-0.27144104,0.055837184,-0.05444589,0.08889357,-0.22907344,-0.14716733,0.2386355,0.34476563,-0.123991646,-0.05930068,0.06816151,-0.26463678,-0.019004831,-0.19113009,-0.11172735,-0.14090449,-0.07993721,0.19021735,0.018884147,-0.4166927,0.11431859,0.057917297,0.079284124,-0.091138594,0.20543075,0.038912147,-0.03602631,-0.025583679,0.041514,8.3816056e-05,0.00022993684,0.11944536,0.44322225,0.0104330275,-0.22883017,0.14240839,0.28050056,-0.26553622,0.10784405,-0.5361739,-0.31133732,0.12194405,-0.11055376,-0.26742896,0.20909333,0.44371367,0.004573498,-0.05204111,0.038641017,-0.017026976,-0.01388246,0.14745261,0.04920076,0.02883172,0.04104869,0.09269189,-0.036500104,-0.2387998,-0.2125756,0.24798469,-0.20462821,0.04299293,0.063661866,-0.10995878,-0.2709042,-0.17776218,0.18787129,0.03418129,0.019986939,0.05687681,-0.07138377,0.40761372,0.24859922,-0.1684773,0.38838035,0.14553122,0.027802313,0.07923875,-0.15372305,-0.11577386,-0.20095229,0.018607358,-0.16459878,0.048333317,0.13191329,0.09476877,-0.23671623,0.13060509,0.2650093,-0.15129094,0.18257996,-0.21705417,0.2497261,0.00996651,-0.07596266,-0.2584726,-0.10924237,0.23721185,0.03841546,0.13783962,0.14126384,0.24772492,0.15756114,-0.14232798,-0.06760329,0.32852012,-0.22947298,-0.0025990114,-0.05801145,-0.25950113,0.22088175,-0.055997323,-0.08001053,-0.21501067,-0.07352232,-0.22951196,0.24870007,-0.056825843,-0.21724549,0.2609039,0.0761526,0.1851419,-0.06257061,0.093996905,0.11126079,-0.014678872,-0.19907366,0.0014422864,-0.025221964,0.21091513,0.016604071,0.048538562,0.28830907,-0.017799987,0.31148365,-0.08604037,-0.06802278,-0.16899398,0.13243131,-0.072278835,0.021425962,-0.14765336,0.39258394,-0.24489652,-0.0404396,-0.044883706,-0.24664627,-0.30136493,0.21739955,0.35064957,-0.031729072,0.045150165,0.27996728,-0.03218112,0.10517994,-0.008648949,0.09276959,-0.033753373,-0.04373334,0.20065294,0.25042543,-0.2015572,0.057820965,0.26852655,-0.06744606,-0.04620967,0.034325548,-0.11564533,0.3213333,-0.32068762,-0.0097941635,0.059524465,0.15207176,-0.051672924
1_10009_u,-0.22170417,-0.043267507,-0.043203633,0.024410913,-0.042554073,0.006262271,0.046562005,-0.29362062,0.01560527,0.01610139,-0.21352844,0.25931814,0.08139844,-0.12533997,0.009403962,-0.15802877,-0.096296206,-0.15848164,0.22289565,0.31551018,-0.028602356,-0.26578793,0.15122943,-0.056333978,0.07643931,0.38935366,-0.3492042,-0.012449016,-0.0051168674,-0.24470162,-0.18730636,-0.03541444,0.21143858,-0.037082464,-0.12150997,-0.16588067,0.06988187,-0.1694886,-0.02422386,-0.106608264,-0.12770846,0.1645967,0.33814004,-0.18574913,-0.11993518,-0.20650259,-0.2727228,-0.31118152,-0.0063454094,0.040438134,0.0067543,-0.14315213,-0.28243977,0.12903452,0.08775242,-0.21040218,0.19765578,-0.0471622,-0.0011847265,0.19598837,-0.04763624,-0.1114882,0.26168558,-0.11044812,-0.044049844,0.25284177,-0.17011479,0.07978324,0.24522296,-0.07895179,0.17190324,-0.24031985,0.028046558,-0.067311965,0.028967468,-0.028641004,0.065814845,0.018063653,0.09086569,0.09691778,0.16845894,0.10413708,-0.13054584,0.049156513,-0.20375347,0.021265289,-0.11734616,-0.18293361,0.34257525,0.17404763,0.01698079,0.15715192,0.015825618,-0.4469981,0.06626218,-0.16556907,0.077035986,-0.17565335,-0.008058619,0.23034231,-0.11672031,-0.09828777,-0.019890388,-0.09116786,0.00787697,-0.18266644,0.36981308,0.07363021,0.010573831,-0.21237217,0.31327376,0.15214185,-0.17939268,-0.062288027,0.45585075,-0.086386785,-0.23482552,0.23453875,0.3475503,0.14825463,0.17021886,-0.2759478,-0.26019105,0.20330189,-0.24591994,-0.26960215,0.33448905,0.27366456,0.17839791,-0.0438163,0.061261237,-0.07493934,-0.037477117,0.25015485,0.114384286,-0.18637902,-0.014504017,-0.17483354,0.06917929,-0.35007825,-0.024448184,0.04195589,-0.2558051,0.12995568,0.10980799,-0.061598696,-0.26550648,-0.07350744,-0.0095007215,0.14034638,-0.011924858,-0.09215825,-0.17882931,0.21944752,0.2773836,-0.12022326,0.14659873,0.116178155,-0.23167928,0.1047216,-0.081948556,0.0861505,-0.38358426,-0.062743194,0.0009010785,0.17050822,0.004205907,-0.16916655,-0.12351423,0.061617326,0.31202826,-0.16031979,0.18500376,-0.077688925,0.42521396,0.014685652,-0.22724533,-0.31774288,-0.17913178,0.12522662,-0.027813885,0.061677117,0.20259933,0.08750359,0.09481989,-0.20129423,0.15745057,0.43885097,0.02596868,0.07402711,-0.10669488,0.10096397,0.29283652,-0.3211804,0.18243493,-0.1022766,0.052832235,-0.3954551,0.05837042,0.18651143,-0.053168274,0.13564315,0.07113369,0.1425827,-0.36924958,0.020830585,-0.028716475,0.124421395,-0.14163685,-0.00057407544,-0.1653962,0.15072107,-0.07331386,-0.065793894,0.338061,0.13446788,0.13715455,0.06380575,-0.106745414,-0.0055233175,0.08984103,-0.005517723,0.009868781,-0.00040881112,0.30853236,0.06796683,-0.03711646,-0.13399442,0.14191106,-0.26837808,-0.020903949,0.19896328,-0.037810024,0.13410847,0.01890864,0.30472785,-0.06102083,0.037828304,-0.03290834,0.36431104,0.13868621,-0.069409095,-0.044712484,-0.09404087,0.022946883,0.43146497,-0.071579434,0.18561208,0.06259554,-0.16299847,0.34564286,-0.2770028,0.19370146,-0.15034826,0.07125201,0.15120952
1_1001_u,-0.21186523,0.07723329,-0.022902476,0.00094824884,0.052975602,0.05737565,-0.07016891,-0.1769112,-0.007153413,0.0033825904,-0.2758122,0.1492207,0.09623679,0.08012484,-0.010835323,-0.14968538,-0.03998302,-0.14687386,0.0882351,0.20816433,-0.04081078,-0.14279005,0.07529546,0.00028077365,0.11231434,0.084856905,-0.077758975,-0.051930632,0.08354033,-0.052166887,-0.17869811,0.056969937,0.19974837,-0.10830214,-0.10013284,-0.06851128,0.18276112,-0.048254892,0.022317583,-0.019328374,-0.057963517,0.05552678,0.11845167,-0.054914184,-0.08881538,-0.1267262,-0.23731506,0.0063078697,-0.015963687,0.08067786,-0.13117477,-0.057525333,-0.28870153,0.13063236,0.099609114,-0.18706176,0.13217661,0.019938929,0.034528468,0.09137692,-0.07477241,-0.1159752,0.07705917,-0.061198633,-0.14125775,0.13599725,0.09258376,0.13477878,0.26689813,-0.14028214,0.22226961,-0.06487612,0.06341695,-0.09595521,-0.277047,-0.05639667,-0.059435904,0.06570641,0.00039921553,0.05766922,0.07112731,-0.0020577924,-0.11129365,0.17517446,-0.13491017,0.14530006,-0.078986265,-0.077711545,0.30285612,0.13000455,0.0732412,0.086377464,0.016143994,-0.363451,-0.014993489,-0.13022643,-0.046582244,-0.042634506,0.003287404,0.29421958,-0.08481002,-0.20523301,0.0337387,-0.080348715,0.03714938,-0.042527396,0.08152179,0.053989735,-0.08119961,-0.10589886,0.07757787,-0.032433953,-0.15242624,-0.034062106,0.2642421,-0.093818404,-0.23855329,0.035304632,0.18300678,0.035391208,0.07023359,-0.4003795,-0.2822727,0.11129347,-0.14032127,-0.14124158,0.26460895,0.280511,0.16990003,-0.022466024,-0.00076611637,-0.020640023,0.024061128,0.20353861,0.064094536,-0.006139672,-0.034719177,-0.054764647,-0.021463558,-0.1085332,-0.08506947,0.037240364,-0.16296196,0.013832191,0.04082769,-0.0791603,-0.18723343,-0.14539301,0.014188935,0.06938367,0.11076539,0.10846212,-0.24894805,0.13913392,0.18979451,-0.19662108,0.2308354,0.08011926,-0.073290676,0.00044190587,-0.015827438,-0.024812127,-0.15137492,-0.054872878,-0.03083394,0.06723981,0.02291068,-0.07977572,-0.21485315,0.33027646,0.1978226,-0.07614515,0.11725058,-0.12948309,0.27883965,-0.033004917,-0.2233992,-0.22377788,-0.2259777,0.08937605,0.082624674,0.043545995,0.07322677,0.038346943,0.06698983,-0.12951575,0.088954024,0.24882631,-0.1053988,0.09697073,-0.0027625218,-0.03846767,0.1934837,-0.10267382,0.0531556,-0.17186296,-0.028651817,-0.2224988,0.105650924,0.048895612,0.0037641644,0.28304833,0.03662392,0.16159648,-0.1787831,0.14234109,-0.003988803,-0.07527655,-0.23210602,0.09730094,-0.07964106,0.09086449,-0.07165261,-0.09220291,0.17001007,0.06800171,0.0935462,0.026041443,-0.07594265,-0.037928727,0.09858473,-0.018101411,-0.10302394,-0.07794922,0.30475715,-0.03759901,-0.0063077696,-0.05261444,-0.06886836,-0.28954515,0.098338015,0.18247434,0.0081814,0.039513033,0.13942106,0.18325011,-0.021330042,0.087274425,0.010779436,0.0067343875,0.0047902213,-0.029533064,0.09551599,-0.16942267,0.19851267,0.16484351,-0.08182058,0.12033615,0.08461656,-0.13497643,0.25589582,-0.2005314,0.1167809,-0.05768413,-0.013672522,-0.019680236
1_1003_u,-0.07459209,0.16318333,-0.0781714,0.037365917,0.17351697,0.00028586984,-0.2122461,-0.016433515,-0.032775998,0.047259413,-0.33092588,0.0824536,0.09584815,0.05689455,0.07412734,-0.14589143,-0.04637692,-0.09342223,0.06798035,0.20730262,0.027023947,-0.012394337,-0.108362295,-0.0666503,0.16652004,0.016608024,0.06132694,-0.14669557,0.0954751,0.06070605,-0.17214254,0.2011466,0.15781258,-0.20224325,-0.09464839,-0.01935991,0.18544166,-0.029525552,-0.03796602,0.14090328,0.019758988,0.009345473,-0.052986044,0.05214454,-0.057399232,-0.08583882,-0.13643494,0.18180457,-0.0030454218,0.07261938,-0.14442654,-0.024243189,-0.11731573,0.31036243,0.08603776,-0.18679442,0.051195312,0.07064647,0.08995646,0.10797157,0.020901443,-0.15242052,-0.03339657,0.047646236,-0.19490483,0.19602154,0.22814369,0.118137054,0.3113888,-0.048233103,0.1774359,0.053699683,0.08572145,0.032715317,-0.35419554,-0.13380417,-0.065356374,0.14039247,-0.021298679,-0.04252428,0.0589687,-0.009235709,-0.16688418,0.14339972,-0.06834413,0.09907833,-0.09498771,-0.08438294,0.26586166,0.23816024,-0.014023626,-0.06968688,0.0573468,-0.2489625,0.030817032,-0.08220228,-0.091209695,-0.068281196,0.023286186,0.24892698,-0.017796164,-0.33629638,0.16591527,0.0065873824,0.03438294,-0.0707983,0.0010284468,0.04524003,-0.10008941,-0.016344115,0.0024257482,-0.008541304,-0.0119545255,0.06307161,0.27828738,-0.013268729,-0.19628145,0.011885262,0.16029797,-0.18082637,0.1427475,-0.4423464,-0.25758982,0.0805771,-0.04711927,-0.19715658,0.15157436,0.32642013,0.011247957,-0.025617575,-0.016134067,0.005095612,0.033566486,-0.014273164,0.008937678,-0.005478689,0.02719057,0.110784054,-0.068827905,-0.088342704,-0.1443489,0.15826349,-0.12922405,-0.055679716,0.047633287,-0.07297763,-0.13270389,-0.12582551,0.14648473,0.043859698,0.08147584,0.13491866,-0.13735734,0.26978955,0.19605651,-0.17920709,0.28728506,0.18419613,0.056329966,0.09368384,-0.047520608,-0.077030025,-0.057050627,-0.023348546,-0.13882929,-0.046463262,0.10196171,0.06349354,-0.2441432,0.28202176,0.17042148,-0.015027644,0.16317284,-0.19180185,0.1729125,-0.045968283,-0.07564067,-0.07764147,-0.13786088,0.19839025,0.018483525,0.08487042,0.08029356,0.1495776,0.0819506,-0.07414806,-0.04958339,0.28332973,-0.18987636,-0.014309506,0.016898599,-0.18289444,0.15579934,0.028648479,-0.03033011,-0.14703844,-0.034867804,-0.05283126,0.18513043,-0.0559676,-0.054858964,0.28528693,0.042270277,0.15611346,-0.059673727,0.060209054,0.057989635,-0.07869386,-0.16959374,0.04027566,0.02462632,0.15895104,0.0037335653,-0.0022981968,0.14890394,-0.045348056,0.21530834,0.0025260777,-0.056111902,-0.09223797,0.12981148,-0.028060837,-0.015521727,-0.17885233,0.25996414,-0.20484824,-0.017012857,0.044621445,-0.26825294,-0.22474883,0.22180186,0.22847727,-0.112960055,0.017484134,0.1996048,-0.011502949,0.06806523,0.022359867,0.10231519,-0.12412585,-0.052758742,0.058496684,0.18849692,-0.20604001,0.10980936,0.23052004,-0.055375814,0.03352456,0.063406095,-0.11627203,0.21998782,-0.2523902,0.05559153,0.07110021,0.0776503,-0.071689464
1_10190_u,-0.08422097,0.018044028,-0.012572641,0.2256604,0.11051243,-0.09255749,-0.22045223,0.010008834,-0.049782954,-0.048166092,-0.32041457,0.13784909,0.08553157,-0.042533647,0.10833833,0.006900166,-0.1857483,-0.1289825,0.23575087,0.39132822,0.0883939,-0.2901356,0.048332144,-0.04732884,0.13996068,0.33769375,-0.16214721,-0.038310464,0.14837582,-0.15448372,-0.20660467,0.05221509,0.22540946,-0.28118965,-0.19154751,-0.23590158,0.07549207,-0.19342642,-0.09352349,0.059622217,-0.054722268,0.20220426,0.16481547,-0.15097016,-0.19179597,-0.2472316,-0.14414941,-0.17597196,0.025202898,0.14123781,0.0054625575,-0.17667292,-0.16779451,0.28328955,-0.012970085,-0.24378169,0.12581712,0.061728325,0.030440465,0.22308257,-0.013619656,-0.096855834,0.1455252,0.14160852,-0.02139896,0.4108304,0.06028048,0.069327846,0.2749085,-0.0558949,0.21010838,-0.023036404,0.005066268,0.017205296,-0.22681813,-0.17690228,0.008385675,0.22098446,0.14166649,0.029220043,0.24384359,0.0442132,-0.32890227,0.057789054,-0.16081886,0.24452524,-0.28606993,-0.25494033,0.2766875,0.4206194,-0.008246985,0.0074400413,0.047098853,-0.41630146,-0.06837806,-0.24480598,0.043245982,-0.17488562,-0.013785744,0.20637882,0.013126299,-0.35268903,0.07552263,0.1963347,-0.030994637,-0.1913289,0.26305166,0.13769315,-0.007249841,-0.16203311,0.2298389,0.1326606,-0.07249525,0.23281606,0.519913,0.014456294,-0.07357078,0.24605782,0.4188446,-0.097007744,0.2841106,-0.5179991,-0.3497736,0.11665318,-0.261428,-0.417726,0.31355575,0.41681886,0.11870884,0.019507475,0.12439992,0.06566694,-0.08963436,0.25139615,0.07442202,-0.13448189,0.055084527,0.060792275,0.01009876,-0.34394532,-0.06161296,0.11867205,-0.11639847,0.29968843,0.11736903,-0.057441797,-0.30702025,-0.07018632,0.17525981,0.12047489,0.088994026,0.072391175,-0.08649403,0.3804148,0.37730873,-0.18477938,0.3665154,0.16639645,-0.07805604,0.24478188,-0.1596351,0.045675095,-0.4011573,-0.0061273375,-0.014982122,0.13357984,0.24519745,-0.09269737,-0.29110843,0.06243796,0.4377074,-0.2719843,0.2487092,-0.24972014,0.3121559,-0.03386673,-0.1670852,-0.409847,-0.14014317,0.23579577,-0.0046574534,0.14737661,0.21623993,0.18933976,0.19891553,-0.29756045,-0.14503461,0.45159674,-0.19925068,-0.09906792,-0.1139964,-0.00708392,0.47009888,-0.32102618,0.020825505,-0.14768805,0.028225118,-0.34483674,0.101009004,0.01004878,-0.27541557,0.32137635,0.062018614,0.14796017,-0.16208385,-0.00559248,-0.014133182,0.12900494,-0.060950607,-0.13415386,-0.096518576,0.19555996,-0.03919308,0.026830265,0.3569152,-0.045141745,0.3145308,0.0047876583,-0.09333166,-0.08079794,0.16372985,-0.039198387,-0.06893515,-0.14526913,0.2507048,-0.10705338,-0.07764724,-0.037887864,-0.145806,-0.39968446,0.11088158,0.25958404,-0.1500036,0.13977216,0.26995292,0.15001032,0.13053298,0.06544874,0.11892461,0.09966081,0.100639455,0.14764522,0.19411626,-0.23262548,0.0490518,0.49602824,-0.112281375,0.0790591,0.0065477653,-0.1187346,0.32180893,-0.23809989,0.10075978,-0.105435334,0.16643345,0.03678215
1_10462_u,0.054940116,0.16947286,-0.16362435,0.11387595,0.1462125,-0.09912477,-0.2852559,0.052425988,-0.06587459,0.0875303,-0.33657667,0.04185402,0.13792455,-0.031985145,0.1117515,-0.08033196,-0.14463358,0.030345544,0.15072714,0.3361476,0.057687398,0.015419358,-0.15045783,-0.14680336,0.18708834,0.06893725,0.055142857,-0.13524579,0.1492009,0.031866256,-0.23599319,0.24615149,0.20119503,-0.21296468,-0.15131333,-0.08383306,0.22052789,-0.11130539,-0.1176899,0.18952696,0.055294633,0.009199992,-0.0007251531,0.011575487,-0.09555234,-0.14762649,-0.15676016,0.17019096,0.016559994,0.121741496,-0.091398045,-0.1137002,-0.07281741,0.4266769,0.11245995,-0.2262702,0.09002869,0.06735244,0.16792889,0.17705056,0.052094053,-0.23892689,0.021105101,0.117026545,-0.1585013,0.30030665,0.30031636,0.046644438,0.36683437,0.08040612,0.18194632,0.033039372,0.07299551,0.026932329,-0.35232946,-0.23843408,-0.06251529,0.16885328,-0.009913436,-0.030238932,0.15959875,0.031925824,-0.18736915,0.053500593,-0.045024853,0.15848775,-0.20139186,-0.21498492,0.18084681,0.42695805,-0.04527374,-0.09277794,0.10347551,-0.23466137,-0.04117268,-0.11094562,-0.0958349,-0.10096419,-0.021105802,0.25183216,0.05183363,-0.4007082,0.15982835,0.012822348,0.10064154,-0.12341022,0.13359475,0.10442448,-0.03937257,0.0021385178,0.004571265,0.04837097,0.06201399,0.08317562,0.4116089,0.036372896,-0.18993503,0.14114018,0.23183393,-0.27211955,0.16647126,-0.5052551,-0.25625437,0.15287942,-0.07272004,-0.355258,0.2057097,0.48846388,0.035001915,0.0014167564,0.002701,0.010539248,-0.03297493,0.00475363,-0.008157494,-0.106869556,0.055563547,0.14476669,-0.009215151,-0.24993935,-0.21398571,0.18889163,-0.111481845,-0.018871797,0.031698726,-0.14561968,-0.23569138,-0.13651703,0.17028311,0.02339346,0.029481573,0.033341315,-0.13116562,0.33699182,0.2962536,-0.16861735,0.30377147,0.10619012,0.06461205,0.17730539,-0.1295584,-0.052036017,-0.14405148,0.002774994,-0.14730911,-0.05162516,0.21341579,0.052180845,-0.32637516,0.14554437,0.30307612,-0.12781148,0.19795883,-0.2540128,0.13818534,-0.024750276,-0.057888776,-0.15899539,-0.08735988,0.2543039,0.04758633,0.15564637,0.11434032,0.26575366,0.17541854,-0.20095389,-0.1358818,0.37959892,-0.24848855,-0.033633728,-0.024723144,-0.26367107,0.18589976,0.012572581,-0.06583943,-0.11470159,-0.03540536,-0.07943728,0.2673404,-0.031546183,-0.18034537,0.24381538,0.094102584,0.14347342,-0.06961391,0.088623635,0.040234026,-0.050977636,-0.14647709,-0.044290688,-0.0053088064,0.24677984,0.000337071,0.01975718,0.21412216,-0.07124479,0.35169944,0.006061739,0.0015308213,-0.072564915,0.17714365,-0.087070696,0.064720474,-0.23156767,0.2600995,-0.25419435,-0.052699357,0.03185452,-0.3274942,-0.1977098,0.26850694,0.28385174,-0.15369006,0.09450539,0.19235876,-0.028266704,0.1352295,-0.0026545078,0.142238,-0.08615228,-0.019903013,0.18129657,0.23831736,-0.2575728,0.03152172,0.34352618,-0.016096657,-0.029631475,0.031018248,-0.19642489,0.30052707,-0.33108073,0.045028012,0.07982831,0.105223194,-0.08570704
1_10495_u,-0.24007626,0.012092923,0.011141835,0.013720068,-0.0077940165,0.0537529,-0.037857544,-0.2515003,-0.001093369,-0.08555926,-0.2359827,0.15600637,0.08046146,0.03932279,-0.03221299,-0.14278701,-0.049271982,-0.2157657,0.1509333,0.18525302,-0.01484558,-0.26806203,0.17671058,-0.03781004,0.13276137,0.21977961,-0.26554003,-0.0076998025,0.0362238,-0.1728109,-0.16697465,-0.04336072,0.1888523,-0.03900693,-0.049262535,-0.17869686,0.11405771,-0.08068508,0.04291583,-0.14952445,-0.09008632,0.07386278,0.2442025,-0.13027301,-0.122268595,-0.1168889,-0.22520731,-0.1716346,-0.002383133,0.100129366,-0.043051038,-0.082285546,-0.32613996,0.13876863,0.11810849,-0.18864202,0.14323542,0.013199962,0.043345984,0.10065017,-0.097856306,-0.15300408,0.15618543,-0.15055536,-0.083782576,0.14415918,-0.032418124,0.10849674,0.22598894,-0.16160654,0.21973215,-0.17368953,0.02961081,-0.08132435,-0.20061974,-0.017236305,0.005611217,-0.006255506,0.059871625,0.096745215,0.12218791,-0.0062233387,-0.14074998,0.12536368,-0.22491224,0.15579228,-0.07703366,-0.13035719,0.3398402,0.1312079,0.17401725,0.15446249,0.0013649408,-0.425455,0.06023121,-0.13335635,0.00820635,-0.06666961,0.059475776,0.3194623,-0.11513426,-0.12803437,-0.025945667,-0.11793119,0.023946151,-0.12394623,0.17551248,0.05390743,0.026183719,-0.18843813,0.21380793,0.032231666,-0.1926603,-0.059715606,0.3699836,-0.1134333,-0.19384992,0.08318204,0.26409444,0.16258626,0.14759515,-0.31252047,-0.27729017,0.20031026,-0.20188935,-0.25094882,0.3188489,0.2754707,0.26329765,-0.027944509,0.046068657,-0.06841943,0.046859376,0.25564015,0.102725245,-0.12868862,-0.07138207,-0.1432582,-0.01617714,-0.17877012,-0.06332582,0.012248404,-0.15018296,0.0667436,0.07837144,-0.10379124,-0.22487573,-0.12306943,-0.02771309,0.11710369,0.09867554,0.05100816,-0.2567958,0.13864994,0.22643213,-0.15332656,0.14567414,0.10347339,-0.12420695,0.07687328,0.033692375,0.09072576,-0.2344936,-0.10513204,0.008023684,0.05469426,-0.021138279,-0.17576893,-0.23983507,0.29175398,0.25891644,-0.1293991,0.1520575,-0.10940124,0.34602204,-0.012902798,-0.2939299,-0.26582283,-0.26284885,0.08287743,0.01185839,0.020631658,0.11222942,0.0026431815,0.08956571,-0.23065047,0.15311785,0.34474912,-0.069101535,0.11255445,-0.07103791,0.055602204,0.25279075,-0.21721466,0.13160935,-0.16710663,0.015174553,-0.2797118,0.067781806,0.10615879,0.033582516,0.23985021,0.031589966,0.16307831,-0.2912053,0.08098525,-0.05418346,-0.023125028,-0.19415729,0.063375786,-0.1506758,0.074632905,-0.110509835,-0.10597368,0.17252116,0.082989335,0.121839814,0.08474622,-0.05842327,-0.004471714,0.10060263,-0.0019929402,-0.105997704,-0.07816624,0.2855491,0.075406425,0.0054814587,-0.09152913,0.029897232,-0.27541313,0.019410208,0.10665516,-0.06354698,0.07455652,0.06850418,0.25959247,-0.02895229,0.10117268,0.0043139155,0.1645309,0.09572376,-0.07792765,-0.0238059,-0.19702752,0.1512511,0.28622788,-0.10733141,0.2044384,0.082173705,-0.13618386,0.2573058,-0.25015876,0.21597658,-0.14806604,0.03810578,0.024220506
1_10496_u,-0.28034806,0.0017443746,0.0538733,0.025220824,-0.0048198667,0.05855918,-0.093778744,-0.27853867,-0.033436928,-0.18943362,-0.21641293,0.21824291,0.072605625,0.020769423,-0.045433346,-0.103054546,-0.024268536,-0.22298764,0.1624917,0.2019357,-0.007716208,-0.35343778,0.21706067,-0.061856456,0.17421123,0.275544,-0.3580316,-0.05294439,-0.007801037,-0.26949653,-0.17943192,-0.08741599,0.19420654,-0.0816608,-0.10112622,-0.24675965,0.08735616,-0.07742386,-0.016349357,-0.22504428,-0.1058316,0.14714678,0.34625512,-0.15133227,-0.14914238,-0.08441615,-0.24229418,-0.30941033,0.025993139,0.21105348,-0.014828983,-0.18032525,-0.33699766,0.16459686,0.08576458,-0.22139421,0.07753336,0.008051028,-0.00052620063,0.15250772,-0.1200722,-0.13417004,0.13028419,-0.13621245,-0.079821706,0.20485322,-0.08268517,0.097771406,0.27512822,-0.17897344,0.25921157,-0.2346158,0.029998882,-0.03445708,-0.21890703,-0.05056719,0.04946896,0.056829732,0.11595744,0.086470924,0.17099555,-0.03233536,-0.22534418,0.114984214,-0.27984098,0.1715074,-0.120468415,-0.19379288,0.37444112,0.14802514,0.1961703,0.2150609,0.03318046,-0.5392995,0.08129701,-0.1518315,0.06292498,-0.13254283,0.0603245,0.34481558,-0.20814578,-0.09007671,-0.016268503,-0.10264981,-0.06006794,-0.19004487,0.24394436,0.091608964,0.11804023,-0.21090476,0.31147096,0.09095544,-0.21934031,-0.027080882,0.3878931,-0.12439232,-0.15201183,0.11130106,0.33392888,0.19903885,0.21808758,-0.35202795,-0.37577686,0.19695388,-0.2533402,-0.2889984,0.40604743,0.34946314,0.27305636,-0.05350096,0.15938564,-0.053873718,0.038064554,0.33551013,0.15645769,-0.19665283,-0.083570816,-0.17030714,-0.03001078,-0.29526255,-0.03681689,-0.072840266,-0.16482721,0.19651754,0.08629559,-0.122201405,-0.25311595,-0.15732236,-0.050757278,0.13325165,0.09258322,0.055641484,-0.21858852,0.16415213,0.3474098,-0.21385236,0.14625202,0.14086598,-0.11196609,0.16933607,-0.024528256,0.15197876,-0.30196646,-0.082812145,0.010237011,0.031608086,0.024859501,-0.2537704,-0.25449666,0.27763733,0.37515834,-0.19148698,0.15775274,-0.11353618,0.41332436,0.008778416,-0.35193858,-0.3356846,-0.27187395,0.15455641,-0.01897319,-0.011499179,0.12165401,0.008590191,0.10439032,-0.23911178,0.12658031,0.47734785,-0.13465507,0.07317084,-0.0914533,0.06962732,0.35017076,-0.35139963,0.21687333,-0.20847264,0.041885972,-0.33559766,0.039105017,0.14893535,-0.021815581,0.2176901,0.06722212,0.23955666,-0.34814093,0.060939796,-0.06609278,0.05385654,-0.16230483,-0.022320028,-0.21963596,0.08608916,-0.15383755,-0.06022295,0.24100451,0.119652025,0.12988651,0.14503841,-0.09865131,0.08245946,0.11905835,0.033375125,-0.10962327,-0.11968418,0.30974793,0.09410634,0.019840393,-0.100611724,-0.024694065,-0.37643784,0.009326014,0.0800594,-0.103095196,0.13949394,0.031106472,0.32755613,-0.028554639,0.18478242,0.0012345382,0.18555725,0.20992565,-0.058403205,-0.05696845,-0.17972708,0.18886755,0.42526004,-0.09803444,0.25162694,0.11603405,-0.14215368,0.2729772,-0.3143961,0.2784965,-0.25001812,0.1066997,0.036898762
1_105_u,-0.32149014,0.0057460233,0.087016195,0.07938055,0.073201574,0.06688868,-0.14464317,-0.22100182,-0.020716287,-0.23484078,-0.3001843,0.2291709,0.02662086,0.047831282,-0.0471474,-0.07046963,-0.033646416,-0.26580948,0.16502063,0.27891192,0.047391236,-0.4027547,0.23016465,-0.023922792,0.17686594,0.28490844,-0.32242438,-0.08410285,0.0059356526,-0.2464282,-0.18112636,-0.08299015,0.21731333,-0.18475342,-0.16537856,-0.24863768,0.07639386,-0.085288614,-0.021098865,-0.177126,-0.11552002,0.21316896,0.3022667,-0.13270967,-0.15864746,-0.10484834,-0.23649256,-0.304756,0.041619997,0.22156368,-0.025331572,-0.18187347,-0.3235276,0.17350908,0.023156112,-0.21852508,0.05825403,0.033071592,-0.051280595,0.18864936,-0.074645154,-0.08595449,0.11532178,-0.057383496,-0.11466818,0.27078512,-0.05857137,0.12298409,0.29691133,-0.23660879,0.28286293,-0.19853187,0.0020562056,0.008217322,-0.2924666,-0.048386928,0.022865264,0.15454547,0.16633348,0.068229906,0.17270994,-0.03827569,-0.30992204,0.17707293,-0.28006282,0.21222238,-0.17619084,-0.16959138,0.3963569,0.2063721,0.16628334,0.18158518,0.012668887,-0.58663064,0.0340103,-0.181259,0.079172656,-0.14403673,0.040879916,0.2993249,-0.24051683,-0.1687028,0.0062816436,0.03737024,-0.12213986,-0.20049572,0.2406735,0.10000693,0.09057478,-0.22116089,0.3381581,0.10634246,-0.2222517,0.05622657,0.38772583,-0.11254976,-0.10199864,0.08534073,0.3341069,0.17019881,0.2550386,-0.45370516,-0.41317922,0.12513344,-0.30183634,-0.30723044,0.40228158,0.3278662,0.2821103,-0.04866554,0.1989919,0.024667323,0.039000597,0.36498654,0.14393649,-0.11063129,-0.05150799,-0.13789947,-0.09352793,-0.29272148,0.008667716,-0.060111046,-0.14891922,0.2835644,0.13092299,-0.08222892,-0.24066274,-0.12544067,0.014843792,0.16927281,0.13220696,0.14174485,-0.21749878,0.21280447,0.40495664,-0.26913577,0.2512121,0.19331144,-0.0769588,0.18855853,-0.050325084,0.13540857,-0.31159574,-0.043639008,0.014222777,0.06952559,0.11820636,-0.2212669,-0.26095095,0.31069246,0.38540658,-0.19237171,0.16465752,-0.16114646,0.45877257,0.0077557587,-0.32703215,-0.38739058,-0.2653788,0.20459996,-0.01010898,-0.00046953486,0.13867898,0.0063619665,0.10450804,-0.23690037,0.090642445,0.5029588,-0.21480425,0.043765,-0.10462158,0.07444336,0.4555317,-0.42892155,0.19209222,-0.21390986,0.03803579,-0.37294576,0.012326873,0.113985434,-0.092845894,0.32394105,0.054998375,0.25012,-0.28433535,0.013629821,-0.053227186,0.09383761,-0.1407138,-0.05244726,-0.21236399,0.09629784,-0.1323073,-0.031801626,0.28952318,0.086421125,0.12099045,0.13992985,-0.11358972,0.05265955,0.14044645,0.07607164,-0.15408114,-0.12299543,0.32281774,0.09607889,-0.0009139622,-0.07897869,-0.08106016,-0.47667485,0.025763655,0.12181878,-0.1239238,0.14381616,0.16547716,0.3063136,0.00439359,0.18541573,0.022700518,0.090880446,0.18647717,-0.03791402,0.032988362,-0.16586354,0.24261864,0.44504172,-0.12647526,0.25050655,0.10792454,-0.117837526,0.28539667,-0.2758759,0.25314832,-0.2501206,0.13251315,0.033726424
1_10748_u,-0.1309294,0.088707305,0.035315804,0.005553189,0.07973116,-0.009543227,-0.14409916,-0.22494633,-0.020532522,-0.07781772,-0.15624332,0.04586347,0.07650148,0.021512793,-0.044104163,-0.11054075,-0.02314272,-0.18736574,0.18409611,0.101488195,0.03860134,-0.05237146,0.14571612,-0.13899837,0.1777246,0.1179654,-0.19441858,0.038636964,0.013211146,-0.14798567,-0.17139862,0.0028520026,0.1426131,-0.023576185,0.0030588494,-0.18533133,0.10285502,-0.023142552,-0.018362276,-0.19805256,-0.121497765,-0.06734813,0.16221833,-0.1582181,-0.120702006,-0.03712365,-0.15947197,-0.15067507,0.0043646256,0.16993527,0.024958732,-0.09496995,-0.28031817,0.26257408,0.10938386,-0.13950704,0.06525261,0.037776556,0.05987389,0.12248611,-0.13836698,-0.20048518,0.013060182,-0.22767507,-0.14938381,0.10857868,0.07113095,0.10428337,0.24503718,-0.13621314,0.23977117,-0.16398494,0.034890305,-0.01594796,-0.29000732,-0.0964729,0.030286437,-0.10201895,0.09716095,0.009356608,0.14723824,-0.032483198,-0.03925371,0.16573988,-0.21073161,0.21217488,-0.012517934,-0.1467397,0.31062105,0.15110686,0.22790027,0.08589775,0.05839883,-0.32263747,0.10202413,-0.060147036,0.006761761,0.008201376,0.11544335,0.36052856,-0.07997552,-0.11968646,0.042765286,-0.1926215,-0.037072662,-0.116058424,0.07878246,0.17566293,0.009837404,-0.12497951,0.09747877,0.07308131,-0.11768446,-0.08927372,0.31186432,-0.078594655,-0.1552997,0.062126797,0.19282584,0.10154314,0.21224022,-0.2719256,-0.22654174,0.20571439,-0.10579076,-0.283908,0.33560324,0.32935587,0.26300392,-0.020046351,-0.0023330569,-0.07709531,-0.0074358582,0.12162762,0.025695616,-0.2427566,-0.05824569,-0.0612843,0.053060602,-0.17551532,-0.12669955,-0.07472923,-0.11094923,0.058432996,0.023503443,-0.14215079,-0.16535889,-0.13745403,-0.01459189,0.047259443,0.09879955,0.060299456,-0.27619788,0.13562569,0.27798328,-0.17180388,0.078780204,0.09615922,-0.045052417,0.15952592,0.009640372,0.17583762,-0.15202083,-0.07407304,0.011612586,-0.1269643,0.03796793,-0.23673987,-0.2734286,0.34449282,0.32211304,-0.10450257,0.14732678,-0.15523545,0.23702767,-0.07176693,-0.27909577,-0.17583436,-0.23036376,0.10177155,-0.0066189426,0.01810494,0.07090626,0.00493958,0.10192706,-0.19172207,-0.022197654,0.35820928,-0.086674884,0.050178807,0.024190208,0.045637738,0.21949124,-0.08410219,0.11280965,-0.052423984,0.07784348,-0.15844274,0.10779431,0.12253308,0.08080708,0.21704853,0.017970158,0.19541447,-0.29320788,0.09322209,-0.10173943,-0.03782344,-0.16515802,0.024351878,-0.10812503,0.1171154,-0.11219954,-0.092905544,0.12223709,0.028282983,0.1443022,0.18933953,-0.030688852,0.09717765,0.058657646,-0.03217101,-0.038089477,-0.222941,0.19683059,0.024653165,0.0308165,-0.014293886,-0.072223976,-0.18890665,0.08391011,0.043777924,-0.16094749,0.122145295,-0.031684604,0.24622467,-0.03650549,0.15157177,0.041459538,0.049636684,0.13006793,-0.07290896,-0.045386404,-0.24456926,0.13664147,0.36724576,-0.033192027,0.21181011,0.09126542,-0.1922772,0.17141876,-0.24575725,0.2753672,-0.16448203,0.013008244,0.015155904
1_10797_u,-0.2945802,0.01992364,0.057754826,0.047385123,0.046976518,0.07200909,-0.10700146,-0.20254572,-0.00161965,-0.17982797,-0.2897918,0.18559733,0.051096775,0.08544758,-0.04369253,-0.11433431,-0.0769666,-0.24421278,0.129946,0.25162727,0.0077723726,-0.3744258,0.19132991,0.0004272599,0.14612715,0.20914426,-0.26039118,-0.06946573,0.05675565,-0.1959262,-0.18128216,-0.047525197,0.21647243,-0.14553799,-0.13102491,-0.19599538,0.09037278,-0.078835435,0.01557112,-0.12342868,-0.10140111,0.16132915,0.24079536,-0.119809665,-0.15471056,-0.112414055,-0.22271991,-0.20661926,0.01408225,0.15400481,-0.055525877,-0.13764893,-0.33095,0.1513078,0.068532094,-0.2155845,0.10802288,0.02822342,0.0074067833,0.1402575,-0.049044188,-0.11701596,0.13961236,-0.05914426,-0.101684965,0.20469418,-0.022622902,0.11713715,0.25844207,-0.207588,0.26074556,-0.15872197,0.004581125,-0.04472212,-0.27588364,-0.020724848,-0.00836392,0.11485072,0.111245684,0.060699802,0.123384856,-0.030699864,-0.2666305,0.1678763,-0.24627447,0.17918955,-0.14424983,-0.14439504,0.38167033,0.16455752,0.17783603,0.1688401,0.0118453605,-0.51711464,0.031462543,-0.17642376,0.01772708,-0.118814886,0.03874395,0.28365192,-0.19601628,-0.18455441,-0.012771631,-0.009842179,-0.056351732,-0.15300564,0.18413675,0.05422256,0.060196787,-0.20048633,0.2842434,0.043729693,-0.21805096,0.03709465,0.37556913,-0.11344532,-0.13963482,0.06860293,0.31532225,0.14866446,0.20478661,-0.41430655,-0.3652296,0.15060477,-0.25065342,-0.26094642,0.32954675,0.30846247,0.2501351,-0.016179409,0.13673292,-0.009966783,0.068701625,0.31765997,0.117773846,-0.08371251,-0.059564143,-0.09922411,-0.096040264,-0.21033953,-0.0392933,0.0019295759,-0.15892497,0.18221019,0.106549755,-0.07289409,-0.22405457,-0.1349814,0.004372144,0.13952424,0.11890066,0.115275525,-0.22497714,0.1917154,0.29330537,-0.23242937,0.23471425,0.15162703,-0.09443053,0.100664794,0.010281403,0.058087327,-0.26794562,-0.05886521,-0.010592646,0.09063842,0.05875926,-0.16298366,-0.24968104,0.32591328,0.30735457,-0.17296723,0.15598439,-0.13789287,0.39631855,0.010796172,-0.28618658,-0.33965346,-0.2798382,0.16430347,0.009782299,0.025567567,0.10393399,0.010866942,0.10567794,-0.22163732,0.13681541,0.40195045,-0.16321944,0.08372139,-0.1121948,0.030518388,0.36377347,-0.32881472,0.14744292,-0.23264912,0.011734485,-0.32405722,0.046281964,0.07318316,-0.05427395,0.31391272,0.03989709,0.23474582,-0.26068282,0.047005743,-0.03028644,0.032735366,-0.16378485,0.004049004,-0.16439061,0.09404413,-0.11231067,-0.05946214,0.23622099,0.06797357,0.12577121,0.07695804,-0.098627396,-0.006328517,0.13608941,0.03255228,-0.174456,-0.08407878,0.3232754,0.06214568,-0.011979006,-0.08921226,-0.045141842,-0.40045878,0.032013554,0.14668944,-0.05901307,0.094126634,0.17866689,0.2519586,0.014334524,0.15290806,-0.005481322,0.09956998,0.105923824,-0.019659134,0.06414638,-0.18642543,0.2271992,0.33898145,-0.12981644,0.23302667,0.10377728,-0.09780643,0.26548335,-0.26125437,0.18989888,-0.16911694,0.10652822,0.006619776
1_10810_u,-0.09716599,0.05576209,-0.06349281,0.06493368,0.04809015,-0.0013027553,-0.09894907,-0.1338773,-0.04185564,0.013388062,-0.22723627,0.105329506,0.10416472,-0.019183109,0.0106291305,-0.10346196,-0.08292226,-0.086913124,0.14447215,0.20638621,0.01439594,-0.1264887,0.040387183,-0.06728917,0.12987885,0.16833018,-0.12541042,-0.029190874,0.09129118,-0.11007271,-0.16753314,0.058309086,0.17699473,-0.08490916,-0.061669018,-0.12562515,0.16015099,-0.09456499,-0.021764254,-0.002886808,-0.030612571,0.019568464,0.15287642,-0.094489254,-0.10527898,-0.14067043,-0.16237174,-0.06656547,0.0017130824,0.10896037,-0.067525536,-0.1013122,-0.21499622,0.20570624,0.11310668,-0.19671285,0.11903614,0.020578427,0.07807083,0.12208374,-0.07936942,-0.17716423,0.09183856,-0.049875446,-0.08765482,0.16930728,0.10724628,0.0852329,0.2383801,-0.050811555,0.19275528,-0.07521001,0.060876846,-0.06164592,-0.2033124,-0.11990485,0.006001152,0.02512681,0.02618879,0.026727647,0.13059232,0.03748322,-0.1078643,0.08255518,-0.110003725,0.13768746,-0.09144105,-0.15837775,0.2691581,0.19980727,0.07841593,0.07091272,0.04175777,-0.27299568,0.021763032,-0.11738727,-0.035739336,-0.053930905,0.030335603,0.26506934,-0.006709249,-0.20810874,0.044376113,-0.05774383,0.05001927,-0.09843625,0.16288115,0.08139894,0.005578929,-0.09118589,0.08351066,0.043167572,-0.07290178,-0.026939481,0.37206054,-0.029856894,-0.18555668,0.11303415,0.24986541,-0.0064189704,0.13703303,-0.3417935,-0.237599,0.17051224,-0.12965146,-0.26888838,0.25657707,0.34250566,0.12523244,-0.03135096,0.009373887,-0.05549556,-0.02948913,0.16964488,0.05180168,-0.1261847,-0.018175326,-0.022922812,0.035628613,-0.17703703,-0.11571987,0.08201898,-0.12719847,0.03256867,0.03859901,-0.1118739,-0.21542902,-0.12571864,0.04316264,0.07100023,0.041766863,0.02856201,-0.19891924,0.18862435,0.21605578,-0.14208281,0.18987131,0.06925912,-0.06470688,0.093843274,-0.031116476,0.06270706,-0.20854323,-0.046204336,-0.052829254,0.018924296,0.03534558,-0.07460127,-0.23935595,0.20129858,0.27770934,-0.12491667,0.14581344,-0.12463635,0.22811401,-0.027269572,-0.21738844,-0.2111759,-0.18119138,0.14057432,0.015988821,0.07129445,0.08640646,0.096716024,0.13960646,-0.19292758,0.0047853827,0.28796962,-0.092890136,0.042548653,-0.024339247,-0.047938984,0.19541907,-0.104361884,0.037217356,-0.13169372,0.0038035891,-0.19731072,0.13667183,0.056527447,-0.05807152,0.21584044,0.05548523,0.1379085,-0.19820361,0.08126914,-0.04194128,-0.045310106,-0.16453817,0.034789037,-0.08716767,0.13885535,-0.050635796,-0.05629013,0.18053617,0.034620013,0.22135055,0.041409805,-0.03162809,-0.021567307,0.07195615,-0.05122278,-0.046663906,-0.14641081,0.2524828,-0.063610114,-0.006206501,-0.051925857,-0.069891356,-0.20470884,0.11493132,0.13032667,-0.05904422,0.073915325,0.056102157,0.1489867,0.029229198,0.06316993,0.052647926,0.07968001,0.057110667,0.031523947,0.047228344,-0.2212793,0.08448117,0.28748018,-0.059928536,0.07721501,0.07313791,-0.16379397,0.24310009,-0.25370055,0.12705162,-0.05735143,0.044827666,-0.009227079
1_10829_u,-0.075654805,0.08344748,-0.023614094,0.11385337,0.12476752,-0.01195819,-0.21068755,-0.03227445,-0.042675,-0.047030415,-0.2854366,0.083236955,0.08304904,0.012492276,0.06717568,-0.042074107,-0.1115367,-0.11712581,0.16002493,0.2597193,0.08371496,-0.18969505,-0.003713599,-0.06514295,0.17224602,0.17521356,-0.10290735,-0.084008664,0.108521394,-0.09788385,-0.16001487,0.1003569,0.19674961,-0.18214059,-0.11076861,-0.15797856,0.116772436,-0.10183394,-0.054441728,0.0552462,-0.03772559,0.07569674,0.07754441,-0.07027953,-0.12018704,-0.14298809,-0.12563132,-0.04261709,0.025976656,0.13948083,-0.04590633,-0.12278781,-0.15202628,0.2748141,0.06760929,-0.20822492,0.08745264,0.047876522,0.08219977,0.15284523,-0.03232626,-0.16135605,0.046162166,0.053055007,-0.10119982,0.26314956,0.122095086,0.07806628,0.2723592,-0.06678789,0.17745696,-0.00871526,0.040357977,0.045383554,-0.27903363,-0.1532188,0.005071446,0.1299693,0.09374755,0.0004579857,0.15673457,0.008829483,-0.22723594,0.08554674,-0.12935208,0.18120319,-0.16303276,-0.1934927,0.24568458,0.29703185,0.046417773,0.0067147748,0.04672783,-0.32333624,0.0026572254,-0.11819551,-0.008241533,-0.100581005,0.023134535,0.24199465,-0.0065870876,-0.3066343,0.099189915,0.093949966,0.0026726604,-0.14278531,0.14140072,0.079309545,0.0012555938,-0.09721417,0.13269116,0.07385027,-0.043004397,0.120585196,0.39940834,-0.0022123063,-0.107546985,0.12405141,0.29854646,-0.08493026,0.22920553,-0.42420593,-0.29048488,0.12302127,-0.16523336,-0.31118152,0.23852055,0.3681047,0.07926849,-0.008519513,0.08137203,0.0079557905,-0.029352535,0.1482813,0.032004934,-0.10593947,0.03421788,0.082283184,-0.028202465,-0.20402732,-0.099608764,0.113423385,-0.09535032,0.11907145,0.07061897,-0.076598525,-0.22018874,-0.09317111,0.13668172,0.10051127,0.06777163,0.09007607,-0.12573323,0.27828833,0.27269623,-0.17258263,0.28457958,0.15192011,-0.018647585,0.17455661,-0.06670441,0.032756638,-0.22546415,-0.037920002,-0.068283916,0.016895978,0.14801975,-0.047266364,-0.2983765,0.18500774,0.32397538,-0.14506273,0.18988559,-0.20097251,0.22851168,-0.027641658,-0.16808921,-0.23837362,-0.1685918,0.20917638,-0.003017442,0.113969944,0.12840366,0.1535729,0.14501207,-0.20406428,-0.08058248,0.365545,-0.18745235,-0.045408625,-0.06025085,-0.080935314,0.30467412,-0.16052721,0.023335105,-0.14840618,0.007559024,-0.18774115,0.14892575,-0.00029313788,-0.14604019,0.28329083,0.046084743,0.15987475,-0.12829083,0.02292466,-0.0071630254,0.009884815,-0.09243354,-0.05647811,-0.065533586,0.16936259,-0.029635245,-0.004086049,0.21846965,-0.054253366,0.2734235,0.030119652,-0.043769952,-0.05788411,0.13748269,-0.04745353,-0.074687526,-0.17184617,0.23288994,-0.106631555,-0.038373552,-0.004409498,-0.18715641,-0.29070482,0.15891199,0.17310324,-0.11862438,0.0924948,0.1896454,0.09671721,0.10243771,0.05331049,0.09829798,0.0027915388,0.057637155,0.09803758,0.14230397,-0.24061505,0.09841921,0.36988157,-0.078233324,0.090173006,0.031518873,-0.124611236,0.2577973,-0.2302589,0.1037749,-0.030683577,0.12785597,-0.02795896
1_10849_u,0.0070326836,0.16193514,-0.19948314,0.16121732,0.1470287,-0.17937206,-0.276424,0.06087727,-0.09419163,0.15609784,-0.44458857,0.1718133,0.17004175,-0.07282445,0.16939272,-0.11014774,-0.18236317,0.12240839,0.12380443,0.47970262,-0.007310619,0.008442404,-0.21292324,-0.16799708,0.14590554,0.11401909,0.14591292,-0.19941175,0.16213396,0.023705846,-0.36376125,0.2105,0.16671194,-0.32832623,-0.26276657,-0.04159456,0.25058106,-0.21074751,-0.15985031,0.27210552,0.1671388,0.12973972,0.07667289,0.047706295,-0.15203863,-0.15946047,-0.18304832,0.15980437,0.0055219876,0.09873885,-0.09524905,-0.1449646,-0.07389558,0.45596275,0.05612531,-0.2937226,0.13067979,0.08348165,0.08554262,0.18883298,0.09335678,-0.14939104,0.08936333,0.2902276,-0.14202173,0.48320165,0.29476362,0.01337979,0.40695444,0.15611647,0.24314609,0.0038138365,0.12356563,-0.027561117,-0.33189788,-0.2862245,-0.096702196,0.3094188,-0.11033739,0.019245673,0.15148075,0.1109589,-0.32519227,0.020767359,-0.036772937,0.13234256,-0.3153414,-0.2091372,0.19762325,0.5118438,-0.17436633,-0.10435485,0.12123444,-0.2731652,-0.03918576,-0.24930029,-0.11635261,-0.19815965,-0.0926539,0.22846363,0.02001056,-0.44961163,0.17302762,-0.018210828,0.1045137,-0.13878606,0.24834731,0.14843237,-0.016455777,-0.0059224884,0.040264565,0.032975722,0.062313773,0.13521707,0.47855696,0.0402475,-0.23106351,0.2104465,0.27852574,-0.40145898,0.13360631,-0.62639993,-0.3502545,0.17851636,-0.061932422,-0.37631002,0.26065305,0.5676784,0.053111006,-0.041466933,0.036135323,0.008802536,0.00034222417,0.100903176,0.087427326,-0.04342526,0.04694679,0.10598326,-0.005039428,-0.39842042,-0.26284027,0.24194208,-0.22032376,0.08397157,0.04536886,-0.18606417,-0.32559535,-0.20022905,0.20320843,-0.05185904,0.048204746,0.025391567,-0.009266459,0.494652,0.36293682,-0.17043231,0.3930966,0.14447641,0.09379152,0.17143476,-0.2694981,-0.122009054,-0.20024715,0.0652897,-0.15338038,-0.053839177,0.22102518,0.07078831,-0.2536001,0.077202536,0.32587045,-0.2219899,0.20747998,-0.26414767,0.23743926,0.01479335,-0.025495151,-0.3048444,0.001501016,0.28152958,0.04519827,0.15415978,0.19795798,0.32269275,0.20372216,-0.1958368,-0.19418405,0.45055756,-0.33518186,-0.007822225,-0.0064984695,-0.33604667,0.23012435,-0.02141439,-0.111305654,-0.17561737,-0.09300125,-0.21537092,0.2726775,-0.04308979,-0.3169179,0.21664226,0.12670186,0.19830966,-0.057276405,0.1253162,0.15458672,0.025016263,-0.19358157,-0.06712724,-0.010265366,0.24496727,-0.0052675637,0.09215229,0.3496312,-0.0039301063,0.38864383,-0.05390097,-0.066852264,-0.13201137,0.1594084,-0.03991522,0.18399134,-0.23840253,0.4086878,-0.3489347,-0.06305834,-0.0031182177,-0.35945064,-0.31185576,0.23936133,0.45973426,-0.14919369,0.07031696,0.26275316,-0.05326395,0.09539648,0.0026853362,0.15392356,-0.06261324,-0.005696676,0.24957648,0.30912942,-0.21141076,-0.050757628,0.37440118,-0.01533712,-0.1324311,0.065241955,-0.16433184,0.3366022,-0.44989634,0.016809328,0.031227598,0.16713625,-0.0907773
1_10853_u,-0.14511174,0.029902805,-0.022262746,0.15038216,0.09346822,-0.04258367,-0.17076313,-0.07172965,-0.042020816,-0.050922643,-0.33092317,0.16395321,0.08288764,-0.033855148,0.07060179,-0.049753822,-0.13538305,-0.12814479,0.19113554,0.37574998,0.05723359,-0.2809041,0.05747794,-0.05180663,0.13639618,0.2840591,-0.16948278,-0.08607567,0.1076381,-0.15575479,-0.20474286,0.05199748,0.22717278,-0.23591816,-0.19584842,-0.18545696,0.10164183,-0.1674937,-0.07599243,0.041401643,-0.044005435,0.18425865,0.19256021,-0.11345708,-0.16117279,-0.20148288,-0.18837519,-0.15160319,0.024093166,0.120979026,-0.03595792,-0.16253714,-0.20011547,0.25636902,0.02418433,-0.2454237,0.12367568,0.039066643,0.020322442,0.20380156,-0.005717706,-0.10756367,0.14515185,0.10466883,-0.077259794,0.36382073,0.050474,0.07428127,0.2907333,-0.058836605,0.21286917,-0.06434455,0.020108884,0.0031346597,-0.22811519,-0.14069541,0.0040500015,0.20413978,0.09889718,0.040804815,0.18983407,0.05062723,-0.3039967,0.08211236,-0.16944994,0.17607982,-0.23564129,-0.20467292,0.30173108,0.34184337,-0.004001966,0.042091876,0.035455454,-0.4299224,-0.014390269,-0.21738105,0.021404022,-0.16866545,-0.02009197,0.21393035,-0.057110786,-0.30401167,0.0639779,0.12056446,-0.02264594,-0.16932638,0.26530656,0.101973705,-0.0011542853,-0.14474063,0.21960025,0.10742404,-0.09850048,0.15315056,0.47991672,-0.022158315,-0.13041036,0.1863458,0.3655355,-0.061354157,0.23077641,-0.48582911,-0.3537576,0.1199106,-0.23800051,-0.3465352,0.30611825,0.38897476,0.12811951,-0.02137845,0.118940465,0.028786689,-0.036468167,0.2544264,0.089777835,-0.09034295,0.026552124,0.0076674595,-0.022407046,-0.31368724,-0.07161655,0.1187402,-0.15869035,0.22274204,0.10818793,-0.068042226,-0.28382236,-0.09917449,0.1331893,0.10854938,0.063257,0.0653033,-0.11149007,0.34701273,0.34985113,-0.18901704,0.34150675,0.17192829,-0.071221076,0.18211687,-0.13674542,0.030642604,-0.34345618,-0.018699063,-0.044940084,0.116840534,0.1774826,-0.07889595,-0.2569717,0.120290294,0.37246165,-0.21504371,0.20988348,-0.21049912,0.3428491,0.0013851334,-0.18678589,-0.35796317,-0.1616338,0.2236477,0.0050705443,0.1156972,0.18270743,0.16278537,0.15477629,-0.23844385,-0.052497387,0.44831225,-0.19002688,-0.03579883,-0.10530528,-0.05080765,0.40587685,-0.2927166,0.06149232,-0.17301852,0.011721593,-0.33936915,0.120134614,0.028473064,-0.20947173,0.28772852,0.073038034,0.18552189,-0.1812937,0.018617345,0.016802434,0.09575359,-0.11104782,-0.076012984,-0.11438485,0.18564384,-0.038925458,0.011903781,0.3359213,-0.0037176404,0.25430948,0.016823893,-0.101633504,-0.07289555,0.15739857,-0.017791593,-0.06231752,-0.12384715,0.31415683,-0.083349265,-0.05468321,-0.05777065,-0.13063477,-0.38972864,0.110906325,0.2520637,-0.1036885,0.12266576,0.23515788,0.15381913,0.07888412,0.06463835,0.0852759,0.0922136,0.09839092,0.101027265,0.15779053,-0.1878088,0.094076574,0.4331615,-0.09839997,0.10184751,0.036719304,-0.121517554,0.32440263,-0.26924118,0.11006989,-0.09400144,0.15710191,0.029299397
1_10857_u,-0.10730045,0.051403858,-0.028568227,0.10223436,0.073297136,-0.0067732795,-0.12880668,-0.061482336,-0.023676923,-0.023958271,-0.2798136,0.10880679,0.08044282,-0.006670116,0.0384697,-0.0720224,-0.12652344,-0.12009499,0.15569061,0.2700006,0.06479791,-0.22426763,0.04245451,-0.05420028,0.13077104,0.20288987,-0.13511142,-0.054706063,0.10210434,-0.10858045,-0.15852459,0.054384466,0.18482466,-0.1518061,-0.11389192,-0.13695517,0.09268355,-0.12270999,-0.02811701,0.04499007,-0.037179362,0.09378777,0.11647954,-0.09529974,-0.1203861,-0.15444109,-0.14349452,-0.08938031,0.018952444,0.08693257,-0.04810342,-0.10890659,-0.17910683,0.20683923,0.064287715,-0.19482414,0.12178948,0.034978338,0.053464383,0.14169279,-0.019967267,-0.1448896,0.11530196,0.03475217,-0.07062039,0.25462523,0.07329031,0.06625986,0.22677186,-0.0685764,0.16931581,-0.042544384,0.02767894,-0.009121092,-0.2095511,-0.10363877,0.0003852051,0.109220795,0.07909509,0.021323962,0.13045777,0.04275753,-0.22175507,0.06590758,-0.12468784,0.14810829,-0.14334863,-0.15141831,0.2591444,0.26008758,0.03906269,0.03860294,0.0082920175,-0.31702244,0.007652168,-0.14417253,-0.0125384955,-0.09543079,0.0051890966,0.20675854,-0.016403457,-0.26055795,0.04563889,0.070326045,0.004977343,-0.12951379,0.201491,0.06802111,-0.008490863,-0.11334535,0.14835097,0.07028626,-0.07144062,0.091326974,0.4103013,-0.007148689,-0.13214098,0.1294794,0.293288,-0.035499543,0.19555812,-0.38027388,-0.258257,0.12765698,-0.16550688,-0.28619936,0.22545508,0.31960598,0.115400866,0.0033934028,0.060111385,-0.0047741793,-0.021068078,0.19058096,0.056196522,-0.07860395,0.023319198,0.025266064,-0.01827605,-0.20306149,-0.06107085,0.123789646,-0.118959606,0.11244436,0.07673263,-0.06437229,-0.21015589,-0.07301762,0.10782738,0.09427009,0.05138899,0.05703835,-0.14010191,0.2653931,0.24429484,-0.13040803,0.26972994,0.123970106,-0.06114793,0.1150198,-0.046051707,0.02042347,-0.24186762,-0.034929857,-0.0400746,0.08007795,0.11109171,-0.038227305,-0.24161164,0.1586421,0.2801295,-0.15397513,0.16937183,-0.16352725,0.24681984,-0.0058441837,-0.16197369,-0.2505158,-0.16689944,0.17341636,-0.0038402367,0.10413313,0.12618259,0.11909167,0.13950549,-0.19386826,-0.01491987,0.33221436,-0.14129077,0.0025014677,-0.07417431,-0.047328226,0.2835993,-0.1817799,0.03449795,-0.13570349,0.012925711,-0.23365639,0.12565409,0.018800635,-0.13678655,0.26254112,0.046811998,0.14345057,-0.15294217,0.018759808,0.0023834792,0.025129754,-0.09951081,-0.020897796,-0.0773446,0.17056398,-0.025548324,-0.023570739,0.217036,-0.020075677,0.23720257,0.013821608,-0.05001828,-0.074208066,0.115646675,-0.03787031,-0.07861119,-0.12279009,0.24762538,-0.063440196,-0.03991999,-0.04581423,-0.08852544,-0.27696246,0.10173049,0.17479473,-0.07585963,0.06733953,0.17451613,0.11420535,0.06834393,0.042583335,0.061904978,0.06806602,0.040011983,0.0562042,0.12236793,-0.2110298,0.078088395,0.33412266,-0.079151474,0.09074759,0.035236347,-0.11902974,0.25479776,-0.21086942,0.08730427,-0.040686697,0.09938645,-0.0053312113
1_10859_u,-0.1585273,-0.0046282304,-0.23871934,-0.018997196,-0.07816457,-0.12958173,0.2460629,-0.273543,-0.004971217,0.34967142,-0.29051995,0.35407528,0.09518733,-0.23592101,0.014214657,-0.32199323,-0.18768685,0.10491359,0.28193775,0.319066,-0.039843958,0.15727173,-0.12210695,-0.060388077,0.027061371,0.30875975,-0.12064823,0.14952095,0.0739571,-0.079282306,-0.33939597,0.022510473,0.18741015,0.10816953,-0.009244517,0.07757973,0.247591,-0.23018399,-0.07213092,0.13290267,-0.037170675,0.06736171,0.18974559,-0.16032438,-0.0043080873,-0.39291796,-0.24410374,-0.009395716,-0.088245355,-0.14661348,0.045757752,-0.027991852,-0.29567596,0.14598843,0.2756442,-0.22047953,0.43285432,-0.13808693,-0.1198433,0.17647503,-0.022788873,-0.029385438,0.34883934,-0.118531756,-0.06488859,0.24502897,-0.045136396,0.1557306,0.3003818,0.012762352,0.1470838,-0.2588082,0.11393263,-0.27547154,0.21344209,-0.14333974,-0.023957679,-0.13123558,-0.05776915,0.08473914,0.13173126,0.33321515,0.21039109,0.055174302,0.11137982,-0.14612578,-0.029827926,-0.10699459,0.23222771,0.095935345,-0.09201646,0.021284657,-0.020912904,-0.20830944,-0.07366141,-0.11990859,-0.01377289,-0.10880994,-0.09313773,0.30155614,0.08914793,-0.15593219,-0.05046555,-0.33610037,0.2351127,-0.04355752,0.31975803,0.012914381,-0.14457078,-0.14776911,0.21629742,0.10169816,-0.08218541,-0.28167996,0.36271524,-0.061616935,-0.42216942,0.30053625,0.22060756,0.15659033,-0.13825484,-0.25875905,0.02931323,0.32510194,-0.06718905,-0.2549775,0.33619124,0.2763103,0.085112594,-0.015979726,-0.2440779,-0.3197508,-0.02928896,0.062418897,0.03336338,-0.16811435,-0.017393548,-0.17501794,0.30426058,-0.3679261,-0.19678557,0.116916716,-0.41384965,-0.14868729,0.029862842,-0.150928,-0.3091289,-0.08882107,0.043762803,0.15079245,-0.031104093,-0.36358324,-0.1776598,0.19986294,0.041721154,-0.0058104093,0.018720796,-0.03714146,-0.2759741,-0.11348555,-0.057855226,-0.12312231,-0.2783799,0.035078324,0.01568215,0.096111946,-0.15443276,-0.09933032,0.02218667,0.090916716,0.22281595,-0.041532606,0.16350071,-0.017790465,0.36320373,-0.087671295,-0.05867818,-0.2987735,0.106196426,0.07548525,-0.08523453,-0.030230084,0.2743033,0.15072384,0.18701409,0.017285137,0.1572579,0.25183716,0.18561539,0.15765452,0.04538194,0.12245083,-0.08544687,0.107724525,-0.07493645,-0.06309911,-0.030060122,-0.37120113,0.111493565,0.21897732,-0.060249414,0.12550765,-0.014210402,-0.08698629,-0.3296121,0.18755795,-0.04511662,-0.015896825,-0.325668,0.18976498,-0.05335311,-0.012136762,-0.0024837924,-0.12694362,0.45601606,0.25297818,0.1282101,-0.047922324,0.049507976,-0.10215664,-0.01592392,-0.12286013,0.2468179,0.025113259,0.39463937,-0.069987334,0.020995608,-0.10212268,0.29112488,-0.027794076,0.059120115,0.32710594,0.09648738,0.06980602,-0.16894524,0.21982363,-0.18578874,-0.102252685,-0.12189581,0.37617323,-0.04933278,-0.058057982,0.016781941,-0.14271104,-0.2177089,0.3088669,0.09644611,-0.031752773,0.039702665,-0.27823144,0.42411026,-0.23430625,0.122114755,-0.010709484,-0.14021932,0.18789876
1_10890_u,0.017876757,0.1555944,-0.18233179,0.12689641,0.12671764,-0.1282786,-0.2429374,0.0318425,-0.084672965,0.12697315,-0.3716553,0.13316303,0.15672469,-0.06568458,0.1327437,-0.11269095,-0.14561854,0.067021534,0.12895507,0.38323867,0.017916048,0.013965218,-0.16989689,-0.15234987,0.15365662,0.10970557,0.07770021,-0.16457921,0.13622007,0.028870428,-0.28717312,0.21440332,0.16159536,-0.24408393,-0.19768262,-0.051044513,0.2228766,-0.15723868,-0.11914819,0.21763568,0.10856076,0.07820605,0.055230208,0.028972989,-0.11171756,-0.15341201,-0.1708843,0.14504637,0.0104024755,0.09219202,-0.10025827,-0.11543917,-0.07593983,0.40591726,0.08385225,-0.24876808,0.10328752,0.07496599,0.1040514,0.17945871,0.06589761,-0.18047367,0.0608818,0.18761848,-0.14433585,0.37809277,0.2665692,0.032824837,0.36995625,0.11145558,0.20629083,-0.00804883,0.09412016,0.0006196868,-0.30092296,-0.24260314,-0.07438529,0.22604759,-0.06564919,-0.0047518713,0.15016825,0.08367701,-0.24379778,0.032018736,-0.038139887,0.11418976,-0.23241463,-0.1895848,0.20777588,0.43895054,-0.113146566,-0.07970485,0.09690552,-0.25455642,-0.011653754,-0.18421558,-0.10069745,-0.15110916,-0.05146521,0.23149371,0.028186364,-0.38621402,0.16288477,-0.007118065,0.0955681,-0.12995723,0.20591278,0.11424022,-0.030154554,-0.0064173527,0.02006792,0.04656058,0.057725944,0.08592244,0.42758498,0.029340727,-0.22186926,0.16663112,0.24634767,-0.31100175,0.14390449,-0.5370138,-0.28896436,0.1573603,-0.062490065,-0.34038678,0.21864855,0.48961812,0.038919967,-0.027749393,0.004371105,0.0013725891,-0.015419784,0.05814408,0.049038317,-0.07598983,0.043816324,0.09893888,-0.00440955,-0.32167956,-0.21258274,0.21786384,-0.17120862,0.02702862,0.031314272,-0.14896262,-0.25822175,-0.1628221,0.17757039,-0.016721915,0.026774323,0.015939243,-0.0701349,0.39771366,0.31923744,-0.15645167,0.33215186,0.12767594,0.067746416,0.15788016,-0.19468413,-0.0819147,-0.17373727,0.024054488,-0.13990769,-0.03757483,0.1942786,0.06518944,-0.2634564,0.1047486,0.2915212,-0.16140044,0.1921755,-0.23316644,0.20148747,-6.556213e-05,-0.04653932,-0.21786502,-0.043931168,0.25210503,0.029063685,0.13480078,0.14963289,0.27146435,0.18058448,-0.17506333,-0.14446196,0.3996478,-0.26439366,-0.010230953,-0.009395369,-0.28018197,0.18802251,-0.02284957,-0.06686523,-0.13323426,-0.058969058,-0.15867817,0.25462946,-0.018092196,-0.23672953,0.21459916,0.112351574,0.16305602,-0.08433382,0.09868827,0.10018982,-0.007856978,-0.1694644,-0.035765637,-0.020282516,0.24197745,0.008070737,0.04726048,0.27426326,-0.019246092,0.34427807,-0.023893315,-0.04113721,-0.1034467,0.15315235,-0.04445804,0.13549687,-0.22799364,0.3404491,-0.28473336,-0.054115947,0.01880314,-0.3033943,-0.24070683,0.23564254,0.3505888,-0.1494441,0.07166051,0.20092602,-0.038198095,0.09177387,0.0026970739,0.13356479,-0.044185575,-0.0023453422,0.18354271,0.24378891,-0.2084812,-0.017365275,0.3558619,-0.01739404,-0.07582008,0.05812574,-0.17626834,0.31538638,-0.38243312,0.041088138,0.05043145,0.13117188,-0.07369556
1_10977_u,-0.07478257,0.056684066,0.0027593747,0.16226915,0.10983763,-0.04321436,-0.2149601,-0.039442863,-0.042726573,-0.09659792,-0.25715455,0.096454345,0.05697613,-0.013398203,0.055378623,-0.021567846,-0.116714954,-0.17235616,0.21283661,0.25357318,0.108268075,-0.23270606,0.08090176,-0.071596004,0.16996269,0.25870293,-0.1943585,-0.023231538,0.09306836,-0.13966067,-0.1504585,0.030304546,0.17991655,-0.17747441,-0.099300474,-0.21900053,0.067268945,-0.118868425,-0.042510252,-0.009933359,-0.07472285,0.09288845,0.119130634,-0.14327812,-0.13008533,-0.16888623,-0.121091224,-0.16076075,0.027670307,0.17076634,0.014668832,-0.13408497,-0.16291842,0.2500538,0.039811384,-0.19244604,0.060997993,0.05485307,0.05290675,0.19826682,-0.05851806,-0.1678316,0.06480547,0.008971225,-0.06791643,0.29665843,0.06538343,0.08861488,0.2323196,-0.10193497,0.18040022,-0.05004772,0.013296962,0.042281806,-0.2541569,-0.14478663,0.028069327,0.123196565,0.1479121,-0.0051219477,0.18663804,0.0141993435,-0.25388813,0.07856401,-0.16501,0.21932779,-0.17534193,-0.21036525,0.27562127,0.32519385,0.1033747,0.024426548,0.018309683,-0.36396632,0.012411637,-0.13929658,0.042132456,-0.10106661,0.058420587,0.24833198,-0.031808414,-0.2601111,0.08923743,0.1247042,-0.03937803,-0.17096554,0.17529023,0.14422391,0.024255434,-0.15244944,0.1917877,0.12627836,-0.060382646,0.120460145,0.42566258,0.00056335254,-0.059689056,0.14917664,0.33089435,-0.023246614,0.29204017,-0.41069832,-0.29045677,0.12106762,-0.20794761,-0.37029928,0.26619995,0.34528482,0.14034502,0.014018145,0.09146325,0.04340961,-0.05144315,0.17809205,0.041149445,-0.1702487,0.03061061,0.056535732,-0.006550565,-0.24028333,-0.029977715,0.05742645,-0.062201288,0.18735944,0.08575829,-0.06560967,-0.2283783,-0.046299424,0.1262021,0.12314673,0.08634009,0.08907536,-0.14422278,0.27118787,0.3364726,-0.15503816,0.26174706,0.1636901,-0.054520816,0.23302825,-0.061097145,0.11187585,-0.27877626,-0.046984375,-0.004063558,0.03162253,0.1817305,-0.1001089,-0.29710418,0.17594953,0.3821083,-0.18814446,0.21458803,-0.21187797,0.25036463,-0.039448705,-0.19917111,-0.26677752,-0.17540939,0.19706498,-0.030950356,0.09404387,0.14119594,0.10759475,0.17078166,-0.2571546,-0.1139338,0.4213108,-0.17474037,-0.061452128,-0.059315603,0.016994307,0.37080786,-0.24449693,0.05996346,-0.091333814,0.054036774,-0.21907699,0.08671427,0.040894456,-0.1618119,0.29899055,0.051227342,0.15020272,-0.17289582,-0.030100197,-0.049358614,0.05140346,-0.03691971,-0.085432075,-0.09651314,0.17647731,-0.047348853,-0.031790704,0.2329214,-0.047810506,0.26738676,0.0756158,-0.045481753,-0.009500786,0.124731,-0.015643075,-0.08038545,-0.17380953,0.17629877,-0.046699617,-0.04478402,0.0001179684,-0.12666775,-0.29784998,0.10894354,0.13372076,-0.18482824,0.108878426,0.16455321,0.15415,0.09973256,0.085159995,0.115741014,0.061066758,0.109288745,0.05655473,0.085139155,-0.2466005,0.08721697,0.4602046,-0.08619998,0.11078985,0.039364625,-0.13944547,0.24570893,-0.20297022,0.15241414,-0.10755324,0.12531196,-0.005832785
1_11006_u,0.03509242,0.1892851,-0.09959234,0.12916051,0.18552439,-0.15614653,-0.34023377,0.07376049,-0.0949754,0.066110216,-0.35501885,0.058906347,0.111075915,0.013985676,0.10714417,-0.10137012,-0.09352006,-0.021834882,0.16423331,0.34875664,0.011358136,0.0326056,-0.12148874,-0.14437433,0.20449924,0.039131045,0.057682026,-0.13622451,0.10893704,0.043655828,-0.28540882,0.21986477,0.14675859,-0.26641884,-0.18761213,-0.11190505,0.20336258,-0.10414205,-0.11687266,0.13809574,0.03419861,0.056980994,-0.01441685,-0.0021877277,-0.11972351,-0.13046804,-0.15217283,0.13253523,-0.0056285346,0.16545251,-0.032808993,-0.1063043,-0.05073298,0.45442653,0.06788613,-0.22273095,0.033166956,0.09753961,0.11412042,0.22198296,0.059806235,-0.19093622,-0.04747687,0.15419069,-0.20293851,0.34933445,0.27380013,0.08293949,0.3765651,0.04561393,0.23492089,0.012843582,0.07860156,0.04535876,-0.4053254,-0.21716176,-0.08928933,0.23481527,0.011345284,-0.041694354,0.14856498,0.0008382937,-0.25162467,0.10411978,-0.097259335,0.188632,-0.22724743,-0.22784261,0.21692334,0.45116597,0.00041072146,-0.10323149,0.1574043,-0.31026784,-0.013170577,-0.14539307,-0.06694517,-0.15590374,0.011850017,0.26663718,-0.03038592,-0.36871704,0.19537605,0.022448486,0.027753804,-0.16186698,0.07076305,0.15296336,-0.05013622,-0.019591797,0.06631778,0.08100512,0.033354145,0.12805344,0.36117932,0.009616172,-0.11433369,0.12433714,0.22897993,-0.27137125,0.23868053,-0.53906083,-0.30181837,0.14574914,-0.052771475,-0.37271687,0.22088909,0.4661413,0.089789115,0.028926967,0.0259908,0.04268985,0.010289961,-0.0024042695,0.012638675,-0.14145763,0.04410633,0.15870383,-0.028365418,-0.3036565,-0.17818533,0.12529181,-0.10472908,0.06797993,0.04562844,-0.11492603,-0.21818805,-0.13239628,0.15419799,-0.0097596,0.09232139,0.0804731,-0.109315954,0.35094854,0.34246242,-0.20097677,0.31789675,0.15742907,0.07774891,0.24140981,-0.1613975,-0.045646697,-0.13971107,-0.0021864602,-0.09802201,-0.08769355,0.25968856,-0.019315835,-0.29205844,0.19457121,0.3192175,-0.13403781,0.20369522,-0.2534552,0.18350905,-0.029402277,-0.0485091,-0.204263,-0.06411633,0.26262054,0.034473974,0.12904625,0.14745484,0.22218294,0.19399011,-0.21055512,-0.18942097,0.4335524,-0.30398813,-0.03565813,0.02011034,-0.23006444,0.25670224,-0.042267848,-0.020898504,-0.09222446,-0.046130985,-0.07428517,0.20569761,-0.01248671,-0.20302808,0.25300968,0.10222538,0.17937529,-0.07839804,0.069416665,0.06862156,-0.0031015181,-0.1291862,-0.08631026,0.017946051,0.23468104,-0.006434725,0.022494022,0.22345288,-0.076758996,0.31330368,0.046254408,-0.049491957,-0.031329695,0.20124988,-0.0068745087,0.08826639,-0.25261697,0.2275557,-0.25797626,-0.06634098,0.095786095,-0.36835888,-0.2601653,0.23483531,0.3112642,-0.24869505,0.096815065,0.20515552,-0.010444033,0.12403659,0.045561112,0.17236125,-0.14629474,0.03212038,0.16137981,0.27247676,-0.23059963,0.036139484,0.4213131,-0.031994626,-0.0089934785,0.0836444,-0.16411601,0.24452017,-0.3561922,0.09398366,0.025591418,0.13128297,-0.0974409
1_11021_u,-0.32186288,0.09880686,-0.005356338,0.01807641,0.13560025,0.06750443,-0.104098104,-0.19676517,-0.028898234,-0.051980752,-0.3820567,0.23970853,0.08493967,0.1281579,0.0043065394,-0.2094497,0.021250146,-0.2506573,0.077906296,0.24954315,-0.04798326,-0.17534365,0.091017015,0.027492026,0.15093966,0.08748014,-0.072319716,-0.1375675,0.06013747,-0.022196537,-0.21601763,0.07392396,0.21205798,-0.25853363,-0.15296821,-0.03471263,0.20956789,0.0013251245,0.013287368,0.02381584,-0.07059359,0.13363703,0.099951014,0.0027973526,-0.08636212,-0.1477148,-0.25905904,0.038744472,-0.029166251,0.09999778,-0.18858604,-0.043522116,-0.3370138,0.16487955,0.057780292,-0.2171543,0.086272605,0.0668896,-0.031795453,0.14545405,-0.029013265,-0.066728346,0.04031056,-0.014728452,-0.20385969,0.2096381,0.11839197,0.21542111,0.34377456,-0.21962266,0.27099356,-0.010605862,0.08149802,-0.07647162,-0.38769886,-0.0533257,-0.078466676,0.18659374,-0.013006997,0.013526018,0.046778128,-0.024992881,-0.22506511,0.26246616,-0.18112218,0.12638429,-0.10499849,-0.031327516,0.44801036,0.13173304,0.039724804,0.066298954,0.019193595,-0.4873899,0.007951852,-0.17502038,-0.046399515,-0.103542425,0.012814059,0.3129203,-0.19778354,-0.2709994,0.102081455,-0.026597464,-0.029862547,-0.04801955,0.039219677,0.058203932,-0.15739654,-0.12699033,0.11833371,-0.020959793,-0.19936998,0.015376461,0.25444588,-0.12788318,-0.26062232,-0.025939627,0.18442689,0.013765437,0.12419992,-0.5460145,-0.40282264,0.0347263,-0.15198019,-0.10209628,0.29779541,0.2672751,0.16030356,-0.019080967,0.018123314,0.045034647,0.07046785,0.1800777,0.09872216,0.0757665,-0.05575657,-0.043356594,-0.09444805,-0.083698355,-0.05071893,0.045393337,-0.22465976,0.055001635,0.09601845,-0.0360306,-0.1772372,-0.17088936,0.051824696,0.09638413,0.16240917,0.22080468,-0.24252418,0.22489348,0.24943082,-0.2619103,0.3473936,0.21214317,-0.03423823,0.017214883,-0.030034175,-0.04815786,-0.14447415,-0.008202182,-0.05617596,0.092985,0.037790686,-0.042867973,-0.20459123,0.44206077,0.20474307,-0.051591247,0.1700476,-0.18250017,0.37657902,-0.047941864,-0.2140926,-0.23443308,-0.23948029,0.16540222,0.053711873,0.0009920177,0.09192623,0.012509531,0.03451738,-0.09139763,0.09440013,0.3458898,-0.18354444,0.08266898,0.00861526,-0.06358768,0.29368636,-0.14894128,0.0932579,-0.23479138,-0.04977719,-0.24728398,0.058393504,0.004133453,-0.015176959,0.37983155,0.04535332,0.21099305,-0.15479967,0.09303039,0.019409617,-0.036801007,-0.26894766,0.093959734,-0.07199661,0.10458668,-0.06605816,-0.0607251,0.22736692,0.09679293,0.069007374,0.0071180076,-0.16646855,-0.017386308,0.11971134,0.061127562,-0.1539193,-0.07129889,0.36958352,-0.088430345,0.015162373,-0.014993188,-0.15268289,-0.42164883,0.13714726,0.28226888,-0.04463957,0.020495346,0.22665773,0.16681905,-0.036239963,0.09966882,0.060983457,-0.06779515,-0.011909463,-0.049859412,0.15937458,-0.14345,0.2678875,0.21535487,-0.105001666,0.1318651,0.13479385,-0.09643109,0.2783516,-0.2455503,0.11081516,-0.068655215,0.034557655,-0.017128754
1_11042_u,-0.22892307,0.11718555,-0.015307793,-0.05647045,0.09738169,0.062251996,-0.09238746,-0.20041285,0.008154372,0.017986177,-0.29730913,0.11446481,0.12532486,0.10300113,0.00742898,-0.20691489,0.03839277,-0.22500734,0.0855969,0.10407206,-0.03031983,-0.021063585,0.069873095,-0.05151325,0.1370343,0.045603562,-0.05440079,-0.04871878,0.06617379,0.022155095,-0.19811057,0.081353635,0.18351959,-0.09675455,-0.018164655,-0.051860858,0.18692882,0.029416496,0.060916364,-0.02762469,-0.050926805,-0.020095313,0.041049123,-0.022573434,-0.050785657,-0.09257473,-0.21599102,0.13047326,-0.018191969,0.053195503,-0.16327265,0.034444932,-0.33679178,0.21567981,0.111640595,-0.1497925,0.116796374,0.061879914,0.03300325,0.06873568,-0.081576444,-0.11358054,0.028496448,-0.15302087,-0.20246606,0.0976369,0.14238138,0.18625171,0.30504924,-0.18765263,0.22105646,-0.015834343,0.10316267,-0.079909585,-0.37785798,-0.05076477,-0.06005506,0.012881805,-0.056973148,0.052278996,0.046300676,-0.03748243,-0.035268825,0.22950856,-0.15552469,0.15331168,-0.0062511205,-0.018484939,0.35619757,0.11239862,0.08768081,0.037452836,-0.00033264383,-0.3708252,0.029495442,-0.07983323,-0.07321538,0.027902246,0.054536294,0.37953383,-0.071270816,-0.23445387,0.089497186,-0.18464527,0.061510444,-0.026833957,-0.047035884,0.06580302,-0.18805358,-0.12110057,0.009373555,-0.04522812,-0.1688974,-0.092367224,0.23155275,-0.11365831,-0.29123712,-0.039067384,0.09675101,0.025141804,0.07196092,-0.40088087,-0.28100115,0.12108429,-0.08127872,-0.10940633,0.26626834,0.22855027,0.19981241,-0.02647557,-0.072906815,-0.016459826,0.07044198,0.05782774,0.060372856,-0.0026244048,-0.064269386,-0.037883878,-0.037516918,-0.0120965075,-0.1261635,0.028377086,-0.17441481,-0.09484237,0.05914545,-0.108325504,-0.14647764,-0.13317959,0.03669898,0.051936932,0.18461542,0.16676448,-0.2863051,0.14511101,0.15980141,-0.17559214,0.20721832,0.15485261,-0.0026258223,0.008161336,0.035884604,-0.006544283,-0.06400309,-0.09264511,-0.033300187,-0.018454367,-0.029922903,-0.0822223,-0.26437566,0.45799947,0.147593,0.0053211576,0.16865866,-0.1824669,0.26242867,-0.11523066,-0.21287575,-0.113596894,-0.24512163,0.045131095,0.051651336,0.0034702152,0.0873219,-0.006653963,-0.010829517,-0.09287902,0.07812455,0.26961872,-0.10225614,0.08466294,0.040783,-0.023775607,0.14337455,0.045771863,0.050760187,-0.1576867,-0.02519987,-0.12950402,0.103704214,0.013770806,0.11049544,0.3220761,-0.0003428178,0.13843565,-0.15663266,0.11974754,-0.019765744,-0.12000413,-0.27355167,0.16167502,-0.04244934,0.057733502,-0.07880213,-0.10352409,0.11220427,0.04935221,0.068712875,0.055874724,-0.08938285,-0.027539868,0.098043285,-0.01251314,-0.10001687,-0.115049005,0.30435225,-0.059940375,0.03115332,0.0023299716,-0.107950784,-0.25229937,0.13458697,0.18399258,-0.07799454,0.008372892,0.12281113,0.1770376,-0.058945347,0.06929152,0.0740935,-0.032978024,-0.033234518,-0.1234607,0.08401642,-0.2094193,0.20889989,0.13393953,-0.073413335,0.14607544,0.08161586,-0.15347557,0.23627226,-0.19302015,0.16179535,-0.04524845,-0.047567222,-0.025111705
1_11046_u,-0.21794759,0.01663113,0.06020697,0.12130415,0.08003854,-0.0027483848,-0.15296237,-0.2212473,-0.049278863,-0.16855942,-0.20086987,0.2144094,0.048824504,-0.042094238,0.0006843243,-0.056183577,-0.008241956,-0.23139672,0.22053237,0.23604713,0.057629354,-0.2782479,0.20710032,-0.08927913,0.19156215,0.33999816,-0.347236,-0.04570752,-0.026173383,-0.26956883,-0.15977645,-0.095536396,0.16423757,-0.15253335,-0.1068392,-0.26524395,0.056547906,-0.071262784,-0.050774503,-0.1842945,-0.09820602,0.14143132,0.30525658,-0.1527617,-0.13539906,-0.08664757,-0.19498448,-0.35507244,0.03444251,0.22450106,0.037326884,-0.18367139,-0.27516535,0.20525506,0.02171438,-0.19491057,0.0037580163,0.031215563,-0.01949421,0.20562792,-0.135406,-0.11209457,0.068414144,-0.106942676,-0.08797797,0.29087278,-0.044343982,0.120987706,0.27575693,-0.17921917,0.2430234,-0.19165958,0.040385175,0.03106155,-0.22197023,-0.11318367,0.08741837,0.08750398,0.1646369,0.036517054,0.20862372,0.00446025,-0.25457954,0.09893532,-0.2621493,0.20623982,-0.124781884,-0.20890144,0.38228202,0.21050696,0.13743822,0.13477181,0.041211426,-0.4924372,0.09396106,-0.14672188,0.08954129,-0.12595285,0.09086802,0.31157082,-0.1634006,-0.13655186,0.07068311,0.0021347702,-0.12176689,-0.20169716,0.2668275,0.19002575,0.09079217,-0.19580771,0.2681976,0.16062196,-0.1296283,0.014428722,0.40081224,-0.07959113,-0.08467557,0.12162393,0.3418509,0.11339372,0.30121467,-0.38244408,-0.36697048,0.14870766,-0.25175476,-0.36638817,0.40468946,0.34879124,0.25487316,-0.0765348,0.14964823,0.012097928,-0.05955838,0.29596272,0.11309614,-0.2184813,-0.020742029,-0.11794523,0.024522848,-0.31653374,-0.007055547,-0.077906,-0.12372499,0.2655666,0.118098035,-0.09257352,-0.26723245,-0.12774546,0.015819503,0.15003677,0.07457389,0.114402525,-0.18828009,0.23455058,0.440689,-0.18006031,0.19309385,0.18801771,-0.07828159,0.2680016,-0.10004502,0.25039527,-0.3266723,-0.061759096,0.011791988,-0.017451243,0.096521646,-0.2545143,-0.24180011,0.22468996,0.4428607,-0.20125282,0.21913281,-0.17029423,0.40861532,-0.04132503,-0.33021984,-0.31814077,-0.22468968,0.1904561,-0.052556705,0.0006259032,0.1448612,0.037155285,0.14198564,-0.24901609,-0.037653085,0.52682394,-0.1534956,-0.01310706,-0.025106374,0.12338767,0.43141156,-0.35746247,0.18406963,-0.10156565,0.07433879,-0.3033991,0.02438725,0.14674485,-0.07715458,0.24396877,0.05562843,0.21663515,-0.3043763,-0.045379408,-0.10842941,0.09402974,-0.101612024,-0.076168075,-0.18631142,0.13070902,-0.11538583,-0.03206143,0.256555,0.07392676,0.18271957,0.1523198,-0.10699371,0.1118659,0.076195315,0.065600745,-0.059506085,-0.18641047,0.22617173,0.06638066,0.034762446,-0.039103393,-0.06973525,-0.37323877,0.03045086,0.07162514,-0.21836737,0.15903535,0.041385688,0.30554512,0.0023525192,0.16556452,0.100279644,0.13208263,0.23847714,-0.050279416,-0.06771876,-0.20645182,0.13679683,0.547671,-0.10872407,0.1916394,0.08689272,-0.15313736,0.23913355,-0.28079632,0.30035168,-0.28893876,0.12703684,0.06831435
1_11051_u,-0.28819522,0.017348373,0.090792656,0.09289328,0.1136926,0.03635165,-0.17296885,-0.18330394,-0.030120373,-0.19301462,-0.29234868,0.22537325,0.027274836,0.041467775,-0.011160774,-0.07141526,-0.019829853,-0.25849476,0.17314415,0.28767958,0.04214112,-0.3445703,0.18655312,-0.02958093,0.17830528,0.2708832,-0.28472728,-0.10088322,0.007393961,-0.23368347,-0.17872646,-0.061371412,0.1943305,-0.21676032,-0.17303829,-0.23498185,0.07186597,-0.07824236,-0.04611142,-0.13215819,-0.10462891,0.20567656,0.2530292,-0.10918548,-0.1472168,-0.096108034,-0.21559158,-0.2881371,0.033467393,0.20692496,-0.013463709,-0.17635643,-0.29023528,0.20009938,-0.0010165602,-0.21154658,0.028705908,0.041353654,-0.053218354,0.20191398,-0.05769003,-0.06693621,0.07900355,-0.020682955,-0.123276986,0.30119285,-0.036029965,0.13165551,0.29238877,-0.20962082,0.2777043,-0.14776282,0.023208966,0.032046344,-0.29439864,-0.06838267,0.031184101,0.17512964,0.16263676,0.039678928,0.16398981,-0.02337479,-0.3188752,0.16666429,-0.26885316,0.20807648,-0.16934735,-0.17206578,0.39200956,0.21330424,0.12062778,0.12890664,0.034793753,-0.55226755,0.051096436,-0.18347152,0.07160455,-0.15814541,0.046889562,0.2747602,-0.22579193,-0.19168659,0.053275444,0.06488361,-0.13645783,-0.18918878,0.21842805,0.1274059,0.05028205,-0.19757397,0.3085526,0.117510654,-0.19165146,0.090597205,0.37573043,-0.10010534,-0.08224444,0.08750622,0.34510303,0.103868626,0.28295863,-0.45878848,-0.40077028,0.10631058,-0.25751698,-0.31212467,0.38358435,0.32354304,0.24461725,-0.058950115,0.1801695,0.039873492,0.015460347,0.3218036,0.12498241,-0.10418061,-0.027244413,-0.09779746,-0.06743306,-0.2918574,-0.0060081384,-0.04521809,-0.1506282,0.28254768,0.13962513,-0.055720508,-0.2418187,-0.13139248,0.03743804,0.15433282,0.1182663,0.16086958,-0.1820618,0.25497273,0.4040787,-0.24877952,0.2714462,0.21819817,-0.06783668,0.20117716,-0.0806702,0.1383831,-0.3065806,-0.03393383,-0.008110068,0.049947605,0.13936388,-0.20626639,-0.2265877,0.28665575,0.3799765,-0.17533596,0.18821554,-0.17261538,0.44818828,-0.011218277,-0.28724712,-0.3593504,-0.24091096,0.21970938,-0.021891858,0.008938066,0.14928839,0.03440391,0.11905863,-0.20949845,0.032198157,0.50699186,-0.21307781,0.00852514,-0.066933386,0.061828133,0.4586031,-0.3930804,0.18239729,-0.18376324,0.035614233,-0.33801207,0.023940843,0.09417455,-0.10916674,0.30915782,0.048303735,0.24371432,-0.2523015,-0.019225746,-0.046187785,0.10903455,-0.14189732,-0.066097334,-0.16141653,0.11968366,-0.101843216,-0.0077999057,0.28480342,0.059076693,0.13845438,0.10972786,-0.14265867,0.043163735,0.129081,0.08690149,-0.12342087,-0.12679484,0.28968617,0.046017673,0.0007171303,-0.045401987,-0.11323013,-0.46668035,0.04123726,0.14991854,-0.15503597,0.14001516,0.17339984,0.25796565,0.015828317,0.1653127,0.06569588,0.048843127,0.18119293,-0.027360572,0.051023483,-0.17414156,0.21095371,0.4785126,-0.12796992,0.2096523,0.10156498,-0.09649758,0.25425085,-0.26866585,0.23927855,-0.23345327,0.14568792,0.04167488
1_11055_u,-0.1489142,0.024072586,-0.07742743,0.113733925,0.06693753,-0.035506178,-0.060867526,-0.0865061,-0.031634968,0.05309164,-0.31163105,0.22508267,0.09356024,-0.056516107,0.088405296,-0.09560014,-0.12441086,-0.06766883,0.13020478,0.33717838,0.0065202364,-0.17739533,-0.009600559,-0.012056547,0.070375815,0.26625523,-0.077433445,-0.08909779,0.110914044,-0.08225197,-0.1816309,0.06391531,0.1943165,-0.21013673,-0.17777531,-0.075940385,0.14991729,-0.16382997,-0.039112817,0.10839718,0.0015802786,0.1771792,0.15161948,-0.06174786,-0.118717745,-0.20749772,-0.18809786,-0.05798005,-0.00025125986,0.049175654,-0.10759592,-0.10397346,-0.16481297,0.17069547,0.034136165,-0.23956172,0.13359441,0.018510817,-0.006042103,0.15541452,-0.013032737,-0.06064825,0.14922276,0.11271574,-0.062305685,0.311076,0.05051762,0.070372336,0.25149232,-0.023403518,0.16747752,-0.04816247,0.05480659,-0.0581381,-0.122131646,-0.1094532,-0.024608865,0.18041287,0.007490666,0.04391248,0.12187741,0.10708354,-0.22946993,0.074867584,-0.08037159,0.07168173,-0.18500467,-0.130045,0.27843195,0.24562101,-0.098478176,0.019756874,0.013863911,-0.32613865,-0.0074543306,-0.22845188,-0.024455376,-0.1414014,-0.04377308,0.17193525,-0.010594582,-0.27766213,0.06554528,0.09560478,0.01426212,-0.10368439,0.26001367,0.06315554,-0.062841065,-0.10943426,0.12564881,0.062131602,-0.0624232,0.095423386,0.41314435,-0.004004852,-0.20941415,0.15848778,0.31074783,-0.07829231,0.12772517,-0.43652007,-0.2807496,0.08573564,-0.1684392,-0.23170924,0.22176662,0.3138226,0.044579025,-0.051628895,0.047463972,-0.00021248609,-0.049760785,0.21743765,0.09777923,-0.012879518,0.035116192,-0.01896075,0.02591685,-0.23629986,-0.0608758,0.18112163,-0.2065113,0.1278729,0.07280649,-0.057823725,-0.25643155,-0.09467257,0.12197011,0.070194475,0.036248565,0.025913198,-0.07429921,0.3049473,0.25285703,-0.14806002,0.32675406,0.1394339,-0.092773475,0.07867597,-0.14995812,-0.040942192,-0.2775136,-0.015667096,-0.07187723,0.14854696,0.09043108,0.009009835,-0.1421517,0.07891357,0.2531961,-0.14395116,0.16838172,-0.14565757,0.31279442,0.004202425,-0.14342849,-0.28300098,-0.11199271,0.17427306,0.008685159,0.09384459,0.15430138,0.15902951,0.1295768,-0.13964395,-0.02585336,0.30881706,-0.12078514,-0.0072816587,-0.056626942,-0.064455986,0.2707162,-0.18695186,0.014625914,-0.16157685,0.0013814993,-0.31563893,0.12537281,0.02056165,-0.185725,0.23776324,0.069477476,0.14586268,-0.1573124,0.0483333,0.050953668,0.04277752,-0.15073834,0.019488607,-0.08078935,0.15724541,-0.0062668608,0.001286976,0.3163875,0.06262923,0.21259002,-0.0469674,-0.099587195,-0.13553096,0.08682918,-0.032879923,-0.009499118,-0.074085675,0.34290597,-0.1306365,-0.049699295,-0.07135978,-0.0625393,-0.3173606,0.109753095,0.26344505,-0.025052845,0.06158906,0.19088441,0.100329556,0.034268077,0.007954682,0.04914898,0.10522347,0.02591677,0.08221017,0.13795163,-0.13244423,0.047732133,0.2982007,-0.084736936,0.01514667,0.036771085,-0.10825695,0.3093336,-0.23075986,0.04727624,-0.031747885,0.101219885,0.042876143
1_11098_u,-0.023697888,0.09337977,-0.20022963,0.067462645,0.0283305,-0.14856759,-0.020837363,-0.0872043,-0.04325685,0.22851637,-0.26037765,0.18761252,0.123081066,-0.21407703,0.068397515,-0.18029194,-0.1520032,0.10815366,0.19611569,0.29758045,0.029239932,0.088146165,-0.082187645,-0.15934217,0.058578122,0.22995567,-0.05110212,0.011076229,0.0395136,-0.030932931,-0.28613958,0.11234043,0.104392685,-0.063570976,-0.09682494,-0.015449682,0.16005225,-0.1790417,-0.0891328,0.12750463,0.059891857,0.03375231,0.14517166,-0.091998994,-0.07357848,-0.18784831,-0.15657404,-0.037818234,-0.015434682,-0.01239301,-0.0025918887,-0.08359208,-0.13093476,0.24733381,0.12939012,-0.17817084,0.19743629,-0.0016432004,0.0066418983,0.15896848,0.0013006956,-0.13213947,0.18230338,0.004568142,-0.08302283,0.29822233,0.096635185,0.03733413,0.27764297,0.07863196,0.16738786,-0.14381461,0.091275,-0.14051001,-0.033537038,-0.17028652,-0.011235282,0.014982933,-0.037242837,0.017351193,0.12452767,0.19664568,-0.040741127,-0.007182614,0.03254822,0.018580813,-0.08631146,-0.14006655,0.19449143,0.2832956,-0.08358133,0.008767483,0.025678767,-0.13690363,0.011547747,-0.13352041,-0.0583225,-0.104234196,-0.047174852,0.20266543,0.08637943,-0.21372874,0.03392309,-0.17785555,0.10725713,-0.09449961,0.3268004,0.14769523,-0.05044217,-0.038515,0.074647464,0.104518704,0.025930066,-0.11188855,0.39862046,0.04545358,-0.2825304,0.22429048,0.18929884,-0.09597295,0.06808312,-0.3257931,-0.09235908,0.22913364,-0.030387206,-0.31470558,0.24387114,0.36116967,0.11189268,0.0018820157,-0.099061154,-0.091017485,-0.06362058,0.068738304,0.04864995,-0.15879351,0.035152044,-0.06026408,0.13465391,-0.3447798,-0.14523731,0.11791195,-0.22958381,-0.004463577,0.036473792,-0.16000435,-0.2151392,-0.09162057,0.094061814,0.0054855174,-0.012388268,-0.16264097,-0.12896116,0.28272772,0.22309743,-0.017523024,0.14971055,0.014155278,-0.036766034,0.070910595,-0.12880577,0.007975369,-0.20296751,0.052440014,-0.021724222,0.018058835,0.04294575,-0.005122838,-0.09214908,0.019018993,0.24415219,-0.12177986,0.15252985,-0.11360311,0.20946681,-0.050643712,-0.04723713,-0.19505829,0.06586352,0.1515168,-0.046803273,0.05666184,0.17457877,0.18177938,0.1511666,-0.08907077,-0.047127288,0.33009765,-0.06560587,0.07028037,0.036631163,-0.0615949,0.053891458,0.041160323,-0.058048476,-0.030022565,0.01222733,-0.20434685,0.1513928,0.0961928,-0.15222435,0.09479975,0.063446596,0.029862816,-0.21547544,0.089752726,0.028233519,0.02685954,-0.15405391,0.020725003,-0.028067863,0.1793509,-0.005178388,-0.016089285,0.2818822,0.091078594,0.27207085,0.045246936,-0.003026353,-0.022610668,0.026751885,-0.037153035,0.2052373,-0.16230492,0.2859163,-0.13366815,-0.033833947,-0.039253205,-0.0032573566,-0.07998317,0.09569868,0.24381912,-0.07193221,0.05078746,-0.03550275,0.10027231,-0.051320203,-0.028834617,0.013991316,0.16625047,-0.0059845583,0.023778876,0.06814493,-0.1739525,-0.16290522,0.36615527,0.04546031,-0.0742188,0.046893444,-0.2278881,0.28423104,-0.2875688,0.094296314,-0.03547235,-0.014730453,0.059219133
1_11120_u,-0.044751268,0.10561492,-0.19404219,0.07218789,0.0586692,-0.058813877,-0.098985985,-0.043516364,-0.05071303,0.1709149,-0.32414064,0.15698938,0.14896014,-0.08757692,0.09829155,-0.11838281,-0.13801558,0.07414477,0.10536058,0.31816912,0.008137899,0.014419192,-0.13735345,-0.09932379,0.08927806,0.13801543,0.05857081,-0.10737548,0.15029351,0.008900865,-0.2160335,0.17238416,0.17211775,-0.15763019,-0.13638394,0.0015524531,0.23602593,-0.14843188,-0.062859975,0.19513622,0.10651336,0.047362834,0.079706766,0.005247922,-0.08693426,-0.18408756,-0.17782941,0.12267428,0.004474191,0.034574103,-0.14373362,-0.087555796,-0.13731393,0.25699815,0.10456138,-0.22102885,0.17484668,0.016794993,0.057545353,0.11715257,0.006853922,-0.15101668,0.116062544,0.09442683,-0.10107594,0.277943,0.21265975,0.038870886,0.3008034,0.08952228,0.15726669,-0.02381563,0.112530135,-0.08114635,-0.18666998,-0.19115978,-0.045644935,0.12798096,-0.090013154,0.029406836,0.10844654,0.1248494,-0.13114272,0.035743147,0.010980414,0.060781755,-0.15005794,-0.12076863,0.18916562,0.2942105,-0.13527304,-0.03158986,0.029667897,-0.18137379,-0.030535433,-0.15226558,-0.09624543,-0.0884338,-0.058491338,0.2129019,0.07316165,-0.31807706,0.09041651,-0.043014515,0.12982723,-0.049092647,0.21522231,0.06595697,-0.059655603,-0.0056734663,-0.017445186,-0.0063552647,0.028601045,-0.006994468,0.37614498,0.027881319,-0.29113942,0.15338194,0.19995268,-0.20440197,0.015021741,-0.4323659,-0.21864776,0.14379953,-0.06630223,-0.2356735,0.21002328,0.39675197,0.024370166,-0.060910642,-0.04452148,-0.04950747,-0.03735904,0.10976656,0.055998456,-0.007714547,0.033114392,0.021944504,0.042721163,-0.22828393,-0.17267795,0.2129699,-0.19996122,-0.040929582,0.013457526,-0.14638737,-0.2342398,-0.13832662,0.13302976,0.0149703985,-0.0036024053,-0.03144792,-0.109048724,0.28910482,0.2170188,-0.10782399,0.2761368,0.064098,0.007873684,0.04068149,-0.13951014,-0.090028435,-0.16019289,0.011588573,-0.10540078,0.033073418,0.08536772,0.082299076,-0.17885575,0.09746867,0.21110235,-0.11408984,0.13327079,-0.16406192,0.18899158,-0.0019860703,-0.09427533,-0.19186392,-0.052299906,0.16806099,0.045055002,0.100496314,0.12226788,0.21245575,0.13829274,-0.10503816,-0.058434833,0.27948967,-0.13879906,0.031741817,-0.004178673,-0.20894705,0.075047955,0.023562415,-0.09336557,-0.13673392,-0.04743504,-0.1957232,0.23940824,0.00851693,-0.16705108,0.19104923,0.08657701,0.10554234,-0.10719245,0.13853829,0.06689588,-0.058049906,-0.20622252,0.059272148,-0.029939622,0.18260247,-0.0008153286,0.0037741677,0.2471814,0.050035585,0.2666105,-0.041735273,-0.008862026,-0.12544672,0.075505905,-0.084978126,0.08911493,-0.15163933,0.34715733,-0.22389153,-0.017189045,-0.055179756,-0.15578644,-0.18693833,0.1877952,0.28299457,-0.017394222,0.03289288,0.11753481,0.015477063,0.033999767,-0.021224132,0.061673272,0.030071253,-0.04408908,0.120599665,0.14543916,-0.18045013,-0.016580205,0.21456301,-0.006915644,-0.09452423,0.042814013,-0.17933558,0.32279286,-0.2784237,0.01908281,0.057973363,0.03484387,-0.026369104
1_11177_u,-0.35944888,0.00925942,0.048827495,-0.019035365,0.00079162087,0.03547573,-0.012974163,-0.34459195,0.028382147,-0.052192546,-0.179215,0.2443965,0.035515055,-0.0126687735,-0.089732446,-0.1963522,0.024553586,-0.22645597,0.13818936,0.2246946,-0.081579246,-0.23145278,0.2137759,-0.03856696,0.108257346,0.21748905,-0.34271905,-0.065442525,-0.09438516,-0.18622664,-0.2078965,-0.11478477,0.17375614,-0.050837416,-0.12716661,-0.14104949,0.0767208,-0.053295027,0.00029716268,-0.25520566,-0.10715703,0.14620185,0.3523285,-0.077505566,-0.09382166,-0.041234415,-0.32316706,-0.32201448,-0.023478186,0.10463935,-0.00060459937,-0.13071862,-0.35302684,0.12069819,0.06628891,-0.15889478,0.078922264,-0.03226347,0.000770491,0.13063149,-0.086980574,-0.06083948,0.14666268,-0.221138,-0.120162286,0.17125504,-0.14257653,0.09103856,0.27284998,-0.18139161,0.22698538,-0.295457,0.012713784,-0.07808546,-0.13472,0.043682978,0.020465523,-0.016777031,0.07796317,0.08626698,0.11229824,-0.01220673,-0.14836882,0.12329384,-0.28118512,0.095749356,-0.060561396,-0.122416906,0.33560306,0.04188154,0.1295458,0.18776971,0.028033137,-0.49295607,0.11183291,-0.12129277,0.03486329,-0.12341147,0.049610406,0.3053359,-0.23808765,-0.016344896,-0.033136643,-0.20305867,-0.087662734,-0.121571384,0.26598108,0.10402899,0.020707777,-0.17107855,0.25581118,0.07721741,-0.20344727,-0.12328521,0.29469284,-0.15527225,-0.20024303,0.045044143,0.2285728,0.19637544,0.15827334,-0.27469307,-0.29063892,0.17396592,-0.17926465,-0.21369289,0.3676207,0.22036162,0.32606784,-0.08035934,0.073908985,-0.059882212,0.03477719,0.2576232,0.09922467,-0.15376289,-0.057973564,-0.24368978,0.015558029,-0.29436955,-0.019004976,-0.10127151,-0.23604558,0.10874448,0.1321371,-0.09815159,-0.2105789,-0.17173663,-0.11072018,0.090418726,0.0757906,0.04781041,-0.26109365,0.12627696,0.31020036,-0.16281898,0.074722156,0.109169535,-0.13258524,0.097514406,-0.068600036,0.12688787,-0.2314189,-0.082683966,0.0011330575,0.05636366,-0.015431306,-0.2329165,-0.08738195,0.2605209,0.2453486,-0.12370285,0.16230915,-0.085047476,0.44279408,0.0036127146,-0.24772556,-0.26184785,-0.20965128,0.09121036,0.018956987,-0.030377695,0.10563202,-0.027981972,0.040295344,-0.17845805,0.23782454,0.41777632,-0.052666582,0.17181253,-0.018883834,0.11324874,0.2850429,-0.2780316,0.245989,-0.100535326,0.009592883,-0.28477305,0.0204649,0.21278988,0.07534932,0.09766229,0.059800744,0.20105743,-0.37924644,0.05085205,-0.029106397,0.0734533,-0.2070612,0.0389358,-0.14533739,0.09207146,-0.14505564,-0.08137252,0.15820105,0.16111116,0.02054165,0.1337384,-0.15324683,0.095303945,0.07368584,0.09217381,-0.0020001552,-0.023792803,0.26384854,0.12745512,0.031515013,-0.11243599,0.06768576,-0.29432684,-0.06167805,0.12259864,-0.09160912,0.12001143,0.0007190839,0.31859228,-0.10077261,0.09337207,-0.036871012,0.18854402,0.15212837,-0.14257964,-0.08764704,-0.084329985,0.14358148,0.36023304,-0.12770557,0.2432562,0.09746641,-0.1514232,0.22832182,-0.290685,0.30381647,-0.25050864,0.0465307,0.098034084
1_11201_u,-0.06654714,0.11095524,0.010376521,0.05182144,0.10514517,-0.02626187,-0.18379895,-0.113180354,-0.03236329,-0.04242415,-0.16545972,0.018728217,0.06546287,-0.013117817,0.002881971,-0.088889316,-0.028710771,-0.16283716,0.18301812,0.10104393,0.07252517,-0.03398886,0.09916067,-0.15244661,0.18542969,0.11381916,-0.15746273,0.018907897,0.040161487,-0.08278426,-0.14402406,0.04881981,0.12726189,-0.05510466,-0.00093298405,-0.16522972,0.08283841,-0.030729366,-0.006844704,-0.10883939,-0.08953201,-0.06763259,0.07476785,-0.13131244,-0.076871745,-0.060737427,-0.11505016,-0.088815704,0.0065478147,0.14860928,0.0007575559,-0.0599468,-0.19985119,0.25983587,0.08035627,-0.12930323,0.03337271,0.0640067,0.07360838,0.12627824,-0.10819147,-0.21092819,-0.025731582,-0.1588582,-0.1496944,0.1332412,0.11788096,0.103307165,0.22249453,-0.10040919,0.19145992,-0.0823305,0.04129063,0.008678383,-0.28820458,-0.108537056,0.015571052,-0.040909182,0.081836045,-0.022773791,0.12613907,-0.015327838,-0.080257915,0.12830761,-0.16070269,0.18645664,-0.018767042,-0.14212508,0.2801331,0.20182596,0.16579023,0.030238708,0.037317622,-0.26639044,0.09580024,-0.048931297,-0.013534549,0.011577082,0.118828155,0.31859645,-0.014878052,-0.15662688,0.07686356,-0.087025575,-0.03542116,-0.1206909,0.06795093,0.17128497,-0.010546633,-0.09993116,0.050030798,0.09236541,-0.055399835,-0.028116172,0.31576198,-0.021440102,-0.11701419,0.049616616,0.17631121,0.032911368,0.25422764,-0.29353622,-0.20920439,0.16068988,-0.07831675,-0.28868052,0.24129462,0.29043818,0.20398645,0.013480524,-0.015730185,-0.028429126,-0.028775427,0.05483612,0.020673158,-0.21364959,-0.018050594,0.017952828,0.037733804,-0.14378916,-0.08776409,-0.011838819,-0.060753334,0.025917316,0.020419998,-0.096825,-0.13577321,-0.07589048,0.038851526,0.04457296,0.09145247,0.07580588,-0.2473573,0.16353773,0.2732962,-0.1279833,0.121254385,0.112722635,-0.014967796,0.176065,0.0010713049,0.15022321,-0.12473357,-0.070080355,0.00785725,-0.098135844,0.070713565,-0.15498708,-0.27026686,0.29178807,0.28196657,-0.09478259,0.16247962,-0.17157464,0.18176723,-0.07407878,-0.21183582,-0.117213205,-0.1921004,0.12491057,-0.026659722,0.049664762,0.071136236,0.033509176,0.12632124,-0.18553476,-0.081093326,0.33807898,-0.112168886,0.018152533,0.020741275,0.014770025,0.2075324,-0.053954314,0.08081273,-0.025378397,0.065640636,-0.091088906,0.11074787,0.082343005,0.01106438,0.23356171,0.033869114,0.14146724,-0.21815692,0.024054931,-0.09036002,-0.038991783,-0.10304234,0.011476256,-0.073549986,0.14683942,-0.059914835,-0.076390386,0.09511043,-0.015749658,0.19425897,0.14866209,-0.01639863,0.07510777,0.073307574,-0.026858741,-0.030559314,-0.2176749,0.1424009,-0.019010138,0.010994816,0.03142641,-0.10639477,-0.16416864,0.1080923,0.045280285,-0.20170747,0.08244743,0.004105153,0.16584347,0.008985553,0.104898535,0.099347696,0.012031547,0.08408447,-0.05219173,-0.00876437,-0.25546265,0.092112705,0.37125152,-0.035468888,0.12707327,0.0648976,-0.18408476,0.16223419,-0.20422702,0.19795682,-0.110809945,0.021454234,-0.014607442
1_11224_u,-0.11809478,0.026066927,-0.029379725,0.15828376,0.07299023,-0.06719058,-0.123509526,-0.06742519,-0.037446905,-0.0133735975,-0.27318457,0.18418165,0.078269415,-0.07873066,0.07973379,-0.04213782,-0.12652373,-0.108747296,0.19532152,0.33640018,0.050571777,-0.23598857,0.06557827,-0.06364854,0.10750554,0.3218076,-0.1780958,-0.05081768,0.06931379,-0.15462457,-0.18235764,0.011966902,0.16470955,-0.2104855,-0.16603154,-0.16842222,0.060168196,-0.16516082,-0.061066747,0.020773603,-0.026716832,0.17118461,0.19265914,-0.122838676,-0.1429443,-0.16912878,-0.16344543,-0.20402382,0.018775566,0.1071275,-0.0024345152,-0.1462802,-0.15834866,0.20618959,0.0048489296,-0.20984271,0.08393941,0.03869947,0.002909282,0.190532,-0.036426347,-0.08810283,0.13378882,0.07644434,-0.046794653,0.3646485,0.011541853,0.06342113,0.24147747,-0.053023484,0.17728947,-0.08787026,0.03774398,-0.011155971,-0.1473765,-0.1268287,0.028190417,0.16852593,0.09573447,0.034308877,0.17417373,0.08367095,-0.28033856,0.031867743,-0.14853121,0.15084071,-0.19805905,-0.18011136,0.28187624,0.30994838,-0.031500973,0.035148304,0.019896766,-0.3556818,0.01548393,-0.20974188,0.03851118,-0.15356933,-0.007283786,0.19021584,-0.021566233,-0.24390395,0.066914044,0.10235166,-0.051285286,-0.15770932,0.30181295,0.1413569,0.0005823124,-0.14822346,0.18916343,0.12630059,-0.05767944,0.12871821,0.45524722,0.0031107895,-0.113171555,0.19612888,0.34635645,-0.057652842,0.23006797,-0.4183177,-0.30081043,0.1233254,-0.19922109,-0.335872,0.27769983,0.3387544,0.13013434,-0.027413175,0.10220796,0.031088043,-0.086860545,0.24405093,0.10735712,-0.116126895,0.05165268,-0.01857177,0.029458374,-0.31455952,-0.025305111,0.09327943,-0.15055946,0.22924791,0.10320716,-0.06023074,-0.27083328,-0.068156414,0.12109923,0.08399929,0.043131273,0.045899816,-0.08426653,0.32255268,0.35537657,-0.12098267,0.29592133,0.16436198,-0.07891943,0.18790245,-0.15433112,0.06905591,-0.32919413,-0.023319252,-0.022278154,0.09142854,0.1528522,-0.08681866,-0.18837129,0.0575578,0.34548324,-0.20855425,0.21073428,-0.17661577,0.31119028,-0.010031359,-0.16843338,-0.3125839,-0.11815196,0.19082975,-0.024762122,0.10014367,0.17990658,0.14174552,0.15541497,-0.20649233,-0.09719034,0.41851005,-0.15020403,-0.040621486,-0.059706863,0.008746609,0.3693678,-0.27136198,0.061639894,-0.10040367,0.033902135,-0.308094,0.088940375,0.05804006,-0.19776003,0.22592978,0.071501814,0.14889124,-0.18830852,-0.016331358,0.008973405,0.11311104,-0.06299887,-0.074904695,-0.103333406,0.18876463,-0.035756808,0.0027588853,0.29861498,0.021654226,0.25714418,0.029905776,-0.0983603,-0.04512604,0.096153,0.0037791529,0.0010835305,-0.13059883,0.2479467,-0.06728356,-0.036475807,-0.048699904,-0.075153515,-0.33601618,0.05531777,0.21483599,-0.12953892,0.10696044,0.16351381,0.16199748,0.05120256,0.049063466,0.086016014,0.13571788,0.11087185,0.063742496,0.08301156,-0.17187053,0.021210272,0.4519887,-0.08513684,0.059168566,0.024645522,-0.11823397,0.2742807,-0.22923978,0.13061513,-0.13119277,0.12902716,0.053570982
1_11232_u,-0.1686098,-0.006639776,-0.19101997,-0.050435018,-0.054127313,-0.14617084,0.22504516,-0.29588243,-0.005273156,0.3719368,-0.26583079,0.31777692,0.08197549,-0.23524204,-0.006761522,-0.33427995,-0.1638348,0.067773364,0.2929116,0.30370876,-0.04692244,0.19148593,-0.09719593,-0.03732797,0.023978477,0.2814603,-0.15151954,0.18653579,0.039387133,-0.08135982,-0.35882947,0.010227582,0.18240093,0.14078258,0.033729088,0.04283165,0.22841488,-0.20779805,-0.087333016,0.07710405,-0.07691494,0.024658814,0.22158399,-0.20603485,-0.0351247,-0.3858884,-0.22264846,-0.047841344,-0.095308125,-0.13946746,0.09646982,-0.016737323,-0.34885564,0.15869747,0.28080547,-0.18667038,0.44010884,-0.116919495,-0.12646784,0.17262319,-0.068688795,0.009096533,0.32424605,-0.17626433,-0.084408745,0.21072522,-0.06349094,0.17063706,0.30107704,-0.0118038,0.17639251,-0.2550029,0.09940928,-0.2739043,0.18521814,-0.13561769,-0.0073584467,-0.19556145,-0.038562685,0.09463445,0.15077385,0.29912558,0.2732503,0.074607626,0.07981957,-0.10125204,0.020711323,-0.11125296,0.23620167,0.060879827,-0.023417283,0.03516936,0.0043566353,-0.20124717,-0.058685597,-0.08139566,-0.0048702043,-0.0974712,-0.06007619,0.32578117,0.08441769,-0.16700262,-0.057024073,-0.39986482,0.21920764,-0.02371358,0.28219384,0.0547799,-0.19073854,-0.14996345,0.20804743,0.096869245,-0.12407961,-0.3153756,0.34507903,-0.08813846,-0.40223765,0.2897208,0.21123767,0.18432008,-0.12574323,-0.22267151,0.064804874,0.32751018,-0.040502768,-0.26354545,0.39461446,0.28082833,0.124047615,-0.0023187608,-0.27022624,-0.35625917,-0.028909747,0.028044557,-0.008359507,-0.21897566,-0.034779653,-0.19537716,0.3226552,-0.3707946,-0.20027986,0.049709626,-0.39711997,-0.15862688,0.03960181,-0.16627575,-0.3077755,-0.10643919,0.022304898,0.1324772,-0.0063107456,-0.37642342,-0.22532606,0.16781074,-0.0003929943,0.0018141024,-0.026867876,-0.0497099,-0.27530703,-0.10783813,-0.031172926,-0.06672941,-0.26869124,0.048822034,0.036634218,0.06872985,-0.17236836,-0.15715936,0.017842857,0.13140996,0.25478703,-0.009556214,0.16955213,-0.032657016,0.34949875,-0.13362697,-0.08612754,-0.28223234,0.15288566,0.046951026,-0.09133341,-0.051414203,0.29964885,0.12838598,0.16814639,0.030097619,0.15334174,0.25739205,0.20846212,0.15564345,0.0755101,0.17626753,-0.091446005,0.13651489,-0.06308061,-0.06704172,0.0062764236,-0.348574,0.09018828,0.20637555,0.010173886,0.10707512,-0.052385714,-0.08536514,-0.35885248,0.19517942,-0.088638626,-0.03318145,-0.34041652,0.16761994,-0.011585255,-0.024767091,-0.027639275,-0.14348112,0.420935,0.23130587,0.07993485,-0.01998267,0.026584862,-0.068796955,-0.016662877,-0.13035761,0.23150323,0.0006797846,0.37115043,-0.04901753,0.04249021,-0.08711337,0.30330458,-0.0237252,0.055791926,0.29182228,0.1001184,0.103112675,-0.21115437,0.27642772,-0.2108572,-0.07667817,-0.124413274,0.35102493,-0.02633126,-0.10236211,0.015001436,-0.15949321,-0.21167126,0.3230804,0.096650474,0.030243212,0.030083707,-0.2920828,0.4081292,-0.22686815,0.17475718,-0.032788288,-0.1786644,0.21102642
1_11236_u,-0.020310512,0.11808934,-0.16883889,0.15765397,0.13341852,-0.10538145,-0.22928293,0.028511161,-0.071785286,0.1112681,-0.39685127,0.13536084,0.15687118,-0.066971265,0.1409715,-0.07286154,-0.2035315,0.058336843,0.14998971,0.45043525,0.043441772,-0.08987076,-0.14984682,-0.12798086,0.14253227,0.16349761,0.050478447,-0.1642611,0.17939918,-0.025700206,-0.2795568,0.19472249,0.23266993,-0.28328887,-0.23252268,-0.078249425,0.21546142,-0.18934874,-0.13929017,0.24389878,0.096281014,0.119806625,0.09377638,0.009682518,-0.15092675,-0.19655502,-0.18711403,0.100047305,0.019059716,0.08283794,-0.1085931,-0.15004931,-0.12007151,0.38777724,0.074904054,-0.2840047,0.1608003,0.05754338,0.11723503,0.18458241,0.058643337,-0.15991858,0.11885782,0.22503567,-0.10417986,0.40791187,0.25364187,0.023746705,0.3642552,0.11440678,0.20076625,0.027545413,0.08113298,-0.0146633005,-0.28048974,-0.25193635,-0.057735324,0.24525912,-0.038701218,0.022350075,0.1774125,0.09333116,-0.27980307,0.018996388,-0.051774777,0.13563079,-0.27955195,-0.21472836,0.20273332,0.45150182,-0.14075251,-0.076123774,0.08954277,-0.27525637,-0.055649437,-0.21132846,-0.10051753,-0.1610622,-0.09238428,0.21424928,0.05694173,-0.44496727,0.12130373,0.051634677,0.09995015,-0.12448793,0.25675222,0.09934766,-0.024167834,-0.027630527,0.045002658,0.03841601,0.0345372,0.14592396,0.5112423,0.03056859,-0.21969877,0.20997246,0.31803924,-0.3053813,0.13897465,-0.57056737,-0.32596922,0.15033804,-0.12336769,-0.35436234,0.25647518,0.520089,0.03450317,-0.033475976,0.050275087,0.0020315733,-0.054222364,0.14487751,0.053053856,-0.040802613,0.05344221,0.11128491,0.0031633608,-0.32762796,-0.2306854,0.23970294,-0.19265406,0.08378377,0.061920684,-0.15116799,-0.31924042,-0.16817687,0.20144959,0.017048953,0.0203657,0.023568485,-0.06552253,0.45453,0.32070774,-0.16217051,0.39859498,0.12483733,0.030069798,0.14738439,-0.20751046,-0.085141614,-0.2562513,0.030065624,-0.15067002,0.034982175,0.20195512,0.0615375,-0.28619063,0.064590625,0.3435588,-0.21474679,0.21857224,-0.26559472,0.22899528,0.0016439978,-0.06746051,-0.3037777,-0.08203001,0.26124892,0.052174736,0.16947286,0.17011099,0.29609784,0.19329429,-0.21024905,-0.14015642,0.39884976,-0.26097837,-0.032476928,-0.06361908,-0.268656,0.25973192,-0.064932525,-0.08756699,-0.18251352,-0.06273692,-0.24686773,0.26891237,-0.041537486,-0.28132045,0.2490921,0.0991103,0.17512348,-0.06922732,0.09954895,0.094531134,0.01776301,-0.17809667,-0.051595666,-0.03570999,0.24812399,0.007563894,0.06739562,0.32545587,-0.031409603,0.37815157,-0.07172112,-0.050170537,-0.14047001,0.16061929,-0.09036,0.062025856,-0.18670355,0.37512246,-0.27039367,-0.057578214,-0.04129752,-0.27958947,-0.3080315,0.2298185,0.37905988,-0.082187094,0.08478727,0.26782805,-0.012979773,0.12711778,-0.011707378,0.12888478,-0.016781084,-0.012523501,0.23863034,0.27466097,-0.22987278,0.0077220895,0.3517786,-0.04109701,-0.07016098,0.014224179,-0.16187894,0.36048675,-0.35243848,-0.0015777597,0.040517587,0.1548563,-0.052990448
1_11242_u,-0.14394315,0.00010314323,-0.20611548,-0.035833277,-0.0540501,-0.15821373,0.22352414,-0.27396718,-0.025473783,0.37138996,-0.28456685,0.31056556,0.09242388,-0.2433724,-0.012911287,-0.33189687,-0.1597145,0.0925315,0.28791317,0.29623756,-0.033137947,0.2210658,-0.12741011,-0.05478841,0.035138726,0.26582995,-0.12661752,0.18735366,0.061792042,-0.06945204,-0.35380396,0.02118194,0.17454012,0.13941151,0.047785427,0.05551964,0.24758327,-0.21215712,-0.09677344,0.10112553,-0.057056006,0.007980292,0.20124345,-0.19652846,-0.035254475,-0.4020298,-0.20479663,-0.016005892,-0.08829518,-0.14711452,0.083538525,-0.01902772,-0.3324238,0.17235224,0.28713766,-0.18675868,0.43961334,-0.10260089,-0.14538567,0.17727397,-0.07154363,0.0043481695,0.31406695,-0.1540175,-0.07897903,0.21002996,-0.009016986,0.16753511,0.30628815,0.00431215,0.18268012,-0.23756051,0.11024406,-0.27781618,0.16952643,-0.15820919,-0.00919765,-0.18930005,-0.054097738,0.08612877,0.1590386,0.31670284,0.27858144,0.07022591,0.1056667,-0.09750467,0.023285253,-0.10827523,0.23050904,0.07682882,-0.031486668,0.029893069,-0.0025534637,-0.1723188,-0.058189332,-0.08905815,-0.0068322564,-0.08425934,-0.0575442,0.32115552,0.10572102,-0.17962028,-0.042292297,-0.38371664,0.23807393,-0.021015689,0.272387,0.04860878,-0.18939209,-0.1242216,0.17785656,0.0891036,-0.10549786,-0.3095786,0.3452754,-0.069282,-0.40839934,0.28483027,0.18899128,0.16447343,-0.13441686,-0.23621698,0.075970404,0.32324836,-0.021529583,-0.27000114,0.3980144,0.2959605,0.11177366,0.0010186437,-0.28881285,-0.368028,-0.019390907,0.035471536,-0.009534357,-0.20520182,-0.04082404,-0.183652,0.32941097,-0.37247306,-0.21352534,0.06531741,-0.37579283,-0.16953807,0.014275742,-0.16464065,-0.29724383,-0.119691946,0.039653525,0.13082148,-0.012735798,-0.3842516,-0.22220038,0.1794257,-0.013083376,0.0015376825,-0.017379355,-0.059685465,-0.24862054,-0.109863184,-0.021621985,-0.07940352,-0.25886783,0.06334823,0.033668026,0.06172837,-0.16209714,-0.13277017,0.013198542,0.1241136,0.2558035,-0.008086786,0.1474375,-0.034726724,0.32648745,-0.12530352,-0.08836251,-0.27701294,0.16927966,0.060275435,-0.10113617,-0.058910776,0.2894235,0.13656211,0.18960837,0.032708112,0.12407471,0.24168919,0.19160318,0.14976399,0.07017558,0.14195715,-0.10775124,0.1480892,-0.086479984,-0.07567776,0.0013926089,-0.35302556,0.11063733,0.1882786,-0.008355239,0.12069044,-0.042368498,-0.09793513,-0.3382542,0.20620795,-0.09354384,-0.05179701,-0.34989765,0.1728706,-0.015058339,-0.022902597,-0.021870954,-0.13520244,0.41547757,0.22336712,0.09021093,-0.027305102,0.053426027,-0.071651034,-0.020205783,-0.13907662,0.23443548,-0.026679644,0.38831052,-0.078063905,0.055332817,-0.0781132,0.2789529,-0.01551111,0.080148146,0.28508624,0.098213516,0.09325742,-0.22451936,0.25150314,-0.20693696,-0.06747643,-0.12370391,0.33070683,-0.032808613,-0.08988674,0.025716726,-0.1652205,-0.23051234,0.31496128,0.11676152,0.0052535622,0.04784826,-0.29561564,0.4086743,-0.23234402,0.15211132,-0.012730265,-0.18637858,0.19558895
